-0.125111
-0.0324718
-0.17218
0.149502
0.21072
0.102538
0.0190715
-0.0247186
-0.10119
-0.136015
-0.15381
-0.144676
-0.0643265
0.130606
0.00560927
-0.195765
-0.106934
0.109933
0.00284313
-0.0820058
-0.194252
0.20444
-0.185696
-0.107342
-0.0933001
-0.0661726
-0.0182829
-0.19009
-0.0173771
-0.0977669
-0.0933815
-0.00149297
0.132679
-0.16235
-0.160602
0.0650696
-0.120486
0.135402
-0.0339918
0.151606
0.00620092
0.0568223
0.107198
0.172697
-0.283067
-0.184552
0.214361
0.0286268
0.246504
-0.143335
0.229638
0.023028
-0.253322
0.0847462
0.107397
-0.234493
-0.0838976
-0.0450886
0.109475
-0.135641
0.206086
-0.147194
-0.289351
-0.22406
0.146356
0.133723
-0.251796
0.0374793
0.0506961
0.287584
0.0502173
-0.108244
0.06125
-0.199788
0.32285
-0.0220446
-0.274268
0.0640039
-0.238946
0.281027
0.102614
-0.101932
0.0109716
-0.266574
0.277677
-0.186013
0.274551
-0.231529
0.0533803
0.174741
-0.0118634
-0.045399
-0.0784105
0.0431175
-0.244653
0.0999422
0.232337
0.22208
-0.0360877
0.270388
0.234506
0.0853412
0.13383
-0.104292
-0.248273
0.0532964
0.0801394
-0.203483
-0.165687
0.107526
-0.109048
-0.190223
-0.194731
0.234961
-0.27926
0.389588
0.105321
-0.272051
-0.0238694
-0.106577
0.0981415
-0.0671385
-0.0369827
0.0475258
0.220843
0.1512
0.017714
-0.0326595
0.166552
0.074455
0.212617
-0.167308
0.0955607
-0.237137
-0.235559
0.140141
-0.0639294
0.131905
-0.195959
-0.283975
-0.00553518
0.0639122
-0.226021
-0.138696
0.0664607
0.0925163
0.194441
0.0159562
0.0592042
-0.0447567
0.183276
-0.198151
0.353655
-0.159716
-0.21228
-0.306747
0.134422
-0.243374
0.245665
-0.197199
0.0532689
0.159744
0.266516
-0.0427958
0.238042
0.163982
-0.237145
0.180034
0.0126435
0.0526988
0.271505
0.195997
-0.186417
-0.238258
-0.095885
0.119447
-0.141067
0.0909809
0.143336
0.24128
0.216815
0.17217
0.00768521
0.039385
-0.276615
0.0351383
0.279224
-0.0375341
0.135095
-0.273724
-0.220483
0.0348419
0.0391861
-0.201896
-0.0767759
0.0870443
-0.212627
-0.0386574
0.184784
-0.0209647
-0.129059
-0.127868
-0.173765
0.0319096
-0.232251
-0.300035
0.0759029
0.209532
0.0868415
0.23485
0.0551148
-0.145257
-0.199465
-0.0163936
0.0371383
0.0982921
-0.156327
0.00688746
-0.0301248
0.148742
0.234462
0.216718
0.0856078
0.176934
-0.0692974
0.187396
0.0232836
-0.0370376
0.1631
-0.0892956
-0.162694
-0.249464
0.14606
-0.0882307
0.0642843
-0.144879
-0.180673
0.18763
0.0218311
-0.113277
-0.0408888
-0.0348881
0.296871
0.115488
0.0529858
-0.0164983
-0.217891
0.155325
0.0844105
0.0772899
-0.172104
-0.267432
-0.0790141
-0.189282
0.0710214
-0.114563
0.197612
-0.245282
0.147821
0.256871
0.243758
0.078389
0.283712
-0.178123
-0.333102
-0.0559429
0.0728329
0.306036
-0.132618
-0.0300101
0.132336
0.00864354
-0.284639
-0.0905286
0.0755002
0.0897316
0.350166
0.279016
0.235616
-0.297995
0.237244
-0.251502
0.096342
-0.211929
-0.0434265
-0.180622
0.113143
0.177071
-0.117079
-0.00601113
0.140168
0.135058
-0.174223
-0.114613
-0.0160524
0.245555
0.0905931
0.256583
-0.0190554
-0.17809
0.205682
0.252149
-0.0956591
-0.15711
-0.0435098
-0.180995
0.0592043
0.232335
-0.0440291
-0.097647
0.0652892
-0.00308378
-0.269841
-0.175548
0.143628
-0.127501
0.182554
-0.0995641
-0.0171918
0.196505
-0.271256
-0.0502206
-0.0996301
-0.0421401
0.329025
-0.256405
-0.0026846
0.245009
0.125164
-0.246818
-0.144571
0.373351
-0.219815
-0.0528385
-0.0056094
-0.231023
-0.0547786
0.052928
-0.201733
0.203412
-0.00327236
-0.0702653
-0.120896
0.246078
-0.297978
0.158248
0.0404504
0.0561894
-0.0685448
0.118805
0.20961
-0.136281
-0.23434
0.228589
0.0547564
-0.148398
-0.163024
-0.110411
0.239006
-0.205939
0.316859
-0.245782
0.217338
-0.112628
-0.0698983
-0.206739
-0.106898
-0.236592
-0.129347
-0.0706631
-0.171443
0.000829376
-0.185461
0.0969101
0.0786
0.000744534
0.148928
0.112739
-0.172227
0.011029
0.0719498
0.255907
0.0743109
0.24847
0.267278
-0.328742
-0.339246
-0.265178
0.211211
0.323927
0.0583428
-0.313757
-0.135576
0.311945
0.0561791
0.168828
-0.193906
-0.095949
0.231499
0.230679
0.0562903
0.177171
-0.0934469
0.00304915
0.0827739
0.217789
-0.11256
0.115146
0.0651924
-0.167632
0.143298
0.229116
-0.158198
-0.0339621
-0.184889
-0.121452
-0.113663
0.0131496
0.122876
-0.140548
-0.13881
0.190949
0.0281906
-0.176348
0.0289366
0.0816947
0.149387
-0.0348857
0.0239651
-0.0406439
0.201511
0.0437865
0.0773724
-0.0869782
0.178202
-0.250257
0.00427003
0.109492
-0.207481
0.309841
-0.0410368
0.10302
0.0330646
0.0994913
0.223274
-0.0774427
0.10185
-0.177174
-0.207125
-0.163751
-0.149251
-0.157997
0.176177
-0.169349
-0.0914752
0.282779
-0.0667907
-0.175348
-0.0220374
0.159009
-0.0768458
0.140371
-0.0664976
0.199656
0.036337
-0.0292717
-0.233655
0.232988
-0.227511
-0.154928
-0.00325147
0.264701
0.134052
-0.183401
-0.214779
-0.177729
-0.236554
0.00201851
0.072503
0.082478
0.136265
0.027771
-0.213768
-0.0307672
0.153422
-0.0137205
-0.146588
-0.233811
0.0789201
-0.0691537
0.144174
0.15191
0.143208
-0.191227
-0.144284
-0.245118
0.0998126
0.226579
0.103882
0.0835089
-0.0212662
0.132665
0.0221874
0.290126
-0.0998204
0.128493
0.182921
0.292681
0.0336855
0.20842
0.0881221
-0.0528433
-0.122977
-0.0191294
-0.00368866
-0.316153
0.0544385
0.246903
-0.341976
-0.0225641
-0.0433386
0.392356
0.300084
0.137553
0.160071
-0.126907
-0.0915318
0.24754
-0.114231
-0.26849
-0.156597
-0.0632833
-0.204697
0.149294
0.222156
0.085612
0.223742
-0.0480989
-0.208299
-0.212357
-0.151745
0.0692277
0.0955583
0.0986751
-0.202532
-0.313696
0.210505
0.126743
0.00809211
-0.220407
0.281957
0.225352
-0.246104
-0.0711266
-0.182846
-0.204038
0.15409
-0.0676598
-0.00518981
0.121902
0.011004
0.0346582
-0.0536243
-0.253541
0.102078
-0.199181
0.0839764
-0.128634
-0.227394
0.190227
-0.123586
-0.00784455
-0.324631
0.155977
0.0429732
0.193825
-0.309582
-0.04762
-0.043117
0.371826
0.210294
-0.192725
-0.12635
0.231014
0.16238
0.17571
-0.192769
-0.155684
-0.0738324
0.13777
0.13734
0.189841
-0.186175
0.0309542
-0.118527
0.190117
0.175404
0.135647
0.13194
-0.208253
0.221833
-0.244239
-0.157156
0.0773989
0.217108
-0.191895
0.188403
-0.177627
-0.0771258
-0.161361
-0.243352
0.271843
0.0912739
0.191899
0.13661
0.229283
0.138168
0.273522
0.254591
-0.348102
-0.223586
0.119183
-0.00279198
0.217678
0.132855
0.0898832
-0.106128
-0.150671
-0.0393256
0.0685663
0.0912263
0.179061
-0.26047
-0.139845
0.155831
-0.235673
0.295124
0.023003
0.0854945
0.109818
0.0450945
-0.2644
0.0181091
0.0501817
0.184372
0.141084
0.0679369
-0.160155
-0.289177
-0.167834
0.135354
-0.0322042
-0.0698479
-0.246815
0.274987
-0.00475214
0.307892
0.007477
-0.149506
-0.00363427
-0.248835
0.00222107
0.087182
0.201832
-0.287746
0.0342318
0.00114746
-0.264161
0.297984
-0.12542
-0.19008
0.235029
-0.260883
0.00582918
0.0654361
0.115626
0.0281937
-0.0619661
-0.24463
-0.0735866
-0.0400339
-0.0403088
0.173802
-0.22948
-0.00405242
0.00291532
0.00707222
-0.178694
0.0390301
-0.0523863
-0.0171394
0.150917
-0.143761
0.225595
-0.0822247
-0.0919038
0.0696741
0.103901
0.180776
-0.166148
0.0479877
0.0285714
-0.0370728
-0.0764068
-0.169016
0.0601812
0.0127411
-0.0780795
-0.051834
-0.115985
0.200355
0.20274
-0.107308
-0.0669157
-0.105624
0.0310664
0.0153288
-0.00324273
-0.252026
-0.200276
0.0607658
0.276376
0.155958
0.0196046
0.297899
0.198301
0.133873
-0.20119
-0.177892
-0.249584
-0.0383922
0.0676473
0.0450343
0.0876116
-0.223993
-0.068658
-0.283613
0.0680076
0.168801
-0.0320907
-0.00115807
0.115505
-0.191528
0.229291
-0.10141
0.0552162
-0.157707
-0.215497
0.182432
-0.061587
-0.107304
-0.251727
0.132051
0.0663715
-0.109044
-0.105458
0.131519
-0.227497
-0.0933335
0.0615356
0.113164
0.244478
0.135433
0.232955
-0.154923
0.182976
0.107629
0.215766
0.0378263
-0.0265704
0.15364
-0.0695323
-0.0629194
-0.338179
-0.260538
-0.00942222
0.264746
0.291114
-0.252758
-0.202897
-0.240888
-0.0433981
-0.074062
-0.308001
-0.138841
-0.0856034
-0.199411
0.130459
-0.00400477
0.0596931
-0.195904
0.0390832
0.160658
-0.0401861
0.084784
0.226736
-0.171562
-0.217081
-0.0497324
-0.205526
0.0638424
-0.0300237
0.0415018
0.239235
0.0482447
0.223935
-0.0783319
-0.199047
-0.248267
0.097694
-0.111111
-0.190271
0.268559
0.157312
0.166333
0.246351
-0.0225809
-0.185658
-0.0290771
0.207548
-0.244347
0.169071
-0.286423
-0.250749
-0.209966
0.34812
0.104312
0.129328
0.167756
-0.132456
-0.136636
-0.246647
-0.275747
-0.0282422
-0.0611338
-0.000129822
-0.114541
-0.0879071
-0.172267
-0.0237465
