-0.107294
0.0629189
0.0479259
-0.0808759
-0.00884734
-0.0919508
0.0805886
0.0221324
-0.062558
0.00795721
-0.0493066
-0.00525316
-0.0568583
-0.0109713
0.143759
0.0680877
0.0065531
0.0280962
0.0570743
-0.104464
-0.000236615
0.078546
0.109414
0.074899
0.0518171
0.0771286
-0.039648
0.0240392
0.108526
-0.0309911
0.027695
-0.094288
-0.0878206
0.0716946
0.0701795
-0.0686428
-0.116936
-0.0600468
0.0884268
-0.115519
0.140226
0.0656554
0.019635
0.0566961
0.0927148
-0.095488
-0.0167839
-0.0489859
-0.109364
0.0976064
-0.0687722
0.065033
-0.114729
-0.0997111
0.0993024
-0.0594401
-0.0987511
0.0801976
-0.0717755
-0.0325063
-0.0647645
-0.001568
-0.0132999
-0.0530724
-0.061038
-0.0412372
0.0505841
-0.0227283
0.0728167
0.00335334
0.107157
0.0663282
-0.0449614
0.0487071
-0.0176279
-0.0708038
-0.00646905
0.0131525
-0.0990244
0.0629441
-0.0624818
-0.0315895
0.0969418
0.0772461
-0.0262097
-0.0541849
-0.0449733
0.107806
-0.128786
-0.043835
0.0288376
-0.0867078
0.117631
-0.18979
0.165395
0.103652
0.00627096
-0.105488
0.0531136
-0.0104743
0.0414876
0.122339
-0.00158508
0.118628
-0.197881
0.106792
-0.0180849
-0.0524891
-0.109766
-0.0367673
0.054776
-0.00179176
-0.0338932
0.0597529
0.0738923
-0.0405771
0.00858272
0.0759638
-0.0330415
-0.00571768
-0.0602427
-0.0348637
0.0988113
-0.0579749
0.0511349
0.0511746
0.0278491
-0.0810055
-0.0145715
-0.0177872
-0.0808238
0.00928286
-0.0225312
0.0579317
0.0326667
0.0251493
0.00931651
-0.0831577
0.0113538
0.0489779
0.0976754
-0.126465
-0.0350194
0.0297018
0.0640274
-0.0925106
-0.0596097
0.0810624
0.0495285
-0.0250557
-0.0314631
0.0871881
0.0567194
-0.078897
-0.0880189
-0.0139922
0.0709586
-0.0396667
0.0473768
0.0230306
0.0735779
-0.0959431
0.127976
0.0200108
-0.0248575
-0.0209226
-0.0341819
0.0800076
0.0387783
0.0482939
0.111914
0.0540366
-0.0725392
-0.0420512
0.0107598
-0.0305798
-0.0155155
0.0476023
0.190464
0.00637166
0.062345
0.0820252
-0.0784732
0.0586924
-0.0932636
-0.0221704
-0.0435064
0.0395303
0.0593816
-0.153577
0.0428093
0.000356185
0.0671266
0.041774
0.0264848
-0.106786
-0.0324447
0.0892273
0.0123713
0.183117
-0.0733766
-0.0212148
0.085571
-0.0965781
-0.0355893
0.131492
0.000669364
0.0175192
0.0729549
-0.116223
0.0348874
0.0670827
-0.0278364
0.0162835
-0.103312
-0.0561202
0.0836014
0.083623
0.138313
0.0450558
-0.106542
-0.0438896
0.101692
-0.0481933
-0.0102331
0.0524991
-0.0673127
-0.00922483
0.0144927
-0.0574098
-0.0310793
0.0743807
0.0238097
0.0280381
-0.0525339
-0.0319542
0.0637779
0.0867834
0.0434464
0.101418
-0.0470255
-0.0783915
0.052313
-0.0310918
-0.0184404
-0.0327521
0.052386
0.139845
-0.0992838
0.145801
-0.102047
0.0229737
-0.101177
0.10146
-0.0372282
-0.0666824
-0.0288953
0.0544024
0.104254
0.0292816
0.0316045
0.0619099
0.0139394
0.0752427
0.0654503
-0.00102562
0.0169322
0.00700467
-0.0510703
0.0778695
-0.0678039
0.0899862
0.0411416
-0.0532289
0.167279
0.00611063
0.0813955
0.0176745
0.0211132
0.126378
0.0410422
-0.0803113
0.0216973
-0.104168
0.03894
0.068962
0.0720552
0.0252366
0.0560608
0.102999
0.137246
-0.0219788
-0.108895
0.0569158
0.0239798
0.0284828
0.0174324
0.0438556
0.0491933
-0.079839
-0.0339683
0.144699
0.0819842
0.0195399
-0.102292
-0.118049
0.0580077
-0.0635258
-0.0233967
-0.0179933
0.061461
0.0380995
-0.0235989
0.120743
0.11068
0.0121418
-0.095067
0.0806632
0.0898322
0.0315076
-0.0527521
-0.0566679
0.0277067
0.0165953
-0.00887705
-0.0267649
0.0387031
0.132833
-0.104113
0.116761
0.110535
-0.0293271
-0.0582476
0.189602
0.0883117
-0.0460461
-0.074976
-0.0988413
-0.000598074
-0.103774
-0.16249
0.0109824
-0.120353
0.0917067
-0.00249807
0.0592026
-0.0778728
0.0456788
0.0697882
0.222926
0.0416758
-0.00283719
-0.0588141
0.0799741
0.06706
-0.0676232
-0.040016
-0.0776662
0.0643923
0.0708286
-0.0204747
0.0378506
-0.0187742
0.0740467
0.049172
0.036926
-0.00591829
0.104759
0.0663722
-0.0209675
0.128104
-0.0249138
0.0621566
-0.0285815
0.0714977
-0.0229617
0.131881
-0.129888
0.0600675
-0.0983807
-0.00392734
0.207006
0.0523226
0.0531656
0.0276159
0.0751152
0.0421486
0.0567021
-0.00159055
-0.108196
-0.0184149
-0.0849394
0.147418
0.0264525
0.109267
-0.0144231
0.0651075
0.0959275
-0.0565914
-0.0677069
-0.0505187
-0.00357853
-0.0402206
-0.0172406
0.024705
0.0878553
0.00828484
-0.054226
0.00549976
0.0149468
0.134333
0.0602647
0.0820836
-0.123622
0.100948
-0.0249457
-0.0578242
-0.100175
0.0725138
0.0481493
-0.0510745
0.112927
-0.0666721
-0.0377922
-0.0108174
-0.0261436
0.00746503
-0.0580044
-0.0335341
0.131837
0.0452231
-0.0318649
0.0126167
-0.011612
-0.0856427
0.0454863
-0.0173049
0.0234572
-0.0269546
-0.0735404
-0.00801192
-0.0664164
-0.0127708
-0.0642613
-0.0480044
0.156028
0.111864
0.00257093
-0.0949855
0.0600677
-0.0381899
0.0697971
0.0230684
0.0879427
-0.0839739
0.109594
-0.0469696
0.0346517
0.106311
0.062638
-0.106037
-0.0382733
-0.00206886
-0.00462834
0.0194702
-0.0769889
0.0875396
-0.120698
-0.0177625
0.0202424
-0.0780278
0.0447107
0.228812
0.00779097
-0.073906
-0.0780049
-0.111048
0.0645303
0.0840466
-0.108443
0.0640706
0.0231998
-0.0931754
0.000778969
-0.0229809
0.00337972
-0.0180701
-0.0678268
0.143207
0.0875627
0.0315753
0.0832932
-0.061168
-0.0497871
0.090523
-0.117251
-0.0653513
-0.104545
0.102788
-0.117707
-0.0161225
0.0864515
0.0388949
-0.0276849
0.0828979
0.018251
0.0417344
-0.0971467
-0.0242039
0.0257855
-0.051409
0.0370596
0.0460409
0.053944
0.0349016
0.0183007
0.0253278
-0.116616
0.0789855
0.0803621
-0.0341697
0.0425798
-0.121725
-0.0274334
0.126772
0.00262303
0.102121
0.107774
-0.0685291
-0.0916383
0.0707991
0.0771273
0.0035872
0.0388553
-0.0284074
0.0814751
-0.0417177
0.0409342
-0.117863
-0.092623
-0.0592482
0.0875678
-0.0404808
0.116017
-0.0129856
-0.0549913
0.0169604
-0.0859624
0.0154255
0.0961381
-0.0616353
-0.0018946
-0.0416185
-0.058229
-0.0754744
0.00561069
0.0813584
-0.0313404
0.0302011
0.0928585
0.13328
-0.0952758
-0.11535
-0.0294804
0.00196395
0.0708029
-0.104691
0.00636673
0.084397
-0.0856933
0.144803
0.0738749
-0.0414451
-0.308202
0.22003
-0.0282464
0.127343
-0.141333
-0.0876306
0.0222279
-0.129707
0.159554
-0.0105335
0.0577518
0.0353116
-0.0718566
0.0107257
-0.0184184
0.0341697
-0.0922311
0.151432
0.0306833
-0.0564656
-0.0195917
0.0292841
-0.0497213
-0.00304048
0.0330768
-0.0071852
-0.0252779
-0.0162505
-0.0685007
0.0476988
0.0404484
0.0273119
0.0555654
-0.111737
0.0747813
0.098824
-0.102343
-0.000769275
-0.0450032
-0.0287848
-0.0164173
-0.0164641
0.0719128
-0.0498114
-0.0902818
-0.00756423
0.0436719
0.0107144
0.0198226
0.0662118
0.00700008
0.0829733
-0.0197326
-0.0475422
-0.0777195
0.0340464
-0.0403097
0.0179036
0.00772728
-0.0145478
-0.0686337
0.0665839
-0.047747
0.063436
0.0325959
-0.0752761
-0.0792457
-0.0393615
0.000678565
-0.062531
-0.016532
-0.000675253
0.133258
0.0455096
0.0531738
0.0941913
-0.006896
0.0934211
-0.0294801
-0.000468301
-0.122202
0.0765668
0.0499017
0.0258829
-0.0909999
-0.0554785
-0.0462564
-0.227765
0.159492
-0.076151
0.193708
-0.0190982
0.0260141
0.024008
0.0983718
-0.0562373
-0.0929532
0.161269
0.0375229
0.0606117
-0.0329431
0.0295166
0.0772445
-0.205478
0.206719
-0.110431
0.135837
-0.14953
0.1207
-0.0365353
0.0791956
-0.0136418
0.170397
0.081781
-0.02658
0.054302
0.0724694
-0.00489309
-0.0246741
0.111623
0.00726147
-0.0283886
0.0359184
0.121634
0.102883
0.0945569
-0.0580705
0.0182701
0.0176839
-0.0424865
0.0389261
-0.0680525
0.0712668
-0.0916743
0.0191149
-0.0800591
-0.0846888
-0.0281956
0.127442
0.0276664
0.0132638
0.0588218
-0.0521905
0.0284001
-0.00862406
0.0306471
0.0726341
-0.091335
-0.106447
-0.0783787
0.0393685
-0.0235653
0.0472462
-0.0868175
0.0678236
0.0490514
-0.0101861
0.100406
-0.000692415
-0.00640044
0.0885819
-0.102365
0.0202925
0.0735644
-0.0510366
-0.0717698
0.00231365
-0.0448762
0.162903
0.050455
0.13313
-0.116856
-0.0177106
0.127378
-0.0650582
0.00795777
0.0567358
0.0437876
0.0827823
-0.0503049
-0.181603
-0.0288415
0.0781976
-0.256123
0.285714
-0.0162425
0.144516
-0.0576846
-0.00552858
0.159054
0.0372242
-0.0107524
0.19246
0.111628
0.0856917
-0.096376
-0.130045
0.0549243
-0.099936
-0.144632
0.0701708
-0.0685453
0.0952187
0.0433754
0.00897324
0.163531
0.121304
0.0746328
0.241744
0.0413819
0.0251141
0.0818068
-0.0119772
0.0273534
0.0387427
0.129594
-0.0023217
0.0668055
-0.0100443
-0.0653418
0.0171014
-0.0185428
0.0947849
0.0387134
-0.0946004
0.0347013
-0.0168271
-0.0563432
-0.076495
-0.003867
-0.0329116
-0.0531229
-0.0148065
-0.0924021
0.119433
0.0960781
0.0312907
0.110261
0.0425518
-0.0785492
0.109432
0.113489
-0.0256602
-0.0560777
0.0356166
-0.00648288
-0.0928493
-0.145288
-0.0478467
0.0533217
0.134301
-0.117524
0.0592848
0.117328
0.094639
-0.049933
0.179893
0.00654959
0.0696829
-0.0742597
-0.0188361
0.0826053
0.0291876
0.0151182
0.00646771
-0.0970427
0.0861814
-0.0576068
0.0173383
-0.0120435
-0.0352115
-0.0181017
0.00398652
0.106487
0.015572
0.0739321
-0.141211
0.201239
-0.0282926
-0.102121
0.224768
-0.178332
-0.02836
-0.0399403
-0.0673493
0.0361662
-0.050517
-0.020184
-0.0731169
-0.0341974
0.000177149
-0.121537
0.0654907
0.139159
-0.0707199
-0.116154
0.222551
-0.0796068
-0.00968805
-0.109123
-0.045563
0.0287816
-0.0468194
0.0695856
0.0151579
-0.0848727
-0.109801
-0.0644366
0.029511
0.0472179
0.0817057
-0.0166202
0.0238531
0.00354209
-0.0601675
0.030096
-0.0959929
0.0604838
0.0152941
0.017814
-0.0953742
0.0615593
-0.0422173
-0.116654
0.027859
0.0488543
-0.00234899
-0.0323689
-0.0171387
0.00981364
0.0399146
-0.0937571
0.076697
0.137453
0.0347995
0.0214477
0.120865
-0.0726242
-0.0352257
0.0201437
0.0822031
0.0290422
0.0370909
-0.135721
0.0158265
0.0392531
0.0429667
0.0453739
0.0221471
0.087765
0.0591851
0.0125154
-0.0641412
0.0400943
-0.12367
-0.0356176
-0.0806496
-0.0183673
-0.000513662
-0.0442405
0.10955
0.027554
0.0207797
0.0460781
-0.037266
0.119942
-0.0434314
-0.012277
-0.0224288
-0.0448039
-0.0535703
-0.064597
0.00567703
0.183374
-0.0054549
-0.0561736
0.319534
-0.035544
-0.0567037
-0.0734857
0.00538242
-0.0169201
-0.0989084
-0.0550269
-0.196174
-0.0972667
-0.100113
0.0275149
-0.0711019
-0.0431748
-0.0377471
0.113569
0.0192001
0.096259
0.0230123
0.00342518
-0.0293714
0.0630881
0.0879968
0.0893939
-0.198889
0.117254
-0.0837696
0.00653162
0.0543957
-0.0663022
-0.0111751
-0.0249005
-0.0943266
0.0551308
-0.0243407
-0.0888629
0.00219352
0.076476
-0.0351438
-0.00573875
0.0494081
0.00901672
0.00456984
-0.00912816
0.0607188
0.0295048
-0.038477
-0.0267434
0.0609651
0.0404709
0.049585
-0.0872823
-0.0836598
-0.0626744
-0.0640437
0.0198965
-0.109531
0.0847168
0.0111111
0.0317149
-0.0321582
0.0902651
-0.0337628
0.0290696
0.080956
0.083267
-0.0354127
-0.0043654
-0.0956092
0.0496497
-0.0543497
0.0419015
0.0251466
0.058859
0.0794732
0.088962
-0.0709168
0.00938488
-0.0799035
0.0377247
-0.0677989
-0.00688751
-0.0510445
0.122514
-0.0851366
0.011024
0.0188717
-0.0269504
0.0526812
-0.0200537
-0.0177747
0.165983
0.023751
-0.0420398
-0.136572
-0.0400156
0.185952
-0.0171478
-0.0525154
0.18548
-0.00744085
0.113873
0.0198867
0.199627
-0.19944
0.0286738
-0.132795
0.158805
-0.0981374
-0.144911
-0.130129
0.134972
0.104657
0.111412
0.134371
0.028836
-0.0254159
-0.0446548
-0.068705
0.122617
0.0580237
0.115012
-0.0612217
-0.0595537
-0.00912909
-0.0811463
0.0601985
0.0529396
-0.0351965
-0.0247618
0.0209175
-0.0215314
-0.0995579
0.0900014
-0.0252857
-0.0357972
-0.0221676
0.00897375
-0.0512952
-0.0852307
-0.113215
0.062972
-0.02413
0.0562955
0.0976406
0.0588656
0.0555448
-0.0914393
-0.0262452
-0.00628017
0.00171305
0.016302
-0.0926232
0.0296659
0.00652295
0.0614061
-0.0208577
0.0837552
0.0772596
-0.0629552
0.0326064
0.0930514
-0.0648053
-0.0860256
0.0331702
-0.0110801
-0.0258219
-0.00793297
-0.0456825
0.121364
0.0922777
-0.0321332
-0.099534
0.0285877
-0.110557
0.0360336
0.119099
0.0202595
0.0731227
0.0322467
-0.0605548
0.12019
-0.0225378
0.0912223
-0.073638
0.0632627
0.0998355
-0.0595951
-0.0743725
-0.189966
-0.00718198
0.0937606
0.187715
0.126241
0.00750343
0.0895129
0.00906652
-0.0116528
0.0828771
0.196968
0.0902301
0.0575828
0.00800427
0.0709673
-0.0391654
-0.0250216
-0.0542082
0.0274077
0.0315919
0.0841808
0.0829923
0.0690685
0.150185
-0.0895411
0.0501077
0.0853377
0.149976
-0.0396905
-0.0574547
-0.056472
-0.0316272
-0.0885615
0.0747871
0.16675
0.0202418
-0.0371207
0.0961228
-0.0306025
-0.00633058
0.0323629
-0.113597
0.0519314
-0.026179
0.0929169
0.00865188
0.115128
-0.0503615
-0.00760535
-0.0563892
-0.0786917
0.00908304
-0.0108506
0.115215
-0.00731549
0.136465
-0.10648
0.0984563
-0.113757
-0.0430475
-0.0339265
-0.0103474
0.0749287
0.0928129
-0.107007
-0.0802407
-0.129055
-0.00263842
0.062133
0.00150429
-0.0520024
0.107087
0.0460092
-0.0935792
0.0877033
0.0207298
0.0898056
0.0158621
-0.000744297
-0.070845
-0.0815882
0.0394681
0.00892632
-0.0474681
-0.0144769
0.0806744
0.038332
-0.0313639
0.0986531
0.0443632
0.113903
-0.0424953
0.0306239
-0.0298423
0.0154882
0.130654
-0.221253
-0.0659814
0.181865
0.0921919
0.0710756
0.0894832
-0.141948
0.113305
0.0335906
0.207418
0.213888
0.0958307
-0.0750623
-0.02823
-0.0582533
0.126307
-0.121513
0.0198755
0.038946
0.0599929
0.0716144
0.148015
-0.148029
-0.0262405
-0.00253953
0.217765
0.118068
0.201308
-0.00910501
0.0352865
0.00227615
0.0061291
-0.0839529
-0.0644577
0.101062
0.0731876
-0.030722
0.0258534
0.136903
0.0515226
-0.0295606
0.0508146
-0.125652
-0.115639
0.0838281
-0.0612231
-0.0226094
0.0208979
-0.0498709
-0.0631699
0.0435414
0.0596269
-0.109737
0.0146791
0.0410438
0.0153636
0.12939
-0.0956079
-0.0666326
0.0597621
0.0487662
0.0652975
-0.0735311
0.0875616
-0.052109
-0.0820871
0.0495877
-0.0807761
-0.0761364
0.128265
-0.116854
0.0302052
0.175467
-0.0320377
0.103473
0.171575
0.0360017
-0.0633375
0.0107982
-0.0845034
-0.0507282
-0.0102995
-0.0389672
0.0683041
0.000120889
-0.00884546
-0.0633343
-0.0731785
0.102339
0.0658405
0.00408003
0.125528
0.0333132
-0.0424127
-0.164379
-0.0113265
0.00624315
-0.00498274
0.190067
0.168889
0.157461
0.0347852
-0.0656344
-0.0982248
0.148192
0.273432
0.215543
-0.0462369
-0.176509
-0.042261
-0.067566
0.119192
-0.0348241
-0.0991167
-0.020512
0.0940902
0.0719888
-0.0516351
-0.0471559
-0.165046
0.12172
0.121382
0.0504114
0.00567263
-0.0596152
-0.151246
0.0289486
-0.0678796
0.0413147
0.067668
-0.0717598
-0.106747
0.0620208
0.104675
0.0648094
0.0660126
-0.0784207
0.0439561
-0.128654
-0.021742
0.0457401
-0.00484899
-0.00801549
-0.0992059
-0.0969134
0.0060782
0.0851595
-0.113213
0.0677648
-0.0457734
-0.105936
-0.0399098
0.0812237
-0.056642
-0.0154057
-0.0657737
-0.102183
0.060531
0.050551
-0.0764559
0.112573
-0.027888
-0.0321078
-0.0205379
0.0137061
0.00487422
-0.126921
-0.0902552
0.142234
0.00489186
0.0382602
0.00787791
0.0654967
0.0326764
0.0354073
0.0765197
-0.00596848
-0.00449462
0.0730742
0.0889239
0.0234337
0.0412473
-0.104516
-0.0720841
0.00563804
-0.015092
-0.0573157
-0.00817524
-0.089637
-0.0358028
-0.0395389
0.0516574
0.00362489
-0.0687223
0.196187
0.233585
0.0614529
0.0802729
-0.100705
-0.106368
-0.0356771
0.151773
0.125547
-0.0266297
-0.0115114
-0.068264
0.0168013
0.0185249
0.0928148
-0.0468289
0.0608412
-0.0950399
0.00598635
-0.0666379
-0.0450779
-0.0793584
0.0491685
-0.0958738
-0.0663945
-0.140056
0.0550037
-0.0836995
-0.124077
-0.0386161
0.0215408
0.124384
-0.0865497
-0.00385992
0.0260889
-0.0911116
-0.016876
0.0289079
0.0717238
-0.0587259
-0.0184151
0.0596125
0.0349454
-0.0696095
0.0433989
0.108054
-0.0553328
-0.0138405
-0.1165
0.0117821
0.048281
-0.0655521
0.0528524
-0.0673477
0.0825887
0.108331
0.079938
-0.130081
0.0807547
0.0270458
0.103593
-0.0927828
0.0431484
0.0584461
0.0357966
0.03324
-0.107873
-0.029119
-0.021736
-0.0777603
0.02744
0.0896247
-0.133535
0.0579472
0.0139711
-0.0206184
-0.0333922
-0.0298556
0.0987545
0.0220321
0.124792
-0.100498
0.0385261
0.0858512
-0.0672554
-0.00738254
-0.107088
-0.0377009
-0.0188937
-0.0528645
-0.0726162
0.0193825
0.0361162
-0.115095
-0.0577484
0.0766428
0.231401
-0.00347252
0.12234
0.0826295
0.00893982
-0.0236121
-0.130855
-0.161264
0.0227406
0.0666706
-0.0934355
-0.0968416
0.08283
0.127685
-0.0501325
0.107056
0.0396447
-0.027104
0.0545212
-0.0888288
0.0741962
0.145177
-0.210853
-0.060158
-0.0110237
0.0595452
-0.0136004
-0.0893724
-0.112644
0.0710364
-0.109349
-0.00861526
-0.0971676
-0.0223112
0.0360855
0.0149341
-0.0271563
0.0656668
0.115294
-0.0489269
-0.0002703
0.0274672
0.05005
-0.0250404
-0.0400834
-0.0960381
0.0752677
0.0446226
0.0423586
-0.0685931
-0.085803
-0.0432236
-0.0804191
-0.0612602
-0.0117124
0.0754888
-0.029294
-0.0690281
0.0437056
0.0841663
-0.0672916
-0.00229473
0.106123
0.0434722
0.0477982
-0.0760981
0.00442948
0.0753231
-0.118366
-0.00272806
-0.0105496
-0.119787
-0.121027
0.0375892
-0.0276177
-0.073838
0.11522
0.0625348
-0.00845684
-0.00623814
0.1426
0.0370323
0.0378372
-0.04552
0.0636327
0.11494
0.0457809
0.101828
-0.0359777
0.0747657
0.110043
-0.0538862
0.0594042
0.0244838
-0.154649
-0.0608354
0.34457
-0.0906441
0.182839
-0.113294
0.0281329
0.0960379
-0.232418
-0.0775792
0.102432
0.0559844
0.10161
-0.0781762
0.0377266
-0.0137343
-0.0375583
0.10758
0.239566
-0.196989
0.133703
0.0700486
0.0823518
0.135685
-0.00198642
0.0526087
-0.0279183
0.0955543
-0.0749491
-0.0438967
0.0930779
0.0110023
0.0590445
0.0827712
-0.0322697
-0.0269268
-0.0821089
0.0453668
0.00727325
-0.0825849
0.0638722
0.0913462
-0.0133752
-0.0301273
0.0889986
0.126327
0.0950739
0.0095055
-0.0360294
0.0852146
0.0659054
0.0665435
-0.0369295
0.111295
0.00578097
0.138302
-0.0892113
0.0649407
-0.077106
-0.0443121
-0.0355284
-0.0609256
-0.0183641
-0.0894359
0.00548494
-0.000720012
-0.0226974
-0.0992424
-0.00494402
-0.0680802
0.0783774
-0.0149763
0.0191543
-0.0831466
-0.0762947
0.118853
0.0492661
0.0229423
-0.0234189
0.106441
-0.0802989
-0.0336455
0.173322
0.00453073
0.0109407
0.111949
0.0718789
0.117466
-0.0590438
-0.0754032
0.0533412
0.038836
0.0928835
0.0379621
0.029902
0.0991759
-0.0140409
0.00874202
0.312964
-0.302694
0.0484228
0.0264263
-0.0140563
0.00466543
0.11569
0.00450517
-0.0143381
0.184363
-0.0886655
-0.0757075
0.044866
0.157019
-0.0523955
-0.0236671
0.0558642
-0.211211
0.00784371
0.0597116
0.0621672
0.0535975
0.188279
-0.130961
-0.0127193
0.00756753
0.0805187
0.066798
-0.0169711
-0.0700885
0.00148648
0.0253855
0.0118961
-0.00155831
-0.0943485
-0.0693104
0.0802699
0.102608
0.0610462
0.0224189
-0.0613772
-0.0213559
0.0883698
0.0470205
-0.0750715
-0.0570468
-0.00455708
0.0717796
-0.0870852
-0.00220105
0.0390289
0.0303321
-0.040249
-0.0137476
0.16988
-0.0523921
-0.0865096
0.039472
0.0551225
-0.0326499
0.0462827
2.00792e-06
-0.0646634
-0.0785267
-0.0130388
-0.134881
-0.00205135
0.039032
0.0383951
-0.0808993
0.0261396
0.0472706
0.0307856
-0.0793092
0.0596394
-0.0175968
-0.0242865
0.022514
-0.112609
0.0348119
0.0860714
-0.159869
0.112948
0.0551261
-0.0859994
0.100122
-0.0120738
0.0357236
0.0055204
-0.0255991
-0.0443628
0.114567
0.0317794
0.152111
0.076895
-0.0793695
0.205466
-0.279063
0.0342142
0.0264589
-0.00416331
0.0768095
0.202169
0.0624331
0.070332
0.0503237
-0.0566332
-0.017751
-0.0599898
-0.0995527
0.0362394
-0.0749857
0.113895
-0.208174
0.134609
0.0597671
-0.0118763
0.000124849
0.0133873
-0.126193
-0.126203
-0.0907774
0.0488934
-0.0289722
0.102888
-0.0638898
0.0350283
-0.00105467
-0.0475972
0.0998066
-0.0996414
0.0613238
0.0260069
0.031605
0.0173018
0.0976787
-0.113993
0.0423586
0.0418103
0.103989
-0.0700868
0.0326884
0.039165
-0.100139
-0.0141285
0.000900805
0.030374
0.0076909
-0.0615823
-0.111844
0.0504413
0.0412578
0.0365705
-0.00794968
-0.0827275
-0.10175
0.0291859
0.075616
0.081561
0.0436443
-0.0276752
-0.10773
0.0776138
-0.0105483
-0.00312784
0.0610156
0.132897
-0.146567
-0.1093
0.0259233
-0.00512828
0.00552018
0.0143742
0.019251
-0.0470391
0.0788862
-0.0650197
-0.0569907
0.115222
0.0618632
0.00721323
-0.0780618
0.140432
0.0500008
0.0520008
-0.081417
0.0372232
0.0673541
-0.00455389
-0.065767
0.147739
-0.00522003
0.004112
-0.0867625
0.148997
-0.0503582
0.0345557
0.0178057
-0.0827488
-0.014229
-0.0874355
0.0580291
-0.0378691
0.119578
0.0677485
0.0698668
-0.0461439
0.126598
-0.189117
-0.0472704
-0.0687458
0.0549215
0.057981
-0.0558884
0.0584351
-0.0203349
-0.218273
-0.0591788
-0.00311762
-0.0237457
-0.0231213
0.0857745
-0.00186079
-0.058773
0.0809477
-0.0054215
0.0517047
0.0715125
-0.00292417
-0.0725826
0.00362421
-0.0335301
0.00586906
-0.0594843
-0.0997135
0.0488478
0.0633498
0.0357362
0.0494189
0.0224302
-0.023052
0.0112989
0.104377
0.0751451
-0.0413771
-0.101554
-0.0896034
0.104068
-0.111338
-0.104565
-0.0516756
-0.00269566
-0.0335898
0.0735621
-0.00754591
0.0516993
-0.146668
0.0284319
-0.0240627
-0.0978684
-0.0775108
-0.0347054
0.0192194
0.0496547
-0.134842
-0.01593
0.0715668
0.021867
0.0894754
-0.0571108
-0.013834
0.000640857
-0.0565996
0.0093309
-0.00121272
0.0257736
0.0250617
-0.0641123
0.0161654
-0.0514212
-0.136187
-0.100695
-0.0247971
0.0332638
-0.128232
-0.0171961
0.0146591
0.0978819
-0.16211
-0.0546754
-0.164854
-0.085028
0.049661
0.117235
-0.0603185
-0.0381152
-0.194767
-0.00158464
-0.105786
0.0745881
-0.0127161
0.118425
-0.0745799
-0.0184017
-0.0859226
0.00191054
-0.0571363
-0.100939
0.0397593
-0.0488283
-0.0120083
-0.0969267
-0.215
0.136629
0.0682227
0.0755111
0.037514
-0.0857489
-0.0878689
0.0530431
0.112957
0.0101528
-0.0805612
0.00997032
-0.0291404
-0.0594464
-0.00667981
0.113464
0.14365
-0.141103
-0.0826428
0.025424
-0.0415156
0.0869621
0.0711411
0.00820932
-0.0497482
-0.0855064
0.027589
-0.0514745
-0.0183619
0.0754101
-0.013553
-0.0227542
0.0627787
-0.0275832
0.0359287
0.0653462
0.0456898
-0.0536812
-0.0226492
0.0998572
-0.173109
-0.0487964
-0.114052
0.0459084
-0.0795812
-0.0969804
0.0606166
0.0828608
-0.0976711
0.113329
0.0942943
-0.043602
0.0912232
-0.0696904
-0.0498889
-0.0190824
0.0348945
-0.167523
0.00195326
0.0837889
-0.0691209
-0.00631577
-0.0192468
-0.0264307
-0.0314606
0.0284315
0.0368888
0.11453
0.00363773
0.0612284
-0.127681
0.161633
-0.127688
-0.183258
-0.190109
-0.13145
0.0169494
-0.0179918
-0.0111204
-0.0996239
-0.103525
0.0378626
-0.0257964
0.191548
0.0910367
-0.00291558
-0.0463979
0.121246
-0.131518
-0.125559
-0.109739
0.0548223
0.022824
0.133977
0.055616
-0.0702789
-0.151304
0.0759514
0.0895412
0.0233849
-0.0427952
0.0765662
0.0191948
0.0272038
-0.0523843
0.166872
0.0846131
0.0752017
0.0277906
0.0129267
-0.00163608
0.103622
0.0972707
-0.0444738
-0.128229
0.0116288
-0.0763444
0.0224098
-0.0799483
0.0349034
-0.0302681
-0.00662177
-0.129944
-0.0672916
0.0777063
0.0624623
-0.0561137
0.0940241
0.0838568
0.061286
0.0146211
-0.0506402
-0.0464087
0.0450829
0.0634271
-0.0897023
-0.0189132
-0.0599821
0.00636814
-0.0748015
0.0067709
0.101098
-0.0462439
0.0502655
-0.121309
-0.0496246
0.0424333
-0.054941
0.0207867
0.10754
0.0566942
-0.0268784
0.0604073
-0.0977844
-0.0578019
0.0105078
-0.0212971
0.0418408
-0.0717947
-0.130022
0.00337684
0.0348054
-0.0729321
0.00833285
0.00287093
0.0424349
0.0594543
0.0531073
-0.132559
-0.178999
-0.0614965
-0.060198
0.0660046
0.171424
0.190562
-0.164307
-0.108192
-0.0772358
0.0189882
0.128278
0.103595
-0.0700487
-0.007139
-0.021385
-0.102794
-0.0983957
-0.132654
-0.0972105
0.130638
0.0326174
0.124057
-0.0848721
-0.0112379
-0.138086
-0.0934436
0.141861
-0.00836889
0.0178597
0.0924279
-0.0210171
0.0626849
-0.0378375
-0.102809
-0.106559
-0.0503882
-0.0268352
-0.0585418
0.111766
0.0815152
-0.00598857
-0.0743851
-0.0670238
0.077402
-0.00485741
-0.0380236
-0.00424202
-0.126052
0.0643723
-0.0833047
0.0536314
0.011521
-0.0324867
0.0804886
0.0552091
-0.0928482
-0.026678
0.0783494
-0.0316697
0.0473504
-0.0963727
0.138807
0.0165057
-0.0611096
-0.0999801
-0.137218
0.0654834
0.0841091
-0.120007
0.14303
0.0325759
-0.0879805
0.0720477
0.106708
0.0758131
-0.0224672
0.0803455
-0.0152347
0.108572
-0.041564
0.0199409
0.00218833
0.0668003
0.117113
0.142064
-0.000568503
0.0259355
-0.150939
0.0467802
0.081147
-0.0412368
-0.0337879
-0.112886
0.15579
0.0419108
0.034532
-0.0196754
0.0356095
-0.0411714
0.102945
0.164463
-0.00908327
-0.0950717
-0.17071
-0.175522
-0.0598187
0.172907
-0.0660197
-0.00928034
-0.019157
0.12656
-0.121901
-0.0956863
-0.127414
-0.0362012
0.020656
0.124082
0.0904252
0.0597792
0.0116341
-0.0107003
-0.0654371
0.16923
-0.00677021
-0.0949509
-0.110123
0.0260788
0.011822
-0.0405762
-0.0415828
-0.000495475
0.041366
-0.0912255
-0.0416946
0.108822
0.106502
0.0683046
-0.0564275
-0.05532
-0.0453607
-0.00660359
0.0555303
0.0279144
-0.102802
0.0212637
-0.0114873
0.0919673
0.0694778
0.0320271
0.0647925
0.0337755
-0.0416934
-0.112631
-0.108141
-0.0876493
-0.0730645
0.0215189
0.111719
-0.00814606
-0.109779
0.0105337
-0.0383343
0.0696582
0.104615
0.0647397
-0.021606
0.0192818
0.0361625
-0.0499055
0.059686
-0.057062
-0.0559983
-0.102997
0.0577955
-0.0881117
0.0680624
-0.0342166
-0.0942203
-0.00661163
-0.0267871
-0.0478427
0.126298
0.0782724
-0.105742
-0.0576398
0.0464123
0.128145
-0.0276095
-0.0583345
-0.0326743
0.0515209
0.024146
-0.0531587
-0.145453
-0.0748338
-0.0996733
0.152878
0.00229387
0.0834181
0.0186734
-0.218268
0.0685137
0.184606
