0.240354, -0.0972524, 0.121727, 0.227085, 0.347672,0.211541,0.470921, -0.16434, 0.23555, 0.155185, 0.296026,0.238882,0.39975, -0.258915, 0.15842, 0.0301356, -0.101065,0.601303,0.314567, 0.063656, -0.176915, -0.19331, 0.138169,0.569121,-0.0295088, 0.0768589, -0.0678602, -0.166016,0.220044, 0.443903,0.521348, 0.0627109, 0.226785, 0.0761666, 0.179389,0.484893,0.489534, -0.15633, 0.019403, 0.331007, -0.00428793,0.469147,0.389761, -0.278879, -0.085806, 0.0252637, -0.0948982,0.688172,0.154778, -0.00268214, -0.156129, -0.160823, 0.16257,0.774281,0.107363, -0.159729, -0.00421795, -0.19888, 0.197879,0.529589,0.366311, 0.0482924, 0.13719, 0.342959, -0.0323427,0.115506,0.352792, 0.140278, 0.0715239, 0.287028, 0.14174,0.39977,0.438229, 0.179803, -0.168308, -0.0859452, -0.145042,0.478685,0.1325, -0.0907567, 0.00103133, -0.115683, 0.232313,0.260692,0.0458013, 0.121622, -0.235533, -0.183771, 0.228644,0.143158,0.0361362, 0.118365, 0.220651, 0.137361, 0.100752,-0.0542304,0.247245, 0.196892, 0.289108, 0.226408, -0.0983959,0.0411344,0.0838767, 0.0471945, -0.153647, -0.1492, 0.00999925,0.07604,0.207335, -0.0627027, -0.0763184, -0.0781296,-0.193876, -0.125451,0.191784, 0.128199, -0.227149, -0.0611973, -0.0734773,0.198422,-0.10778, 0.0547132, 0.229561, 0.137359, 0.0331539,-0.256601,0.155324, 0.277328, 0.176069, 0.0803458, 0.154013,-0.320342,-0.118847, 0.316975, 0.0505996, -0.117855, -0.224508,-0.00434145,-0.152651, -0.0648673, -0.0681691, -0.120136,-0.137227, -0.199462,-0.0247357, 0.0170933, 0.0970656, -0.038006,-0.0293465, -0.149479