0.0253855, -0.0755352, -0.0247903, 0.0359238, 0.101999,-0.0324926, 0.0958147, -0.0472327, -0.0434463,-0.00934618, -0.0443869, -0.0991446, 0.0459126, 0.010945,-0.00733336, -0.00153715, 0.00602176, -0.0243274,-0.0495104, 0.0414823, -0.00272748, -0.0121667,0.0118698, 0.0533911, 0.0992849, 0.098689, -0.0440168,-0.099303, -0.0165974, -0.0398696, 0.0253751, -0.0522915,-0.0533445, 0.0132874, -0.00163904, 0.0780222, 0.0301797,0.0934772, 0.0422748, -0.0218416, -0.00745445, -0.0234,0.0957935, -0.0585316, -0.0151324, -0.0586038, 0.0308917,0.00150813, 0.0332819, 0.0217582, -0.0958012, 0.063222,0.0839658, 0.0153921, -0.063089, -0.0653714, 0.0814773,-0.0852485, 0.0725495, -0.107648, -0.0762267, -0.0926405,0.024912, -0.0966093, 0.0947661, 0.0571545, -0.0846149,-0.0783774, -0.0890566, 0.0557989, -0.043438, -0.0534718,0.00664277, -0.0327944, -0.0510672, -0.10501, -0.0310623,-0.0640619, -0.0531694, 0.0459634, -0.0706889, 0.0493357,-0.101255, -0.0345389, -0.00626137, -0.0382159,-0.055839, -0.0291561, 0.0419651, 0.0455568, -0.0401978,-0.0423577, -0.100039, -0.0356511, 0.0440954, 0.0480418,-0.0442269, 0.0882731, -0.0947809, -0.0592052, -0.034385,0.0578038, -0.0841672, -0.0138398, -0.0583059,-0.076615, -0.052484, -0.0638951, -0.0814979,-0.0228917, -0.0458506, -0.0541499, -0.00126148,0.0527287, -0.0621281, 0.0228224, -0.0701596, 0.0708676,0.0650746, 0.005655,-0.0752089, -0.0821441, -0.0201594, 0.043589, 0.0108053,0.0110918, -0.0564264, -0.0528194, -0.0716534, -0.0777964,0.0507452, -0.00234075, 0.0713038, -0.0950059, 0.0287419,0.037535, -0.0700181, 0.102517, -0.0942674, -0.0373644,-0.0296972, -0.108709, 0.0186567, 0.0144047, -0.0987822,-0.0590105, -0.0279462, 0.06177, 0.0728588, 0.0140212,0.0584371, 0.0912128, -0.0870178, 0.0543802, 0.0576384,0.0904091, -0.0558101, 0.00318106, -0.0905825, 0.0840087,-0.110077, 0.0208644, -0.0858435, -0.0702625, 0.0741931,-0.0901858, -0.0990636, 0.00670614, 0.0867432, 0.0187216,-0.0951456, -0.0128288, -0.084241, 0.0207906, -0.0877564,-0.0519561, 0.0565556, 0.0839113, -0.103958, 0.104995,-0.0839745, 0.0649175, -0.0191693, -0.091408, 0.0605449,0.0625497, 0.0986396, 0.0688853, 0.014767, 0.0711752,0.0488077, 0.074933, -0.0476659, -0.0984676, -0.0843086,-0.0846818, 0.00170816, -0.0647455, 0.0029975,-0.0496803, 0.0852852, 0.105776, 0.0411291, 0.0124398,0.105242, -0.0500543, 0.0537633, -0.0484845, 0.0673035,-0.0901836, 0.00307258, 0.0313794, 0.0554012, -0.0466804,-0.0894791, 0.00945301, 0.0553315, 0.012651, 0.0823912,-0.0837932, -0.0734019, 0.0708047, 0.0183787, -0.0382887,-0.00200788, 0.00343765, 0.102425, -0.0810105,-0.0455633, -0.00141727, 0.07973, -0.0645577,-0.00708894, -0.0387701, -0.0502052, 0.0685669,-0.019302, 0.0431098, -0.0304426, 0.0751305,0.0302073, -0.0877165, 0.067863, 0.0927482, 0.0995789,0.0758491, -0.0470205, 0.0520622, -0.103488, -0.0190028,-0.0818337, -0.0188614, 0.0488309, -0.019767, 0.102431,0.0735746, -0.0291453, -0.0583864, -0.0979269, 0.0570281,-0.0174754, -0.0273271, -0.0954328, -0.0844081,0.00711448, -0.0691644, -0.0733212, -0.100157,-0.0181682, 0.0751873, 0.00978932, -0.00987329,0.0708676, -0.0138597, 0.0120188, -0.000148863,0.0528306, -0.00222745, 0.102679, 0.0917289, -0.0106323,-0.0100752, 0.0975083, 0.071977, -0.0209977, 0.0917962,0.00625047, -0.0750308, -0.056604, -0.0338412,-0.00764486, 0.0902898, -0.079863, 0.0561378, -0.0227179,-0.097158, 0.0287943, -0.0989322, 0.0464141, -0.101532,-0.0472516, 0.032568, 0.0844937, 0.0530332, 0.0244159,0.0854046, -0.083735, -0.0939061, 0.0749487, -0.0393572,-0.0972266, 0.0921423, 0.0506474, -0.0293897, -0.0480807,0.0396032, 0.0622207, 0.00528088, 0.0397461, 0.0923474,0.0433104, -0.0592584, 0.0535821, 0.0526198, -0.0558973,0.0896713, 0.00337305, 0.0689595, -0.044026, -0.0223299,0.0115109, 0.0246289, 0.0777168, 0.0513132, -0.0854305,0.0176742, 0.105262, -0.0123789, 0.082795, 0.111738,-0.0292423, -0.0482283, -0.0477056, -0.103434,0.0257356, 0.0940313, -0.100939, 0.0808343, -0.00129259,-0.0394956, 0.00925414, 0.0166251, 0.0373859, 0.062427,-0.0300851, 0.0216756, 0.0321711, -0.0162963, 0.0387954,0.000780324,0.0682852, 0.00825545, 0.0389945, 0.0431071, -0.045458,0.0770912, -0.0326611, -0.0618857, -0.00345513,0.00888445, -0.0670888, 0.0336074, -0.0770022, 0.00998153,0.105873, -0.0736044, 0.0826213, -0.0696604, -0.0992232,-0.0240202, -0.00824404, -0.068984, -0.101958,-0.0659242, 0.00936329, 0.0628367, 0.00338223,-0.0839573, 0.07467, -0.0583085, 0.0545104, -0.0378746,0.034227, 0.0136378, -0.0196954, -0.0374658, 0.035294,-0.0473152, 0.00281251, -0.00711134, -0.0152671,-0.0368014, 0.0191303, -0.0192993, 0.0530986,-0.00610887, 0.0957775, 0.0680594, -0.0257518, 0.0900337,0.0564796, -0.0033351, -0.0359857, 0.00672217, 0.0507558,0.022516, 0.102566, 0.012122, 0.0550521, -0.00950977,0.0520629, 0.0731205, 0.026227, 0.0274606, -0.0827565,0.0997035, 0.0698006, -0.0952525, -0.0661718, 0.0166022,-8.85106e-05, -0.0207936, 0.0236376, -0.0436061,0.0140682, 0.0201181, 0.0176684, 0.000315494, 0.0121091,0.0899548, -0.0399482, 0.0746879, 0.0048359, -0.00109663,-0.013964, -0.0571868, -0.00999948, 0.0891442,-0.0539569, -0.0931013, -0.0688979, -0.0656673,-0.0493725, -0.0567899, 0.0504551, 0.0649662, 0.0982985,-0.0618283, -0.0290939, 0.0219549, 0.0985296, -0.0664169,0.0130065, -0.0376152, -0.101507, -0.0684284, 0.0732951,0.0705265, -0.0944457, 0.00748497, 0.00128881, 0.104032,0.0234033, 0.00805496, -0.01755, 0.0651244, 0.0409832,-0.029129, -0.0941204, -0.0127483,0.0254966, -0.00172054, -0.0731604, -0.0833547, 0.0210457,0.00987007, -0.0306702, 0.0335031, 0.0680751, 0.08008,0.0975685, 0.0188682, -0.0377669, 0.0506, 0.104535,0.026976, -0.00513237, -0.0442386, 0.100813, -0.0373458,0.0298007, -0.0842484, -0.0402424, -0.0743244,-0.0946696, -0.0576094, -0.0111454, -0.0506504,0.0325929, 0.024154, -0.0905892, -0.027681, -0.0410955,-0.0782832, -0.00501818, 0.0957418, -0.106533, 0.061123,-0.0687201, -0.104193, 0.00466197, 0.114813, -0.0888444,-0.0496083, -0.104275, 0.0736863, -0.029852, -0.0702676,-0.0800574, -0.0341843, 0.0495845, -0.0666897, 0.0066696,0.100296, 0.0653871, 0.0844626, 0.0858769, 0.0439264,-0.0918368, 0.0754248, 0.0712774, -0.0761465, 0.0720864,0.064194, -0.0371933, -0.0734585, 0.048636, 0.061375,-0.0861165, 0.0655052, 0.0611982, -0.0567815, 0.0315788,0.0382164, -0.0764516, -0.0531245, 0.033411, 0.0559479,-0.0293568, -0.00754198, 0.0987201, 0.078751, -0.0813387,0.0204576, -0.070335, 0.0252002, 0.0135324, -0.0773069,-0.0507065, 0.0966382, 0.0599755, 0.0189195, 0.0228218,0.0784709, 0.0536316, -0.119676, 0.0562176, 0.0846688,0.0614236, 0.0316913, -0.0958723, -0.0182066, -0.04329,-0.0345817, 0.0622657, 0.0905951, -0.0846443, 0.0977372,-0.0568384, 0.0768097, 0.0146005, 0.113303, -0.0320562,0.100062, 0.0262121, -0.0667901, 0.0480919, -0.0534019,0.0870847, -0.0392029,-0.0368518, -0.0235149, -0.0269789, 0.107823, 0.0185774,-0.0741456, 0.0197212, -0.0343698, -0.0885952, 0.101652,0.0182166, -0.0367475, -0.0537792, -0.0575416,-0.0448119, -0.0413079, 0.0735374, 0.097366, 0.0314673,0.101687, 0.0766436, -0.0907682, 0.0711281, 0.0109565,-0.0847748, 0.0663295, -0.0176615, -0.0333754, 0.0207261,-0.0570021, 0.0345931, 0.0697051, 0.00777851, 0.0422811,0.0194746, -0.0279734, 0.0852051, 0.023312, -0.105308,-0.101117, 0.0125748, -0.0231347, 0.0712267, 0.0615906,0.033873, -0.0846323, -0.0581455, -0.0187941, 0.112285,-0.0801556, 0.00921064, -0.046377, 0.0113751, 0.0125973,-0.000810609, 0.0272376, 0.0684088, -0.090611,-0.00835872, -0.0779742, -0.0572398, -0.0175902,0.0261494, -0.0748799, -0.0139125, -0.0371149,-0.0225713, 0.0908184, 0.100256, -0.101896, -0.0126204,-0.0483843, 0.0641795, -0.0096838, 0.081096, -0.0930894,0.0418128, 0.0496608, 0.113481, -0.0827749, -0.0587631,0.0902537, 0.0695525, -0.0895069, 0.0411742, 0.0599587,-0.0447167, -0.0615983, -0.0628891, -0.0599449, 0.106304,0.00834373, 0.00262751, -0.0184089, -0.00677304,-0.0305089, -0.0930212, -0.0358027, 0.103611, -0.0324464,0.0525269, 0.104044, 0.0748096, -0.0734841, -0.00761552,-0.0208366, 0.0294248, -0.0569636, -0.0066873,-0.00157192, -0.0119434, -0.0830493, -0.0314928,-0.0301586, 0.074448, -0.0446813, -0.0142351, 0.0038118,-0.0634789, -0.0694808,-0.0685332, 0.0763254, -0.0806665, 0.100602, -0.0942386,0.0126578, 0.0652162, 0.0161504, 0.0927473, 0.0019239,0.0947772, -0.0830244, -0.000401528, -0.0786048,0.0521643, 0.0977688, -0.0138411, -0.0818414, -0.0155698,-0.0566957, -0.0664394, 0.0494671, -0.0335215,-0.0714884, -0.0235022, 0.0301082, 0.0766652, 0.0616879,0.0198399, 0.00967643, 0.0033341, 0.101513, -0.0242631,-0.0409298, 0.0487644, -0.0683026, -0.0355376, 0.0205835,-0.087774, -0.0756185, -0.0659632, 0.103488, -0.0481752,-0.0603077, 0.0788407, 0.0194139, 0.0379941, 0.10089,0.0125495, 0.0481867, -0.0831322, 0.0363906, 0.0530996,0.00545675, -0.0915377, -0.0486263, 0.0615598, 0.0683504,-0.0146354, -7.1511e-05, 0.0861184, -0.0374596,-0.00375446, 0.0130793, -0.0138659, -0.0272923,-0.065689, 0.0717488, 0.0150075, -0.0634687, -0.00700158,0.00646357, 0.103441, -0.0401069, -0.00580807,0.00375391, 0.0869824, -0.0866125, 0.0865938, -0.101834,0.0453473, -0.0573002, -0.101368, 0.0405167, -0.0904863,0.0195881, -0.0277361, 0.0544305, 0.094412, 0.103578,0.00259918, -0.0429356, -0.0926131, -0.0684389, 0.101513,0.0753499, 0.104583, -0.00643395, -0.0627537, 0.0903457,0.0229257, 0.0517266, 0.0271132, -0.00865969,-0.0407576, 0.0499204, -0.0124311, -0.0347285,-0.0118348, 0.0310891, -0.0678847, 0.104763, -0.0324934,-0.0721489, 0.106307, -0.0771511, -0.0489881,-0.0412894, -0.0636677, -0.0244131,-0.109751, -0.096539, -0.0473954, -0.0393543, 0.0896291,0.0110109, 0.0890326, 0.0254085, -0.00950958, 0.0171429,0.0738321, -0.0172286, -0.00838822, -0.102165,-0.0804141, -0.105798, -0.0587025, 0.0852133, -0.108873,0.00978477, -0.0664072, -0.0275876, -0.102482, 0.011926,-0.104466, -0.0611739, -0.0233114, 0.0278717, 0.0292157,0.0262895, -0.0989016, 0.0801224, -0.0949914, -0.0575611,-0.024382, -0.084286, -0.0841355, 0.0251784, -0.0379239,-0.0844466, -0.0411812, 0.0171486, -0.114215, -0.0497526,-0.0552293, -0.00689343, 0.112865, -0.0424994,-0.0283897, -0.0677027, -0.00883153, 0.0969746,-0.106008, -0.0389069, 0.019656, 0.0525189, -0.0379392,0.00152606, 0.0934242, 0.0887686, -0.0801337, 0.108651,0.0544635, 0.065891, 0.0994804, 0.0632562, 0.00343794,-0.0459538, 0.0539532, 0.106462, 0.014809, 0.0676437,-0.0548577, 0.0285198, 0.0997377, 0.0113772, -0.0550375,-0.0714144, 0.0293238, 0.0935011, -0.0381277, -0.0464007,0.0242868, 0.00467113, 0.073335, -0.0205928, 0.0979774,-0.105209, -0.0521474, 0.103786, -0.102679, -0.0791245,0.00320196, -0.0434748, -0.0594932, 0.0381603, 0.0775007,-0.0929967, 0.0761288, -0.00853528, 0.0251292, 0.0398891,0.0044888, -0.0110353, -0.0908657, -0.0458354,-0.0975563, 0.0572572, 0.0920438, 0.0417825, -0.010175,0.00119828, -0.054994, 0.104983, 0.0741156, 0.0460011,-0.0759118, -0.0915216, -0.00967227, -0.0523554,-0.0974059, 0.0244672, -0.029072, 0.0375556, 0.013428,-0.0507287, 0.0636706, 0.0734794, -0.0922912, 0.0497716,-0.0873736, 0.0971641, -0.0638302, -0.0421664,-0.0513078, -0.0657081, 0.0610249, 0.0503276, 0.0400177,-0.0860141, 0.0272813, 0.0241877, -0.0898786, -0.0412363,-0.0666112, 0.0882757, -0.0781832, 0.0817011, 0.0209006,-0.0147024, -0.0258035, -0.0635036, -0.0605075,0.0118461, 0.0530037, -0.0874723, 0.0860848, 0.0319083,-0.009277, -0.104211, 0.00136798, -0.0977389, -0.010268,0.0622071, 0.0867734, 0.101471, 0.0624663, -0.0537709,0.0658302, 0.0408073, 0.101371, 0.00566402, -0.033654,0.049208, -0.0536065, 0.0482225, 0.0402158, -0.0505704,-0.0139746, -0.0428687, -0.0218028, -0.0342614,0.0886253, -0.0662401, -0.0730704, 0.0559236, -0.0562977,0.00237224, -0.0851516, -0.10341, -0.101558, 0.0405515,0.00338584, 0.0111587, -0.0889567, 0.00929238,-0.0416055, -0.074597, 0.0916265, -0.0473393, -0.0364054,-0.00351193, -0.0115302, 0.00636166, 0.0465938,-0.0502565, -0.0620131, -0.0320955, 0.0265397,-0.0300443, 0.0561356, -0.0144371, 0.0476175, -0.11173,0.0469664, -0.0333681, -0.0347636, 0.0916941, 0.00404095,0.0188564, 0.101286, -0.0137225, -0.0989121, 0.00793099,0.0572887, 0.0623342, 0.0413314, -0.084643, 0.0354074,-0.0501115, 0.0390612, -0.0573293, -0.00255498,-0.0653578, 0.0332457, 0.0275049, -0.103173, 0.0115703,0.0702563, -0.0907473,-0.037135, -0.0354456, 0.0326047, -0.0219974, -0.0170056,-0.0438288, -0.0561614, -0.093907, 0.0641716, -0.0312237,-0.0787071, 0.0477107, -0.0374147, -0.0658895,-0.0510372, -0.0177157, -0.0800883, 0.0229212, 0.0532441,0.0554562, 0.0236597, -0.0097473, 0.00774884, 0.0287361,0.0953818, 0.0686864, -0.0246511, 0.0780727, -0.0672537,-0.103588, 0.00836394, 0.00913084, 0.0771749, 0.00704873,0.00735836, 0.0643566, 0.0738445, 0.0304547, -0.0680484,0.0736507, -0.0552896, -0.00880636, -0.102056,-0.00442619, -0.0463209, -0.0137234, -0.0135077,-0.0279684, 0.0806759, 0.0469553, -0.0743727, -0.0858253,0.0809861, 6.30428e-06, -0.0695646, 0.0354537,-0.0398622, 0.0497598, -0.00310999, -0.0916503,0.0950923, -0.0966981, 0.0638827, -0.0820207, -0.0328252,-0.0418198, -0.0344029, -0.00226095, -0.0227212,0.0103566, -0.0729668, -0.0115029, -0.0439528, 0.0295337,0.0128754, 0.120024, -0.00695607, -0.0707034, 0.0235853,-0.0747369, 0.0219291, 0.0668427, 0.0997649, 0.00631644,-0.108672, 0.100941, 0.106886, 0.0627828, -0.00288959,0.0589273, 0.0192579, -0.0461128, -0.030377, 0.0374842,-0.00428985, -0.03186, 0.110333, -0.0313025, -0.0890369,0.0293387, -0.108509, 0.0861318, 0.0835792, -0.0806407,-0.0672457, -0.0887225, -0.058722, 0.0516046, -0.101796,-0.04652, -0.00614252, -0.0255476, 0.0164736,-0.0187953, 0.0878449, 0.0380448, -0.0210469, -0.060361,0.0536056, 0.00943619,0.0156863, -0.0491064, 0.0674496, 0.0774641, 0.0906647,-0.0152306, 0.0802931, -0.0685157, 0.0895593, -0.002308,0.0263617, -0.0503306, -0.0308443, 0.088486, -0.0295834,0.105628, -0.0339747, 0.0364047, -0.0637055, 0.0490322,-0.0901338, -0.0470242, 0.00612019, -0.0598899,-0.0420704, 0.0456993, 0.0530237, -0.075124, -0.0337751,-0.0589254, 0.0630999, -0.0439998, -0.0084575,0.0411424, -0.0347378, 0.098445, 0.014345, -0.0066689,-0.0530636, 0.068046, 0.0942351, 0.0234652, -0.0692751,0.0244863, 0.10611, 0.0793641, 0.00658592, -0.0929347,0.0953129, 0.0476618, -0.00805763, -0.0848899,0.0111595, 0.00127776, 0.061791, -0.101955, -0.0348719,-0.0977446, 0.0458269, -0.0572001, -0.0356753,-0.0249163, -0.0844793, -0.0983206, -0.0529686,-0.00363122, 0.101998, 0.0440035, 0.0163853, 0.0199173,-0.0101767, 0.0691059, -0.0315869, 0.0810004, -0.086026,0.0438188, 0.067281, 0.00269775, -0.0857596, -0.106965,0.00442208, 0.0801291, -0.0248636, -0.00245998,-0.0595835, -0.0605383, 0.0542416, -0.0585583,-0.0720051, 0.0654422, 0.0587392, 0.0792187, 0.0105537,0.098548, -0.0887263, 0.0974899, 0.0458408, 0.0433978,-0.0859194, -0.0260985, 0.0245075, 0.0398664,-0.0694208, 0.0817033, -0.0463542, 0.0481087, 0.10466,0.00192276, 0.097119, -0.0264846, 0.0896023, 0.0326349,0.043373, -0.112384, 0.00435228, 0.0831576, 0.0623497,0.104102, -0.0445423, -0.0593306,0.0353226, 0.0335153, 0.0962188, 0.0214855, -0.0517262,0.0351386, -0.0419285, 0.000639746, -0.107487,-0.0687189, 0.0766958, 0.0891311, -0.00450449, 0.015309,-0.0121107, 0.0724157, 0.0500728, 0.00307069, 0.0377824,-0.0596913, -0.00718022, 0.0958612, -0.0475269,0.021232, -0.0905888, 0.0258244, 0.105798, -0.03066,0.0584771, -0.0390361, 0.0125453, 0.0250304, -0.0853457,0.0728483, -0.0144401, 0.0267177, -0.0201309, -0.035637,0.0238442, -0.00320157, 0.0254021, 0.00517335,0.0188351, -0.0309867, -0.0380156, 0.0259731, 0.100564,0.0939884, 0.0865057, 0.0521066, 0.0686815, -0.0355785,-0.0632975, 0.0229541, 0.0832163, -0.0611473, -0.03466,0.0254688, 0.0404961, 0.00477421, 0.028407, -0.0257829,0.108611, 0.0352102, 0.0877226, 0.103624, -0.0998158,0.0179751, 0.082867, -0.0612974, -0.0639607, -0.0531725,-0.0635729, 0.108714, -0.0700844, 0.0176866,-0.00169351, 0.0636606, -0.0348009, -0.0446259,-0.0966098, 0.0283926, -0.00359921, 0.0464441,-0.0979886, 0.0617795, 0.0702938, 0.10182, 0.0123554,-0.0275901, -0.063019, -0.0156018, 0.0735165, 0.0735519,-0.0275952, 0.0049543, -0.0567193, 0.0677637,-0.0916343, -0.0572865, 0.107731, 0.0851528, 0.0512375,-0.0845188, 0.0980048, -0.0449163, -0.00127449,-0.0449286, 0.0750959, -0.068333, -0.095762, 0.0214032,0.0857752, -0.0208862, -0.0454213, 0.0897626,-0.0475379, 0.0778008, -0.0494037, 0.0961049,-0.034761, -0.0214246, 0.0900241, -0.086237, 0.0230397,-0.113876, 0.0725354, 0.0897727, -0.0946617, 0.118978,-0.0578111, -0.0395904, 0.0722688, -0.0667015,0.0055526, 0.0604447, -0.0353585, -0.0155219,-0.0961872, -0.0169314, -0.00505129, -0.0239607,-0.101531, 0.103362, 0.0537172, 0.0529695, -0.0777578,-0.105255, -0.0266306, -0.0505139, -0.0439928,-0.035598, 0.0264321, 0.0701142, 0.035834, -0.0356063,0.107122, 0.0551951, -0.108423, -0.00826229, 0.0791623,-0.0913523, -0.0766753, -0.100638, -0.095273, 0.023096,0.0521093, 0.0102287, 0.103714, 0.0602529, 0.00340602,-0.0409464, -0.0653794, -0.0269328, 0.0741889,-0.0124707, 0.0431522, -0.008047, 0.0593016,-0.00302863, 0.050471, -0.0502716, -0.100961,-0.0138768, -0.09358, 0.0524776, -0.0869008, 0.0206593,-0.0989627, 0.0565447, 0.0191984, -0.0589125, -0.065188,0.109794, -0.0108048, -0.0224642, 0.0585662, 0.0352493,-0.0913649, -0.0225907, -0.0156945, -0.0450724,0.0311213, -0.0417226, -0.0256644, 0.081035, 0.0320168,-0.00611528, -0.0694829, -0.030812, 0.0510036,0.0481384, 0.0138089, -0.0153645, 0.0962943, 0.09601,0.0173874, -0.0552504, 0.0685914, 0.0500054, 0.0879397,0.00486148, 0.0272217, -0.0625711, -0.00739802,0.0175307, 0.0818052, 0.0763825, 0.100538, 0.0976354,-0.0813838, -0.0845974, 0.00379774, 0.0271474,-0.0459428, -0.0269039, -0.0164285, 0.0251645,0.0166372, -0.0473441,0.0979623, -0.0643497, -0.112956, -0.0906536, 0.0791607,-0.0569581, -0.0799521, 0.0244853, 0.0302446, 0.0603166,-0.0261817, -0.0878581, 0.0584626, -0.0751078,-0.0478697, 0.0336514, 0.0654547, 0.0486444, -0.0106347,0.0693923, 0.0132922, -0.0772847, -0.0660848, 0.0150657,0.0490917, 0.0266354, -0.0658493, -0.0832086,-0.0423512, 0.0392117, 0.0228612, -0.0715564, 0.0565973,0.0721273, -0.105726, 0.0243263, -0.0400134, -0.0630033,-0.0836216, 0.0230852, 0.000779719, 0.105349,-0.00212139, 0.101702, 0.0319922, -0.000713179,-0.0332102, -0.0551587, -0.0101997, -0.0315965,-0.0261219, -0.0929592, -0.0700326, 0.0982329,0.0641292, -0.0498626, -0.0116375, -0.0280606,-0.0602714, 0.0297832, -0.0923874, 0.103381, -0.0421511,-0.0803024, 0.0909686, 0.0602267, 0.0143364, 0.0410159,-0.0816413, 0.0750181, -0.00187355, -0.0394634,0.0346492, -0.0810794, -0.0818888, 0.00622005,0.0051426, -0.0654007, 0.090313, -0.0405266, -0.0395785,-0.0339404, 0.0392145, 0.0195817, -0.0257171,-0.0355934, -0.0764381, -0.104672, -0.0852212,-0.0496819, -0.0720564, -0.011222, 0.011015,-0.00161041, 0.07492, -0.0268176, -0.0279051,-0.0340963, -0.0361656, -0.0991718, -0.00847233,-0.0981048, 0.0872786, -0.0468416, 0.0557094,-0.0807656, -0.0550185, 0.0620953, -0.0674647,0.0782093, -0.086732, -0.0723867, -0.0441896,-0.0379407, -0.0130852, -0.0902114, -0.0316531,0.0496939, 0.0830679, -0.00623597,-0.0151506, 0.0805072, -0.0583234, 0.0170918, -0.0974197,0.0490239, 0.0569128, 0.0479901, 0.0345121, 0.0339759,-0.0928986, -0.0702532, 0.0904387, -0.076792,-0.0310672, 0.0886221, 0.0220859, -0.0313239, 0.027784,-0.00744917, -0.0174062, -0.027754, 0.102527,-0.0112701, -0.0585614, 0.0470945, -0.0860843, 0.101939,0.0194943, -0.0752789, -0.0341826, 0.0699231, 0.0581751,0.0930076, -0.059734, -0.0196948, -0.0436689,-0.0264814, -0.0206976, -0.0984392, 0.0384783,-0.0745535, -0.00299793, -0.0604254, 0.00262129,-0.0298585, 0.055862, -0.00390726, 0.0417845,-0.0676331, 0.0752211, -0.0400485, 0.103561, -0.103644,-0.091813, -0.0363189, -0.0254597, 0.0969331, 0.101961,-0.0782125, 0.0978996, -0.0580304, -0.0453205, 0.054319,-0.0143183, -0.0139544, 0.0629953, 0.0744599,-0.0960232, -0.0659672, 0.0442327, 0.0505326,-0.0990871, -0.102785, 0.0544072, 0.0486979, -0.0387314,-0.075543, 0.020663, 0.0472775, -0.0999108, -0.0487477,-0.0526036, -0.00470352, 0.0744735, -0.00250305,0.0090069, -0.0248525, -0.00151741, 0.0199421,-0.0243817, 0.072096, 0.0950376, 0.068211, -0.0238031,-0.0323979, -0.0259837, 0.05281, 0.101733, -0.0586343,-0.0248738, 0.00831474, 0.0657449, 0.0280642,0.0915879, -0.00700423, 0.00671797, 0.0415808,-0.0593328, 0.0599596, 0.0516045, -0.0816073,0.0856309, -0.0782546, -0.0191026, -0.0960333,-0.0642641, -0.0386134, 0.0604402, 0.0893043,0.0365575, 0.0447709, -0.0549664, 0.0624877, -0.0208944,-0.0562073, -0.00171759, 0.0439603, 0.0882297, -0.007723,0.00605554, -0.0123722, -0.0746382, -0.0332304,0.108398, -0.0121367, 0.0813132, -0.0207611, -0.0970656,0.0896881, 0.101299, -0.0359213, -0.102135, 0.0406334,-0.0184156, -0.00587065, -0.00767913, 0.0490167,0.0386843, -0.0907364, -0.0979375, 0.00178389,-0.0834746, -0.0883162, 0.0325307, -0.0726711, 0.063083,0.0378843, 0.00275555, -0.0102742, -0.0966944,0.0695499, -0.106295, 0.00772658, 0.109673, 0.0208585,0.00161433, -0.10407, -0.0482749, 0.0638798, 0.01852,0.0659403, -0.00724587, 0.0427244, 0.0942005,-0.0548969, 0.0250695, 0.00930855, 0.0295235,-0.0422984, -0.00360328, 0.059563, -0.0667951,0.0145483, 0.101939, -0.0484226, 0.0539734, -0.0212495,-0.0172789, -0.0195364, -0.0116372, -0.00159628,-0.0386856, 0.0803003, -0.0992254, -0.00235681,0.0679011, 0.0971357, -0.00375304, -0.0775774,0.00986357, 0.0748565, 0.0681551, -0.0885165, 0.0263234,0.0501459, 0.0371163, 0.039115, 0.09574, -0.0869523,-0.0443473, -0.0488711, -0.0480662, -0.0719556,0.0149202, 0.0884205, -0.0142739, 0.0105379, -0.0505118,-0.0733024, -0.027652, -0.0510534, -0.0191938,-0.0712266, -0.110428, -0.0803384, -0.0594765,0.0987632, 0.0836939, -0.0202705, -0.0672734,-0.0368881, -0.0836224, -0.0370337, 0.0646681,-0.0447495, 0.0441021, 0.0854844, 0.00329016,0.0779944,-0.0833465, 0.0989355, 0.0176031, 0.0557366, 0.06906,0.0593806, -0.0375308, -0.0676023, -0.0945692,-0.0479789, 0.0253349, 0.0684698, -0.086687, 0.00901132,-0.0789831, -0.0386984, 0.0168514, -0.0606123,-0.00899575, -0.0511823, 0.0952046, -0.00714324,-0.0437993, 0.0535338, -0.101499, 0.0724165, -0.0655958,0.0795924, 0.0649965, 0.00787791, 0.0497979, 0.0945955,0.0746082, 0.0985255, -0.0790542, -0.0843883,-0.0339445, -0.00646507, -0.0457482, 0.00503702,0.100117, -0.00357869, 0.10355, -0.0224887, -0.00967988,-0.0785983, 0.0087014, 0.0276269, -0.0280625,-0.0991478, -0.0606665, -0.0816092, -0.00462323,0.0219876, 0.00221813, 0.0514826, 0.0735332, -0.0929256,0.0144164, -0.0818108, 0.0569744, 0.0028162, 0.0439354,0.0278042, 0.0433273, 0.085095, -0.0803683, 0.100127,-0.0944737, 0.039629, 0.0395616, 0.0466847, 0.065135,-0.00441693, -0.0674997, 0.0921163, 0.048071, 0.0513471,0.109254, -0.0115016, -0.0120486, -0.0815381, 0.0745138,-0.101586, 0.0437485, -0.0432287, -0.0138029,-0.000442801, 0.0190228, 0.0865321, 0.0463431,0.0152317, 0.079145, -0.0141665, 0.0587822, 0.0412729,-0.0307909, 0.0365727, -0.0768076, 0.0778284, 0.114225,-0.100127, 0.0137145, -0.0231686, -0.0087569,-0.0064114, -0.0136537, -0.0838479, 0.0533559,0.0597027, 0.0459397, 0.0128611, -0.0325485, 0.0271504,0.0301983, -0.0414311, -0.0105484, 0.0279151,-0.0152827, -0.0195792,-0.0613002, -0.0778376, 0.0449948, 0.0915574, -0.050433,0.0738791, 0.0076815, -0.0114437, 0.0540252, -0.0933151,0.0531912, 0.0196582, -0.104291, 0.0762423, -0.0205499,-0.0782774, -0.0791656, -0.0719873, -0.0504266,-0.0270307, 0.0890098, -0.0350272, -0.0864724,0.0509185, -0.0424466, 0.0312982, 0.0131205,-0.00820304, 0.0283967, -0.0743215, -0.0873503,0.0792787, -0.0534105, 0.0698182, 0.108402, -0.100932,-0.0924953, 0.064697, 0.0720652, -0.017833, 0.0256058,-0.0659861, -0.106975, 0.0133753, 0.0174129, -0.0676268,0.0173983, 0.000377416, -0.00396752, -0.0217949,0.0147106, -0.0220631, -0.0586294, 0.00777447,0.0119741, 0.0937673, -0.066163, -0.0685951,-0.00210202, 0.0316702, 0.0638046, -0.0426586,0.0851484, -0.0840484, 0.0431467, -0.0791075,0.00842118, -0.0556381, -0.0635067, 0.0167159,0.0387588, 0.0321901, 0.10165, -0.0654128, 0.0776993,0.042426, -0.0822143, 0.0982655, 0.0157067, 0.0238836,-0.0210281, -0.00466363, -0.046181, -0.0908901,-0.0517981, 0.100523, 0.0608756, 0.0340098, -0.0723676,0.0701056, 0.111162, -0.0738019, -0.0793528, 0.0533922,0.0580104, 0.0692635, -0.0828971, -0.0751024, 0.0100856,-0.0367384, -0.00562222, 0.030074, -0.0764691,-0.0781934, -0.0493191, -0.0387412, 0.0973535,0.0767043, 0.0285031, -0.0651506, -0.0443825,-0.0381319, 0.0320174, -0.0737899, -0.071866,0.0356371, 0.100048, -0.083977, -0.0360419, -0.0187522,0.0233463, -0.0423517, -0.100264, -0.0524027, -0.0288061,-0.0975198, 0.00716988, -0.0223937, 0.037238, -0.0793949,-0.0175772, 0.00662945, 0.0924299, -0.0985739,0.0249234, -0.0676067, -0.0806458, 0.0617494,-0.0696434, -0.023864, 0.0537978, -0.0811266,-0.0240922, -0.0993763, -0.0631259, 0.0390524,-0.0337136, 0.0394365, -0.0246379, 0.0512868, 0.0355441,0.0234094, -0.0461697, -0.0611271, -0.0612641,-0.0480418, 0.068987, -0.0768042, -0.100469, 0.0216743,-0.0353169, -0.016006, -0.107121, -0.0747954,-0.0871621, 0.100724, -0.00142217, 0.0610148,-0.0114842, -0.0445366, 0.0649988, -0.0719552,0.0181364, 0.0443954, 0.0965801, -0.0446089, 0.0979043,0.0607918, -0.103376, 0.0360082, -0.0635602, 0.0637814,0.0955278, 0.0244116, 0.100241, -0.0367471, -0.0748568,-0.0781519, -0.0171934, 0.0895092, -0.0205535,-0.0863579, -0.0589696, 0.0479534, -0.0360134, 0.074114,-0.0128933, 0.0937423, -0.0436262, 0.0334535, -0.078368,-0.104851, -0.0299995, -0.0323459, -0.00969009,0.0270592, -0.027955, -0.023746, 0.0896274, -0.0653183,0.0763022, 0.104899, -0.0615892, -0.054942, -0.00378607,0.0630221, 0.0687744, 0.0235923, -0.0864374, 0.110003,-0.0668482, -0.0524457, -0.0286552, 0.0559336,-0.00642437, -0.100545, -0.00105646, -0.0789688,-0.093656, 0.0749626, 0.112172, -0.102964, -0.0201198,0.0706337, -0.0669432, 0.00735755, 0.0287176,-0.0646147, 0.0305345, 0.00770655,-0.0842034, -0.00563175, 0.067619, 0.0176412, 0.007854,-0.00708798, -0.0423437, 0.0833329, -0.0302776,-0.0912089, -0.0191927, -0.031768, -0.0826415, 0.043849,0.0633726, 0.0346377, 0.0956099, -0.106673, -0.0171384,-0.0319388, 0.0724672, -0.0653091, 0.0960923, 0.057486,0.0868047, 0.0118615, 0.0437328, 0.0792655, 0.0379856,-0.0874403, -0.0390866, -0.104054, 0.0578881, 0.0393433,0.0555528, -0.0795578, 0.000852054, -0.065147,0.0625279, 0.0947995, -0.0562046, 0.00519821,-0.0864491, -0.0771891, 0.00142486, 0.0272466,0.0319335, 0.0574658, -0.0419582, 0.10342, 0.0291638,0.0212234, -0.0537954, -0.0993219, -0.00247316,0.0140798, 0.00561645, 0.0657139, -0.10841, -0.061674,-0.0346431, 0.100945, 0.0348064, 0.0815835, -0.0711016,0.0511798, -0.105214, -0.0703737, -0.102839, -0.0799724,0.05649, 0.0143062, 0.0620067, 0.0291741, -0.0765821,-0.0858279, -0.0241431, 0.00884489, 0.0149954,0.0320739, 0.0609813, 0.0291862, -0.019186, -0.102603,0.0711024, 0.0379388, -0.0407789, 0.0913913, 0.0733997,-0.0444192, -0.0265016, 0.0102259, -0.0567046,-0.084267, 0.10743, 0.107732, -0.0634196, 0.0582346,-0.0527403, -0.000601885, 0.0440125, 0.0351101,-0.0478571, -0.0295926, -0.0180209, -0.0596889,0.0356733, 0.0617275, 0.00320892, -0.0959485,0.00250599, -0.0250361, 0.105823, 0.0317364,-0.0860644, 0.0210488, 0.0616785, 0.0937645,-0.0136246, 0.0215148,0.100166, 0.0304036, 0.0316744, 0.0804422, 0.113436,-0.0318938, 0.077481, 0.0180986, 0.0939388, 0.0500978,0.0351112, -0.0494482, -0.0061712, 0.0720684,-0.0737124, 0.0240344, 0.0771384, -0.0317604, 0.0393304,0.0761268, -0.0582811, 0.0594802, -0.00599078,0.0383856, 0.0455242, 0.0250472, 0.0419125, 0.071985,0.0823234, -0.0409168, -0.0856836, 0.0390314, -0.035008,-0.0676378, -0.0269566, -0.0370561, -0.0425985,0.0298728, -0.0182702, 0.0389478, -0.0471883,-0.0905504, 0.044193, 0.029097, -0.0573155, 0.0176369,0.0294731, -0.0485685, -0.0372557, -0.0411692,0.0244134, 0.0550433, -0.0803756, 0.0564757, 0.0357175,0.0991711, 0.0820185, 0.0655089, 0.0385965, 0.0679673,0.0840438, 0.0312945, 0.00845289, 0.086174, -0.0828468,0.00780777, 0.0150073, -0.0289785, 0.0632944,-0.0709616, -0.0704687, 0.0593416, 0.097502, 0.0947642,-0.0833151, 0.00991905, 0.0109814, 0.066946, -0.0836981,-0.115049, 0.0436496, -0.0616797, -0.0106946, -0.095522,-0.0832888, -0.0116081, -0.0337233, -0.0574227,-0.101639, 0.0815795, -0.102578, 0.037546, -0.0764146,-0.0440418, -0.0318085, -0.00200525, -0.0146676,-0.0751254, -0.102283, 0.0733522, -0.0582484, 0.026254,-0.0794327, 0.105956, 0.00208364, 0.0262995, 0.105489,0.0441431, 0.0417148, -0.0172267, 0.0824055,-0.0513064, -0.033997, -0.0853983, -0.0109201,-0.0839394, -0.0482235, 0.00145131, -0.0753678,0.0270316,0.111184, 0.0963501, 0.0632182, 0.108387, 0.00831036,-0.11726, 0.101808, 0.0536799, -0.0504937, 0.0810301,-0.0725698, -0.104112, 0.0252703, -0.0916547,-0.0615705, -0.101297, 0.026022, -0.0108151, -0.0631106,0.132202, -0.00110153, -0.0733231, 0.0887876, 0.0428829,0.081673, -0.0257204, 0.0729319, -0.084515, 0.054311,0.00740611, -0.0241065, 0.0819267, 0.0855831, 0.0196007,-0.100103, 0.029725, -0.0305639, -0.0253605, -0.115134,-0.0289994, -0.0472521, -0.0287475, -0.116933,-0.0637209, -0.0469997, -0.0894435, 0.0728957,0.0240813, -0.0665767, -0.00363202, 0.105874, 0.0852767,-0.0592819, 0.094464, 0.00811736, 0.00776745, 0.0292033,0.0142585, -0.0702259, -0.0396073, -0.0361821,0.0616752, 0.052697, -0.00948866, 0.0626407, -0.0144945,0.0759054, -0.0444479, -0.0560559, -0.0800823,0.0669782, 0.0300359, 0.0174791, 0.0283242, -0.0415122,0.0485333, -0.0863762, -0.0398875, -0.0584275, 0.038607,0.11672, -0.0232615, 0.0643618, 0.0302968, -0.104326,0.0564883, 0.027466, -0.07036, -0.0790837, -0.0180095,-0.0438141, -0.0510749, -0.0686037, 0.00250952,-0.0713601, -0.064676, 0.0560064, -0.0800772,-0.0565206, 0.033615, -0.0734846, -0.0890454,-0.0957676, 0.0574368, -0.0675979, 0.099576,-0.0299625, 0.068461, 0.0844414, -0.0738203,-0.0155612, 0.0356986, -0.0485174, -0.00658068,-0.0371757, -0.00142552, 0.00388904, 0.0963021,-0.0834512, -0.0501451,0.0147662, -0.0758211, -0.0104069, 0.113962, -0.0108521,-0.0916412, 0.0740988, -0.0158464, 0.0805506,-0.000716797, 0.0602587, -0.0504448, 0.0816532,-0.0321833, 0.0887043, -0.0184825, 0.00626712,-0.0794907, 0.0134511, 0.0815971, -0.0610693, 0.0230221,-0.0795601, -0.0745139, 0.0340725, 0.0326604,-0.00573237, 0.033, 0.0477678, -0.00428622, -0.0190986,0.0363089, 0.0285189, 0.0953577, 0.0388858, 0.0712515,-0.100807, -0.0753991, -0.00212565, -0.0493231,-0.0234127, 0.0872595, -0.104882, 0.0332784, 0.105948,-0.105593, -0.0523245, -0.068895, 0.0977411, 0.103373,-0.091931, -0.0240812, 0.0203685, 0.0525939, -0.0821361,-0.0827112, -0.0321749, 0.058492, -0.0440879,-0.0850141, -0.0618974, -0.0765238, -0.0931055,-0.0765967, -0.00756, -0.0864459, -0.0849554,0.000374837, -0.0421236, 0.0383253, -0.00194621,0.0320334, -0.0279479, 0.090015, -0.0327288, -0.0611696,-0.0847905, 0.0620934, 0.10242, -0.0395934, -0.0704667,-0.0248053, -0.0106345, 0.0854218, -0.11409, 0.101843,-0.0924902, 0.0861668, -0.10566, 0.015682, 0.0277922,-0.0303324, 0.0437993, -0.0688695, 0.0969469,-0.0868863, -0.0593988, -0.075574, 0.0658728,-0.000612906, 0.0622987, 0.086839, -0.105567, -0.107396,-0.120625, 0.0157242, -0.00162066, -0.0938872,0.026441, 0.00332585, -0.0187973, 0.0880469, 0.0313065,-0.0462556, 0.0159394, -0.0114401, 0.0107209,-0.104697, 0.0898693, 0.0099234,0.0668901, 0.027432, 0.0569143, 0.0849259, 0.0415184,0.0518634, -0.00905798, 0.0784345, -0.077266, 0.0926868,0.0598972, 0.00825838, 0.0316129, 0.0839022, -0.0344543,0.0545328, -0.0769725, -0.0804442, 0.00338743,0.0908217, -0.0267312, 0.0295726, -0.0697873, 0.10536,0.072714, -0.0975835, -0.111462, -0.030372, -0.00571491,0.0820149, -0.0989564, 0.0929872, 0.10502, -0.0657919,-0.0289245, -0.0760303, 0.00672792, 0.0296366,-0.0199458, 0.0568015, -0.044254, -0.0204754,-0.0275903, 0.0562829, 0.0838802, 0.112783, 0.116103,-0.0585987, 0.0719832, -0.00351366, -0.0257347,-0.104992, 0.0862024, -0.020022, 0.0853474, -0.0961096,-0.0355127, 0.0367645, -0.0462796, -0.0447869,0.0794927, -0.0337586, -0.0638781, 0.0518767,-0.0901338, -0.0391209, 0.0620418, -0.0431336,-0.0469937, -0.0826923, -0.085467, 0.0537231, 0.0922033,-0.0160004, 0.00443552, 0.0611079, -0.00327995,0.0999373, -0.00997854, 0.0528324, 0.0869403, 0.0972858,0.0840347, -0.019423, -0.0038506, 0.0987617, 0.0626261,0.0724539, -0.0801487, -0.0113937, -0.104473, 0.0335385,-0.0315261, 0.0824415, -0.0196536, -0.0838509,0.0354323, -0.0370076, 0.0160778, -0.0736416, 0.0881411,0.0140382, 0.100318, 0.0968741, -0.108721, 0.0934965,0.0590706, -0.062365, 0.0555788, -0.0250921, 0.0253819,-0.0289368, -0.0236342, -0.0127021, -0.0147272,0.0457739, 0.0797244, 0.0505703, 0.0244726, -0.0762194,0.0384598, -0.052962, 0.0526753, -0.0680565, 0.0421878,-0.0229704, -0.0863829, -0.0589372, -0.0448554,0.00337768, -0.0724411, -0.0192199, -0.0607039,-0.0945566, -0.00607309, -0.0940751, -0.0308524,-0.0756861, 0.0598023, -0.052821, 0.0296724, -0.0794629,-0.0742882, 0.092414, -0.0762883, 0.0496485, -0.0204125,-0.117449, -0.00958613, -0.0595211, -0.0470955,0.0599635, -0.0311775, 0.0750537, -0.066245, 0.0562487,0.0940281, 0.0511994, 0.036139, 0.0219349, 0.0504589,0.0761688, -0.0093266, 0.0016003, 0.0542743, 0.0490972,0.0073943, 0.00201736, -0.0201701, 0.0260026, 0.0683047,-0.0636545, 0.0369476, 0.0344758, -0.0401736,-0.0399795, 0.0458361, -0.0210246, 0.0251891, -0.066032,-0.069368, -0.0915778, -0.053309, 0.000163023,-0.0638565, 0.0520421, -0.0839233, -0.0326627, 0.053416,0.047952, -0.00562437, 0.0825294, 0.0598088, -0.0689296,0.0304272, 0.0440647, 0.0504114, 0.0232476, 0.0199975,0.0611574, -0.0886568, 0.0506645, -0.033022, -0.0721198,0.0734694, 0.108102, -0.0927231, -0.0239081, 0.0285998,0.0430779, 0.0647872, -0.0486936, 0.0334827, 0.0961455,0.0897223, -0.0719425, -0.089907, 0.0630838, -0.0363063,-0.00749638, 0.0808798, -0.0609259, 0.0160128,0.0288954, 0.0672762, 0.047082, -0.0201539, 0.0697977,0.0919278, -0.0382568, 0.0683054, -0.0293882,0.0883538, -0.0397119, 0.0328939, -0.0609256,0.0507212, 0.0540015, 0.0597494, 0.0463178,-0.0200638, 0.0203853, 0.0212484, 0.0890962, 0.00102984,0.0203188, -0.106032, -0.0948779, -0.00573046,-0.00466246, 0.049759, -0.00927099, -0.080217, 0.0403762,-0.0700599, 0.0668507, 0.0413656, -0.0313428, 0.117269,0.116435, 0.0723173, -0.07049, -0.00900763, -0.0733948,0.0720785, -0.000457269, 0.0953827, -0.040727,0.0643605, -0.0183901, 0.0900543, 0.00587337,-0.0994181, -0.0213796, 0.0649548, -0.0183856,0.0353748, -0.00475842, 0.0783458, 0.00782387,-0.012552, 0.0547759, 0.101526, 0.0880863, -0.00222611,-0.0417511, 0.0724593, 0.0991653, -0.014534, -0.056368,-0.00804458, -0.0458603, -0.0246151, 0.0192924,0.0478322, 0.0336769, 0.0746064, -0.105762, -0.015607,0.0511296, 0.01285, 0.11232, -0.000725955, -0.0476862,-0.0905321, -0.0855005, 0.0408298, -0.106275,-0.00766296, -0.085358, 0.0711654, 0.1027, 0.00902801,-0.0736996, 0.000836307, -0.0604001, -0.00354839,0.0353746, -0.00214068, -0.0334519, -0.027891, 0.117623,-0.036492, -0.0534991, 0.00884688, -0.0664689,0.0487159, -0.0260971, 0.0991279, 0.0974922, -0.0597427,-0.0832706, 0.0425924, 0.0394299, -0.014805, 0.099596,0.0701099, 0.061286, -0.0456974, -0.0374333, -0.0904992,-0.0482696, -0.101139, 0.031535, 0.0201376, 0.0663149,0.0874189, -0.0486143, 0.0065549, -0.0801762,0.0363485, -0.00222479, 0.00220563, -0.0645845,0.00885765, -0.123231, 0.100209, 0.0508803, 0.105031,0.102636,-0.0265842, 0.00984806, -0.0570915, 0.0453884, 0.110069,0.016072, -0.0250292, 0.00981337, -0.0973616, -0.099107,0.0438031, 0.00992766, -0.0448478, -0.0518035,0.00273661, -0.0815055, -0.0262074, -0.0592608,0.0396612, -0.0211552, 0.0596326, -0.0981163,-0.0551536, 0.0910999, 0.0280004, 0.0484962, -0.0524035,0.0865899, 0.0110476, 0.00936393, 0.0245094, 0.0409481,0.0502472, 0.0690679, 0.00234012, -0.0641079,-0.0115986, 0.00928738, 0.0601034, -0.107388,-0.0278215, -0.035624, -0.045269, 0.0738882, 0.0461167,0.047217, 0.0112747, -0.0339872, 0.0932258, -0.0891044,0.0219192, -0.0164644, -0.0963214, -0.0287751,0.0838545, 0.0213471, 0.0774643, -0.00760822, 0.0560382,0.110144, 0.0254231, -0.0903036, 0.0225665, -0.0345693,0.0733281, 0.0222627, 0.127411, 0.0929428, -0.0643035,0.0757516, -0.0929395, 1.42647e-05, 0.102112,-0.0457112, 0.00315466, 0.00897587, -0.0119754,-0.104694, -0.0459725, -0.0997527, 0.0577354, 0.0615302,-0.0539267, -0.00371379, 0.0792181, 0.100528, 0.0599198,-0.0079112, -0.0572189, -0.092467, 0.0396767,-0.0802566, -0.0756472, 0.0242144, 0.000960206,-0.098419, -0.0640065, -0.0512026, -0.0520665,0.0992525, -0.0381991, -0.00964862, 0.0504362,-0.0873554, 0.0402414, 0.0707365, 0.022441, 0.0360078,-0.0432691, 0.00285216, 0.133559, 0.0215575, -0.044152,0.0155494, 0.0338545, 0.0240348, 0.0326135, 0.0389351,0.0881728, -0.0697796,0.0424964, 0.073131, 0.0524567, 0.0117726, -0.0654963,0.0509312, -0.089706, 0.00737191, 0.101039, -0.0219901,0.0965007, -0.100313, 0.0895909, -0.0308718, 0.0854952,-0.0504261, 0.0219268, -0.0689348, 0.0614922,0.00548678, 0.103627, 0.0651035, 0.00666683, -0.0300072,-0.0801145, 0.0461959, 0.117652, -0.0787945, 0.0660013,0.0171962, -0.0212728, -0.0629361, -0.0590173,0.0123055, 0.103172, 0.105767, -0.0742766, 0.114374,0.0118001, -0.0645264, 0.0792558, -0.0719414, -0.0313,-0.0587135, 0.100507, -0.0926188, 0.0347333, -0.0924503,-0.0577926, -0.0946288, 0.046171, 0.0980396, 0.0491609,-0.0534282, -0.0954158, 0.0208027, 0.0045851, -0.107917,-0.0625752, 0.0716911, -0.0141763, -0.0947861,-0.0386089, -0.0189418, 0.0168164, 0.00402918,-0.100444, -0.0203635, -0.00356049, -0.05259,0.00191895, -0.0293819, 0.0468337, 0.0344334, 0.0451655,-0.0303235, 0.00982451, 0.0851727, 0.0437924,0.00231401, -0.0826388, -0.0293536, -0.054387,0.00939435, -0.0573072, -0.0431807, -0.00921578,-0.00369974, 0.0127233, 0.0762677, 0.042777, 0.0595984,0.0399091, 0.0121329, -0.0968512, 0.0906334, 0.0588064,0.0605927, 0.00467816, 0.0856206, -0.0398995,-0.0246808, -0.0340691, -0.0965819, -0.0577127,-0.0162778, 0.0420228, 0.0878351, 0.0783775,-0.0290565, 0.0311242, -0.0395896, 0.00700698,-0.0078364, -0.0475823, -0.139795, -0.0875189,-0.0487082, -0.0709, -0.0642339,-0.0860851, -0.0156269, -0.0541541, -0.0296941, 0.024966,0.0236416, -0.0614301, -0.0237041, -0.0508349, 0.0670862,0.0120186, -0.0317566, 0.0371778, 0.0248015, -0.0372465,0.111358, -0.0280682, 0.000950837, 0.00973597, 0.123722,-0.0724184, 0.00383517, 0.0454442, -0.0400292,-0.0720535, -0.0468294, 0.110254, 0.0564191, 0.100149,0.0551295, 0.0382861, 0.0067803, 0.076312, 0.0848682,-0.0577911, 0.0316054, 0.0548155, 0.0636963, -0.0413948,-0.0923325, 0.0291719, -0.0187355, -0.0736333,0.0950886, 0.0430081, 0.0619459, 0.0192367, 0.0992909,-0.0539892, 0.0477546, 0.0682369, 0.00740689,-0.0477468, -0.10905, -0.0371544, 0.100807, 0.000962381,-0.00460374, 0.00562411, -0.0518948, -0.0238845,0.0621578, -0.0332858, -0.0801861, -0.107124,0.00343498, -0.001102, 0.00774423, -0.00835904,0.0532145, -0.0187834, -0.0623615, -0.0514113, 0.043578,-0.0815248, -0.00641488, -0.0740525, -0.0277861,0.0389413, -0.0337877, -0.00669924, 0.0904725,-0.0671551, -0.0431308, -0.0207805, 0.095931,-0.0228571, 0.0877091, 0.105964, 0.0458693, 0.071805,-0.0891729, -0.044653, 0.00629285, -0.00860034,-0.0368727, 0.023876, -0.089586, -0.0730076, 0.0372273,-0.0178758, -0.0100758, -0.0543702, 0.0963195,-0.0277958, -0.0831626, 0.0498183, 0.0153827, 0.104853,0.00865918, 0.0734099, -0.0128195, -0.106585,-0.0943884, -0.0256608, -0.110299, 0.0896507,0.0487434, -0.05115, -0.0596953,-0.0285508, -0.0347183, 0.00864646, 0.010546, 0.0360462,0.104291, -0.0768587, -0.0168727, -0.0220158, -0.0303178,0.0601291, 0.0477957, -0.100906, -0.0989723, -0.0675351,-0.0803147, -0.0835136, -0.0311885, 0.0935752,0.0112049, 0.0523436, 0.00416938, 0.0853234, -0.0759243,-0.0380296, -0.0339583, -0.0351856, -0.0364277,-0.0762105, -0.0836838, 0.0871248, 0.0736241, 0.0712755,0.0392247, -0.00264393, -0.030165, -0.0495304,-0.0984586, 0.0859072, 0.0913048, -0.0258126, 0.0821473,0.0524572, -0.00291885, 0.109566, -0.0747831, 0.0231257,0.0706847, 0.0448061, -0.059261, -0.0427405, -0.0876602,0.0522809, -0.0867302, 0.0520828, 0.0214496, 0.00839217,-0.103755, -0.0764314, -0.0702489, 0.0303747,-0.0917199, 0.0969406, -0.10939, -0.0147371, 0.0967328,0.0437862, -0.0325421, 0.0211775, 0.0660575, -0.0613699,0.106292, 0.00687481, -0.0223225, -0.0625055, 0.0780631,0.0248846, 0.085546, -0.0408873, 0.0942362, 0.0485146,-0.0707903, -0.0204534, -0.00174319, -0.0419945,0.0645537, 0.0171979, -0.0544364, 0.0726637, 0.106279,0.0872842, 0.0807024, -0.063612, -0.0750582, 0.00239268,0.0651948, 0.0191654, 0.05506, -0.0657798, 0.0377517,0.0416396, 0.0293301, 0.00535937, 0.091029, 0.0604095,0.0185054, -0.0815717, 0.0222974, -0.0147059,-0.0202258, -0.0639458, 0.0643191, 0.0781341,0.0573376, 0.00331216, 0.0713412, -0.0508494,0.0132695, 0.0859441, 0.0107108,0.0226591, -0.0895878, -0.0880598, 0.0660908, 0.0809532,-0.0835938, 0.0444757, -0.0641838, 0.0825948, -0.0725989,-0.0522702, -0.037635, -0.0479912, -0.0738295,0.0636756, 0.0998776, 0.0291828, -0.036711, 0.0392678,0.102008, -0.0732843, 0.0507892, 0.0855298, 0.0575416,-0.0712475, -0.0754947, 0.0959729, 0.101195, -0.0374558,-0.0220749, -0.06471, 0.000870205, -0.102222,-0.0160663, 0.0477219, 0.0815452, 0.00515049, 0.0621572,-0.119378, -0.0393833, -0.0150696, -0.0858862,-0.0268534, 0.0301804, 0.000765942, 0.00643346,0.0843165, 0.066541, -0.05627, -0.107488, 0.0948792,0.0732605, 0.0588796, 0.101079, 0.0312247, 0.0543029,-0.0184362, -0.0501479, 0.029522, 0.0418057, -0.0445073,0.00805692, 0.10321, 0.0260137, 0.07144, -0.0385531,0.105231, 0.0878122, -0.012795, 0.0316841, -0.0345708,-0.0614075, -0.0322954, 0.00913568, -0.00431102,0.0014578, -0.0999673, -0.056476, 0.0533571, -0.0788562,-0.0895024, 0.0142032, 0.0457855, -0.0726617, 0.0664471,0.0296079, -0.0112346, -0.0305744, 0.0366189,-0.0547063, -0.057611, -0.0634278, 0.0530971, 0.0353386,-0.0371691, -0.108775, -0.0563582, 0.12164, 0.000126447,0.0939333, -0.0522986, 0.0603235, -0.0443592, 0.019378,-0.0523964, 0.0569519, 0.0231182, -0.099044,0.00249831, -0.0265551, 0.0503736, -0.0572323,-0.0283126, -0.0650379, 0.0227709, 0.0803367,0.00830015, -0.109372, 0.0124327, -0.052144,-0.0511367, -0.0725677, 0.0656021, -0.100998,0.000507702, -0.0103194, -0.0860684, 0.0264956,0.0212604, 0.0282458, 0.0734175, 0.000750262, -0.0277702,0.0810782, 0.0917756, -0.0400182, -0.0665238,0.00031879, -0.0724232, 0.0528954, -0.0154591,0.0312891, -0.0441873, 0.0951132, -0.0807688,-0.0279943, 0.0808719, -0.118018, 0.0337394, 0.0134875,-0.050359, -0.0253089, 0.00778091, -0.0501503,-0.0890351, -0.106879, -0.0681715, 0.0476138, 0.131546,-0.053732, -0.114221, -0.106322, 0.0247717, -0.00403415,0.122269, -0.0799525, 0.0665862, -0.0649106, 0.012921,0.100941, 0.0735885, -0.0652306, 0.0328317, 0.0286924,0.082744, 0.073013, -0.0553971, -0.0935658, -0.0054983,-0.0497106, 0.0230084, -0.0677736, 0.0100245, 0.0435015,0.074389, 0.0587118, 0.0112174, -0.0135398, 0.0583735,-0.0973499, -0.014353, -0.00444213, 0.0597259,0.0894232, 0.00142016, 0.0553557, 0.00339709,-0.0184614, -0.0208309, 0.0964376, 0.0150848, 0.0490552,-0.0124347, 0.0580031, -0.0437835, -0.0815023,0.0436499, -0.0575736, -0.0127728, 0.0266215,-0.0293977, -0.0917852, 0.0422233, -0.0983223,-0.0989544, 0.0120337, 0.0855669, -0.117452, -0.0166141,0.0370588, -0.10806, 0.100092, -0.0693397, -0.0495433,-0.00515112, 0.0569392, 0.0489624, -0.0930573,-0.0172614, 0.0398245, 0.0632806, 0.026946, 0.054428,0.0604655, 0.061366, 0.000213309, -0.00400562,0.105951, -0.0209183, 0.0720237,-0.0495115, 0.0376047, 0.0477461, 0.0738751, -0.0280591,-0.0325115, -0.0128742, -0.0408788, 0.00397827,0.0362145, -0.0487444, -0.000985356, -0.00169545,-0.0727646, -0.0199589, 0.030412, 0.0278277, -0.0212708,-0.0502721, 0.0221958, 0.0969601, -0.0624713, -0.094105,0.032562, 0.0934357, -0.0428541, 0.00295893, 0.0572311,0.103261, -0.0406243, -0.0474836, 0.0408106, 0.0841625,-0.0647427, 0.0333506, -0.0962775, -0.0738275,-0.0798715, -0.059115, -0.0572805, -0.00920957,-0.0309263, 0.0403163, 0.0390082, 0.0419373, 0.0491791,0.0807775, 0.0514304, -0.00532853, 0.105109, 0.0972602,0.0371407, -0.0270582, 0.0922834, -0.0908544, 0.0183412,-0.118172, -0.0769357, 0.0794011, 0.0224355, -0.0815594,0.080498, -0.0817714, -0.0565797, -0.0795357,-0.0991426, 0.0478403, -0.0583515, -0.0381361,-0.0558178, -0.0692526, 0.0398654, -0.0496714,-0.0700575, -0.0568342, -0.0644145, -0.0198778,0.0474302, -0.0711472, -0.101788, 0.0633267, 0.0440328,0.0534568, -0.0045007, 0.0821042, 0.0880946, -0.0860936,0.0364265, -0.0773267, 0.0506751, -0.0961699,-0.0811712, -0.0816689, -0.00938966, -0.0555781,0.0904007, -0.0250561, 0.109829, -0.0932696, 0.0537824,0.0617183, -0.0840627, -0.0653315, -0.0609284,0.065146, -0.102415, 0.0321347, -0.0182009, -0.0435531,-0.105339, 0.0718917, -0.0633936, 0.0397301, 0.081167,0.0620885, 0.00484116, -0.100761, -0.0276962,-0.032644, 0.0575228,0.0254333, 0.0552798, 0.0853757, 0.0127152, 0.013588,0.00110818, -0.026652, 0.0239767, -0.0511637, 0.014102,0.0243434, 0.0198162, 0.00542577, 0.0838614, -0.0221623,0.00661376, -0.0226671, 0.0872095, 0.0747662, -0.083834,0.0983036, -0.0803206, -0.0709183, -0.0169965,-0.0578156, 0.0273676, 0.0166874, -0.064988, -0.103717,0.0590993, -0.0159679, 0.0191057, -0.0933351, 0.062862,0.106623, -0.000991006, -0.103187, 0.0916948,0.00122583, 0.0598672, 0.025023, 0.0604689, 0.00151477,0.03518, 0.0392795, 0.0480311, -0.0884435, 0.0683254,0.0842653, -0.0656443, -0.0741497, -0.0447395,-0.00362017, 0.0527899, -0.075314, 0.0563112,-0.0482475, 0.0760881, -0.0234989, -0.108065, 0.0744407,0.0720782, 0.0920547, -0.0316126, 0.0933244, -0.092494,-0.0502873, -0.111031, 0.0788322, 0.0673195, -0.0381656,0.0558196, -0.0226698, -0.0123739, 0.0342111, -0.10296,0.0234534, 0.0818925, -0.0487086, 0.114094, -0.0670523,-0.0527751, 0.103014, 0.0978659, 3.09628e-05, 0.10204,0.100192, -0.0763391, -0.0154358, -0.10485, 0.055367,-0.0911056, -0.0362841, 0.0254143, -0.0236008,-0.0789404, 0.068739, 0.0589893, -0.0234298, -0.0571427,-0.0462389, 0.00463535, 0.0259296, 0.0327631,0.00612099, -0.050127, 0.0280035, -0.000251686,-0.0726423, -0.0987188, 0.0786598, -0.03375,-0.00970499, 0.0267602, 0.0925116, -0.0959965,0.041408, -0.0578326, -0.0866563, 0.0611925,0.0714122, 0.0706102, -0.0921947, -0.0388192, 0.0855812,-0.0213444, -0.0933879, -0.0309973, -0.0387592,0.0539665, -0.0305488, 0.0204934, 0.00953163, -0.0394166,-0.0667508, 0.0771654, 0.0677267, 0.113523, 0.0372007,0.0223621, -0.0925548, -0.0634315, 0.0103357, 0.0520855,-0.0641901, -0.0311988, 0.0416344, 0.102749, -0.0962535,0.0796444, 0.056464, 0.096916, -0.0789301, -0.00780563,0.0333331, -0.0891952, 0.07835, 0.0909959, 0.0759185,0.0444371, 0.0471053, -0.071302, 0.0239271, -0.0820767,0.0284134, 0.0773525, 0.0628295, 0.0306539, -0.0922773,-0.00170676, 0.0420901, 0.0520811, -0.0665068,-0.0361261, -0.103127, 0.111272, -0.0468883, 0.055572,-0.0469154, 0.0147982, 0.0676806, 0.0987203, 0.0733701,0.0906203, -0.0522598, 0.0156392, 0.0183145, -0.0519557,-0.0365145, -0.00502066, -0.084405, -0.0381441,-0.0387458, -0.098095, 0.0284228, -0.0609161, -0.101394,0.00264177, -0.0666469, -0.0586953, 0.0785006, 0.046224,-0.0852956, 0.0743004, 0.0126189, 0.0486101, 0.0124269,-0.0107976, 0.080736, -0.00132384, -0.0295052,0.0804536, -0.0900248, 0.0689501, 0.0649152, -0.0475199,0.0469741, 0.0273504, 0.00972594, 0.0266307, 0.0554226,0.0451188, 0.0686789, -0.0654016, 0.105794, 0.0262844,0.0120345, 0.0159519, -0.0522755, -0.0391465,0.0148659, 0.039278, 0.0421364, -0.00418269,-0.0949565, -0.0449005, 0.0345969, 0.000514349,0.0931654, 0.0338502,0.0378867, 0.0548437, 0.0409972, 0.0402, 0.0263239,-0.0253014, -0.0235777, -0.0468945, -0.0243793,0.0964986, -0.0199811, -0.00807648, -0.0435023,0.0786732, 0.0385456, -0.0293408, 0.0597991, 0.0406612,0.00315154, 0.0741414, 0.0419815, 0.00200146, 0.0761248,-0.0132075, -0.071443, -0.0903309, 0.0461495,-0.00727403, -0.0361148, -0.00269915, -0.0176035,-0.0100482, 0.0428709, 0.0154857, 0.0593919,-0.00438123, -0.0936947, 0.0854112, -0.0216831,0.00200035, 0.0893405, 0.0748981, -0.0775847, -0.092891,-0.0913229, -0.0228057, -0.0953402, -0.077871,-0.0185524, -0.0904727, 0.0193686, 0.0300014,-0.0934588, -0.0943243, 0.0572337, 0.0851647, 0.0337039,-0.0604171, -0.0851193, 0.0606976, -0.0824983,0.0655621, -0.0811288, 0.102651, 0.0792747, -0.0469829,-0.0028552, 0.0129116, -0.0106455, 0.0345244,-0.000125022, 0.0956741, 0.00568544, -0.043777,-0.0209691, -0.0771241, -0.0133705, 0.0542208,-0.093943, -0.0290825, -0.042126, 0.00385073, 0.0683428,-0.102402, 0.0590146, 0.04483, -0.0807758, -0.0599213,-0.104495, -0.0682682, -0.0991364, 0.0093853,-0.0494427, -0.0929586, -0.0465444, 0.0399871,-0.0710772, 0.00591171, -0.0991021, -0.00769377,0.0444962, -0.0154459, 0.100829, -0.0725143,-0.0662104, -0.071342, -0.0234381, -0.0760194,-0.0685978, -0.0743443, 0.0256951, 0.033013, 0.0492519,0.0662247, 0.0284231, -0.0785383, -0.0655211,-0.0104209, 0.0489126, 0.0686158,0.0334198, 0.118151, -0.0896769, 0.0971277, 0.0540887,0.0762958, 0.110005, 0.0455268, -0.0618047, 0.0218086,-0.101144, 0.057446, 0.0654216, -0.0987194, 0.0624778,-0.0255818, -0.0465762, 0.0131878, 0.116215, 0.029602,0.0442569, -0.0579538, -0.0745462, -0.034778,0.000577542, -0.066776, -0.0197511, 0.0351115,-0.0736706, 0.0335792, -0.0354723, -0.0381558,0.00803525, 0.0853891, 0.0527764, -0.0795219,-0.00401775, -0.0774626, -0.0470567, 0.0432193,-0.0889727, -0.109983, -0.0309957, -0.0713113, 0.124105,0.0440994, -0.0138132, -0.0859879, -0.0619586,-0.0355283, 0.0382452, 0.0569997, 0.0192037, 0.105841,-0.0762585, 0.0802194, 0.0397638, 0.0611109, 0.0468472,0.0216809, -0.0289332, 0.0213806, 0.032916, 0.0995123,0.0111469, -0.0471368, 0.00323429, -0.0388125,0.0556445, 0.0659574, 0.0969864, 0.00225975, 0.0509719,-0.0734964, -0.0597043, -0.0318906, 0.0182625,-0.0785101, -0.0790539, -0.0812853, -0.0476172,0.00660894, 0.0879226, 0.0335793, 0.00209533, 0.092956,0.105186, -0.092786, 0.109025, -0.046724, 0.0017741,0.0410541, 0.101048, -0.0947987, 0.050406, 0.101004,0.048366, -0.0148233, 0.0550171, 0.0699628, -0.120317,0.00320938, -0.0564809, 0.0740599, -0.00957927,-0.00991029, -0.0181853, 0.102319, -0.0984043,0.0307605, 0.0283373, 0.00157288, -0.00231642,-0.0246648, -0.0517015, -0.107788, 0.0537762, 0.07486,-0.0158257, -0.0739322,-0.0917539, 0.0920357, -0.0389293, 0.0699136, 0.0251687,-0.0240025, 0.0299666, -0.0174965, 0.0635528,-0.000377749, 0.015538, -0.0856165, 0.104077, 0.0813545,0.0213539, -0.0768763, -0.0376247, -0.0736249,-0.0160788, -0.0174246, 0.0237093, -0.0516089,0.00123395, 0.0176517, -0.00120749, -0.0590618,0.0942398, -0.0550804, 0.0693072, -0.0146977, 0.0723617,-0.0339009, -0.0302003, -0.0981701, 0.0692272, 0.116969,0.12218, 0.0346157, 0.0450156, -0.00403652, 0.0500674,-0.00806383, -0.0113971, -0.0887718, 0.0469883,-0.101002, 0.00160416, 0.0432985, -0.0696125, 0.0933574,0.0964392, -0.0451063, 0.0936478, 0.054216, -0.0480878,0.00755793, -0.0569459, 0.043788, 0.00529159, 0.10913,-0.0388461, -0.0791226, 0.00171122, -0.0947555,0.0989058, 0.142713, -0.0200329, 0.0397546, -0.0543607,0.0385859, 0.021485, 0.00946768, -0.0607771, 0.0830275,-0.0974645, -0.000372667, 0.104113, 0.0959575, 0.065933,0.0532275, 0.0124617, -0.100082, 0.083472, -0.0032556,-0.0952402, -0.0185772, -0.0658137, -0.0640721,0.0759308, -0.105432, -0.0942687, 0.076751, -0.0289683,0.0792155, -0.0426958, -0.00580638, -0.0565717,-0.00624775, -0.00966234, -0.0586093, 0.0179444,0.0242709, 0.0546316, 0.0896339, 0.0399086, -0.0509241,-0.0946045, -0.0355809, -0.081496, -0.10546, 0.0980623,0.053837, 0.0852198, 0.0968961, 0.0681501, -0.0158896,-0.0225259, -0.0670216, -0.0660519, 0.0268868,0.0790611, 0.0103697, 0.014358, 0.0468401, -0.0301981,0.0516208, 0.000427717, -0.0514982, -0.0311824, 0.115419,-0.109669, 0.0605367, 0.0516952, 0.0633112, -0.103483,-0.00657717, 0.0940431, 0.0183521, 0.100774, -0.0124301,-0.032474, 0.0831192, -0.0436517, 0.0310739,-0.00299534, -0.000913293, 0.0441358, -0.0860191,-0.0505857, 0.0863442, -0.0633129, -0.02113, 0.0802375,0.00680086, 0.110559, 0.118119, 0.0987633, -0.0532188,-0.0529269, 0.0193132, 0.0125528, -0.096239, 0.0180678,-0.0520356, 0.041552, 0.0714838, -9.27298e-06,0.0843903, 0.041901, 0.0363601, -0.0276009, 0.0325241,-0.00339051, 0.0255594, -0.0751299, -0.0339254,0.0639092, 0.0650153, 0.0459313, -0.0943076, 0.0880906,0.0618221, 0.00871557, 0.102832, -0.00125128,0.00628174, 0.0164155, -0.00450863, 0.0535611,-0.0472043, 0.0571751, 0.00132882, 0.120965, -0.0607732,-0.0175073, 0.108269, -0.00220968, -0.07091, 0.111573,0.0705908, 0.016861, 0.0725917, -0.0732561, 0.0316274,-0.0884823, -0.0270709, 0.00675844, 0.0250803,0.0121158, -0.0628965, 0.0140356, -0.0340571, 0.0146748,0.0645218, 0.0804077, -0.0615001, -0.08448, -0.0149955,-0.00294049, -0.0746671, -0.0851748, 0.0242432,0.0578177, -0.00168472, 0.0532909, 0.092153,-0.0506352, -0.0916301, -0.0888294, -0.0405945,0.0500091, 0.0181839, -0.108329, 0.0964194, 0.0693973,-0.0804453, -0.00942439, 0.101174, 0.108026,-0.0564098,0.0723194, 0.0309668, -0.00174219, -0.0377921,-0.0565305, -0.0736034, -0.0293776, -0.0575241,-0.090617, -0.0821037, 0.0823976, 0.0647819, -0.073688,0.0391164, -0.0393611, 0.0669471, -0.0450079, 0.0596776,-0.0254669, -0.0721534, 0.0501587, 0.0911871,-0.0119145, 0.103787, 0.0864153, -0.00600156, -0.091813,-0.0564092, 0.116004, -0.0116057, 0.0634661, 0.0382752,0.0936599, -0.0369503, -0.0229554, -0.0794131,0.0776851, -0.0658353, -0.00673866, 0.100571, 0.0625617,0.0116936, 0.0585031, 0.0887439, 0.0524339, -0.0278411,-0.0337864, 0.0970663, 0.0980793, 0.0871699, 0.0850723,0.10472, 0.00445063, 0.103559, -0.0784621, 0.0758305,0.0718555, 0.0144043, 0.0172067, 0.0293006, -0.0396872,-0.0133786, 0.000797301, -0.058923, 0.0225249,-0.0311462, -0.0464301, -0.0912477, -0.00973305,-0.0818848, -0.0447871, 0.0643157, -0.0681593,0.0443445, -0.00110616, 0.0737984, 0.0245028, 0.0767521,-0.0135332, 0.00376992, -0.0223672, 0.0612245,-0.0464323, 0.0925316, 0.0817448, 0.0279392, -0.0843285,-0.0395029, 0.0919701, 0.0211262, 0.107544, -0.0219065,-0.102051, 0.0266677, 0.0114943, 0.0420804, 0.0314245,0.0632653, -0.0166147, 0.0505542, 0.00615637,-0.0770057, 0.110239, 0.0271251, 0.0660375, -0.0883983,0.0167666, -0.0802958, 0.0589194, -0.0655706,0.0706442, 0.0843689, 0.0706571, -0.0715189,-0.0269894, -0.0604646, 0.0949949, -0.0301384,-0.0399674, 0.100763,-0.047238, -0.000359294, -0.0568915, -0.00292866,0.0650925, -0.0919633, -0.0843269, -0.00383439,-0.0783483, 0.00352135, 0.0869577, -0.0234273, 0.0365614,0.0938014, 0.0312458, -0.0598312, -0.0399043, 0.0584175,-0.0624351, 0.042011, -0.0638387, 0.0892089,-0.00506995, 0.0910718, 0.0754296, 0.0813998, 0.0544507,-0.0533905, -0.0135138, -0.0327065, 0.0228791,0.0949058, 0.0418703, -0.0847073, 0.0352478,-0.00540328, -0.0820616, 0.0315536, 0.0901229,-0.0876815, 0.0483223, -0.108858, -0.0199284, 0.0149271,-0.0348573, 0.0184937, 0.0449799, 0.0460834, -0.0033332,-0.094545, 0.0789158, 0.0587048, 0.0383155, -0.0757043,-0.0582685, -0.0361175, 0.10218, -0.0180947, 0.0369397,0.11205, -0.066009, 0.0322404, -0.053474, 0.0103462,0.101352, 0.0429503, -0.015247, -0.0389977, 0.0870408,0.0128114, 0.0441765, 0.0540933, 0.0619699, -0.056775,0.0135325, 0.00332412, 0.018516, 0.0141162, 0.0405519,-0.0148084, 0.104695, -0.0626979, -0.00187911,0.0557706, 0.0882795, -0.0767622, -0.0917419, 0.0866323,-0.0243558, -0.104768, 0.0642494, 0.104645, -0.0234337,0.0354685, -0.0411412, 0.0361714, 0.0689694,-0.00892172, 0.0865569, -0.0347199, 0.00156116,0.0361159, -0.02627, 0.0582645, -0.0600086, -0.0978969,-0.0763839, 0.0179312, -0.0211147, 0.0233246,0.0452339, 0.0526141, 0.0883077, 0.00284559,-0.0779407, -0.0129332, 0.0349173, 0.0786324,0.0790503, -0.00427472,0.0158437, 0.116171, 0.0837709, 0.0741653, -0.100528,-0.0493327, -0.0871531, -0.0634368, -0.071869,-0.0744472, -0.0264293, 0.0270345, 0.042815, -0.00293815,0.0808937, 0.0227094, -0.0853199, -0.0355999, 0.0294477,0.104186, 0.0598466, 0.0357948, 0.02461, 0.0329431,-0.0387062, 0.0541094, 0.0519975, 0.0399323, -0.0719016,-0.0042986, -0.105712, -0.079675, -0.00999866,0.0811716, -0.0790339, -0.0178971, -0.1017, -0.0389333,0.0947485, -0.0576663, 0.0052449, 0.0503816, 0.0823671,0.071877, -0.0710103, -0.0284181, -0.0811936,-9.53669e-05, 0.0369875, -0.0872113, 0.0258338,-0.109709, -0.00992641, -0.00774127, -0.0874429,0.0785107, 0.0128528, 0.04314, -0.0133291, 0.0619304,0.0762435, 0.108899, 0.0791748, -0.0478802, -0.0125335,0.0521537, 0.0289183, 0.00898044, 0.110324, 0.0696428,0.140553, 0.0211012, -0.0397484, 0.00588345, -0.104426,-0.0403898, -0.0814064, 0.0140209, 0.0681763,-0.0192572, 0.0215489, 0.101481, -0.0129972, -0.0323168,0.0166109, 0.0270171, 0.0498238, -0.0653926, 0.0175536,0.026417, -0.0800272, 0.105395, 0.00246352, -0.0106459,0.0593939, -0.0214474, 0.0609557, -0.0328063,-0.0422892, 0.0651347, -0.0758888, -0.106604, 0.0490139,-0.0614434, -0.0248569, -0.0584457, 0.114872,-0.0991513, -0.0140613, 0.0263529, -0.00142236,0.0699388, -0.0925882, -0.114075, -0.0771952,0.0374436, -0.109759, 0.0875758, 0.0361069,-0.00378607,-0.0882289, 0.0267171, 0.067049, 0.0848333, -0.00494781,0.0955519, 0.00832996, -0.0730988, 0.0189906, -0.0383075,0.0631671, 0.0163265, 0.0387491, 0.00632345, -0.0651018,-0.10974, -0.02441, 0.0987507, -0.0705547, -0.0540279,-0.0232447, -0.0733629, 0.0540816, 0.0444799,-0.0752493, 0.018849, -0.0843679, 0.114146, 0.00463032,-0.0609507, 0.0339947, -0.0754784, 0.0235983,-0.00345468, -0.00641503, 0.0174272, -0.00786946,0.0698869, -0.05789, -0.0588154, 0.0808479, 0.00439217,0.0247945, 0.062551, -0.0285824, 0.161092, -0.0484006,-0.0189414, 0.0977393, 0.0685046, 0.0143708, 0.0121389,-0.0240909, 0.0472515, 0.0397052, -0.00917142,-0.0693677, -0.0627747, -0.0725406, -0.0361909,0.0915916, 0.022293, 0.0252758, -0.0973906, -0.0543985,0.0378251, -0.0916955, 0.0165382, 0.0346013, 0.0949172,-0.0394931, 0.0959215, 0.0624844, 0.135728, -0.0946572,0.00473666, 0.00327497, 0.00825428, 0.115552, 0.0767611,0.0980386, 0.00570419, -0.073835, -0.128052, -0.0504979,0.0230592, -0.100784, 0.0852262, 0.00939911, 0.0317899,0.131715, 0.0763202, 0.0815066, 0.0315039, 0.0797671,-0.0613962, 0.0160129, 0.0213298, -0.0224763, 0.0661997,-0.00261309, -0.0701498, 0.00158741, 0.0470805,-0.0700987, 0.0838024, 0.034464, -0.095875, -0.0334445,-0.0703967, 0.0636245, 0.0841135, -0.141991, 0.0906711,-0.0145923, 0.11214, 0.0450269, 0.0861187, -0.0886306,0.0701291,0.0980759, 0.0933083, 0.0438364, 0.032325, 0.0543815,-0.103729, 0.0739658, -0.0227843, 0.0689272, 0.0490545,0.0878943, -0.0743584, -0.0124056, 0.0150697,0.00196403, -0.0492642, -0.00863877, -0.0504609,0.00763281, 0.0137236, 0.0519042, -0.0151575,-0.0676845, 0.0782043, -0.0903692, 0.070151, 0.102859,-0.0133877, 0.0439556, 0.0916109, -0.0639403, 0.100975,0.0942469, -0.00561557, -0.0290323, 0.0203149,0.0111359, 0.106398, 0.100067, -0.0616426, 0.0854441,0.0327442, -0.0945063, 0.0617482, 0.0982296, 0.0851086,0.0615198, -0.00943419, 0.0570499, -0.00539697,0.0982771, -0.00498599, -0.0198393, 0.0425624,0.00883672, -0.097275, 0.0499797, 0.00901001, -0.106073,-0.101467, 0.0446921, 0.0171019, 0.0843883, -0.0295715,0.0340531, -0.033548, 0.0863417, -0.114133, -0.0937272,-0.0384194, -0.0219813, 0.085427, 0.0906717, 0.0567586,-0.0301127, 0.0433687, -0.0765957, 0.0967622, 0.110395,-0.0555762, 0.0510787, -0.000530232, -0.0425525,-0.0197475, 0.087004, -0.086609, -0.0105886,-0.00612998, -0.0259876, -0.0379399, -0.0527561,0.10167, -0.0638017, 0.04803, 0.0486976, -0.0947849,0.007188, 0.0497578, -0.0886915, 0.0626088, 0.0694841,0.0648985, 0.0797131, -0.0514293, -0.105625,0.00603907, -0.0631668, -5.66506e-05, -0.0411284,-0.0520772, 0.0310609, 0.0373138, -0.0276563,0.0498344, -0.0872162, 0.00423904, 0.0524399,-0.0538205, -0.0953963, -0.0463776,0.109629, 0.0989061, 0.0182708, 0.0900836, -0.0485278,0.055535, 0.00164248, -0.102007, -0.0688812, 0.0783927,0.042289, -0.113187, 0.045646, 0.00384846, -0.012725,0.0835372, -0.0135164, -0.0644964, -0.0718408,0.0635077, -0.0258544, -0.0203077, -0.0581117,0.0892924, 0.0633778, -0.0876057, -0.00279804,0.0831077, -0.012728, 0.07489, 0.0111352, -0.0776106,-0.0355168, 0.0465606, -0.0400318, -0.0692001,0.00475696, -0.0239027, 0.0611631, -0.00109047,0.0354244, 0.10325, -0.0678098, 0.0262618, -0.0201786,-0.102156, -0.0748303, 0.103729, -0.00705249,-0.0720575, -0.0258776, 0.0856731, -0.105284, 0.100672,-0.100252, 0.107912, 0.0657945, 0.0888092, -0.112016,-0.113284, -0.012664, 0.0415011, -0.017444, 0.0809286,0.0884035, -0.0948645, 0.0050476, -0.0443605, 0.0362457,-0.0529916, -0.0794191, -0.043336, -0.00426866,0.0499688, 0.0492183, 0.121073, 0.0611359, -0.099259,0.0717248, 0.0256731, 0.0596338, -0.0195413, 0.0965232,-0.00954363, -0.0581012, -0.038813, -0.0523582,-0.0535146, -0.0980636, -0.0924467, 0.0476195, 0.025514,-0.0531573, -0.0926923, 0.0675753, -0.0584077,-0.052293, -0.0768869, 0.00715966, -0.0450552,-0.0205823, 0.04275, 0.0198805, 0.0912682, -0.00183863,-0.0938033, -0.0435239, -0.0901871, 0.0557366,-0.00503969, 0.0507614, -0.0280307, -0.0917068,-0.0898289, 0.0681226, -0.11081, 0.0978583, -0.0677422,0.0719343, -0.0693982,-0.0609811, 0.0222549, 0.0628397, 0.0478029, 0.011977,0.000110868, 0.0933542, 0.00315935, 0.0805822,-0.0277594, 0.0760593, 0.0548607, -0.086542, -0.00238488,-0.0815936, 0.0618095, -0.00609122, 0.0363953,-0.108809, -0.108486, 0.0710277, 0.0144821, 0.0568593,-0.0214468, 0.00733709, -0.104379, -0.116986, 0.0683426,-0.0362198, 0.105419, 0.0587948, 0.0699529, 0.0117185,-0.0274953, 0.060212, -0.105303, -0.00371777,-0.0133435, -0.0804475, 0.0128664, 0.0151031, 0.0517188,0.0500708, -0.0680478, 0.0630067, 0.0412107, 0.057656,-0.0894492, -0.0730458, 0.00773602, 0.0203869,-0.084626, -0.000895419, -0.0228164, -0.091138,-0.0498087, 0.0521016, -0.0057909, -0.00364747,0.0188637, -0.0650892, 0.0416966, -0.0337638, 0.100724,0.0819568, -0.114288, -0.0577534, -0.00385847,-0.0511744, 0.0822647, -0.0909718, 0.0851292,-0.0217351, -0.00590846, 0.0254258, 0.0305114,0.0118437, -0.0815448, 0.0848552, -0.038985, 0.079184,-0.0343326, -0.0241725, 0.0289999, 0.0917194, 0.0284038,0.0604294, -0.0835461, -0.00232891, 0.00816063,0.0662117, 0.0959524, 0.086894, 0.0821112, -0.04672,0.0418425, -0.0585904, -0.00460247, 0.0667296,-0.0691451, -0.0762689, -0.0412925, -0.0492275,0.0967888, 0.0911963, -0.00791412, -0.0961476,0.00955513, -0.0182086, -0.0132599, 0.0158378,-0.115488, 0.108184, -0.0754825, 0.00128359, 0.0443972,0.127117, 0.0105799, 0.0612397, -0.0496834,-0.0327837, -0.0679677, 0.00650531, -0.00235767,-0.10464, -0.0744575, 0.0692287, 0.0298025, 0.0950236,-0.0498009, 0.0129783, 0.0650973, 0.0768427, 0.00801481,-0.100137, 0.0868964, 0.046656, 0.0957304, -0.0745521,-0.0487266, -0.0103583, 0.0509178, 0.0837609, 0.110751,0.0287373, -0.112292, -0.0475384, -0.0137432,-0.0582543, -0.0503226, -0.0120197, 0.0569855,0.0873036, -0.0366233, 0.0685698, -0.00493441, 0.033295,0.0185216, 0.0431988, 0.0833304, -0.0645623, -0.101246,-0.0258581, -0.0179993, 0.0536585, 0.00372249,0.0823552, 0.103926, -0.0264088, 0.0754427, -0.0686368,-0.0335295, -0.00786566, -0.0967306, -0.0182979,-0.042146, 0.103017, 0.0949237, 0.047304, 0.0883608,0.0438565, -0.0562139, -0.0970736, 0.0519326, 0.0171653,0.0249979, -0.00944237, -0.0830044, -0.0617174,0.059526, 0.0673391, -0.0567521, -0.028863, -0.0416907,-0.0660626, -0.0307198, 0.0861266, -0.0976237,-0.00811977, 0.0822077, -0.0323535, -0.0621549,0.0474196, -0.0821861, -0.104045, 0.0877958, 0.0288786,-0.0451701, 0.00963503, 0.0590393, 0.0620531, 0.0186914,-0.0873931, 0.000635559, -0.0730064, -0.104848,0.0497479, 0.0690039, -0.077861, -0.0350333, 0.0871133,-0.0653649, -0.022752, 0.00182332, 0.0676085,-0.0621849, 0.0552537, 0.0329263, -0.0220681,0.0843041, 0.106941, -0.0171207, -0.0118295,-0.0343768, 0.0893554, -0.0635299, 0.0319783,-0.0829041, -0.0479251, -0.0483461,0.121326, 0.028185, -0.0916777, 0.0661756, 0.0106979,0.063201, -0.00292702, -0.0744273, -0.101328,-0.00727714, 0.0699587, -0.0720217, -0.0605525,-0.0876611, 0.0924163, -0.0537837, 0.0786597, 0.109066,-0.0910678, 0.113573, -0.00692712, 0.0993081,-0.0587257, -0.0986506, 0.0981931, -0.101238,-0.0674238, 0.0250274, 0.0650396, 0.0458543, -0.0766596,0.0896923, 0.0675018, -0.0194812, 0.0754536,-0.00991106, 0.0750977, -0.102851, 0.0535422,-0.0685754, -0.0859421, -0.11185, 0.0747696, -0.0678407,0.054818, -0.0923694, 0.0656706, -0.0642025, 0.0399655,0.0994282, 0.0248898, -0.0327943, -0.0535455,-0.0591179, -0.0349311, 0.0400004, -0.0710946,-0.0375501, 0.0914043, 0.0880301, 0.0473379, -0.0100169,-0.00301989, -0.00205268, 0.0912725, -0.0495884,-0.0337831, -0.00486959, 0.113026, 0.0206608, 0.0640807,-0.0750391, 0.0628687, -0.0162931, 0.0384878, 0.0175893,0.0136632, 0.0816884, -0.0919947, 0.0678629, 0.0449877,-0.051156, -0.0794695, -0.0353297, 0.042723, -0.0787119,-0.082532, -0.03288, -0.028473, -0.0907347, -0.0505248,-0.100329, 0.07617, -0.0172999, -0.0507229, -0.0416781,-0.0606996, 0.0484477, 0.0279451, 0.0557208, -0.0704978,0.0401369, -0.0188495, 0.0525682, -0.11058, -0.0906755,-0.0570121, -0.0958472, 0.0249773, -0.0575871,0.0800707, -0.0916092, -0.0617608, -0.0378528,-0.00619819, -0.132175, -0.0423066, -0.0167454,-0.000263832, -0.0805015,-0.00260538, -0.0736926, 0.018017, 0.035064, 0.0679701,0.00923507, -0.00132246, -0.0627764, -0.0322792,0.0164495, 0.00802877, -0.0771011, 0.0400066, -0.0150999,0.0483514, -0.00245377, -0.0900578, -0.0877591,0.0867916, 0.105826, -0.00731441, -0.0739743,-0.0134033, 0.0477677, 0.0400194, 0.00762351, -0.103033,-0.00872075, 0.0275632, -0.00775783, 0.0862935,0.079256, -0.00668163, 0.0959293, 0.0800852, -0.0980212,0.0572011, 0.0350674, -0.00101018, 0.0579365, 0.0299546,-0.0663344, 0.024087, -0.0982808, 0.111884, -0.0260876,0.0420206, -0.0365373, 0.0533986, 0.0897765, 0.0457433,-0.00335939, -0.0450189, -0.0480812, 0.0357137,-0.0557809, -0.0511543, -0.110268, 0.0206973,-0.0975952, 0.0135529, 0.00112795, -0.0928578,-0.0966749, -0.0625353, -0.043801, 0.0456324, 0.0563231,-0.0355477, 0.044624, -0.0359276, -0.0166259, 0.0922362,-0.0835747, -0.0279829, 0.0100365, -0.0537879,0.0491091, -0.0287733, -0.0629106, -0.0145421,-0.0201312, -0.00934293, 0.0504425, 0.0435233, 0.020118,-0.0901059, 0.0356557, 0.0950592, -0.0406913,-0.0735896, -0.087227, 0.0779088, -0.0984587,-0.0971069, 0.0378796, -0.0410731, -0.11452, -0.0512732,0.0189776, -0.0968679, 0.0952042, 0.0975494, -0.0216699,0.00218363, -0.0934908, 0.0500452, 0.0187, -0.107749,0.0535345, -0.0453309, 0.0313859, -0.0227514,0.0313497, -0.0962009, -0.0626872, -0.0505601,-0.00235096, 0.0690739, -0.0977689,-0.0286089, 0.0163329, -0.0182742, -0.0906113,-0.00517009, -0.0454693, 0.0996041, -0.08094, 0.0970141,-0.083455, 0.0114524, 0.0917524, -0.0801424, 0.0571184,-0.0338013, 0.0627466, 0.100858, 0.0523671, -0.033635,-0.0583622, -0.0361366, 0.0623171, -0.0897071,0.0846368, 0.00883845, -0.0356463, 0.0435381, 0.0109417,0.0978337, 0.0190003, 0.104239, 0.0587908, -0.0272986,0.103097, -0.0505614, -0.00460914, -0.0484447,-0.016328, 0.00136448, 0.0741524, 0.0895764, -0.0493548,0.0342962, -0.0363428, -0.0442835, 0.00925295, 0.04231,0.010516, -0.10846, -0.00885934, 0.0177953, -0.0436411,0.0764568, 0.10013, -0.0990253, -0.0457274, -0.0445667,-0.0495235, 0.076451, 0.0550118, 0.0651461, 0.0227858,0.0221833, 0.0676581, -0.0160005, -0.0426026,-0.0571169, 0.00767567, 0.00879244, -0.1008, 0.0989211,0.0198185, 0.0104427, -0.0148293, 0.0562261, 0.096226,-0.0178081, -0.032498, -0.0807609, 0.0912722, 0.0897057,-0.0361822, -0.0635682, -0.0546885, 0.0707823,-0.0357298, 0.0808225, -0.0500674, 0.00517557,0.0887167, -0.109261, -0.0750102, 0.0875721, 0.10763,-0.038722, 0.00466933, -0.0594076, -0.0644704,-0.079244, -0.0804302, -0.0583071, -0.0585178, 0.114063,-0.0446258, -0.0612973, -0.00507498, 0.0465922,-0.0599484, 0.0861001, 0.0728552, 0.0678199, 0.0748984,0.0776261, -0.0664154, 0.0969506, 0.00681301,-0.0303861, 0.033078, 0.0474975, 0.0341375,-0.0951036, -0.107572, 0.0424698, 0.0324463, -0.0805297,-0.055708, 0.0166219, 0.0431721, -0.0411926, -0.0666342,-0.0533967, 0.0258096, -0.0170987, 0.0234647,-0.0522509, -0.0934343, -0.0751147, -0.0870618,-0.0101144, -0.0119085, 0.0485551, -0.0799421,0.0149548, -0.065817, -0.057522, 0.0418318, 0.0467081,-0.0815641, 0.0399611, 0.037991, -0.0904582, -0.0949568,-0.0816455, -0.0898458, 0.105634, -0.0993447, 0.0699446,-0.0408054, 0.0479534, -0.0519267, -0.000895988,-0.0436683, 0.00372702, 0.103416, 0.00951341, 0.0860833,-0.0769808, 0.0104457, 0.043068, 0.0112075, 0.0628418,-0.0132046, -0.0509636, -0.101469, -0.016576,-0.0488049, -0.0663737, 0.103527, -0.0219592, 0.0432162,0.109152, -0.0205394, 0.074872, -0.0742999, -0.0318517,-0.0975832, 0.104426, -0.0109037, 0.0652945, -0.06728,-0.0535141, -0.0643347, 0.0851338, 0.0244535,-0.0835953, -0.0616215, 0.0787575, -0.00853294,-0.0255187, -0.100354, 0.095539, -0.0473761, 0.0846507,0.0142462, -0.102896, 0.0248905, -0.0035952, 0.0825417,-0.0327941, 0.0296092, -0.0707736, 0.0763771,-0.0508404, -0.019853, 0.0222683, -0.113081, 0.0515016,0.0270425, -0.0484884, 0.0419679, 0.0168494, 0.0541868,-0.0279282, -0.075706, -0.0412893, -0.0623144,-0.0872447, -0.107058, 0.0484577, 0.0792252, -0.072987,0.0795529, -0.11222, -0.0746172, -0.0949279, 0.0367462,0.0561539, 0.0899965, 0.00758803, -0.0710235,-0.0945657, 0.0539347, -0.0769267, 0.0542392, -0.0811277,-0.00094089, 0.0705381, -0.000260593, 0.0874646,-0.0832804, 0.00337221, 0.0426863, 0.0211021, 0.0741227,-0.097098, 0.0583457, 0.00220623, 0.0428518, -0.0514762,0.0109942, -0.0877848, -0.0652326, 0.105767, 0.087338,0.0191083, 0.0460905, -0.0314376, 0.0591492, 0.0194956,0.0400442, -0.0174302, -0.0781882, -0.0618863,0.0770719, 0.0797443, -0.0493217, 0.0853154, -0.0697644,0.100597, 0.0957534, 0.0695248, -0.0297058, 0.0698408,-0.0415194, -0.0729119, -0.0509712, -0.0616729,0.0417014, -0.0856509, 0.0941784, -0.0759882,-0.00941893, 0.045603, 0.00567385, -0.0161753,-0.110399, -0.0908886, 0.0594716, 0.0913515, -0.0719618,-0.0326265, -0.0826976, 0.0419347, 0.068624, -0.0472925,0.0307304, -0.0463263, 0.0524592, 0.00693383, 0.10022,0.127178, -0.0439872, -0.0433265, 0.0173955, -0.0228512,0.0638747, -0.00431247, 0.101117, 0.0820591, 0.0282988,0.0321731, 0.0401618, -0.06407, -0.0793361, 0.0500015,-0.0665494, -0.0607212, 0.00145101, -0.0247175,0.0433972, -0.0866783, 0.0716799, 0.0750563, 0.0942698,0.0758119, 0.0137905, -0.101684, -0.0697473, -0.0481911,0.0791436, 0.0296889, 0.0328579, -0.0168069,-0.00201677, 0.0828669, 0.0664246, -0.066215,0.0433328, 0.08554, 0.0334481, -0.000604358,-0.0269163, -0.0969923, -0.0519599, 0.0936003,0.0220706, -0.0701163, -0.0880761, 0.0445326,-0.000776211,0.0362051, 0.107512, 0.097283, -0.108084, 0.0937249,0.0429926, 0.0334582, 0.00442266, -0.0469294, 0.0202641,0.0475517, -0.074822, -0.112067, 0.0463903, -0.0596769,-0.0836584, 0.0296811, -0.0841354, 0.0435511, 0.131179,0.076843, -0.0119891, -0.0969264, -0.0159201,-0.0720503, 0.0869862, -0.0504561, 0.0220517, 0.0434847,-0.00642152, -0.0532218, 0.0609962, -0.0350329,0.0890204, -0.0481528, 0.0153979, 0.0439622, 0.00410017,0.087174, 0.0236878, -0.0936231, 0.0238682, -0.0036769,0.0663553, -0.0287609, -0.0557975, -0.0333281,0.00527587, -0.105967, 0.0145244, 0.057557, -0.0379371,-0.0762123, -0.0646353, 0.015311, -0.0643649, 0.0198051,-0.030043, -0.131022, -0.118395, -0.022858, -0.0706163,-0.0702156, 0.0714882, -0.0363346, -0.0880882,-0.0902506, 0.0892737, -0.0102767, 0.048764, -0.0987191,-0.048836, 0.0900718, -0.0202777, -0.0619717, 0.0684664,-0.050828, -0.0390398, 0.0543393, 0.0281987, -0.0215437,-0.0627054, -0.0535538, 0.101195, 0.00468885,-0.0758121, 0.0701856, -0.039777, 0.0437945, 0.023783,0.00962661, -0.0178835, -0.00985248, 0.000490579,0.0764823, 0.0483384, 0.0601376, -0.0149139, -0.0390932,-0.0921562, -0.0682665, 0.0297642, -0.107466, 0.0868835,0.0416863, -0.0734969, -0.0536851, -0.0568654,-0.000161203, 0.0956813, 0.0564024, 0.0339345,0.112644, 0.0394964, -0.0711759, -0.0172766,-0.0941313, 0.0551795, -0.00915347, -0.0260408,0.0739874, -0.103594, 0.0511913, -0.0803686, -0.0656762,-0.0783277, 0.0228048, -0.0770484, -0.107012, -0.070183,-0.0210925, 0.0170056, 0.0744688, 0.0229404, 0.0945956,-0.0627718, -0.0447697, 0.0731222, -0.0630777,0.0632072, -0.00473256, 0.0281047, -0.0914971,-0.0548436, -0.0289822, 0.0397037, 0.0829208, 0.0302419,0.080667, 0.109961, -0.0944962, -0.0656887, -0.0425748,0.125985, -0.0707526, -0.013804, -0.0683007, -0.0901034,-0.00708624, -0.0672851, 0.0898168, -0.0955296,-0.0180329, -0.0561321, -0.00763455, -0.0985491,0.0190228, -0.0232887, 0.0882669, 0.0501632, 0.00813035,0.0655662, 0.00511869, 0.0833755, 0.0188614,-0.000107479, -0.0126328, 0.0738502, -0.0549086,-0.103645, -0.0117996, -0.0177759, 0.0438905, 0.0177403,-0.0734471, -0.103595, -0.0239539, -0.0310346,-0.0157979, -0.0598366, 0.0395302, 0.0280141,-0.0344694, 0.00753638, -0.00608667, -0.00375127,0.0078661, 0.0441564, 0.00727587, -0.0317298,-0.0500726, 0.084689, -0.0823182, 0.13505, -0.0527245,-0.0653216, -0.0870501, 0.0411832, -0.0727932,-0.0803457, -0.114691, -0.0698573, 0.0891654, 0.097399,0.0971432, 0.0353214, -0.127584, 0.0309771, -0.0327005,-0.0591039, -0.00725535, 0.0171732, 0.125184, 0.0749799,-0.0926212, 0.0260677, -0.0762249, 0.0754217,-0.010979, 0.0913597, 0.0931157, -0.0422647, 0.100287,-0.0757572, -0.0148772, 0.0961922, 0.0527364,-0.0280727, 0.0426769, 0.0321446,-0.0829462, 0.0828506, 0.0100571, -0.102932, -0.0889123,-0.0725665, -0.101287, 0.07952, 0.0978085, 0.0468499,-0.0590281, -0.00595729, 0.0442755, 0.104746, 0.0455353,0.0456257, 0.0467287, -0.0107928, -0.0729577, 0.107532,-0.00459067, -0.0773543, -0.0780946, -0.0729952,-0.0910966, 0.00671977, -0.00703474, -0.0366408,-0.076076, -0.0108159, -0.0416185, 0.068013, -0.0890802,0.0113365, 0.0490984, -0.0548475, -0.0747805, 0.0358943,-0.0187635, 0.0577592, -0.119386, 0.0150323, -0.0199073,0.0552919, 0.123007, -0.107863, 0.0659655, 0.0148833,-0.0790909, -0.0306147, 0.0192912, 0.0161959, 0.0423239,-0.0370113, -0.0946235, 0.0359254, -0.0900449,0.0814362, 0.0569084, 0.0453716, 0.0944539, 0.0739103,0.0646041, 0.0540918, -0.0517205, -0.0406672, 0.110728,-0.105373, 0.101855, 0.0903295, -0.054947, -0.0353925,-0.109098, -0.0307684, -0.0250999, -0.0175982,-0.0915889, 0.064948, 0.0584035, 0.0993585, 0.0165854,-0.0548803, 0.0587585, -0.0306387, 0.102783, -0.104676,0.0877209, -0.0302269, -0.0655574, -0.0451094,0.0854486, -0.00527432, -0.0410237, 0.0671596,-0.0489044, 0.0259021, -0.0473785, 0.104633, -0.0448837,-0.103755, -0.0588895, 0.0945146, -0.041269, -0.042349,-0.0906796, 0.0155131, 0.117071, -0.00135088,-0.0903264, 0.10036, 0.114153, 0.0846008, 0.0321075,-0.00766612, -0.0616851, -0.102228, -0.105424,0.0389503, -0.0647699, 0.088676,-0.0165203, 0.067719, -0.0499114, 0.0588272, -0.0153348,-0.0907322, -0.006611, 0.0947239, -0.0794109, 0.00922479,0.039084, -0.00246633, 0.0940387, -0.0662208,-0.0783946, -0.0802474, 0.10832, 0.0306569, 0.110519,-0.0139481, 0.00218681, 0.106401, -0.0553436, 0.0949816,-0.0790918, -0.0583392, 0.045565, -0.00871903,0.00437602, 0.0306506, 0.0367752, -0.0790078,-0.0697302, 0.075821, 0.0333182, -0.0116226, -0.0583566,0.0351002, 0.0301871, 0.0553506, 0.0330373, 0.103334,-0.083292, 0.00641746, 0.0164457, -0.0437584,-0.0856111, 0.0416724, 0.0724463, -0.0997547,0.000253385, 0.0362521, -0.0578358, -0.0120518,-0.0813169, 0.0965316, 0.0653085, 0.0806007, -0.0514189,-0.0549696, 0.0779777, -0.0460028, 0.0557565, -0.10207,-0.0564387, -0.0958682, -0.0484369, -0.0298734,0.0426874, -0.0544369, 0.0417318, 0.000304617, 0.121123,-0.0697825, -0.0978085, 0.0797876, 0.0730562, -0.114145,-0.0380905, 0.0882008, -0.0886103, -0.131434, 0.0141234,-0.0639416, 0.0383846, -0.0646715, -0.0103297,0.0357791, 0.0890112, 0.0630107, 0.0553267, -0.0542967,0.104993, 0.0680909, 0.00270541, 0.0130509, 0.0365265,0.10281, -0.0684475, 0.00605017, 0.0818006, 0.0372702,0.0334652, -0.0648876, 0.0668226, -0.0539007,0.0223826, 0.0892173, -0.0904659, -0.0404492,0.0344759, -0.100362, -0.0150724, -0.00746304,0.100356, -0.104306, 0.0738012, 0.0462967, 0.0487083,-0.0459565,-0.0523359, -0.0104659, 0.00864946, -0.0473436,0.0216496, -0.0169157, 0.00982642, 0.0270649, -0.0422661,0.0134056, -0.0753472, 0.0159697, 0.0137566, 0.0205009,-0.0662495, -0.0778816, -0.0294096, -0.0648748,-0.0168234, 0.0775369, 0.0853924, -0.0209341,0.000589153, 0.0245701, -0.0826663, 0.045616, 0.0568725,0.0297824, 0.0649447, -0.106402, -0.0480533, -0.0956466,-0.000846766, 0.031663, -0.101841, -0.017294, 0.0782508,-0.0332029, -0.039528, -0.026491, 0.0467157, 0.0625831,0.0611487, -0.0387493, 0.0912167, 0.0621582, -0.069802,-0.0661531, 0.00574105, -0.0723873, -0.0272063,-0.105359, 0.0392958, -0.0858848, 0.0741219, 0.0312413,-0.0812256, -0.0184875, 0.0444299, 0.0118912,0.00391277, 0.0460203, 0.040145, 0.0893623, -0.011884,0.0429245, 0.0593074, 0.0940713, 0.00542809, -0.104229,0.123277, 0.0995068, 0.10815, 0.0168215, -0.00847114,-0.0239726, 0.0128723, -0.0385585, 0.0148373,-0.0232901, 0.0959338, -0.0846921, -0.0655875,0.0293135, 0.0536795, 0.04115, 0.0260797, 0.013063,-0.00754025, -0.0165582, 0.0306141, -0.0758143,0.0163395, -0.0395108, 0.00130671, -0.0305616,0.0169236, -0.0797145, 0.0634056, 0.0909501, -0.100178,-0.0547405, -0.0618899, 0.0849279, 0.0138146,-0.0796038, -0.062272, -0.0860154, -0.0446381,-0.00746881, -0.0800712, -0.0540315, 0.0126792,-0.0102033, 0.0297266, -0.0202348, 0.0786162,-0.0584763, 0.0571643, -0.0638139,0.0544087, -0.000904412, 0.0510612, -0.102766,-0.0803243, 0.0118582, 0.104442, 0.0480663, -0.0240941,0.0229636, 0.0262518, 0.0978819, 0.062721, 0.0583689,-0.0692239, -0.0738246, 0.0218584, -0.0243931,0.0524904, 0.007018, 0.0726896, 0.0723995, 0.0954077,-0.0151157, -0.0572578, 0.0352103, 0.00258767,0.0291033, 0.0250677, -0.00395989, 0.0532166,0.00171336, -0.0509623, 0.0749958, 0.0291006,-0.0469329, -0.057838, 0.0983533, 0.0478258, 0.0630306,-0.0532741, 0.0409454, -0.0839296, -0.00419911,-0.08276, 0.0108138, -0.0427825, 0.0358944, -0.0409714,-0.108178, -0.0699154, -0.0828766, -0.0488263,0.0137354, -0.0234921, -0.108376, 0.111198, 0.0222852,0.0492607, 0.0889736, -0.0106801, 0.0212674, -0.0969789,-0.00842359, -0.0768294, 0.0533105, -0.044179,-0.000985477, -0.057764, -0.0201226, -0.0603133,-0.0354148, -0.107329, -0.0283532, 0.0346357,-0.00766792, 0.105533, 0.0235832, -0.0110411,0.000595487, -0.0773607, -0.0902104, 0.0437954,0.0317803, -0.0975491, 0.0838683, -0.0435654,-0.00548195, -0.0712366, 0.0577094, 0.0437378,-0.0304566, 0.0230586, -0.0659303, -0.0677891,-0.0178864, -0.105624, 0.108034, 0.0731349, 0.022653,0.0987581, -0.0761516, -0.00756367, 0.0166344,-0.105844, -0.0815735, 0.0364536, 0.0572335,-0.0258926, 0.0672812, -0.00125149, -0.100368,-0.00173751, -0.0975986, 0.0261139, 0.0778739,-0.111544, -0.0899747, -0.038325, -0.0918597,-0.0451061, 0.0890639, 0.0716429, 0.0839984, 0.0998515,0.0114587, 0.0489837, -0.0919968, 0.0503204, -0.0696657,-0.0193926, -0.0304759, -0.0588486, 0.0545531,0.0890404, -0.0261025, -0.0457824, 0.095261, 0.0763028,0.090938, -0.123928, 0.0565058, -0.0740631, 0.0248907,-0.103481, -0.0332132, 0.0904538, 0.031143, -0.0130063,0.0492755, -0.0101039, -0.00745323, 0.0912737,-0.0924356, -0.0626902, 0.0878795, 0.0760809,0.00419668, 0.0289347, -0.0951556, -0.109443, 0.0831338,0.113633, -0.0478751, -0.00215689, -0.0510302,0.00623442, 0.0061439, 0.0927359, -0.0611501, 0.0711675,0.047329, -0.0611338, 0.0744706, -0.0861727, 0.00326728,-0.0914331, 0.105253, 0.0459619, -0.0627052, -0.02005,0.0891003, 0.0877458, 0.0600398, -0.0284002, 0.0927992,-0.0959342, 0.116961, -0.0180175, -0.0642731, -0.122907,-0.00742856, -0.0372703, -0.015436, -0.0934806,-0.0369183, -0.0700193, -0.00244877, -0.0894395,0.0847767, 0.0836653, 0.0506708, -0.0528798, 0.0253886,-0.0740721, -0.0747575, 0.0856075, -0.0817307,-0.0293659, -0.0408966, -0.0173213, 0.100324,-0.0953304, -0.00055733, 0.0216123, 0.0477366,0.0388021, -0.0212299, 0.0128934, 0.0959875, 0.118911,-0.00935754, -0.107294, 0.105051, 0.102122, 0.0252118,0.0230415, -0.106775, -0.0291219, -0.100393, 0.0560051,0.00710699, -0.0447488, -0.0448369, -0.0641915,0.0998584, -0.0111169, -0.018249, 0.100864, 0.0722305,0.0399899, 0.0860335, 0.0606762, 0.107662, 0.0704495,-0.0631932, 0.104138, 0.0901523, -0.0773565, 0.0630588,-0.0315369, 0.0645532, -0.10585, 0.0727841, -0.00368604,-0.10075, 0.044783, -0.0208362, 0.109521, 0.0764442,0.0928202, -0.0691601, 0.103006, -0.00218415, 0.0751982,0.10215, -0.0746647, -0.0608535, -0.0965851, -0.0912774,-0.0155528, -0.0393788, -0.0681761, 0.082649, 0.0178229,0.0761536, 0.031812, 0.023557, 0.0344783, -0.0286306,0.071367, 0.101707, -0.00925362, 0.0565004, -0.0830324,-0.0655215, 0.0679996, -0.0808104, 0.0837904, 0.107332,0.110307, 0.0274115, -0.0789364, -0.0266768, 0.101042,-0.10232, -0.0617019, -0.0619915, 0.0377192, 0.0156452,0.0672858, -0.085662, 0.0780231, 0.00335157, 0.0386178,0.113097, -0.0164946, -0.111043, -0.0386204, -0.0895492,-0.0730699, -0.0220133, 0.0151628, 0.0269331, 0.0989041,0.0052758, 0.0637412, -0.0516504, -0.0422934,-0.0067256, -0.085337, 0.0231949, -0.031104, 0.0963586,-0.0277231, 0.0881152, -0.0437755, -0.0224381, -0.10532,0.0996113, -0.0994599, -0.0922405, -0.0152003,0.0414967, -0.0542283, 0.0779577, 0.0172757, 0.0052569,-0.0790911, -0.0487254, 0.00763792, 0.0432494,0.0756599, -0.0556438, 0.0605546, 0.0352392,-0.0124089, -0.0479969, -0.0517949, 0.0731439,-0.0823991, 0.0482739, -0.09051, 0.0606645, 0.0824543,0.0444453, -0.00531315, -0.0472291, 0.0973732,0.105386,-0.0372253, -0.0787494, -0.0376607, 0.0579576,2.10128e-05, 0.0703731, -0.0599963, 0.0863755, 0.0263336,0.0939083, -0.10281, 0.0116104, -0.0275668, -0.0117544,-0.0769757, -0.0146469, -0.053073, 0.126574, 0.0441956,0.0660399, 0.0171139, -0.0629301, 0.0196478, -0.0136809,0.00214308, 0.0068295, 0.108044, 0.0175195, 0.0254372,-0.0499399, -0.0995653, 0.0478504, -0.0555911,0.0121102, -0.0264991, -0.0293693, -0.0589134,-0.066492, -0.00199087, -0.0133014, 0.0130163,-0.00211935, -0.000860489, 0.0759501, 0.0374373,-0.0998882, -0.0960774, -0.0762695, -0.109219,-0.0936593, 0.066951, -0.0780547, -0.013627, 0.065772,0.0262625, -0.0752067, 0.0281745, 0.052931, -0.0736423,-0.0282926, -0.0128329, -0.0342852, 0.0136631,-0.109886, -0.00364101, -0.0471973, 0.00870401,-0.0706118, 0.0398667, -0.0328174, 0.0829773,-0.0256732, -0.0208493, 0.0630521, -0.0622783,0.0622216, 0.00973454, -0.0028842, 0.0944591,-0.0923709, 0.0381912, 0.0823764, -0.0244986,-0.0168741, -0.104568, 0.0106517, 0.0722603, -0.0488463,-0.0992405, -0.0331512, 0.0593241, 0.0757787,-0.0352313, -0.0772632, -0.0136688, -0.0514349,-0.0566181, -0.032479, 0.0189459, -0.0117356, 0.086377,0.0826418, 0.0834204, 0.0610388, -0.014884, -0.0592014,-0.0401942, -0.010382, -0.0729497, -0.0793456,0.0864666, 0.0907829, -0.00637976, -0.00381675,0.0671643, -0.0796133, 0.0245412, 0.0284162,-0.00969737, -0.0405698,-0.0117589, 0.0672193, -0.00666346, -0.00574665,0.0353889, 0.0525954, -0.0837295, -0.0399385, 0.0480029,-0.0344989, -0.0733609, 0.0698614, -0.0297736,-0.0389757, -0.0558177, 0.0896482, -0.0825295,-0.0264843, -0.105592, -0.104956, -0.0152013, 0.0318466,-0.0138495, -0.000482591, -0.0136371, -0.0565674,-0.101566, -0.0607044, 0.0131544, 0.0134778, -0.0298337,-0.106991, -0.0283896, 0.00815484, 0.100721,-0.000320789, -0.0221255, -0.0140835, -0.130354,-0.0556028, 0.0190732, 0.0754268, -0.0514098, 0.0181534,-0.13627, 0.113279, 0.103473, -0.0265902, 0.00547535,-0.102257, -0.0392206, 0.0419507, -0.083879,-0.00410443, -0.101102, 0.0636448, -0.0479023,0.0519726, 0.0457819, 0.0411538, -0.0140007, 0.0153408,-0.00336263, 0.0183598, 0.018094, 0.0568466, 0.0550801,0.0167526, -0.0051574, 0.0566471, -0.0669117, 0.0879018,0.00894212, -0.0113857, -0.1029, 0.0349804, -0.0891617,-0.0200801, 0.00960357, 0.0515246, 0.0440764,-0.0469367, -0.0313999, -0.0960342, 0.086178,-0.0903946, 0.00173918, -0.0839071, -0.0840553,-0.101322, 0.118652, 0.0762394, -0.0143615, 0.0546414,-0.0613835, -0.0393839, -0.053416, 0.16019, 0.0607405,-3.22269e-06, 0.122062, -0.0946953, 0.0115008,0.00051609, -0.105549, 0.0249975, 0.0651989,-0.0538343, -0.0357808, -0.0667839, -0.0139245,0.115696, 0.0913364, 0.0556963, -0.0871978, 0.106741,0.12991, -0.12742, -0.0240082, 0.0761157,0.0834234, -0.117305, -0.00963971, -0.0129292, 0.0540558,-0.030464, 0.0374127, 0.00796629, 0.0761079, -0.00306536,-0.0212274, 0.0153318, 0.0425883, 0.0602463, -0.0565548,-0.0725469, 0.0676551, -0.0135656, 0.117275, -0.0882697,0.0247275, -0.0522613, 0.0215939, 0.0173606, -0.0107786,0.0239056, -0.0335442, 0.0749846, -0.0711307, 0.0590422,-0.00548932, 0.0409565, -0.0989937, -0.0387128,-0.0104804, -0.0472353, -0.0746514, -0.0545924,-0.0966823, -0.0275373, -0.0777723, -0.0739532,0.00950801, 0.106598, -0.00448585, 0.0617725,-0.0458081, 0.0908169, -0.0443147, -0.0642313,0.0837146, 0.0034389, -0.0668632, 0.0424272, -0.087068,0.0848037, -0.0627023, 0.0456629, -0.109135, 0.00936384,0.0554934, -0.0835728, -0.0921841, 0.07452, 0.0722744,-0.0977799, 0.0828719, -0.0578422, 0.0944633,-0.00377685, -0.0829457, 0.0448704, -0.0730894,0.0292325, -0.0656989, 0.0661587, -0.0485268, 0.02215,0.0878655, -0.075014, -0.0544444, -0.00314315, 0.106137,0.031258, 0.0952154, -0.0515833, 0.0290978, -0.054015,-0.0900831, 0.00686864, -0.0379199, -0.0638969,0.0862979, 0.00967075, -0.0805928, 0.096427, 0.0151566,-0.0071413, 0.0885733, -0.0978094, -0.039622,-0.0891358, -0.057068, -0.0975639, 0.0154772,-0.0620809, -0.0460944, 0.0836867, -0.0932452,0.0445312, -0.0990593, -0.095579, 0.0339433, 0.0565918,0.018767, 0.0624295, -0.087806, 0.0160751, 0.019008,-0.0418464,-0.0841599, 0.123634, 0.0175863, 0.098508, -0.0598696,0.0625173, 0.0378178, 0.00806665, -0.00976404, 0.0866609,0.061207, 0.0205685, 0.0442771, -0.0154104, 0.103241,-0.101112, 0.0692697, 0.0159432, -0.0446422,-0.00543996, 0.00345396, -0.023819, 0.0047476,0.0631271, -0.0280942, -0.0864926, -0.0870838,0.00710496, -0.0214761, -0.0349095, 0.0325193, 0.084065,-0.0443207, -0.103269, -0.0523221, 0.0564364, 0.0526134,-0.0340557, 0.0514493, 0.0811991, 0.0062694, 0.0503132,-0.105649, 0.0830751, 0.0518171, -0.111295, -0.104913,0.0522455, 0.00441609, 0.0646871, 0.070267, 0.0673653,0.0868903, 0.0419425, 0.0445226, -0.0721463, -0.0521735,0.0353993, 0.0592354, -0.0587062, -0.0844653, 0.069755,0.0120809, 0.0442485, -0.0385119, -0.00638661,-0.0533735, 0.0583455, 0.065298, -0.064348, 0.0113194,0.0676239, 0.0247507, 0.0625357, 0.0162902, -0.0660855,-0.104004, -0.0492491, -0.0095574, -0.0869879,-0.0522856, 0.0713759, -0.00319297, 0.00985722,-0.0812285, 0.020954, -0.0445329, -0.0572903,-0.0894034, -0.0501975, 0.0930698, 0.0833051, -0.102349,-0.00385383, -0.023154, -0.0183355, -0.0329777, 0.12455,-0.0057846, -0.0711648, -0.0346055, -0.0671948,-0.0198712, -0.0581017, -0.0475394, -0.0653775,0.00913279, 0.0508085, -0.014774, 0.0417559, 0.0271777,-0.016174, 0.0739044, 0.0967435, -0.0951147, 0.0402854,-0.0018882, 0.0141446, 0.0637036, -0.0266957,0.103931, -0.0950705, 0.0803015, -0.0812067, -0.0528254,-0.0377428, -0.0441949, -0.025073, -0.0577506,0.00628882, 0.0527893, 0.0658596, 0.0631092, 0.0103346,0.00135618, 0.0216783, 0.055225, -0.0420165, -0.0895934,0.0667128, 0.0521173, 0.0850259, -0.076659, -0.0670139,0.0966016, 0.0252219, -0.0176043, 0.000422926,0.0501907, -0.0758867, -0.0710459, -0.0150342,0.0159764, 0.0667977, -0.0606348, -0.0599578,-0.0514428, 0.0569165, -0.0982061, 0.000910531,-0.110069, -0.0745285, 0.0697334, 0.0135635, 0.113148,0.0691777, -0.0505819, 0.0900829, 0.0346607, -0.105594,0.0165279, 0.0875324, 0.0537959, -0.0190336, -0.0833563,0.0387528, 0.104647, -0.0214745, -0.0551346, 0.0504478,0.0601529, 0.0197579, 0.0461613, 0.0439005, -0.0660815,0.0565555, 0.0677674, -0.0208205, 0.0882525, -0.0427557,0.0568484, 0.0437171, 0.109012, -0.0348537, 0.0605233,0.0096301, -0.0924894, -0.000825747, -0.0386001,0.00684178, 0.0684956, -0.0287192, -0.0857531,-0.00387041, 0.059599, -0.0861183, 0.0852342,-0.0782416, 0.0234851, 0.0292335, 0.0350813, 0.0709776,-0.096045, -0.0776899, -0.0390251, -0.0758495,0.0820448, 0.080427, -0.00629197, -0.0415631,-0.0706768, 0.0560309, -0.0398537, 0.016559, 0.0717167,-0.052588, 0.102421, -0.0430452, -0.0380585, 0.103431,-0.108604, -0.0660487, -0.0100179, 0.0493559,-0.066062, -0.0437229, 0.0763887, -0.115194,-0.0932817, -0.042771,0.0977442, 0.0276934, 0.0724082, -0.00638687,-0.00355429, -0.0249792, -0.00473912, 0.0404991,0.0202596, -0.0874632, 0.0206914, -0.0744049, -0.0317005,0.0891984, 0.0838426, 0.102906, -0.039928, 0.0434046,0.0045181, 0.00880662, 0.0460918, -0.0550449,-0.0383845, -0.0360779, 0.0762285, -0.0892676,-0.0933994, -0.00483161, -0.0467759, -0.105374,0.100018, 0.105458, 0.0864247, 0.0537136, 0.0783718,-0.0237932, 0.0158895, 0.0416208, -0.012968,-0.00172859, -0.0392045, 0.1072, 0.109668, 0.0503875,-0.10238, 0.0271972, -0.0296986, -0.0291674, 0.0980732,0.0974385, -0.0327877, -0.107135, -0.0382817, 0.0722936,0.0957819, -0.0472872, -0.0718541, 0.00560486,0.000586356, 0.0940949, 0.0480583, -0.0644989,-0.0112535, -0.0219831, 0.107926, 0.00856304, 0.0602015,0.0231459, -0.0613651, -0.0199608, -0.0612929,0.0993576, -0.0800613, -0.0594725, -0.0709812,0.0531921, 0.040897, 0.0091872, 0.0430771, -0.0304944,0.0988206, -0.0304811, 0.0401122, 0.0873669, -0.0938752,-0.106489, -0.0422561, -0.0198402, -0.0212438,-0.00481027, 0.0758647, 0.0496487, -0.103132,-0.0618074, -0.0543644, -0.0927928, -0.0106472,0.0829683, 0.059458, -0.0224804, 0.107068, 0.0216548,0.0255951, -0.0506143, -0.0367847, -0.00469337,0.0843651, -0.0665675, -0.0862638, 0.0458334,0.0860682, 0.0307396, -0.0874398, 0.0454044, 0.0112354,-0.0933942, 0.0639929, -0.00171441, -0.0853947,0.0731111,-0.0727111, 0.0918422, 0.0321265, -0.0519797, 0.00726749,0.00118895, 0.0109239, 0.0701809, -0.0372367, 0.0874035,0.076691, -0.0429708, -0.0277414, -0.0680302, 0.0596861,0.0130815, 0.100052, -0.0542591, 0.0425238, -0.00871321,-0.0403794, 0.0832714, 0.0399381, -0.0687554, 0.0459889,-0.0918837, 0.0221489, 0.02835, -0.0523771, -0.0873583,0.0909195, -0.102309, 0.0784979, -0.0986207, -0.0574254,-0.0857338, 0.0356823, 0.109115, -0.0955956, 0.0727905,0.0260778, -0.0578562, -0.033263, 0.105522, -0.0270055,0.032304, -0.0161282, 0.00444915, -0.0515998,-0.0356388, 0.0874502, -0.0726124, 0.026363, 0.0494933,0.052217, 0.0861664, 0.00584445, -0.0885396, 0.0186662,-0.00452963, 0.108476, -0.078485, -0.0575981,-0.0347319, -0.048294, 0.0235764, -0.000781645,-0.093127, -0.104749, -0.0224451, -0.0320323, 0.0865868,0.0535417, 0.0148485, 0.0962488, -0.0795929, -0.0924829,0.0371342, 0.105574, 0.0850693, -0.0332537, -0.0579395,0.083183, 0.0824977, 0.0230089, 0.0749301, -0.107731,-0.02552, -0.062292, -0.00204252, 0.0115137, 0.0364109,-0.0465191, -0.109402, 0.0383675, -0.0510559, 0.084742,0.0402624, -0.00957806, 0.0388937, 0.0333807, 0.0536126,0.055578, 0.0229268, 0.0989224, -0.0776215, -0.0486594,-0.093761, -0.0826515, -0.0883034, 0.0995691,0.0138841, 0.082723, 0.0539971, -0.0490134, -0.0286198,0.0299508, -0.0452525, 0.0110343, -0.0737014,0.0108584, -0.00560911, 0.0307739, 0.0699546, -0.0305131,0.0342459, -0.00617122, -0.0853176, 0.0424542,-0.0158336, -0.0243742, -0.107432, 0.0807337, -0.0241749,-0.0812159, 0.0232959, -0.0979596, 0.0648049, 0.0192441,0.083859, 0.0699525, -0.0677863, 0.0880592, -0.0491255,0.0363169, -0.0160506, 0.0460447, 0.0777451, -0.0828611,0.0670279, 0.0058815, -0.0385246, -0.00156321,-0.0827636, 0.0441781, 0.0667814, 0.0176474, -0.108619,0.0694161, 0.0459685, 0.0551272, -0.0977476, 0.0160705,-0.0378361, -0.058352, -0.0384032, 0.0446519, 0.0642531,-0.094768, -0.0686225, -0.036647, -0.0575275,-0.00884398, 0.0269905, -0.0986997, 0.0600125,0.0884363, -0.0273582, 0.0566123, 0.0669877, -0.0692413,-0.0652258, 0.0867904, -0.0956218, -0.0768143, 0.097782,0.091612, 0.00770737, -0.0329387, -0.0864737,-0.0273729, -0.0691459, 0.0584873, -0.0987876,0.0309567, 0.0102585, 0.0649358, 0.0752809, -0.0601715,-0.00298036, -0.0785424, 0.0545463, 0.0703396, 0.108541,0.0683789, 0.00719372, -0.0860028, -0.000685985,-0.0879667, -0.0159185, -0.0490222, -0.100089,-0.0320764, -0.0459533, 0.0895126, 0.0875877, 0.103635,0.00218975, -0.0233345, -0.105973, -0.00263867,0.0374361, 0.0277963, 0.0664899, 0.0449957, 0.0918197,0.0674646, -0.0522274, 0.0357402, 0.00753611, 0.037023,-0.0444972, -0.0532066, 0.0248631, 0.0672861,0.0586716, -0.0652729, -0.0376369, 0.0344396, 0.05548,-0.0708321, 0.0857057, 0.0593134, 0.014197, -0.113747,-0.0677247, -0.0202629, 0.0728925, -0.0952946, 0.0405585,0.0701654, -0.0517225, 0.0679869, 0.0990578, -0.0898199,0.0592473, -0.0590044, 0.0456383, 0.0659568, -0.0103146,0.0370968, -0.00905044, 0.0342754, 0.0444712, 0.0548522,0.0718079, -0.0667505, -0.00096686, 0.00418389,0.0140664, -0.0317973, 0.0667475, -0.110632, -0.0450368,0.00226649, 0.0722527, -0.0471407, 0.0525627,-0.0671395, -0.0897085, -0.116542, 0.0567445, 0.11091,-0.0796689, -0.0527138, 0.0751974, -0.0678032,-0.0112814, -0.0224542, 0.0272493, 0.0896256, 0.082192,-0.0534066, -0.0708613, 0.100359, -0.101918, 0.0699595,-0.0900622, -0.0867904, 0.0183995, -0.0861998,0.0605502, 0.0225022, 0.0303785, 0.106237, -0.050857,-0.0037607, 0.0851376, -0.0343909, -0.0839193,-0.069743, 0.00824119, 0.0456011, -0.0186528, 0.100465,0.0482863, 0.0505562, -0.102255, 0.053254, -0.049154,-0.000768426, -0.038746, -0.105029, 0.0705684,-0.0384739, -0.0938408, 0.0922767, -0.0285221,-0.011611, -0.0399864, -0.00611986, -0.0363885,-0.0538714, -0.0505617, 0.104299, 0.0453118, -0.0965294,0.0057322, 0.0998254, 0.0504617, -0.0393211, 0.0763816,0.086494, -0.0208487, 0.0126012, 0.00159642, 0.0885878,-0.0118588, -0.0309928, -0.0327839, 0.0796531,-0.0960843, 0.0718382, 0.0972565, 0.0946335, 0.0716347,0.0929493, 0.0111293, 0.018037, -0.102639,-0.0656392, -0.0843165, -0.00851851, 0.0620936, 0.03255,-0.0579877, -0.088138, 0.0104095, 0.0943119, -0.0740318,-0.0360454, 0.021604, -0.0405238, -0.0440372, 0.101481,-0.059236, -0.0850834, -0.0179625, -0.0922103,-0.0282833, 0.0354284, 0.0666294, -0.106107, 0.0193768,-0.0319526, -0.134086, -0.10818, 0.0630457, -0.0368207,-0.0494497, -0.0871442, -0.0994438, 0.0455584,0.0968515, -0.0895473, 0.04698, -0.126214, 0.0757144,0.0161676, 0.0422079, -0.0921439, -0.0281988, -0.024756,-0.0283544, 0.0947375, 0.0189095, -0.0518675,-0.0426492, 0.0662684, 0.0526527, -0.108625, -0.0204652,-0.0675152, 0.0930683, -0.0814408, -0.0877021,0.0217873, 0.00850734, 0.108242, -0.10323, -0.0216841,0.00101779, 0.102725, 0.0911563, 0.0141296, 0.00601422,-0.0433075, 0.0258762, 0.0683395, 0.0376024, -0.0235493,-0.0621054, 0.0274098, -0.0704988, 0.085102, 0.071867,-0.123358, 0.0487219, 0.0222276, 0.0261018, -0.0120924,0.00916406, 0.0369588, 0.103039, -0.0257183, 0.0168316,0.0831601, -0.0358341, -0.104249, -0.0406795, -0.118192,0.0865253, -0.0424846, 0.122105, -0.0293413, 0.11074,-0.143273, 0.102769, 0.0497577, -0.106331, -0.0932698,0.0318637, 0.0619127, -0.104675, 0.0216771, -0.0209364,0.0268621, 0.0847218, -0.102176, 0.028075, 0.0554839,-0.0365423, 0.140452, 0.0914009, 0.0172207, 0.054325,0.0753115, -0.0699176, 0.0331001, -0.0753391,0.0109883, -0.0326152, 0.00294787, 0.0452628, 0.0749278,0.0901, -0.0368505, 0.0990725, 0.084795, 0.0835206,0.078776, 0.0015511, -0.0386954, -0.0848474, 0.0546179,0.052394, 0.0266466, 0.0125521, 0.0906475, 0.0521393,0.118268, 0.0854045, -0.00634187, -0.107933, 0.0511362,0.0939156, -0.0321483, -0.00340452, -0.0852083,-0.0214994, 0.041523, -0.0235775, 0.0219444, -0.0767114,0.109911, 0.0652223, 0.0539008, 0.0195679, -0.0733925,0.0613982, -0.109492, -0.0494644, -0.0140007,-0.0848469, 0.00557632, -0.105671, 0.00417164,0.0290813, 0.0354391, 0.0871291, 0.0471812, -0.0359262,-0.0736278, 0.0369559, -0.040748, 0.0460492, -0.0446749,-0.0665582, 0.0589727, -0.0505185, -0.0746825,0.0420243, -0.103023, -0.0600314, -0.0314917, -0.105464,-0.0653572, -0.0830469, -0.0986566, 0.0732546,-0.0900483, -0.0702984, -0.0171505, -0.0544583,0.0873295, -0.0039897, -0.110704, 0.0271142, -0.0846487,-0.00366244, 0.0590962, 0.0700033, -0.0118595,0.0794989, -0.0143916, -0.0942433, -0.0344862,0.0546286, -0.0510316, -0.070632, 0.0682701, 0.0503417,-0.0356229, -0.0152946, 0.0932308, -0.0631317,-0.0884848, 0.0090244, -0.00285252, 0.101054,-0.0711075, 0.040189, 0.0941437, -0.0662666,-0.0999051, 0.0298804, 0.0489609, -0.050645,-0.00560685, -0.0593356, 0.0638128, 0.0562755,0.0722106, 0.0203353, 0.031893, -0.0155396, -0.017208,0.0747375, -0.0645716, -0.0596778,-0.0236032, 0.0747622, -0.058645, 0.0626993, 0.0322569,0.09543, -0.0993331, 0.0411592, 0.0406573, -0.00114458,-0.013948, 0.0716917, -0.054182, -0.0397278, -0.071446,-0.0476763, 0.0696189, 0.0968921, -0.0876853, 0.0928601,0.119211, 0.0448329, -0.0959175, -0.103665, -0.00898891,0.00870536, -0.046185, 0.0892548, 0.0942839, 0.0939697,0.0259647, -0.0168437, 0.0604682, 0.00499792, 0.0608609,0.0529551, 0.0849712, -0.10013, -0.00571181, 0.0225893,-0.0768952, -0.0760658, 0.0163299, -0.0902127,-0.0754361, 0.0939897, -0.0438602, 0.0236007,-0.0531368, 0.100611, -0.0519274, 0.0959754,-0.00899704, -0.0940807, -0.0695676, -0.0735428,0.0801749, 0.0222067, -0.0844234, -0.0871999,0.00764824, 0.0799333, 0.0427794, -0.0590872,-0.0577545, 0.0736575, -0.0235098, -0.0700709,0.00320689, -0.0946812, 0.0454968, -0.111022,-0.0911727, -0.109977, -0.0362723, -0.100456, -0.024249,0.0407134, 0.0479338, 0.0667211, -0.0199547, 0.067944,0.0742965, 0.093497, -0.036462, -0.0188617, -0.00773722,0.0560412, 0.0365146, -0.0904411, 0.0406688, 0.125124,-0.00390918, -0.0220853, -0.0422759, -0.0451413,-0.0653399, -0.0654369, 0.012842, 0.0163225, -0.0612721,0.019684, 0.0500479, -0.0569213, 0.0857568, -0.0144294,0.109218, 0.0134048, -0.096545, 0.0299863, 0.0415422,-0.00666872, -0.0277908, -0.0603423, -0.00620414,-0.0551195, 0.0681504, -0.0251915, -0.00804458,0.0154998,-0.0956498, 0.041245, -0.0365444, 0.0245788, 0.0290027,0.0419126, 0.0770787, 0.101453, -0.00668979, -0.0848744,0.0907586, -0.00826865, -0.0268092, -0.0451221,-0.0349002, 0.103523, 0.0997903, 0.0859369, 0.0124403,-0.0992936, -0.0549971, -0.0820368, -0.0421077,0.0806227, 0.102113, 0.0597335, 0.10624, -0.0951211,-0.00404403, 0.0189958, -0.0569912, 0.0190468,-0.0636125, 0.0048358, 0.0693552, 0.0131934, 0.0464071,0.00501973, 0.0659745, -0.00433315, 0.0156615,-0.105765, -0.0052439, -0.0647434, 0.032212, 0.029631,0.0840917, -0.0893544, -0.0935639, 0.0287153, -0.061387,-0.092126, -0.0851379, -0.0413756, 0.0287016, 0.0172448,0.0806218, -0.0888754, 0.0807152, -0.0282853,-0.0569865, -0.0961387, 0.0922353, 0.0745507, 0.0309443,-0.0496296, -0.0523491, -0.0577838, 0.0549247,0.0162895, 0.0250176, -0.0980035, -0.0104323, 0.0714632,0.0222132, -0.00274544, 0.017144, 0.0483156, -0.040631,-0.017341, 0.0238527, 0.0122787, -0.0386514, -0.0715563,0.00788346, 0.0502204, -0.0204425, 0.0454415,-0.0519943, 0.0341825, -0.0280327, 0.0700544, -0.08164,-0.0913794, -0.0494508, 0.00824334, -0.0783306,0.0635062, -0.0187105, -0.0756515, 0.0652085,-0.0988824, -0.0312834, -0.0143795, -0.0130277,0.0228255, -0.0687027, -0.0853178, -0.0839258,0.0511568, -0.0234038, 0.0297827, 0.0891741,-0.0310078, 0.0659666, -0.0890146, -0.00738782,-0.0163506, -0.0298065, -0.000640571,0.0246566, 0.0230465, 0.0847817, -0.0255063, 0.0866624,-0.0877039, -0.070342, -0.0633509, 0.0671244, -0.01848,-0.0749155, 0.106146, 0.00235262, -0.0512932,-0.0766178, 0.0936866, -0.0441721, -0.0470554,0.0321484, -0.0923505, -0.0471323, 0.0902634, 0.0817426,-0.00938653, -0.00408159, 0.0603704, -0.00983736,0.0133942, 0.0462911, 0.105084, 0.0388312, 0.103242,0.060362, -0.0798548, 0.00325572, 0.0645039, 0.00521841,0.0841319, 0.0705588, 0.0272681, -0.0656553, -0.109086,0.0806861, -0.0618968, 0.0227729, 0.0544652, -0.0591831,-0.0847552, 0.0372963, -0.0142252, -0.0220821,0.0442095, 0.090481, -0.103892, 0.0150039, 0.0298224,0.0916133, 0.0582722, 0.0261445, 0.0438286, 0.0480252,-0.0825549, -0.0226213, 0.0886115, 0.0927018,-0.0386118, 0.0986715, 0.0997031, 0.000275019,-0.0794157, -0.0509093, -0.0163199, 0.0781108,0.0867589, -0.00600005, -0.0327856, -0.0737649,-0.0690611, -0.0104801, 0.0618395, 0.0570453, 0.0430172,0.101177, 0.0984111, -0.0376489, -0.0517151, 0.0732454,0.102358, -0.0294682, 0.0752927, -0.0522652, 0.0214934,-0.0918322, 0.0228606, -0.0160757, -0.0886261, 0.015059,0.0856464, -0.02432, 0.046239, 0.0954968, 0.0336559,0.0104843, 0.0179172, -0.010406, 0.107279, 0.108656,0.00758192, 0.0800985, -0.0624611, 0.098624, 0.0931566,-0.00791719, 0.037873, 0.040144, 0.0958431, -0.0225547,-0.00125909, 0.057225, -0.0742503,0.0841386, 0.0188618, -0.0446895, -0.00514231, 0.0657006,-0.0949344, 0.0915307, -0.0698236, 0.0620734, -0.0849108,0.104371, -0.00961081, 0.0239678, -0.0367943, 0.0596283,0.0266815, 0.0288128, -0.0402804, 0.0560479, 0.0406961,-0.0857714, -0.0714096, -0.0173173, 0.0580401,-0.00978534, 0.0744417, 0.0749595, 0.0148593,-0.0520006, -0.00432207, -0.0871021, 0.0325151,-0.0777707, -0.0584339, -0.10596, -0.0248638, 0.0759661,-0.0106407, -0.026029, 0.0625452, 0.0061387, 0.0422772,0.032438, 0.0673921, -0.00511918, -0.0210436,-0.0424215, 0.00589732, -0.112375, -0.0715941,-0.0634887, 0.0525575, 