-0.0448778
-0.00587428
-0.0543648
0.0432404
-0.0762305
-0.0640786
0.0729304
-0.0125765
-0.0368951
0.050835
0.0195509
-0.0153948
0.0338952
0.0279163
0.0757829
0.0620957
-0.0669232
-0.0518875
-0.0624812
0.067985
0.0624324
0.0675302
-0.062034
0.0204238
0.0200282
-0.103865
0.0703725
0.0112876
-0.083401
-0.105733
-0.0939456
-0.0766391
-0.0236586
0.0329531
0.0988567
0.00462378
-0.071367
-0.0465328
-0.0708291
0.00942387
0.0373596
-0.08903
-0.0361865
0.0247679
-0.0705605
-0.00281217
-0.0416191
-0.0172376
-0.000155595
0.0272662
-0.0859263
-0.0186683
-0.00160606
-0.019275
-0.0989363
0.0496274
-0.0364095
-0.00192156
-0.0534385
0.0534501
0.0396865
0.0328443
0.0624722
0.0524603
-0.0112196
0.0958579
0.0359611
-0.034184
-0.0163041
-0.0714685
-0.0242095
0.00413279
0.0564107
-0.0915375
0.101402
-0.08974
-0.0869708
-0.0776614
-0.0183432
0.0934199
0.0345234
-0.00565177
-0.0392339
-0.092375
-0.0746057
-0.0679469
-0.0225124
-0.0764694
0.0668628
-0.0342829
-0.0808849
-0.0684171
0.0670212
0.0482111
0.0578363
-0.0531355
0.0219335
-0.0392279
0.0261175
0.0248513
0.0568562
0.0656074
0.0894888
0.0447014
0.021851
0.093637
-0.0864279
-0.0732336
0.0544036
0.0341113
-0.00561772
0.0351386
0.0827032
-0.038144
-0.0990684
-0.0639581
0.0940301
0.0725557
0.00571816
-0.06136
0.00895857
-0.0936355
0.0269528
0.0693033
-0.027352
0.0654103
0.0343612
0.0927148
0.00725725
-0.0150025
-0.0591592
0.00242401
-0.0491395
-0.0375047
-0.0679616
-0.0639387
0.0417222
0.0704373
-0.0623802
-0.0798981
-0.0410599
-0.0459327
-0.0694555
-0.0117349
-0.0381153
0.0596703
0.0636785
0.0967702
-0.0880183
-0.00988765
0.058686
0.0768446
-0.0237798
-0.0651109
0.0568513
-0.0799862
0.0379052
0.0027557
0.0526203
0.0512505
0.0655418
-0.0886333
-0.0668328
-0.0166738
0.0161595
-0.0806041
0.0603324
-0.100594
-0.0997173
0.00374817
0.052607
-0.0577816
0.0333726
-0.0642472
-0.0851553
-0.10695
0.130543
-0.0582482
-0.106001
-0.0645045
0.00286965
0.0162043
0.0458592
0.0340206
-0.0353919
-0.0819116
0.0535724
-0.0202248
-0.0554064
0.0434567
0.03399
-0.0688683
-0.026475
-0.107838
0.0649152
0.0744954
0.0823414
-0.0386867
-0.00420619
0.0588438
0.00371797
0.0316542
0.0562804
0.0486759
-0.0452619
-0.036233
-0.0474975
-0.0287783
-0.00199946
0.0452341
-0.0459502
0.0669482
0.000928504
-0.0116068
0.0666738
0.025498
0.0495116
0.108859
0.0836733
0.00392254
-0.0556556
0.0316952
0.0635141
0.0264016
0.00570202
0.0524916
-0.089241
0.0921595
-0.0462603
-0.0688294
0.0863314
-0.078193
-0.0751671
-0.0412979
-0.0900798
0.07931
-0.0618532
0.0981724
0.04621
-0.0430578
-0.0884382
0.0104242
-0.0336232
0.0486978
0.00731855
-0.0996092
0.112833
-0.0913281
0.0173813
-0.00473914
-0.0481738
0.10944
-0.032707
0.0475116
-0.111444
-0.0376074
-0.084428
0.0446349
-0.0679069
0.046709
0.0466484
-0.0381399
0.106531
0.0135512
0.0752196
0.0742895
-0.098849
-0.0345314
0.0527632
0.0859227
0.046923
-0.00148062
0.0272725
-0.0143357
-0.0939904
0.0013879
0.0862136
-0.078156
-0.0863681
-0.0389918
-0.0884218
-0.0320298
0.0498075
0.0172015
-0.0788843
0.0194243
-0.0917572
-0.0704623
0.067879
-0.0537482
0.0781836
0.0435164
-0.0996365
0.0382976
-0.0604073
0.100937
-0.086593
0.0036487
0.0841321
-0.0365257
-0.0796015
-0.00197764
-0.0941792
0.0271476
0.0111835
-0.0520795
0.101525
-0.0896754
-0.0711838
0.0818094
0.0836869
-0.101774
-0.0930502
-0.041597
-0.0837932
0.062779
-0.0660279
0.0653178
0.0756292
0.0944291
0.0434611
0.0776052
0.0359455
-0.0535747
0.00749275
0.0668499
0.00798602
0.104457
0.0442755
0.0529891
-0.063119
0.030856
-0.0493994
0.0708781
0.0602073
0.0833682
0.0699941
0.0703177
-0.0277493
0.0364146
0.101326
-0.0688286
0.0669941
-0.103123
-0.0171484
-0.0681451
-0.0121578
0.046095
-0.0634471
-0.0615863
0.0893205
0.103153
0.0370482
0.0211938
-0.0198973
-0.0395552
-0.0673983
0.113501
-0.0515732
-0.11584
-0.103502
-0.0242184
0.0390199
-0.0860345
0.0328248
0.106734
-0.0690953
-0.0587909
-0.0506004
0.00924276
0.105578
-0.083786
-0.0203988
0.0880573
0.0170524
0.0534205
0.0328734
0.0559202
-0.0311746
0.107666
0.0162823
-0.0618034
-0.0645594
-0.0120905
0.106652
-0.0820365
-0.0305108
-0.0424356
0.062138
-0.015998
0.116355
-0.0358448
-0.0589137
0.0476606
-0.0478268
-0.089823
-0.105355
0.0483458
-0.011023
-0.0533818
-0.0586852
0.00155501
-0.0518257
0.0288822
-0.037091
-0.0539858
0.0748454
0.0762776
0.036438
0.106239
0.0671649
-0.113072
-0.0549208
0.0731212
0.0772667
0.0854643
-0.0507006
-0.120691
-0.0478432
0.00574471
-0.0816502
-0.0140888
0.0649016
0.0615964
-0.0910654
-0.103321
-0.0146154
0.0290982
-0.0347189
-0.0684563
0.0369473
0.0762727
0.0957477
-0.00963356
0.0203342
-0.014867
-0.0886305
-0.100932
0.0863294
-0.00918313
-0.0733611
0.0400687
0.0420291
0.033872
-0.0842456
-0.0679141
-0.0738402
-0.088639
-0.00629972
-0.0907135
0.00629705
-0.0673066
0.0836002
0.0490108
0.0207364
0.0834379
-0.0267742
0.0337107
-0.0436898
0.0502294
0.0813747
0.0131739
-0.0830455
0.0244607
0.0396194
-0.0906508
-0.0918218
-0.00466338
0.0743852
-0.0452123
-0.0812394
-0.0741614
-0.0256581
-0.0309769
0.0221412
-0.0347136
0.0127359
-0.0683312
0.0299731
-0.080834
0.100729
0.00218949
-0.0379358
-0.0583522
0.102342
-0.00388347
0.0884897
-0.0459904
0.0241219
0.0979083
-0.0833653
-0.0225441
0.0629215
-0.0654687
-0.0281277
0.0576647
-0.0807427
0.0203319
0.0125731
0.0907341
-0.0307713
0.0591153
0.064173
0.0806746
0.0370787
0.0218233
-0.0478074
-0.00399514
-0.09338
0.101453
0.113238
-0.0214559
0.0348582
0.00665706
0.111656
0.0888993
0.106452
0.0503026
-0.0973016
0.0946684
-0.0489782
-0.0748119
-0.0227288
0.00527718
-0.0717269
-0.0369375
-0.0161066
-0.0676091
-0.0435423
0.0187491
0.061527
-0.0299622
-0.0759552
-0.100892
-0.0907421
-0.0161695
-0.0161816
0.0929049
0.0430417
0.0763608
0.0931278
0.108198
0.0571531
-0.0646566
-0.0230673
0.0152883
-0.0872409
0.0225342
0.0908323
0.115595
0.0434462
0.0705538
0.028601
0.0820608
-0.094773
-0.0334072
-0.0010169
0.00970716
-0.0522648
-0.0349223
0.139863
0.0347342
-0.0490426
-0.0330431
-0.0708394
0.0423537
-0.0254089
-0.0875216
0.0868851
-0.00831967
0.0680635
0.106091
0.00999322
0.0536065
0.0110418
0.0136949
-0.0569241
-0.0333978
0.0116561
0.0503412
0.0564956
0.0423478
-0.0998403
0.0664846
0.0820871
-0.0290961
0.0376789
0.064848
-0.071006
0.0280961
0.0148674
0.0910742
0.000781566
0.0970235
-0.0468246
0.0220018
0.0640379
-0.0686161
-0.00724853
0.0131558
-0.0462005
0.00611234
0.0663544
0.0580839
-0.0792413
-0.0131722
0.0706844
-0.0662675
-0.0300493
0.0972374
0.010304
0.0417024
-0.0786625
-0.0354826
-0.0941031
0.0322318
-0.0335274
0.059676
0.0139434
0.0274945
0.0793014
0.0846352
0.0546486
0.0645549
0.0318362
0.114201
-0.0652911
0.0737518
0.106086
-0.0865228
-0.0159929
-0.111729
0.026669
-0.117892
-0.016617
0.0911824
-0.0550904
-0.0917706
-0.018193
-0.0529521
-0.0077133
0.0176108
0.118517
-0.0740512
-0.0862118
0.0190704
0.0957328
0.056483
0.0437115
-0.0743301
-0.010098
-0.0736681
-0.075712
0.031397
-0.0826403
-0.0205948
-0.0429732
0.0958489
0.0791443
0.0857982
0.0411279
-0.0882788
-0.0915385
0.0159179
0.018585
-0.0123706
0.00219739
0.00456508
0.0173743
-0.0819221
0.00569749
-0.0326348
0.0623239
-0.0272835
0.0686918
-0.00553397
-0.0574017
0.0623623
0.00293984
0.00188288
0.05989
0.0471906
-0.0187863
-0.0576874
0.0355632
-0.070324
0.088186
0.0737682
0.0182882
-0.0221434
-0.0648223
0.0947254
0.0982289
0.0385358
0.0101896
-0.00781023
0.0138658
0.0867801
0.0967113
-0.0397606
-0.0633895
-0.0386391
-0.0676198
0.0479861
0.109129
-0.0718554
-0.0378453
0.0591528
-0.0539278
0.0367574
-0.00480781
0.0508866
-0.089109
-0.0421918
-0.102634
-0.0442235
-0.0969224
0.0291733
-0.0702486
0.0145396
-0.0627443
0.0680742
-0.0192396
-0.0932902
-0.0677423
0.0936527
0.0470436
0.0602277
0.0561233
0.0525634
-0.0922244
-0.00562154
-0.0397575
0.0121976
-0.0814017
0.0755533
-0.0655639
-0.0846516
-0.0410801
0.0613698
0.00970793
0.102583
0.113547
-0.0887867
0.0950123
-0.0447076
0.0832554
0.046313
-0.0220818
-0.040519
0.00987955
-0.0281233
-0.0901756
0.0412586
0.0613428
-0.0644486
-0.0907154
-0.085827
-0.0594665
-0.0515278
-0.0976881
0.0704181
0.0949895
0.0101352
-0.0584806
0.0752615
-0.0721759
0.00758998
0.0379123
0.0716759
0.0725001
0.0575606
-0.0421808
0.0286747
0.111465
0.066247
-0.00938216
0.0796017
0.00448528
0.0346081
0.0802355
-0.0193495
0.0967201
-0.0628879
-0.0413146
-0.0635044
-0.0691088
0.101889
-0.075655
-0.096131
-0.0908209
-0.0232147
-0.0348073
0.0383026
0.0462791
0.0348843
0.0321044
0.000659206
0.0400104
0.0735919
-0.031518
-0.0652767
0.11788
-0.0688783
-0.0820883
-0.0412851
0.0193903
-0.0450241
0.0035873
-0.105304
-0.0354638
0.0105617
0.0379283
-0.019559
0.125178
0.0468646
-0.0770701
0.0408799
0.00168077
-0.0114862
-0.0594162
-0.0877925
0.096145
0.0579445
-0.0643501
-0.02905
-0.0132504
0.0853429
-0.0829056
0.020433
-0.0768371
-0.0181312
-0.065659
0.0484709
-0.0401698
0.0278051
-0.0376496
-0.0950616
-0.0487779
-0.0145869
-0.0238956
0.0358187
0.0504287
0.0746346
0.0115947
0.0655542
0.0248592
-0.00796683
0.0643806
0.00100607
0.0679987
-0.0425323
0.0815566
-0.0389139
0.017153
-0.102238
0.0602842
0.0416675
-0.022635
0.00217703
0.0849175
0.0731976
0.0941169
0.0352754
-0.0462257
0.0987702
-0.00601805
0.0764727
0.0948746
-0.0851788
0.0129365
-0.0684979
0.00413416
0.00879667
0.0432341
0.00647051
-0.0241882
-0.0219755
0.00595118
0.0728998
0.0975431
-0.0435613
-0.0341724
0.00987853
-0.0591838
-0.0524161
0.0115425
0.0786512
-0.0786032
0.0653853
-0.0813405
-0.0654694
0.0600125
-0.0876664
-0.0263716
-0.0349981
0.106435
-0.0462707
-0.0389378
0.0539922
-0.0122769
0.0788948
0.0903904
-0.0947426
0.0435119
-0.000321023
0.0731632
-0.100856
0.103773
-0.0451227
0.109917
0.0921271
0.0348114
0.0319919
0.0975254
-0.0996982
0.111191
-0.0393137
0.0883543
0.0754474
0.0775703
0.0830848
0.0425479
-0.0826386
-0.0102568
-0.0230888
-0.0658979
-0.0285653
-0.0707579
-0.0321237
0.0154317
0.0627564
0.00127035
0.102048
-0.101966
-0.0899139
0.0597798
-0.0896978
-0.0649769
0.0164959
-0.0207734
-0.119888
0.0400398
-0.0385099
0.0697365
0.0248952
-0.0139067
0.0178884
-0.025546
0.0299942
0.0901412
0.0568031
0.00660282
-0.0860553
-0.0473032
-0.0485082
0.0129108
0.0965616
0.0163904
0.0914984
0.0316562
0.0866336
-0.0111755
0.0147438
-0.0969204
0.00241085
0.00335101
0.0552091
-0.0506124
0.0958069
0.0609924
-0.0973883
-0.00624852
0.0183834
0.0443846
0.0740031
-0.0713155
0.0619905
-0.0439279
-0.0360606
-0.0165909
0.0635705
-0.0466113
0.110124
-0.0887514
0.0233719
0.0423563
0.0490514
0.0973771
0.0569546
0.0446685
0.0599811
0.00800655
0.0783628
-0.062633
-0.0298754
-0.0712315
-0.044705
0.090511
0.0167514
0.0999938
0.0994535
-0.017693
0.101083
0.0427333
0.0900174
-0.0704302
-0.0519779
-0.0739211
-0.0449672
-0.00623928
-0.0518711
0.0353214
-0.0759796
-0.0421965
0.0716173
-0.0766424
-0.0250594
-0.0466347
0.0690467
0.0522744
0.104767
0.0754218
-0.0653206
-0.0241054
0.0156291
-0.0497231
-0.0615967
-0.0852584
-0.0166656
-0.0648723
-0.0324215
0.00478631
-0.0216404
-0.0906642
0.0599064
0.00907239
0.0663233
0.0347245
-0.0190475
0.0526574
-0.0759658
0.0511629
0.00528626
-0.0521043
-0.0656745
0.0188631
-0.0268574
-0.0853709
0.0565588
-0.096509
-0.0649396
-0.0437379
0.0510199
-0.0365076
0.0420789
0.0777976
-0.0109924
0.0992767
0.01704
-0.0600265
0.0272663
-0.0953804
-0.0776015
-0.0815826
-0.0212299
0.0763757
-0.048775
-0.102523
0.105361
0.0441903
-0.0918129
-0.0365227
0.0863075
-0.0433536
0.0852518
-0.0784488
-0.0648753
-0.0995706
-0.0441912
0.100679
0.0611126
0.0709176
0.0464119
-0.0426808
0.0185148
-0.112148
-0.0180061
-0.0531104
0.0325538
0.0200075
-0.00155467
0.0942362
-0.0745663
0.0297014
0.0321032
0.0210031
0.0495525
0.0729665
0.0286555
-0.0887284
0.0103353
-0.0182822
-0.00230888
0.033735
0.03307
0.0551134
-0.0481765
-0.0207681
-0.0755534
0.0419165
0.0229692
0.0312364
0.0696848
-0.0704746
-0.0161945
0.106813
-0.0224307
-0.057676
0.0244466
0.0186839
-0.0707881
-0.0456831
-0.0901499
0.00664771
-0.0486178
0.0806384
-0.0215906
0.025238
-0.0618013
-0.0637415
0.101472
0.0546652
0.00645677
0.0739902
-0.00195536
-0.0791435
-0.00807414
0.0605858
-0.0719687
0.0959605
-0.00720475
0.0178
0.0244707
0.0426854
0.0274515
0.056445
0.0392601
-0.0415445
-0.0486557
-0.042763
-0.0357409
-0.00395675
-0.00326861
-0.0665395
-0.0288655
-0.000557299
0.0491342
-0.0985937
-0.105984
-0.0414689
-0.107976
0.00491906
0.0872296
0.0553734
-0.0777034
-0.0895422
0.0270339
-0.0241438
-0.0919482
0.0232325
-0.0538703
-0.105695
-0.0985053
-0.0188815
0.0232987
-0.0366854
0.115508
0.0388936
-0.00190822
0.0546819
-0.0495123
0.0966954
-0.034012
-0.0222008
0.114528
0.0486448
-0.0407853
-0.0859541
0.0801223
-0.0812444
-0.0709249
0.0964629
-0.00657277
0.0122228
-0.0887458
-0.0155276
0.033634
0.0271632
-0.0871094
-0.00847818
0.0219145
0.0759696
-0.0363391
0.11488
0.0154611
0.0620948
-0.0655365
-0.011995
0.0430424
0.00808488
-0.0856754
0.06148
0.0798922
-0.0555933
0.00494963
0.0545299
0.0397485
0.00222031
-0.0741386
0.0841715
0.0862075
0.0299805
0.0289172
-0.0225022
0.0498476
0.0906497
0.10361
0.00469362
0.0506489
-0.0183521
0.0827096
0.0579847
0.0354062
-0.0893845
-0.01044
-0.0110213
0.0750588
0.0565853
-0.0586255
-0.0696996
0.0491142
0.0211957
-0.076099
-0.0622485
-0.0426925
-0.0486829
0.0212466
0.0485384
0.0244206
-0.0333394
0.110335
0.0969462
0.0215127
0.0139523
0.0124585
0.0701321
-0.0774438
-0.0712192
-0.0502771
-0.0991458
0.0900986
0.088073
0.0552547
0.0314786
-0.107465
-0.0641648
0.0313637
0.0937221
-0.051291
-0.0164032
-0.0521298
0.0209269
0.0698541
0.102725
0.046579
0.0826711
0.00956819
0.0176093
0.00530629
-0.0879399
0.090041
-0.0385677
-0.0384873
-0.0878312
-0.027881
0.0775558
0.0303886
0.0903189
-0.0974941
-0.0243181
0.0308978
-0.0937121
-0.00525093
0.00396273
-0.089959
-0.0771441
0.0470757
0.102573
-0.015844
0.0621736
-0.0811802
-0.0663563
-0.0594973
0.00701565
-0.0277474
0.00472356
0.0644196
0.0651819
-0.0918064
0.0328157
-0.0221771
0.0181006
-0.0769361
0.0163386
-0.0303376
-0.102537
0.0982553
0.0506788
0.0863264
0.0408362
-0.0466669
-0.0918265
0.0529932
0.0712629
-0.0919597
-0.0157271
-0.0746014
-0.0739712
0.0512309
-0.056531
-0.0223908
0.0231598
0.042858
0.0179513
0.0668131
0.00425511
0.0932406
-0.000333069
0.0996697
0.0247266
0.07607
0.0016012
0.0749106
0.0318083
-0.00290235
0.000353241
-0.0906646
0.0335672
-0.0301535
0.00503965
-0.102988
0.00253264
0.0867162
0.0011764
0.0251211
-0.0902197
-0.0210937
-0.0816202
0.0167297
0.0403773
-0.027372
0.0199597
0.0950259
-0.0365051
0.0152323
0.0711873
0.00897377
-0.0909589
-0.0856877
0.0204154
0.059023
-0.0214989
-0.0156075
-0.0936218
-0.0922045
-0.0880175
-0.0351736
0.0473958
0.0239687
0.064388
0.0377388
-0.00975676
-0.0544097
0.0532006
-0.0686837
0.0484609
0.00937544
-0.0172605
-0.033342
0.0858533
0.07272
0.0764899
0.0247894
-0.00996441
0.113069
0.060169
0.125536
0.0962561
0.0762088
0.0309749
-0.031075
-0.067624
-0.0142988
0.0071391
0.0226086
0.061229
-0.0165201
-0.00329902
-0.00156311
0.0505904
0.00215038
0.0668227
-0.0419959
0.037584
0.0472227
0.026398
-0.0706232
-0.104124
0.124791
0.0287966
0.101011
0.00661719
-0.00540959
-0.0474081
0.054678
0.0327276
0.019455
0.0810358
-0.0585979
0.0925213
-0.0826499
-0.0974042
0.0740216
0.0387847
0.0198503
-0.0689272
-0.10324
-0.0221872
-0.0282779
0.0510804
0.104221
-0.0901424
-0.063694
0.000959524
0.0406665
-0.0849913
0.0967736
0.0280991
-0.0962283
0.0465878
-0.0534225
0.0277629
-0.0625005
-0.0899896
0.0131467
-0.0311153
0.049537
-0.0676958
0.0174668
-0.0513321
-0.0391197
-0.0993583
-0.0792987
-0.0820642
0.0945222
-0.0394358
0.0808857
-0.0344851
0.0348814
-0.0902929
-0.0677369
-0.133349
-0.034905
-0.0475512
0.0662649
-0.0678002
0.0276838
0.0902288
-0.0294416
-0.0422737
-0.105848
0.00195798
-0.0887421
0.0193927
-0.00115404
-0.0944784
-0.0794137
-0.102278
-0.0245146
0.0574294
0.00396563
-0.0748276
0.0839372
-0.0350488
0.115172
0.0840782
0.0539173
0.0964351
-0.10926
-0.0912988
-0.0349072
-0.00362369
0.0733906
-0.0289992
0.0977269
0.0851588
-0.0185792
0.0661208
-0.0523586
-0.0322847
0.0805876
-0.0581034
0.0717944
0.0601607
0.0752344
-0.101513
0.0290291
0.100627
-0.052115
0.010817
-0.0751225
0.0309301
0.0910713
-0.0623679
0.00225909
-0.023062
0.079286
-0.00754736
-0.0937231
-0.003684
0.00735683
0.053751
-0.0250236
-0.110002
0.0435524
0.0179275
-0.0810078
-0.106867
0.00302945
0.0313764
0.0276704
-0.0919057
0.0150363
0.0368022
0.0322063
0.0700067
0.0577496
0.0770081
0.0277765
0.00975474
-0.0144689
-0.0828283
0.0663863
-0.00910419
-0.00432018
0.0603594
0.0701378
0.0166951
-0.0517395
-0.0280727
-0.023205
-0.052479
0.0908022
0.0659169
-0.079427
0.116905
-0.073765
-0.0348811
0.0362203
-0.0542922
-0.0956362
0.0131164
-0.0941308
-0.00217143
0.0836682
0.0670565
-0.0394927
0.0444104
-0.0871886
0.0248531
0.0462389
0.0908175
-0.104158
-0.0484288
0.0897287
-0.0765069
0.0734576
0.0320798
0.0794031
-0.0901258
0.0154844
-0.0209249
-0.0552535
-0.00426408
0.00969256
-0.0128503
-0.0198691
0.076799
-0.100805
0.0511195
-0.0891019
-0.0449
0.0838569
-0.0195893
-0.114495
-0.0573881
-0.0230329
-0.0542149
-0.0372592
0.0325541
0.0354571
0.0939607
0.115679
0.00629567
0.0818134
-0.0687587
0.0866676
-0.00105724
-0.0530186
0.0122533
0.0311139
-0.0767687
-0.105323
-0.0589487
0.102105
0.0800855
0.0685213
-0.032538
0.0222181
-0.0638048
-0.0836126
0.100837
-0.0600077
-0.0882511
-0.0458698
0.00425769
-0.060547
0.0931478
0.0575086
-0.0574274
0.058032
-0.0790675
-0.0690282
-0.0343992
0.00949799
0.00907155
0.0692554
-0.0356834
0.0356793
0.00840322
0.0747823
0.0416769
-0.0222097
0.0925977
-0.0964367
0.0592922
-0.00445469
-0.00844199
0.0409262
0.104114
-0.0190294
0.0647458
0.100995
0.0636137
-0.0506835
-0.0667694
-0.0491689
0.0255112
0.0894406
-0.0126875
0.0126579
0.0702606
0.070763
0.0777996
0.0128651
-0.0523732
-0.0723659
0.0100884
-0.00420015
0.0909813
-0.0169973
-0.00925188
-0.0316492
0.018567
-0.0974738
0.0137343
-0.0674137
-0.0157903
-0.083903
-0.024783
0.0338073
-0.0690347
0.0812433
-0.0189866
0.00563914
-0.0411248
-0.0402311
0.00124604
-0.0613661
-0.0583339
-0.0485058
-0.103486
0.0345598
-0.0947543
-0.00467257
-0.0934984
0.0224308
0.0183702
-0.0333743
0.0211714
-0.0203613
-0.115406
-0.048161
-0.0905215
-0.0582304
-0.0216176
-0.0201934
-0.000132599
0.0243078
-0.0106929
0.08281
0.0255556
-0.0460734
-0.094562
0.0238353
-0.00958287
-0.0390013
-0.0742896
-0.0751746
0.106928
-0.00940457
-0.0775583
0.039479
-0.0317532
0.0423931
-0.0195032
0.0931628
0.107886
0.0917312
0.06145
0.042598
-0.0959721
0.102395
0.0237286
-0.0415435
0.0699226
-0.0977685
0.0400173
-0.0590841
-0.0811688
-0.0985616
0.100478
0.0393331
-0.031464
-0.096245
-0.0569519
-0.0380637
0.0217423
0.0300815
0.0528078
0.0194817
0.128926
0.00301463
0.0260701
0.129427
0.0208439
-0.0410602
0.003342
-0.0196139
0.0373753
-0.0584719
-0.0484956
0.0554533
-0.087494
-0.080777
0.0968146
0.00556158
-0.0821803
-0.0520853
0.0266914
0.067251
0.0768539
0.0711725
0.0373895
0.0260613
0.0681214
-0.00484385
-0.0711014
0.0274228
0.0408307
-0.0848491
0.0555313
0.108318
0.0201726
-0.0225949
-0.0558195
-0.0516563
-0.0264936
0.0414874
0.0138282
0.00268721
0.0888986
0.0294337
-0.111596
-0.0173413
-0.00381546
-0.110039
0.0611134
-0.0557302
0.074309
0.0250386
-0.0603286
-0.103823
0.0371501
0.00601774
-0.0186274
0.0178535
0.0621402
-0.0877065
-0.00361253
-0.00343099
0.0498821
0.00175083
-0.0962415
-0.0661868
0.000499641
0.0089284
-0.067694
0.015839
-0.0697841
0.00147972
0.0550044
0.0338461
-0.00265087
0.0191706
0.0663678
-0.058362
-0.0233271
0.08199
-0.049058
-0.0936221
-0.0809405
-0.06295
0.00949703
-0.00355178
0.00395813
-0.00444801
0.0575896
0.126012
0.00749745
0.0895037
-0.0166973
0.0899144
-0.0830771
0.0171028
-0.142899
-0.11639
0.0730186
0.0535211
0.0710235
0.126401
-0.0280329
-0.0698637
-0.0923172
0.0632274
0.0558583
-0.123286
-0.100769
-0.0150399
-0.0303026
0.0598027
-0.0481529
0.104821
-0.0314703
-0.0670495
0.0177522
-0.0361377
-0.00473098
-0.000844084
-0.0837881
0.0337046
-0.070684
0.0479895
-0.0689357
0.0596408
-0.0401571
-0.0451235
-0.0395148
0.0116878
-0.00292351
0.0970635
-0.0142763
-0.0921822
-0.0889163
0.0184082
-0.00336307
-0.0509633
0.0914389
0.0627956
-0.0437798
0.0878573
-0.0403446
-0.0167725
-0.0713377
0.0511501
-0.0311917
0.0760818
-0.0919346
0.0896966
0.0248873
-0.0247989
0.0260812
-0.057134
-0.0726782
0.0452583
-0.066984
0.0421357
-0.0915585
0.0337955
0.0906004
-0.104803
-0.0715881
-0.0652087
0.0558824
0.0802769
-0.087883
-0.0159355
0.0864181
0.0822908
-0.0985079
-0.00843945
-0.0819191
0.00516087
-0.0177203
-0.0203187
0.0523893
-0.0608643
-0.0387916
-0.00935883
0.0253771
-0.0963201
0.0304708
-0.0713697
0.0228113
0.0597041
-0.059428
0.0959189
-0.0383716
-0.0809482
0.0173803
-0.0421445
0.106881
0.0493961
0.0176349
0.0837043
0.00708698
-0.0556928
0.00381491
0.0172775
-0.0492131
-0.0253351
0.00587236
-0.0583752
-0.103434
-0.0534386
0.0119654
0.0290745
0.0108577
0.0414821
0.0448461
0.0450173
0.0337102
0.0642338
-0.0152218
-0.0337494
-0.0531969
-0.0928443
0.0435477
0.0959563
0.0931067
-0.102507
-0.0491699
0.0810126
0.0858902
-0.07796
0.0935728
-0.0282834
0.102424
-0.0722119
-0.0257026
-0.0479358
0.0177458
0.0233384
0.0869507
-0.080761
-0.0948463
-0.0952631
-0.0807174
0.0144688
0.0897815
0.00102561
-0.0650255
-0.023545
0.07401
-0.0985189
0.0107809
0.0171835
-0.0699183
0.0806242
0.0692635
-0.0978296
0.103349
0.0946708
0.034632
-0.0703259
0.069154
0.0720697
0.0962429
0.10502
0.0799655
-0.104265
-0.058292
0.0522093
-0.0851214
-0.0191244
0.101945
0.0870053
-0.0746572
0.0491564
0.0419451
-0.0839452
-0.0299187
-0.0827795
0.0872977
-0.0533772
0.0959536
0.00212928
-0.0284594
0.078732
0.051725
-0.0891067
0.0814188
-0.0719843
0.0316755
0.0940474
0.0780253
-0.0681868
0.0535879
0.0388293
-0.0610459
-0.0482159
-0.0884334
-0.0369911
0.0345689
0.086113
0.0805046
-0.0577162
0.0552008
0.0163651
-0.00769515
0.0203122
-0.00291735
-0.0119492
0.00504915
-0.0961056
0.0802877
0.0338114
-0.0504165
-0.081585
0.00616616
-0.0138353
-0.0346729
0.0534761
-0.0751293
0.0569935
0.0251005
-0.0747982
0.00951509
0.102339
-0.0698228
0.0173932
0.109639
0.00113033
0.0100776
-0.0188053
0.103225
-0.0230256
0.0392164
0.10966
0.075548
-0.0216392
-0.0904406
0.110143
0.094877
-0.0792611
-0.0553694
-0.0375824
-0.090548
-0.0295407
-0.0220494
-0.0840907
-0.0489744
0.0106701
0.0861099
0.0376091
-0.0250595
0.0286828
-0.0654889
0.0822128
-0.0426263
0.0757449
0.0564076
0.0161246
0.0417866
0.108966
-0.0454073
-0.0593596
-0.0273381
-0.0213713
0.0870502
-0.0794989
-0.0593792
0.0400968
-0.0495431
0.0779074
-0.0719816
-0.102583
-0.030543
-0.0525398
-0.0211696
0.0226099
0.0600329
-0.0776515
-0.0582322
0.0309656
0.0552955
-0.0724284
0.0141658
0.0128264
-0.0718083
0.0833805
0.0643519
-0.0898857
0.0523362
-0.0725879
-0.110366
0.0548234
0.0424527
0.0821562
-0.0432503
0.0603942
0.065473
-0.073742
-0.0740931
-0.0284995
-0.101061
0.0561724
0.0753796
-0.0954982
0.0416955
0.0770547
-0.0695895
-0.0238451
-0.0878707
-0.0456768
-0.0679574
-0.0609723
-0.0527439
0.0161556
0.10048
0.0819126
0.0244302
-0.0179625
-0.0641888
-0.0356833
0.0133165
-0.0197594
-0.00876581
0.0614462
0.0241895
0.00496975
-0.0786453
0.0477956
-0.104273
0.0665977
-0.0221587
0.050696
-0.0231361
0.00325603
0.0106097
-0.10423
-0.0899327
0.0676047
0.10335
-0.0052773
0.0216443
0.01504
0.103987
0.0225667
-0.0270051
-0.0436886
0.0389181
-0.0955064
-0.0482333
-0.105824
0.0155763
0.00909245
0.00581791
0.0295773
0.0950468
0.134445
0.0212842
-0.0928853
-0.039392
-0.0963901
-0.0770169
-0.0467294
-0.134827
-0.0454491
0.084222
0.05255
-0.106322
0.0849176
0.100174
0.107118
-0.0325187
0.0324555
-0.0779514
0.00305105
-0.0744555
0.0613912
0.0845773
0.0429763
-0.0741829
-0.0413884
0.0397243
-0.0226141
-0.102696
0.108442
0.0664545
0.0598218
-0.0238583
-0.00169069
0.0565973
0.0414828
0.06434
-0.0271116
-0.100278
-0.0882516
-0.0569137
-0.0166958
0.0901264
-0.0602553
0.0348179
-0.00279185
0.109518
0.0971087
0.0716815
0.0173717
0.0137877
-0.0694817
-0.0502817
-0.0973473
-0.0915473
-0.114707
0.062607
0.0967512
-0.0731874
0.0748441
0.0402265
-0.123361
0.0957763
0.102655
-0.0430123
0.0872649
0.031081
0.0901075
0.0902301
0.0149134
-0.0636497
-0.0754789
0.0491366
-0.0364184
0.0923449
-0.0690352
-0.0921708
0.0050642
0.0553295
-0.0272719
0.0505736
0.0603851
0.00326462
-0.0630172
-0.0127737
-0.0931208
0.0206773
0.0066799
0.0750327
-0.0931332
-0.0337683
0.0494754
0.0821559
0.0454556
0.0251081
-0.0861058
0.0187369
-0.105957
0.0907582
-0.105172
0.118085
-0.00996699
0.0516866
-0.00375645
0.098636
-0.0555951
0.105405
-0.0976422
0.0570716
0.0142284
0.0808009
0.0545764
0.0507807
0.0546408
-0.100588
-0.0576274
-0.0518303
-0.0263372
-0.018119
0.0757399
0.0259581
0.0770062
-0.0805266
0.0852723
-0.0284351
-0.0164085
0.0989915
-0.051694
0.0580172
0.151785
-0.0364373
0.0146438
0.0872875
-0.104361
0.0251881
0.0196301
-0.00417798
0.00830162
-0.0367289
0.0867109
-0.0945001
0.0784336
0.0172346
0.0367604
0.0421862
-0.0235258
-0.00396901
0.0653257
-0.000291688
0.0735404
0.0731055
-0.0547037
0.0593942
-0.106623
0.0986809
0.00144167
0.0253727
0.0735808
-0.0715804
-0.0129976
-0.0629258
0.0907569
-0.0492442
0.087309
0.073821
-0.0134342
-0.0709065
0.0585007
-0.0359357
0.0791751
-0.0208557
-0.0792658
0.0926417
-0.0491626
0.0539007
-0.0714591
0.0924367
0.0441252
-0.0781404
-0.0399305
0.0388884
0.0421389
0.0406045
-0.0206996
0.00561529
-0.0630523
0.0119795
0.0604591
0.0937718
-0.052902
-0.0591608
0.0360787
-0.0193598
-0.0502485
0.0775413
-0.10011
0.100913
0.0193656
0.126091
0.104986
0.0503592
0.00936162
0.0826135
0.0912248
-0.101783
0.0292582
-0.08888
-0.0906359
-0.111387
0.0592028
-0.0766169
-0.0405171
0.11625
0.100456
0.0287415
0.0189434
-0.0582235
-0.0103198
-0.0110081
0.02194
0.0819845
0.0229844
-0.0827706
0.079002
0.0885829
0.0256929
-0.0772804
-0.0162207
0.064666
-0.0488713
-0.00328402
0.0153343
0.0239257
0.0158665
-0.0708654
-0.0773401
0.0242704
-0.0413251
0.0739395
0.0769557
-0.034466
-0.0816814
0.0777871
0.00603543
-0.0104652
0.0409382
-0.0233849
-0.0827492
0.0709141
0.0517498
-0.0619711
-0.0967967
-0.035421
0.0654819
-0.0883526
0.0890449
0.107342
-0.0613082
0.0675914
0.0275743
-0.0300741
0.00733974
0.0769155
-0.00460311
-0.0385839
-0.0192585
-0.0405212
-0.0669626
-0.00669499
0.0864221
-0.0671789
-0.0747072
0.0701696
-0.0319556
-0.0499185
-0.0508573
0.0938505
0.0721061
0.090243
-0.019561
-0.0446414
0.0739647
0.0147202
0.0529827
0.00415844
0.115844
-0.0732535
-0.0719803
-0.0668278
-0.0828911
0.0668909
-0.108871
0.0907193
-0.0556063
0.0349903
0.0386654
0.0560512
0.0503644
-0.0256705
0.00750533
0.0463447
0.0796809
-0.0517091
-0.103471
0.0866247
0.0544404
-0.0991219
-0.0029456
-0.00406249
-0.0924234
-0.0288344
0.0882297
0.0907357
0.0797561
0.0785777
-0.0377143
-0.00409405
0.0554974
-0.0230204
-0.0115275
-0.00632219
0.0622647
-0.024171
0.0191707
-0.042399
0.0314898
0.100602
0.0301519
-0.00941564
0.0521582
0.013449
-0.0156653
0.0190295
0.0634552
0.110485
0.101769
-0.0279812
-0.00701669
-0.063258
0.0284292
0.0151283
-0.0241059
-0.11848
0.070338
0.00360257
-0.115694
-0.104362
0.0476925
0.00709046
-0.0275141
-0.115995
0.0466018
-0.0353972
-0.0343725
-0.099873
0.0818105
0.0178869
-0.0289989
-0.0235295
-0.0730068
-0.0539648
0.00613272
0.098674
-0.0723925
0.0459774
-0.0981483
0.0656949
-0.113335
-0.0370965
0.0619396
-0.0947308
-0.0769122
-0.0664506
-0.040802
0.00790703
-0.0135981
-0.0152992
0.0841665
0.101305
-0.0115597
-0.0527751
-0.131061
-0.0101373
0.0811143
-0.0880554
0.0813038
-0.0422897
0.0567162
-0.0227752
0.0477492
-0.00522821
-0.121918
-0.154275
0.0928177
-0.0411847
0.0522565
-0.0655688
0.0593977
-0.0460009
0.0946552
0.0754603
0.106626
-0.0262078
-0.00467673
-0.0185591
0.0806529
-0.0296445
-0.0101368
0.00349301
0.00444791
-0.0124561
-0.0535269
-0.0754955
0.0974851
0.121829
0.0507999
-0.136792
-0.0580253
-0.0300783
-0.0610949
0.060506
0.0246889
0.00382985
-0.0338791
0.041806
-0.0175846
-0.0885021
0.111947
0.0227942
0.000428132
-0.0384273
0.0775854
0.0705279
-0.107586
-0.0543318
0.111216
-0.0803125
0.0753918
-0.0817587
0.0277118
0.11062
0.00917892
0.0484843
0.0409023
-0.0182907
0.0716389
-0.0725744
-0.0550271
0.0703667
-0.0218753
0.0278052
0.0657368
-0.0374124
0.0394184
-0.0307329
-0.0482502
-0.00549464
-0.0490666
-0.113401
0.0158224
-0.0799363
0.0417096
0.00349387
0.0353235
-0.0780487
-0.052032
-0.0654004
0.0138717
-0.0780709
-0.0588367
-0.101232
-0.078117
0.0982854
0.0296722
0.00746274
-0.0177327
-0.0749549
0.0713746
-0.0470063
-0.0833416
0.0877323
-0.0831984
0.0566334
-0.0465992
0.0676502
-0.0602355
0.0232136
0.0141822
0.0526827
-0.0367692
0.00677172
0.0802799
0.0249408
0.0692657
-0.0129062
-0.0054688
0.103792
0.054405
-0.0713805
0.0530519
-0.0939755
-0.0551168
0.081274
-0.0875156
-0.0534424
0.00201546
-0.0634208
0.0750025
0.0442401
-0.112182
0.0841546
-0.0320997
-0.00984264
0.0703169
-0.0255809
0.0376309
-0.0100373
-0.066049
0.0809565
0.0680848
0.109122
-0.0589179
-0.0903314
0.0488636
0.0142237
-0.00201156
0.0695233
0.0207997
0.0663115
0.0303801
-0.0390575
0.0394934
-0.00586191
-0.0540055
0.0471979
0.109289
0.00166624
-0.108463
-0.00627373
-0.0401186
0.014753
0.0907858
0.0765499
0.00996139
0.000636055
-0.0556564
-0.0781488
0.0546623
0.0177632
0.0793518
-0.0991371
-0.0636362
0.106744
0.140718
0.063992
-0.00534242
0.0225895
0.113579
-0.0127206
-0.0239648
-0.0703649
-0.0427334
-0.0405082
0.0850303
-0.0755785
0.0559575
0.0681595
-0.0403055
0.0242014
0.00703859
0.0994611
0.0236621
-0.00361475
0.0654916
-0.0146294
-0.0191439
-0.0657628
-0.0769903
-0.0495899
-0.103398
-0.0286271
0.0842519
0.105389
-0.051983
-0.0887048
-0.056155
-0.0112336
0.0288936
0.0254684
-0.0734116
0.0387891
-0.066221
-0.0115715
-0.01768
-0.066232
-0.0187557
-0.0100244
-0.0266049
-0.0621563
0.0386557
-0.0437693
-0.00700181
-0.11056
-0.0743899
-0.0290721
0.0792726
0.102379
0.133549
0.0575926
-0.0587473
0.0463505
-0.00355257
0.0171047
0.0113261
-0.0698503
-0.00734618
-0.00658434
0.0272344
0.0600206
-0.119375
0.0545778
0.0212762
-0.0480228
0.0350794
0.0848408
-0.063025
0.105864
-0.0845436
0.0863781
0.0533231
0.0609227
0.0453023
0.0617811
-0.0794487
0.0631735
0.0214578
0.0912254
-0.0629606
0.0842602
0.0564151
-0.0882173
0.0112011
-0.0689178
0.0920356
-0.0636077
0.00370897
0.100543
0.0349936
0.083553
0.0475823
-0.0910519
-0.0839749
0.0650074
0.0653557
0.0636727
0.0183435
0.112805
0.00814247
-0.0666498
-0.0484484
-0.0441584
-0.120929
0.040912
0.00565847
0.0293391
-0.0843315
0.0889356
0.0180508
-0.0651223
0.1382
0.0953137
-0.0566926
-0.02295
0.0177928
-0.0257328
-0.0655843
-0.0588126
0.0885287
-0.0391348
-0.00300092
0.0193129
0.0953071
0.082381
0.00617869
-0.0609424
-0.0922238
0.0251277
0.0754595
-0.00684012
0.00661754
0.00179671
0.102784
-0.0694701
-0.11444
-0.011119
0.0154887
-0.0719748
0.02631
-0.00379907
0.0277421
0.0402972
0.0779636
0.0979455
-0.0518748
0.0130626
0.0185705
0.0393056
-0.048437
-0.00182241
-0.0259917
0.0639789
-0.090608
0.0480087
-0.0416189
0.0340218
0.0220553
0.133075
0.0730989
0.0183336
0.0142131
-0.00977937
0.126968
-0.00811925
0.0409972
0.0769668
0.0349394
0.012185
-0.0364347
0.136098
-0.0679287
0.108282
0.0191916
0.0501376
-0.0719548
0.0860385
0.0615256
0.00657724
0.0100132
-0.0762468
-0.0828683
0.0259117
-0.150222
-0.0998514
0.0894097
-0.0633779
-0.0509729
0.107583
0.0652548
0.0604233
0.0731827
-0.0125373
0.0720238
0.0882001
-0.0163544
0.0415179
-0.0794315
0.0720085
0.0823451
-0.00148082
0.0320224
-0.0969887
0.0380333
0.0283971
0.0535682
-0.0600954
-0.00239135
-0.0605755
-0.0538356
-0.0492754
0.120628
-0.0265735
-0.00552289
-0.120515
-0.0722955
0.040524
-0.0951533
-0.0609825
0.0475326
0.0730214
0.0232165
-0.110481
0.0829784
0.0459295
-0.0917989
-0.0641761
0.0751125
0.0237396
-0.0247174
0.125452
-0.0656749
0.0935664
-0.0522597
-0.0065656
0.0362657
0.0920649
-0.0315733
-0.0584847
-0.103546
0.0217262
-0.0909037
-0.106297
-0.0424312
0.0267528
-0.089454
0.0962479
-0.026059
-0.0841141
0.0309432
0.060088
0.0205672
0.072093
0.0770646
0.0604209
-0.0380933
0.109232
-0.00561139
0.0348622
-0.0516823
0.0592912
-0.0133325
0.0951991
0.0765457
-0.0520508
0.0620747
0.111842
0.090891
0.0734062
-0.0979774
-0.00328584
0.0626088
-0.00267058
-0.0121301
0.0135934
0.0366905
-0.0414141
-0.0068737
-0.0316947
0.0425951
0.0378823
0.0699071
-0.0767881
-0.0380197
-0.0986282
0.109552
0.057266
-0.0644104
0.002653
0.0468101
-0.0220238
-0.0131873
-0.00505371
0.0897937
-0.0972177
-0.000364458
-0.0863794
0.0909279
0.0359895
-0.0747369
0.0809531
-0.0506808
-0.040034
-0.0211209
-0.0435161
-0.000433385
0.0722413
-0.0561921
0.0933645
0.0942521
0.0808375
-0.0225499
0.120965
0.0147301
-0.0624928
0.0699343
0.0490745
-0.0284029
0.0565998
-0.0977269
-0.00964946
-0.0717882
-0.0788812
0.0965564
0.00274834
0.0704588
0.0379668
0.0158116
-0.0443875
-0.0995528
-0.038448
0.108744
0.0519613
-0.0968016
0.0685426
-0.0406215
0.132054
0.0596792
0.0246825
-0.0442813
-0.0640424
-0.110362
-0.0635309
0.0434727
-0.0107965
-0.00180014
0.0779565
-0.0566861
-0.0621819
0.00802381
-0.0437823
0.0140707
0.0700211
-0.018107
-0.035439
0.0399673
0.0481766
-0.0756876
-0.0423736
-0.0210926
-0.0359136
-0.0162881
-0.0811091
0.101753
-0.068092
-0.111542
-0.0625063
0.111738
0.0798043
0.0593651
0.0861818
0.0733875
0.0545066
-0.0206473
-0.0542808
-0.0711918
0.0784497
0.0213042
0.0242574
-0.011506
-0.0551235
0.0937792
0.00223791
-0.087257
0.0517761
-0.0129827
0.0475395
-0.0440281
0.0312519
0.0539889
0.0862083
0.0911778
0.0097729
-0.095696
0.00612266
-0.0915398
-0.0878886
-0.0418575
-0.0175118
-0.0407516
-0.0619561
-0.0968322
-0.0324244
0.0971439
0.100813
0.0277496
-0.0498008
-0.0118245
-0.0440136
-0.0452846
-0.0572005
0.0959842
0.0408382
-0.11363
0.0491829
-0.0966504
0.044864
-0.0524348
-0.0519161
0.100327
-0.0543845
-0.115986
0.0431752
-0.0157685
-0.0495231
-0.0323893
-0.0866238
-0.0663198
-0.0651946
-0.0277602
0.0719153
-0.11725
0.116913
-0.100481
-0.0914746
-0.0450117
-0.0616273
-0.0885417
0.07922
0.0475795
-0.0205575
-0.0255889
0.0739332
-0.0764519
-0.0581209
-0.0267176
-0.0933305
-0.0108317
0.0307515
-0.0953821
-0.0200931
0.0200559
-0.0184032
0.0611244
-0.0453841
0.00165741
0.118485
0.0325159
0.0256726
-0.0688173
0.10026
0.0799214
0.0389442
0.082649
0.0785268
0.00927579
0.0530548
0.0964563
0.00983114
0.0986277
-0.0749326
0.102286
-0.0858244
-0.0583637
-0.0296266
0.0784538
0.029659
0.0460839
0.0679164
-0.140963
0.0597625
-0.0346435
-0.093663
0.0338559
0.0480626
0.0803094
0.0806818
-0.079885
0.0848081
-0.0431211
0.126462
0.106809
-0.0410867
0.0543584
0.119185
-0.0229898
-0.0661178
0.0912436
-0.0955774
0.0991565
-0.0854727
0.0631168
0.100898
0.0344899
-0.00693213
-0.0205207
-0.0242454
-0.0625186
-0.0764427
0.0764716
-0.0981306
-0.0226267
0.0890991
-0.0313582
-0.0315054
-0.0825987
-0.000690318
0.102408
-0.0788083
0.027824
0.037337
0.0440073
-0.0432881
0.0498842
-0.0676012
-0.0672635
-0.0797631
-0.0346511
0.0545178
-0.0284265
-0.00210718
-0.00668485
-0.0158094
-0.0878161
-0.0171396
-0.0470408
-0.0460862
0.0153376
-0.0494356
0.0599735
0.0267189
-0.050863
0.0616826
0.00370333
0.0244633
0.0485329
0.0983299
0.152982
0.000497605
0.073775
0.0471532
0.00293944
-0.0405123
0.0917558
-0.0402472
-0.0525959
0.0436671
0.131211
0.0947765
0.0962631
-0.0498049
-0.0448828
0.0899096
-0.0517178
-0.0654915
-0.0776662
-0.111771
-0.122731
-0.00401713
0.103308
-0.0238394
0.0652655
0.0846051
0.0437595
0.00309868
0.106734
0.0713152
-0.0525195
-0.0550511
-0.0595529
-0.0274465
-0.108462
0.0620042
0.0780467
-0.0394886
-0.0150272
-0.0652015
-0.0155062
0.00949699
-0.0931728
-0.0465247
0.0212631
-0.0779984
-0.0215744
0.0606874
-0.0985461
0.0762326
-0.0166392
-0.0480891
0.032666
0.105242
-0.149063
-0.113704
-0.0410358
0.100755
-0.124485
0.0348201
-0.0666296
-0.0896444
0.00410074
-0.0780891
0.0436795
-0.00779671
-0.0539503
0.132334
0.0928222
-0.0566039
0.0639385
-0.0585033
-0.0236321
-0.0807791
0.0641267
0.0812868
0.0711675
-0.0689753
-0.110219
-0.00667811
0.0438048
0.0579861
-0.0493035
0.103968
0.0906573
-0.0609013
0.0625276
0.00824051
0.0670737
0.057013
-0.0446096
-0.0503299
-0.0730923
-0.0407924
0.0307011
0.0720879
0.123497
0.0636482
-0.0372819
0.00599894
0.0443673
0.0748421
0.0843962
0.0332871
-0.072176
0.102295
0.0642569
0.0493554
-0.00336813
0.0797509
-0.107386
0.070747
0.101372
-0.0785665
-0.0237317
-0.0624438
0.0307034
0.105065
-0.0151329
-0.0026085
-0.083618
0.00967773
0.100694
-0.0987254
-0.102209
0.00782051
-0.00635219
-0.117635
0.0110618
-0.0352559
-0.10003
-0.0904356
0.0552427
-0.0879812
-0.102111
-0.104977
-0.0462361
-0.0181528
0.0811559
-0.00820169
0.0282105
-0.0691405
0.110693
-0.1055
-0.0770876
0.100159
-0.0724957
0.0417703
-0.0443651
0.0534322
0.045923
-0.0241526
-0.0788825
0.0454452
0.0603591
-0.0648986
-0.0715931
0.0136131
-0.00782763
0.104234
-0.0834336
-0.0942285
-0.0915791
-0.0232604
-0.0116963
0.0329783
-0.10579
0.0602154
-0.0373447
0.098467
0.0908466
-0.0793209
-0.108876
0.0775848
-0.0166566
-0.112213
0.0441247
-0.0452327
0.0332207
0.0348758
0.0635214
0.0109385
0.0631101
0.0138402
0.0636255
-0.0898203
-0.107507
0.0927253
-0.0012775
0.00466942
-0.0892176
0.0505796
0.0829507
-0.00133877
0.0449198
-0.0266228
-0.0554822
-0.0750698
0.00153624
0.0102911
-0.0463349
0.010901
-0.0314555
0.100171
0.0100813
0.0653112
0.105276
-0.0165885
0.0508078
-0.0270837
0.0416552
0.0124216
0.0289335
0.106591
0.0223103
-0.0955294
0.0211754
-0.0467379
-0.0812028
0.0406099
0.0516162
-0.0766775
-0.0770478
0.0837867
-0.054686
0.0409259
0.0550243
-0.0695731
-0.0319987
0.0876055
0.030294
0.0487899
0.0775862
-0.0756299
0.0434363
-0.0842165
-0.0675198
0.101877
0.0795906
0.0570113
-0.0494065
-0.0839978
0.0586361
-0.0751007
-0.0364967
0.0809802
0.0388299
-0.0203862
0.0490846
0.0253945
0.0951883
0.0427301
-0.0399719
0.0885685
0.00621041
0.109409
-0.0915696
0.0641236
0.0608026
0.101119
0.0493123
0.0897281
0.0398165
-0.0631468
0.003737
-0.0817525
0.0343578
-0.070264
0.0815772
0.0821989
-0.0491135
0.0194706
-0.0220555
-0.088648
0.060241
0.0438179
0.0754755
0.0530877
0.0985281
-0.0933686
-0.0403882
0.0283442
-0.0621463
0.0598768
-0.0205524
0.0132167
-0.083931
-0.0633157
-0.0240376
0.0882636
-0.0844922
0.0616261
0.0446344
0.00221445
-0.110276
0.0828198
-0.0206439
-0.00979818
0.0267512
0.0348163
-0.0705124
-0.0735982
0.0192582
0.0174321
0.0469825
-0.0760232
-0.0570963
0.00587001
-0.0523174
0.0381286
-0.00760341
-0.0407428
0.0754981
0.0374987
-0.0815733
-0.0157628
-0.0521236
0.000977739
0.0576301
-0.0358531
-0.00967765
-0.0499916
0.0772284
-0.0457061
-0.0308902
-0.089841
0.0301458
0.105656
0.101899
0.0678604
-0.00437987
-0.0416197
-0.0554511
-0.0619166
0.0132994
0.0950472
0.0505448
-0.0846188
0.0322356
-0.0300344
-0.0249191
0.0322058
0.107462
0.0351314
0.00267683
0.0581058
0.102499
-0.027284
-0.00577394
-0.0139833
0.00315025
-0.00781513
-0.0304138
0.0906103
0.0566612
0.0568731
0.0120131
-0.0987485
0.0704682
-0.00779362
-0.0227338
-0.0070516
-0.0780176
-0.0669119
0.0539314
-0.0434452
-0.106033
-0.0860137
-0.111991
0.0312458
-0.099132
-0.000332153
0.0226902
0.0922385
0.0667226
-0.0685776
-0.0964866
-0.0282291
0.010672
0.0792387
-0.0412872
0.0156357
0.0779151
-0.0581232
0.0498165
-0.0990846
-0.0123769
-0.0637376
0.10494
-0.0494038
-0.0194296
-0.0910862
0.116328
-0.0759552
-0.0300884
-0.0219923
-0.0511337
-0.0709642
-0.0941605
0.0213464
-0.040648
-0.0312942
-0.0401254
-0.077661
-0.04068
0.0350447
-0.0936946
0.000493702
-0.0254066
-0.0148172
0.0336071
-0.00932498
0.0772735
0.0693109
-0.0675367
-0.0757164
0.113004
0.0249935
0.0538449
-0.0268229
0.033095
0.0300595
0.0764498
-0.00814576
0.0068489
0.0911989
-0.0224235
-0.00931056
-0.0900771
0.0971606
0.0972383
0.0818869
-0.059524
0.114634
-0.041884
0.101817
0.0472756
-0.0365534
0.0178598
-0.0549038
-0.0316856
-0.0497269
0.0271364
-0.0527964
0.103407
0.0801778
0.0790562
0.102696
-0.0720811
-0.00289382
-0.0343079
-0.0560011
0.0782846
-0.0543144
-0.082923
-0.0982224
-0.063635
-0.0712719
-0.00098809
-0.0319194
-0.0321213
-0.119695
-0.115413
0.134018
-0.065851
-0.104575
-0.0545227
0.0099913
0.069745
-0.0207963
0.00248546
0.00865512
0.0765587
0.00946652
0.0426209
-0.102266
-0.0622518
0.0924204
-0.0663202
0.0374079
-0.0118482
0.011431
0.0381087
0.0245433
-0.00132619
-0.0811535
-0.107207
-0.0161085
0.0825275
0.00795322
0.0498884
0.00587877
-0.00288245
0.0807715
0.0334931
-0.0834257
-0.0360405
0.0569994
-0.0471248
0.0608098
0.0788336
0.0803409
-0.0703104
-0.00767318
0.0520772
-0.0155331
-0.0294376
-0.0233848
0.00348467
0.0897811
0.0956687
0.0494562
0.0265055
0.066423
0.0359024
-0.0801483
-0.0595832
-0.0122965
0.0587654
-0.106145
0.0915073
-0.08275
-0.0879336
-0.0812298
-0.0454063
-0.0121683
0.00627567
-0.0390556
-0.0604757
0.0620568
-0.0453128
-0.073719
-0.0870458
0.056152
0.0953645
0.033767
-0.103512
0.0333556
-0.099154
0.0232166
0.0637371
-0.0229928
0.0772605
-0.0646795
0.0572924
0.0412701
0.0541674
-0.0733575
0.10169
-0.0426057
0.0435513
-0.00249958
0.0419801
-0.0219884
0.00601474
0.0234966
-0.0543527
0.058309
0.0210754
0.0789522
-0.0179387
0.0131922
0.0559869
-0.0943611
0.0126296
0.0229941
0.106074
0.093108
0.112511
0.0542221
-0.0188919
-0.0974967
0.0612978
0.0365887
0.0794056
0.0257735
0.0789413
0.0969753
-0.0478876
0.103693
0.101625
0.0109733
-0.0634993
-0.0321927
-0.0328358
0.0572888
0.0398742
-0.0154223
0.00725871
0.0745569
0.0900988
0.0645978
-0.106151
-0.0167661
0.0437282
-0.0320284
0.0809186
-0.0475017
-0.0449235
-0.0322731
-0.0804257
0.110386
-0.0133258
0.101592
-0.00924344
-0.0278816
0.0196339
-0.0689136
-0.0289784
0.0459439
0.0546209
0.0154078
-0.00979431
0.0727442
-0.0401292
-0.0515101
0.0845118
-0.0748273
0.00218149
-0.0590712
-0.0676827
0.0545849
0.00343181
-0.0658414
-0.0885642
-0.0122916
0.0100083
0.017965
0.0352047
-0.0108296
0.0130467
-0.0935249
-0.0466601
-0.0312058
-0.00593184
-0.0474534
0.0343744
0.09802
-0.0329737
0.0898266
-0.0300893
-0.0335224
-0.0887359
0.084365
-0.103671
0.0244856
0.059877
-0.0898115
-0.059491
0.0840763
0.0730894
0.0539271
-0.000613556
0.0242295
0.0676748
-0.0856343
0.0847679
-0.0908991
-0.0121122
-0.0602966
0.0794204
0.0535339
0.0934543
0.09709
-0.081526
0.0379401
0.0542352
-0.0168953
0.0754252
0.0268874
-0.0806867
-0.0199654
-0.0520665
0.106831
0.00367257
-0.0387928
0.119315
-0.00782364
0.0704023
0.0791081
0.0615713
-0.0223529
-0.028693
0.00518083
0.0547006
0.0235443
-0.0552229
-0.0957708
-0.00980077
0.102669
-0.0359
-0.0298603
-0.0846379
0.0664839
0.0918505
-0.0581134
-0.00168938
-0.00685329
0.0877472
-0.00479518
0.0902949
-0.0503973
0.0429564
0.0863897
0.093306
-0.0781962
0.0909681
-0.0516377
0.0807316
-0.0232686
0.0998259
0.0136224
-0.0884883
-0.0446238
0.0175432
0.0883605
-0.0446277
-0.0067218
0.0718959
0.0808666
-0.0124408
0.00712076
0.00751761
0.043212
-0.0654173
-0.017229
0.0466833
0.0323026
-0.0562232
-0.0813295
-0.0221667
-0.0260413
-0.0908345
0.0702338
0.0519075
0.0672119
-0.0162204
0.00404435
-0.0221761
-0.0867179
0.00303414
0.0608857
-0.0848828
-0.0642011
0.110967
-0.0906304
0.0484899
-0.063283
0.0937935
0.0140944
0.0356193
0.0448277
-0.0495966
0.000679251
0.0527518
0.0684806
0.0920609
0.0676199
-0.0828841
-0.0798462
-0.0962508
-0.0688256
0.024739
-0.0892245
0.0745234
0.00103056
-0.0602097
0.0274828
0.105893
-0.0112241
0.0761245
-0.00440981
-0.0954387
0.0452389
-0.0489081
0.0767949
-0.0671974
0.0575083
0.030935
0.0674821
0.0709827
-0.053427
0.00494184
-0.10084
0.108881
-0.0157278
0.0239038
0.0879781
-0.0465213
0.00877235
-0.0700545
-0.0234521
-0.0679338
-0.00837342
0.00886967
-0.0573189
0.0508139
-0.0923302
0.00888892
0.0304789
0.0870428
-0.100568
0.0799834
-0.059341
0.0190992
0.0915099
0.0448447
0.0826853
-0.0692524
-0.0541374
-0.030883
-0.100883
0.117341
-0.0674779
-0.0876426
-0.0280457
-0.084089
0.0655296
0.0143839
-0.0690782
0.030724
0.100924
-0.0911424
-0.0142579
0.0175899
-0.05321
0.0495493
-0.0308723
0.0385355
-0.0804794
-0.101415
0.0979806
0.0536458
0.0367194
0.0509953
-0.0395381
0.0550779
-0.0775316
0.0957974
-0.0116307
0.00521853
0.079502
-0.0787147
0.0615013
0.131127
-0.0017424
-0.0858195
0.0403393
-0.0173993
0.0999759
0.106418
-0.0556766
-0.0554318
-0.0645154
0.0753448
-0.0624195
0.0841684
0.0284597
0.0267241
-0.108412
-0.00109084
-0.052472
0.104249
0.0104248
0.00668311
0.0118944
-0.0778408
-0.0866798
-0.00298497
0.0573987
-0.0741405
0.0886303
0.0371566
0.107118
-0.119268
0.0915141
-0.040947
0.0510329
-0.0127792
0.00687965
0.10553
0.00956045
0.0862251
0.0901878
-0.0676205
-0.063688
-0.0893959
0.0727273
-0.0181016
-0.0707458
0.0503194
-0.102114
0.0572819
-0.0621037
0.03711
0.0713749
0.00477762
-0.0666884
-0.0365829
-0.0529958
-0.0330337
0.0754333
0.0349106
-0.0575951
-0.0985212
-0.0477905
-0.0541915
-0.00739449
-0.069677
0.0217829
-0.00267824
-0.0356417
0.109315
-0.00762177
-0.0323469
0.0479694
0.0381743
-0.00685921
-0.0184055
-0.0739971
-0.116146
0.0379995
-0.00317674
-0.107937
0.0278364
-0.0420366
-0.0725365
-0.0463919
0.0608994
0.0345956
0.0106913
-0.0853496
-0.0858674
-0.0441192
0.0319933
0.050121
0.0408359
-0.0999953
0.0705437
-0.0760458
-0.00211302
-0.0857307
-0.0987449
-0.106916
-0.0178286
0.03635
-0.0249105
0.0127682
-0.0499002
0.0905657
-0.0486841
0.0750418
0.0903447
-0.0523045
-0.113032
-0.0844686
-0.0904607
0.058773
-0.0785014
-0.0599707
0.0202294
0.00276008
-0.104489
-0.006091
-0.0389476
-0.0690197
-0.0576505
0.0258608
-0.109952
0.0154831
0.00547492
0.0974473
-0.080684
0.0959908
-0.0646219
-0.0189032
0.0488439
-1.38363e-05
0.0332922
-0.0161538
-0.0808295
0.105253
-0.0611395
-0.0608172
-0.0838403
0.0537942
-0.0233981
0.011518
-0.0539131
-0.104283
0.0294492
-0.0142333
-0.0713022
0.0393063
0.012654
0.0458232
0.0607687
0.0122098
-0.0956604
0.0964928
0.015215
0.0369449
0.0759948
0.0848013
-0.00606742
-0.0302171
-0.00496958
0.0652736
-0.018295
0.0761122
0.0710765
-0.0846505
0.0541495
0.0385935
0.0839701
0.00635329
0.0326579
0.0491796
-0.0501263
0.0223553
-0.0729472
0.032861
-0.0429851
0.0301936
0.00830105
-0.0687982
0.0534112
0.0534613
-0.0362823
-0.0891327
0.0961937
0.028336
-0.0490049
0.000454948
0.041901
0.0307964
-0.0499069
-0.0718167
-0.0653654
-0.0196807
0.0613419
0.0328672
0.051564
-0.0125862
-0.00111474
-0.00217533
0.00287448
0.0613245
-0.0453047
0.0708709
0.00761864
-0.0648037
-0.0793711
0.0266636
0.0488569
0.0799873
0.0505312
0.0620224
0.00686676
0.051758
-0.0106234
0.116699
0.0603987
0.0947233
-0.0274879
-0.024485
-0.0540616
0.0113646
-0.0765589
0.0320238
0.0630393
-0.0723188
-0.000124147
-0.0937223
0.0458528
-0.00824105
0.110923
-0.0770802
-0.0195161
0.0523159
0.0569054
0.0531016
0.136611
-0.0299659
-0.0239593
0.103755
-0.00371066
0.0896459
0.0177782
-0.0100093
-0.0244841
0.0442452
-0.0252882
-0.00437267
0.0617775
0.068839
-0.0842408
-0.0932951
0.0811996
-0.018565
0.0033733
-0.00616802
-0.0980888
0.0135764
0.0595709
-0.0998989
0.05111
0.0487375
-0.0509014
-0.0647909
0.0451844
-0.0708883
-0.0161744
0.0378766
0.0154412
-0.0699823
-0.0748065
-0.106386
-0.0168045
-0.0452287
0.0463557
0.102521
0.0319691
-0.0869588
0.0872819
-0.00245506
0.0907649
0.0936314
-0.0895478
0.0296159
-0.0496655
0.0471102
-0.0505778
0.0148139
0.0344488
-0.070182
0.0389907
0.0513332
-0.05723
-0.0317742
0.0915309
-0.0706778
0.0333776
0.015623
0.0572176
0.0888869
-0.0465737
-0.112806
-0.0683594
-0.00340506
0.0998016
0.107576
-0.0124704
-0.0552722
-0.0969432
0.0188029
0.0858221
-0.0376465
0.0993493
-0.0457722
-0.00238462
0.105672
0.0902076
-0.0146319
-0.0956988
0.0660422
-0.0834297
-0.0332602
-0.0103342
0.0898941
0.0600932
0.04685
-0.122447
-0.0915713
-0.0867333
-0.0117675
-0.0702013
-0.0529016
0.0222944
0.0208648
-0.0259346
0.0359592
-0.0975195
0.00648784
0.110702
-0.0313087
-0.0703028
-0.0260724
0.0721133
0.0230681
-0.0203736
-0.0432743
-0.0202878
-0.0911366
-0.0483215
-0.12453
-0.0563611
-0.0525702
-0.0626182
0.00182706
0.0675617
-0.00972425
-0.0819267
0.00450659
0.0544549
0.0587994
0.0178238
0.0659687
-0.119583
-0.0503411
0.0197268
0.0576001
-0.0628981
-0.082431
-0.0585489
-0.0170012
-0.0924916
-0.0787446
0.077049
-0.0402829
0.0302849
0.0839813
-0.0147769
-0.0951052
0.0928513
-0.0211318
0.0262021
-0.06571
0.125162
-0.035508
-0.0220536
-0.0384075
-0.0544167
0.0272693
0.0971989
-0.0544593
-0.069522
-0.0157218
-0.0782114
0.0670952
0.0900023
0.0270766
-0.0648408
0.0889701
0.0627943
-0.0320606
-0.0835261
0.102378
0.077505
-0.089957
0.0669851
-0.103999
0.101673
-0.0616461
0.00501346
0.00394492
-0.0795834
-0.0749407
-0.0232948
-0.0227049
-0.0558432
-0.0163934
-0.0724208
0.0636235
0.0810396
-0.0183815
-0.000132572
-0.0674169
-0.0250077
-0.0474622
-0.0954141
0.0880356
-0.0579034
0.0230599
-0.00810019
-0.00404972
0.0933559
-0.00812487
-0.0606039
-0.0473005
-0.0939505
-0.0658201
0.068041
0.0757803
0.0721869
-0.0264907
0.0328115
0.0352811
-0.0417513
0.0905286
-0.00316942
0.0676135
-0.0738931
-0.0740687
-0.0807179
0.0648969
0.0398798
0.00133167
0.042657
-0.0841184
-0.0406656
0.0117575
0.0934353
-0.0756568
0.11043
0.0902469
-0.0365108
0.0205279
-0.0641628
0.0763085
0.0610652
0.0884939
0.0747313
0.0799203
0.0408498
0.0101534
-0.0813269
0.0467357
-0.100687
-0.0082819
-0.0187283
-0.0168189
0.108732
-0.0112217
0.074011
0.00657508
-0.0377655
-0.0803065
-0.0822263
0.0275748
0.0420381
0.0869191
-0.0484229
0.0622147
-0.0152913
-0.0198525
0.0553198
0.00539623
-0.0824685
0.0734611
-0.00494173
-0.0798393
0.00452523
0.0509159
-0.10667
0.0836553
-0.0985799
-0.0834753
-0.00275309
-0.101508
-0.0221712
0.0900538
-0.0477221
-0.0290649
0.0928219
-0.0502282
0.0998882
0.0302812
0.105568
-0.0326547
-0.0336601
0.0877879
-0.0613219
-0.0370621
-0.0241794
0.0369704
0.0909882
-0.0173179
0.0790665
-0.0125375
-0.103605
-0.0741568
-0.00808644
-0.0317639
-0.0176884
0.018109
-0.0655735
-0.104409
-0.0625662
-0.0125445
0.0666137
0.0342739
0.0305069
-0.0406014
-0.0605603
0.0658023
0.0920484
-0.0464462
0.0295058
-0.037295
0.0774402
-0.062791
0.0425747
0.0213485
0.0447384
0.00450986
-0.00982723
0.0615129
0.0572596
-0.0138355
-0.00779033
-0.00520809
0.0311582
-0.0427774
0.0348795
-0.00144866
0.0751391
-0.0539924
0.100725
0.0415937
-0.0380513
0.0252276
-0.0744735
-0.0201759
-0.015436
-0.0263775
0.118459
-0.103759
-0.103853
0.0567223
0.0568991
0.0932168
0.0207331
-0.0402561
-0.0271979
-0.0181042
-0.0697039
-0.0506789
-0.0800126
0.0792575
0.084313
-0.111737
-0.00468377
-0.071437
0.0253366
-0.0444659
-0.120212
0.0482817
0.0437761
-0.0829185
-0.0118854
0.105482
-0.0472594
0.0887172
-0.0789727
0.0885886
-0.0790149
0.04216
0.0917611
-0.0489794
-0.0735796
0.0770535
0.0912868
0.0888146
-0.0664779
0.097146
0.0125943
0.0729864
0.0730977
0.0478108
0.086291
0.0558066
-0.112949
0.0933369
0.102382
0.0712089
0.0322616
0.00700403
0.0657974
0.0392986
0.0900335
0.102842
-0.107065
0.0642239
0.0217984
0.0183888
0.0834753
0.00855059
-0.0663283
0.0363942
-0.0692423
0.0272929
-0.0814804
-0.0395716
-0.00428916
0.0451867
0.0882215
-0.0049932
-0.0117955
0.0846055
-0.0313424
-0.0522057
-0.00738259
0.0855822
-0.0952805
-0.0304115
0.0460576
0.04882
-0.0335975
0.0184751
-0.0844668
-0.0591478
0.0060857
0.00282954
-0.086789
0.0326539
0.0456084
-0.0136359
0.0305299
0.00956084
-0.0889821
0.0800847
0.0612622
0.107483
0.0882747
-0.102008
-0.0735534
0.0572814
-0.0462382
0.0355181
-0.0596388
0.0209987
0.0636176
0.0821747
0.0790025
-0.0375277
-0.0362247
0.0015914
0.00644814
0.0663795
0.064274
-0.0221199
0.0884204
-0.0995814
0.0404583
-0.0974332
0.090054
-0.106996
-0.0259898
0.0519847
0.0369426
-0.117304
-0.0702207
-0.0707075
0.0441586
-0.0503453
0.0819267
0.0527036
0.0246283
-0.0801238
-0.0994188
0.116802
-0.0342129
-0.0979143
-0.0359986
0.072289
0.00825065
-0.065085
0.0813848
0.0160561
-0.0827065
-0.0558081
0.0189626
-0.0743902
-0.00743288
-0.136287
-0.0489445
-0.104342
-0.0391695
-0.0716891
0.0877836
0.0556074
0.0442595
0.046937
0.0183421
-0.0680756
0.00199647
-0.0764167
-0.0455078
-0.063386
0.0335362
-0.0963955
0.0710369
-0.0520787
0.0612291
-0.0527166
-0.0590506
0.0047365
-0.0124785
0.0655348
-0.027785
-0.0132861
0.056446
0.0302697
0.104083
-0.0120156
0.0797718
-0.077353
0.0608272
0.100291
-0.0955986
-0.0661007
0.0316403
-0.0365848
-0.0814422
0.0845551
-0.0349701
0.0767758
-0.0876418
0.0305961
0.0289199
-0.047981
-0.0678573
-0.0560559
0.0640637
0.0189336
-0.0725259
0.0206474
0.057169
0.0785718
0.0579816
-0.0179812
0.0469848
0.0406713
0.0986129
0.0890933
0.0146669
-0.0455564
0.0169082
-0.0455405
0.0106723
0.0672309
-0.0768532
-0.0382982
0.0660464
-0.0586859
-0.000963657
-0.0106018
0.0865294
0.0377726
-0.0767045
0.0304606
0.0408416
0.0233409
-0.0861865
-0.0780476
0.0822323
-0.100516
0.0189218
-0.0630841
0.0259353
0.0323139
0.0599263
0.0643366
0.0985953
0.0396094
-0.00514138
-0.0910274
0.0412878
-0.0834504
0.0564988
-0.0711094
-0.0120322
-0.0657926
0.0327987
0.0313189
-0.0634605
0.103948
0.0650225
-0.00757219
-0.0646237
-0.0823685
-0.0798722
-0.0472559
0.010599
0.0819241
-0.0288483
0.0383973
-0.0725582
-0.032312
-0.0256058
-0.0111318
-0.0724255
0.00905212
-0.0789476
0.116562
-0.0159589
-0.0256453
-0.08447
0.0528324
-0.0431694
-0.0377557
0.0507863
-0.0639225
-0.0413606
0.0191763
0.06205
0.00738942
0.0970009
-0.0516682
0.0291544
-0.0951375
-0.0819096
-0.0410159
0.088807
-0.0839418
-0.0229888
-0.0871377
0.00848686
0.12404
0.0255101
-0.0273651
0.069681
0.0479002
-0.0711496
-0.0958422
0.0119227
0.0846522
-0.0063168
0.000677605
0.0801878
-0.0793201
-0.0253797
0.0497828
-0.0794509
0.0467015
-0.00877928
-0.0967141
-0.0897096
0.0234875
0.0297137
0.0738211
-0.00461807
0.0410444
0.0141318
-0.0093674
-0.0392279
-0.0463456
0.0791539
0.0391962
-0.0748668
0.0871465
0.057545
0.0893686
0.113469
-0.0469344
-0.0629813
-0.0430816
-0.0638558
-0.0716329
0.0741355
-0.0272078
0.0292854
0.0200936
-0.0125158
-0.0542584
-0.0842513
-0.0651201
-0.047492
0.0590972
-0.0268357
0.0712321
0.0387727
0.0436474
0.101757
-0.0294112
0.0118763
-0.0453476
0.0475514
0.0350245
0.0774683
-0.0337603
0.0856892
0.0347373
-0.0718323
-0.104978
-0.0265765
-0.10043
0.106654
0.0669011
0.0940849
-0.0628605
0.0972469
-0.00134882
0.0397221
-0.0869146
-0.0106116
-0.0618943
-0.0512805
-0.0433985
0.000848058
0.0937049
-0.060766
0.105039
-0.0257135
0.0816119
0.00719176
0.087684
-0.0570292
0.0739113
-0.0673246
-0.0619575
0.0903016
-0.0554145
-0.0245409
0.10584
-0.0312404
-0.0409952
0.00549801
0.105317
-0.0127219
0.0682244
0.0859988
0.0592779
-0.101538
-0.0865322
0.14581
0.0407659
-0.0247405
0.0192437
0.0468097
0.0712435
0.0899419
-0.0219356
0.0777703
0.108737
0.013262
0.0873131
0.0993835
-0.035816
0.0143883
-0.000156313
0.0486697
0.0463497
0.018705
-0.036891
-0.0297116
0.0329577
-0.0249177
-0.0448542
-0.0150056
-0.0100316
0.0900855
0.0212867
-0.0876737
0.000253664
-0.0536423
0.00826125
0.0707438
0.0287453
-0.0247441
0.0497726
-0.0407279
-0.00218564
-0.042034
0.0340689
0.085869
0.107353
-0.0945988
-0.103006
0.00661372
-0.040448
0.00340016
-0.00627929
-0.0852182
-0.00195559
0.111721
-0.107183
-0.131999
-0.0423662
0.00840995
0.0817288
0.0541011
0.00256194
-0.102952
-0.0319322
-0.0925707
0.00838224
0.0584956
0.0736739
0.0790103
0.0603981
-0.0784425
-0.10641
0.0741758
0.0383963
0.0559707
-0.0976648
0.0290484
0.0396713
-0.0696773
-0.0570036
-0.0316544
-0.0600859
0.0442208
0.0718706
-0.0588529
0.115456
-0.021203
0.0613381
0.0662144
-0.0728588
-0.0489637
-0.0844474
0.0346831
-0.0770977
0.0762566
-0.00522086
0.03097
-0.0566384
-0.0553449
-0.0439945
0.0442704
-0.0714976
0.012237
0.111352
0.0107442
0.0987055
0.0626869
-0.0397507
0.0838223
0.076938
0.0555434
0.0743126
0.0393082
-0.00625231
0.0677585
0.0892145
0.0510365
0.0217036
0.0346336
-0.0320664
0.00264075
-0.073789
-0.00060561
-0.0725909
0.0104848
-0.0473249
0.0380675
0.0315365
-0.0114675
0.0514717
0.0604614
0.0294298
0.0608353
0.00314312
-0.01314
-0.0912619
0.118765
0.00408197
0.0128564
0.070213
-0.109103
0.0416654
0.104573
-0.0193566
0.0244344
-0.108597
0.0031861
-0.0504643
-0.0913672
-0.0600648
0.065964
-0.0767598
-0.0360066
-0.0621123
0.0212944
-0.0798592
0.000229106
0.0999674
-0.0462424
-0.0228735
0.0264609
-0.0779359
0.00124268
-0.0900348
0.0327299
-0.0470612
-0.0820721
-0.0533231
0.0869067
-0.0385423
-0.0401818
0.015448
-0.0044189
0.0590194
-0.0132637
0.0811038
0.066389
0.0794291
-0.117247
-0.0349997
-0.016704
-0.0489152
0.0753803
-0.0897456
-0.0468276
0.0157292
-0.0357711
0.104242
0.0286447
-0.0720901
0.0847571
-0.0620921
0.0600547
0.0485528
-0.0327157
-0.0373953
0.0541291
-0.0287067
0.0355743
-0.0805348
0.0813346
-0.00744139
-0.0592004
0.0826924
0.0569844
-0.0594508
0.0799525
-0.084272
-0.00506671
-0.0921124
0.0435665
-0.00620086
-0.0787945
-0.0280694
-0.0199001
-0.010552
0.0219227
0.0450425
-0.0217799
0.0652247
-0.0489999
0.102363
-0.0911534
-0.0579198
-0.0947871
0.0366107
0.00569765
0.0411005
0.00950798
0.0187433
-0.0458713
0.0638826
0.0436927
-0.0152626
-0.00805674
-0.0368591
-0.0824023
-0.0808775
0.0850695
0.110214
-0.111357
0.0669645
0.067494
-0.105282
0.0073113
0.0845904
0.00759616
-0.0857104
0.0208087
-0.0509973
-0.0683214
-0.0769876
-0.0986421
0.0336756
-0.0241644
0.0477776
-0.0987771
-0.0838356
0.0841891
0.0464359
-0.0370665
-0.0165606
0.0873189
0.0772676
-0.0234675
0.100823
0.00766599
-0.0284235
-0.0481021
-0.006476
-0.10799
0.00338085
0.0676574
-0.0924927
-0.0686905
0.0283438
-0.0446012
0.0244434
0.00984926
-0.101049
-0.120224
0.0257944
-0.10905
-0.063566
-0.0603613
-0.0284345
-0.0345715
0.0530936
0.0581231
-0.0838564
-0.105683
-0.0340554
-0.0369875
-0.0283428
0.0371957
0.0744468
0.0130339
-0.0523392
0.0583462
-0.0406381
-0.0713092
0.0167397
0.016339
0.0356807
-0.0865407
-0.0842666
0.075776
-0.0220232
-8.32792e-06
0.0348428
-0.0745063
0.0537854
0.037821
-0.010594
0.0360861
0.00754613
-0.0397806
-0.10406
0.0594994
-0.0679395
-0.0337941
-0.0188201
-0.004347
-0.10025
0.0136193
0.0149695
0.104218
-0.0106915
-0.092343
-0.0432658
0.072278
0.0188423
-0.0152771
0.0728041
-0.0715038
0.0720463
0.000991826
0.0310098
0.0616077
0.019939
-0.0472241
0.011995
-0.095663
0.0951021
-0.0587189
0.0437806
0.0301914
0.0342956
0.0875476
0.0888818
0.0501074
-0.00324493
-0.0823723
0.001233
0.0716767
0.104237
-0.0443982
-0.102934
0.059258
0.104176
-0.0145911
-0.0540215
-0.00555293
-0.0518895
0.101562
-0.0614353
0.0499971
0.0383784
0.058539
-0.0347818
0.0236123
0.0729792
-0.0612458
-0.0423547
-0.0532329
-0.0391602
-0.0767843
0.10828
0.0520744
-0.0113276
0.0803893
0.0232478
0.0495689
0.074732
0.0900869
-0.101569
-0.0951639
-0.046143
0.0374721
-0.0715157
-0.0320077
0.00827376
-0.0519114
-0.0995415
0.0791309
0.0492307
0.0297602
-0.073466
0.0607623
0.0517791
-0.0458595
-0.0662144
0.0423229
0.0727832
0.0495172
0.0733208
-0.0727154
-0.0841861
-0.0224546
0.0407902
-0.0521695
-0.0934407
0.0753073
0.0830413
0.0881084
-0.00662339
-0.0679628
-0.0261111
-0.093066
0.106448
0.115163
-0.080342
-0.0663476
-0.0808527
-0.0277019
0.0256041
0.0737167
-0.0787985
0.0635959
0.0157141
-0.0383477
0.0126877
0.0786643
-0.00751861
-0.040022
0.0201896
-0.0487946
-0.0867363
-0.0756857
-0.0497989
0.0363987
0.0895901
-0.0951586
-0.0156142
0.075887
0.0903996
0.00413295
-0.0949791
0.0447002
0.0436641
0.000565292
0.0775494
-0.0501202
0.0398821
-0.0695561
-0.0383786
-0.0165826
0.0509815
0.0195337
0.0131148
0.0973914
0.0563782
0.0426824
-0.100785
0.0527642
0.00216578
-0.112463
-0.0250182
0.0511614
0.105419
0.0791516
-0.11304
-0.0649634
-0.0356235
-0.0824451
0.00747892
0.0842
0.0383448
-0.10418
0.114664
0.04655
0.00620356
-0.0537358
0.00803368
0.101992
-0.102305
0.0125787
-0.0517693
-0.0142058
0.0353066
-0.0698544
-0.00697772
0.0688822
0.0509016
-0.025928
-0.076045
0.0534513
-0.0308568
0.0442144
0.0988254
-0.0406119
-0.0911878
0.0336961
-0.00155509
0.0547737
-0.0751151
-0.0954295
0.0490372
-0.0279229
-0.0340275
-0.116169
0.000813141
0.0998373
0.101089
0.0986975
0.0674823
-0.0779641
0.0388602
-0.0132098
-0.0830583
0.0378819
-0.00521703
0.0138121
0.0843984
-0.0382995
-0.000762545
0.000806467
0.000192679
0.0859526
-0.100744
0.0706672
0.0243953
0.00356916
0.0963951
-0.0202833
0.034512
0.102716
0.0471167
-0.0969105
0.0711917
-0.0514129
0.0350238
0.10332
0.0843959
0.0876398
0.0706773
-0.138211
-0.0212888
0.0481077
-0.0663021
0.0808637
0.0674088
0.105011
0.0476285
0.0267761
-0.0437139
0.0870887
-0.0418117
0.0287496
-0.0564403
-0.105827
-0.0880249
-0.0105479
0.0883604
0.0755829
0.0912341
-0.0339308
0.0653033
0.0657637
-0.0746295
0.079358
0.0327258
0.00508465
-0.00101882
-0.0142818
-0.0996251
-0.01041
0.0209995
0.00784873
-0.0417708
-0.0891727
0.0235243
-0.0790926
0.0343027
0.079347
0.0488605
-0.0437361
-0.106155
0.0515129
0.0380304
-0.0314724
-0.0936799
-0.0698431
-0.0866297
0.0566682
-0.0689249
-0.088545
0.0490685
-0.0190086
0.0110227
-0.0439968
-0.0490411
-0.0880888
0.108558
-0.000220915
-0.0561749
-0.07631
-0.0320336
0.0348202
0.0843071
-0.0491247
0.0386864
-0.0555256
-0.0196662
-0.077859
0.032592
0.0842567
-0.099016
0.0868234
-0.0730719
-0.0325531
0.0895371
-0.0929491
0.0355607
0.0106479
0.0473066
0.0851789
0.0513673
0.0439049
0.100283
0.0566428
-0.0162138
-0.00446681
0.0241281
-0.0671585
0.00224761
-0.0340773
0.0894017
0.0413968
0.0905416
0.0780087
0.00294862
-0.0303935
0.0699957
0.022471
0.0393714
0.0334235
-0.0933928
-0.0190093
-0.105158
-0.0607874
-0.0875447
-0.0406848
0.0423517
0.0606451
0.0825878
-0.100876
0.0529483
-0.0459397
-0.0317304
0.0515093
-0.0422844
0.0747818
-0.0783098
0.0918774
-0.0336884
0.0344412
-0.10623
-0.116963
0.0995553
-0.0490376
0.10111
-0.00736239
0.10523
0.0174645
-3.48567e-05
0.0428662
0.0762206
-0.0692687
0.0391693
0.024654
-0.0888199
0.0176108
-0.0472971
0.0666343
0.0870889
0.0426366
0.0227924
-0.0242627
0.102396
-0.0564132
0.0062502
-0.0449516
0.0806246
-0.0341443
-0.0958573
-0.0963415
-0.0910521
-0.0451335
0.0296571
0.0453534
0.0409913
-0.0745729
0.0430461
0.0283009
-0.0204063
-0.0846866
-0.0863969
0.126582
0.0951132
0.042821
0.0195949
0.0708503
-0.0556753
0.00225232
0.102913
0.0712101
-0.0312801
-0.0373511
-0.0784853
0.105596
-0.0316099
0.038894
0.0979544
-0.0438662
-0.0687226
0.0894229
0.0751627
-0.0498748
-0.0773263
0.00416154
0.0860343
-0.0125644
0.0639896
-0.078593
0.0602149
-0.0549925
-0.0241284
-0.116251
-0.0434791
0.0238436
0.00912535
-0.0330084
-0.0681933
0.0660891
-0.0183098
-0.0945717
0.119405
-0.0225981
0.00780108
0.0958164
-0.0586476
-0.104374
0.020093
-0.076463
0.0471131
-0.0101521
0.029232
0.016749
0.0669637
-0.0924038
0.015028
0.000638179
0.00477798
-0.0824408
-0.102935
-0.11059
0.0973822
-0.0280439
-0.066017
-0.0925598
0.11312
-0.0790709
-0.0818449
-0.0267995
-0.00391187
0.0767343
0.0552771
0.0649562
-0.0573838
-0.0485255
-0.0408871
-0.0744542
0.0846474
0.113804
0.104707
-0.0662582
0.0179358
0.0997588
-0.0324722
-0.0938619
-0.0519837
-0.0183439
-0.073393
0.100788
0.0570616
-0.0931422
-0.031378
-0.0138475
0.0346976
0.060528
-0.0278601
0.0661911
0.100096
-0.0437672
-0.0328492
0.0193172
0.0285635
0.0379903
0.0882706
0.0667563
0.0187911
0.128119
-0.0363993
-0.0128719
0.0663678
-0.113429
0.0839314
-0.0579218
0.110844
-0.0131255
-0.0619476
0.104315
-0.0709062
0.0672752
-0.00855342
0.110915
-0.0425492
-0.0359295
0.0939456
0.0507098
-0.0578721
0.0916963
-0.0467992
-0.106913
0.119646
-0.0448581
0.0314386
0.0920722
-0.0892284
-0.0705032
0.0104046
-0.100357
-0.045067
0.0531883
-0.0920042
0.0763031
-0.0342122
0.143779
-0.0163697
-0.0864415
0.0315635
0.0307308
-0.0938466
0.0994259
-0.0033314
0.0656034
-0.067051
0.0177743
0.0343856
-0.0584757
-0.0911634
0.0518356
0.0579764
-0.0776605
0.00480656
-0.0579076
-0.0902786
0.0611594
0.0933177
-0.0702673
0.0790339
-0.0666896
0.0697151
0.0662312
0.0282559
0.111306
0.0474846
-0.0976411
-0.106304
-0.0170465
0.0820995
-0.0668408
-0.0839349
-0.0603105
-0.0723994
0.101241
0.0192519
0.027855
0.0124461
-0.0914715
0.0650142
-0.103466
0.00373678
0.00281657
0.0917466
-0.0496547
0.0559023
0.0777302
0.0277587
0.102091
-0.0700279
-0.00166901
-0.0292785
0.0637395
0.0247607
0.0328899
0.00341093
0.0380288
-0.0306975
-0.0121139
0.0562804
-0.0430738
-0.0954287
0.00313073
0.0590968
-0.000437905
0.0671162
-0.0126588
0.0445854
0.0577135
-0.0243828
0.095792
0.0596776
0.0362979
0.0128313
-0.0335814
0.0723427
-0.070434
-0.00368567
0.0535445
-0.10022
0.070049
-0.0710876
0.0553491
0.0859107
-0.0324908
-0.0759508
0.0574073
0.060257
0.0962692
-0.0928922
-0.0863472
0.0389328
0.0918485
0.0884349
0.0947217
-0.0153202
-0.0650714
-0.0209473
0.0143666
-0.00431251
0.0682573
-0.00244104
0.0754814
0.0614361
0.0523385
-0.0873454
-0.100801
-0.070194
0.0434721
-0.0435944
0.0616409
-0.0417699
-0.00581639
-0.0634755
0.0526924
-0.0574429
-0.0733519
-0.0488554
0.051049
-0.0972766
0.0645458
-0.00557966
-0.0650351
0.0659496
0.0226731
-0.0789592
0.0589522
0.00280157
0.0570093
-0.0418919
-0.0668396
-0.0541787
0.0252234
-0.0940293
-0.0284409
0.0144279
-0.0538059
0.0318847
-0.0817433
0.0419041
-0.129215
0.0846691
0.0582015
-0.0639402
-0.0229696
-0.0801469
-0.0417288
0.0418102
-0.0594847
-0.00694341
-0.106764
-0.026276
-0.0485656
-0.078559
0.00347863
0.0729531
-0.108526
0.0432985
-0.0465507
-0.0498367
0.0751721
0.0970922
-0.059463
-0.090292
0.0992399
-0.0519795
0.0261498
0.047048
-0.00961452
0.108845
0.0184926
-0.09995
-0.00539266
0.0516258
0.0852474
-0.0238128
-0.0901664
-0.105456
-0.039603
-0.0975135
0.0505775
0.104107
-0.0606993
0.0328577
0.0635369
-0.0864896
0.063342
0.0775986
-0.0421134
-0.0924782
-0.063198
-0.100065
0.0456249
0.00822504
-0.0266239
-0.0629107
-0.0420495
-0.0741961
-0.0279402
-0.129111
-0.112819
-0.0980565
-0.094678
0.0659492
-0.00170405
-0.0425197
-0.0741913
-0.0342404
0.0842405
0.0214304
0.0372027
-0.0198775
0.040574
-0.00945403
0.0818502
0.0565489
-0.0465573
0.0833948
-0.0337327
-0.0744709
0.104767
-0.101954
-0.0393659
-0.0714987
0.0847825
0.0389058
-0.00407353
0.0388889
-0.0296612
0.00936813
-0.0247452
0.0744643
-0.0677788
-0.0231913
-0.109158
0.00648885
-0.0105326
-0.0331334
-0.1051
0.0116595
-0.00613327
0.0827761
-0.000611388
0.0321978
0.0776331
0.0542943
-0.0842919
-0.0674565
-0.103982
0.0384143
-0.0919185
-0.0367066
0.0309084
0.0815895
-0.0284795
-0.0337987
-0.0151247
-0.0563795
0.111023
-0.0425947
-0.0672595
-0.0841419
-0.0260518
0.0184562
0.115227
-0.0735862
-0.0983351
-0.0441176
-0.104157
-0.100965
-0.080005
0.0583422
0.0235033
0.00648392
-0.0149189
-0.0287914
-0.0740541
0.00577843
0.0912512
0.0512509
0.0187655
-0.0281345
-0.00824555
-0.0264401
-0.114624
0.0601091
-0.0241903
-0.0400407
0.0384264
-0.0538003
0.0833336
-0.0821075
0.00151413
0.0945105
-0.0444313
0.093653
-0.0262372
0.0165162
0.00545056
-0.0906513
0.0663948
0.0253501
-0.0574631
0.0575617
0.0650007
-0.0362814
0.0712212
-0.0898128
-0.117417
-0.0744809
0.0848196
0.0085237
-0.106631
0.0887972
-0.0779937
0.109253
0.00967921
0.0908104
-0.0961189
0.0931283
-0.0630901
-0.0368989
0.0738225
0.0275398
-0.0125579
-0.0408184
0.0332176
-0.0277305
-0.0200879
0.0491682
0.0211457
-0.024965
0.133895
0.0580485
0.028147
-0.000245063
0.104676
0.0570838
-0.104254
-0.0619432
0.0613616
-0.0996827
0.0240746
0.0697909
-0.0943497
0.0996471
0.00161915
-0.087507
0.0134181
-0.0286844
0.0693803
0.112677
0.0748665
0.062691
0.104426
0.000307396
-0.00473968
0.0931417
0.0338315
0.0452908
0.067646
-0.0517175
-0.0734467
-0.0284894
0.0980883
0.0617473
0.022375
-0.0417969
-0.0427538
0.0653315
-0.0502753
0.015646
0.0478834
0.0588896
-0.0111917
-0.071774
0.0453962
0.0491676
0.0662403
-0.0797476
0.0633809
-0.0863077
0.0292679
-0.101658
-0.063299
-0.0111015
-0.040668
0.0320597
0.113028
0.0642503
0.0325309
-0.0459938
-0.0179978
0.00452864
0.0708406
0.0600733
0.0985721
-0.00510072
0.088822
0.0864794
-0.0887949
0.0912236
0.0366981
0.065423
0.0281057
0.0868248
0.111502
-0.094873
0.0784623
-0.0329715
0.0964338
0.0322715
0.070422
0.0341876
0.052391
-0.0368702
-0.0713151
0.0632118
-0.0765986
-0.08004
-0.104129
0.0419425
-0.0178698
0.0571827
-0.0125122
-0.0264815
-0.0344085
0.0128924
-0.0942008
0.0711976
0.102335
-0.103611
-0.0592938
0.0120534
-0.031868
-0.0581175
0.0755086
0.112531
-0.0186065
0.015355
0.0476311
-0.0840925
-0.0777564
-0.0411571
0.0294519
-0.0109228
-0.0935462
-0.0499129
0.0374091
-0.0732651
0.0844032
0.0402164
0.024094
-0.0414839
0.0496103
-0.0572062
-0.0264605
-0.0127839
0.0331316
-0.0344979
0.132733
0.0593263
0.0279834
0.0609983
-0.0932753
-0.0651828
0.0176584
-0.0380747
-0.0811068
0.082507
0.0589697
0.0874346
0.0400735
0.101666
0.0246613
-0.059249
0.168354
0.0983506
-0.0539111
0.0183809
0.0323815
0.089542
-0.0046933
0.0146815
0.067924
-0.07248
-0.0236226
0.0471873
0.00211053
-0.0431838
0.0226125
-0.0694613
0.0455115
-0.0298525
-0.0325628
0.059332
-0.0683697
0.0954015
-0.107397
-0.0806096
-0.0186808
-0.0997685
0.0450341
0.0196299
0.0129654
0.0467988
-0.000212847
-0.0257051
0.0433156
0.06979
-0.0157737
-0.0944256
-0.0205568
0.0520765
0.0768159
0.0829246
-0.0985578
0.0969992
0.0311885
-0.0769079
0.0305546
-0.0988842
-0.0483388
0.0441179
-0.143304
-0.0136763
0.107157
-0.0939404
-0.0506239
0.1064
0.0478718
0.0904078
-0.0317252
0.107599
-0.051561
-0.100198
-0.0948239
-0.104492
0.0353488
-0.0807379
-0.037922
-0.0882064
0.103223
0.0244626
0.0788942
0.100852
0.0641379
0.0889234
0.0811376
0.0283238
0.022947
-0.0431995
0.0124018
-0.089856
-0.0437077
-0.0964236
-0.0891188
-0.095073
0.00933921
-0.0814003
0.114575
0.0750206
0.0164456
0.037749
-0.0430264
-0.00938433
0.0753589
0.105556
0.0698859
0.00836573
-0.0473333
-0.0228773
-0.0895838
-0.080244
-0.0249749
0.0595722
-0.014979
-0.0369476
0.0806138
0.0429231
0.0492273
-0.00517433
0.0144349
-0.0493926
-0.0981529
-0.0809689
0.0484088
0.000319557
-0.110141
-0.0563422
0.0152578
-0.0953789
0.0817042
-0.0586943
0.0357966
-0.0291857
-0.00376749
-0.040383
0.0323198
-0.0437705
-0.0404858
-0.0282899
-0.00565717
0.104806
0.069807
0.080429
-0.0598645
0.0545236
0.042162
-0.0931855
-0.0416396
0.0547295
-0.101484
0.0546081
-0.049508
0.00848305
0.0410034
-0.0324875
-0.0482303
-0.0190666
0.00679124
-0.0701912
-0.0259496
0.0487138
0.050327
-0.0029486
-0.0552808
0.0910699
0.114532
0.000294277
0.0281276
0.0317527
0.0342307
-0.0557148
-0.0019586
0.0419734
0.0456478
-0.046297
0.0514774
0.0554307
0.0727104
-0.094574
-0.0112543
0.0227427
0.0967766
-0.00145898
-0.00113611
-0.0265704
-0.0610352
-0.0117425
0.0644833
0.0407569
-0.0608936
-0.00641362
0.0729321
0.0847569
0.0615629
-0.0274907
-0.0597986
-0.0937153
-0.0437397
-0.0115631
-0.0261817
-0.0710029
-0.0575036
-0.0469645
0.103075
-0.122213
0.0196745
-0.0593163
-0.0923868
-0.0573225
0.0073427
0.014392
-0.0151341
0.0971882
0.0898034
0.0287163
0.0304407
0.0324381
0.0791334
-0.0457287
0.0638054
0.0681285
-0.0792265
-0.0286404
-0.0850617
0.0766265
0.0482466
0.0178028
-0.0550351
0.00736366
0.102198
-0.0577284
0.0701291
0.103547
-0.0417778
-0.0418369
0.0792293
0.0531806
0.107626
-0.111285
0.0402421
-0.0625382
0.0628828
-0.0615754
0.121346
0.0826889
-0.0697921
-0.0607418
-0.0900059
0.00380883
-0.103611
0.0409401
0.0383565
0.0974784
0.0724628
-0.0618408
-0.0456399
-0.023147
-0.00836571
0.0778552
0.0575406
-0.0142223
-0.0041199
-0.0036983
-0.0487872
0.132076
0.0601662
-0.0644536
0.0294564
-0.0184668
0.0839994
0.0549169
-0.108303
-0.0917557
-0.0654134
0.0119855
0.0848805
-0.0403089
0.0194617
-0.00183237
-0.101255
0.076915
0.016671
-0.0804359
0.0621799
0.0548904
-0.0751029
-0.0700845
0.0531262
-0.0623535
0.0795867
0.098965
0.0909356
-0.0537927
-0.0566327
0.0825218
0.0919882
0.0290697
-0.0637056
0.0609372
0.0750083
0.0270386
0.099163
0.0137616
0.108418
-0.0126417
-0.0426531
-0.0503411
-0.0543173
-0.118723
-0.0983803
-0.0821645
0.0718189
0.088432
-0.0635748
-0.0360795
0.101439
-0.102798
0.0489295
0.0154047
-0.0127188
0.0764245
0.0173227
0.0710941
0.0917607
0.0802105
0.0389586
0.0373121
0.0215341
-0.103168
-0.0446
-0.0406437
0.0768328
0.0787027
-0.0741435
-0.0165294
-0.0893562
0.0255081
-0.0476386
-0.100812
-0.0549735
-0.00220852
0.0479842
0.0436944
0.0911448
0.0916649
0.0846224
0.105854
0.0678106
0.080181
0.0823699
0.098379
-0.101232
-0.0693105
-0.0280193
-0.0966747
-0.0525098
0.0445773
0.00238735
-0.102237
-0.058513
0.0834358
0.0394865
0.0944741
0.0664792
0.000363469
-0.0945247
-0.0205289
0.00984085
-0.0235964
0.049307
-0.0983005
0.101711
0.0218297
-0.11478
-0.0315212
-0.023222
0.0609052
0.0522248
-0.0583288
0.0737117
0.0145363
0.123646
0.11827
0.08883
0.131042
-0.0245088
-0.069369
-0.0677082
-0.103472
-0.0190109
-0.0984087
-0.0680262
0.0577244
0.0903941
0.0688647
-0.113574
-0.113457
0.023523
0.0991213
-0.0756898
-0.0513168
-0.14544
-0.0691684
0.0572616
0.0491178
-0.00561186
-0.0541477
-0.0234325
0.096548
-0.0234441
0.0861407
-0.0234796
-0.057029
-0.0631602
0.0847129
0.00455025
0.0895573
0.00844253
-0.0349371
-0.123941
-0.0310493
0.0498087
0.0701899
-0.0882539
0.104397
0.0173927
-0.0121767
0.0510692
-0.0582899
0.0628161
-0.0210013
0.0712168
-0.0756086
-0.120533
0.0510368
0.0669389
0.0376596
0.0697891
0.00304834
0.0426748
-0.0607753
-0.0610095
0.00725652
-0.0699158
0.0801987
-0.123022
-0.089724
-0.0848154
-0.0107619
0.0245333
0.0224151
0.00932207
0.0635096
0.00958425
-0.0765936
-0.111644
0.0518291
-0.0138379
0.0736757
-0.041396
0.00203141
-0.0959056
-0.0266767
0.0273434
0.0999665
0.00808363
0.0400716
0.0925176
0.0939115
0.108476
-0.0891998
-0.0271033
-0.101786
0.0732802
0.0392436
-0.0176934
-0.0494888
0.0157608
0.0628688
-0.0982275
0.0770432
0.0727945
0.0625417
-0.0113269
-0.0647548
0.107473
-0.0810452
0.0241376
0.018819
0.0913348
0.0532209
-0.032353
0.10201
0.0532851
-0.100325
0.121077
-0.0421302
0.1003
0.0393315
0.017945
0.0541197
0.0165445
0.0771649
-0.0588781
0.0223827
0.0154083
-0.062922
0.0869544
-0.0409829
0.0808486
-0.100265
0.0755578
0.101498
0.016906
-0.0968601
0.037258
-0.0208896
-0.0529432
0.00884738
0.0829815
-0.0515247
-0.0504191
0.108351
0.0305524
0.104903
0.066737
-0.0596567
0.0883773
0.0399276
0.07841
-0.0981369
0.0526048
0.0592112
-0.0011312
-0.0348891
0.0347217
0.0673099
-0.0830619
-0.107277
-0.0561983
0.0633278
-0.0152784
0.106985
-0.0375358
-0.00794852
-0.0320047
-0.0765476
-0.0641221
0.0875994
-0.00441301
-0.0819217
0.0685408
0.110162
0.0134814
-0.0400584
0.0698442
0.036138
-0.0213916
0.0311797
0.0150835
0.0696805
-0.050559
0.0728455
-0.0787833
-0.000467401
0.0267952
0.0281058
0.0549534
-0.0822575
-0.0809086
-0.0747331
-0.0956538
0.00457453
0.0445416
0.104286
-0.0670995
0.0127804
0.03182
-0.104575
0.00733114
-0.0352572
-0.0566819
0.00249369
-0.0368027
-0.00280721
0.00647537
-0.0492034
-0.00843117
0.0499146
0.0576156
-0.0860903
0.0115525
0.087355
-0.0037871
0.0500886
-0.113946
-0.0628487
-0.0443305
-0.0142606
-0.0696617
0.114144
0.136211
0.0510392
-0.0942902
0.0443858
0.0862438
0.0808761
0.0767126
-0.0613641
0.0747609
-0.0352916
0.116011
0.0731743
0.0655189
0.106299
-0.086273
-0.0274038
0.0376407
-0.0661941
0.0120044
0.0649976
0.0744282
-0.0172297
0.0742936
0.00219069
-0.0528856
-0.0658864
0.00211801
0.0471343
0.00626815
0.0261983
-0.077983
-0.10161
0.0671794
0.0341452
-0.0816376
-0.0898955
-0.0870305
0.00973653
0.118372
0.0574826
0.0861941
0.108144
-0.11552
0.132149
0.0571609
-0.0308833
0.0163788
0.117602
-0.0544708
0.037659
-0.00930556
-0.0118276
-0.0813248
-0.0606216
-0.0101246
0.037098
-0.00303263
0.0291348
0.0640382
-0.0391002
0.0612727
-0.103143
-0.0964026
0.0507797
-0.0178783
-0.0509004
-0.0339026
-0.027654
0.041545
0.0548192
-0.0970451
8.91375e-05
-0.0515094
-0.095836
0.0698792
-0.00535719
-0.0130458
-0.105748
-0.0875069
0.0396674
0.0348062
-0.0946456
0.0566515
-0.0106119
0.0501592
0.0761568
0.00483858
-0.0271915
0.0328474
0.0491792
0.0462679
-0.0972445
0.00408599
0.014092
0.0503157
-0.0182085
-0.00214563
-0.0250362
-0.0262257
0.00235926
0.0810161
-0.0565765
0.0958052
-0.055552
0.000988474
-0.0874821
-0.0969332
-0.122101
0.10057
-0.0689108
0.0262452
0.0781182
-0.0620442
0.0619494
-0.046433
0.0889783
-0.087602
0.097291
0.0472027
-0.067829
-0.0368603
-0.0813969
0.102421
0.0428541
0.00744707
-0.0352968
-0.0856715
-0.0278157
0.0401876
-0.0567065
0.0765781
0.0084257
0.0851422
0.0148587
0.0154192
-0.0396688
-0.00303333
-0.0576568
-0.0568362
-0.0747556
-0.0195326
0.0301319
-0.0179053
0.0702248
-0.0177126
0.0990422
0.0298729
-0.0783918
-0.0700337
0.0474636
-0.0874215
0.0325691
-0.00335276
-0.0862677
-0.100072
0.0239282
-0.0290813
-0.0445473
0.0987854
-0.0644574
0.00304544
0.0134599
-0.102478
-0.00388259
-0.03236
0.0733867
0.00955908
-0.0540977
-0.00917514
0.00249387
0.0460637
-0.0387619
-0.0944178
0.0795875
-0.0384227
0.0915578
-0.00631435
0.00202772
-0.0191634
0.0599097
-0.0651781
0.00690788
0.0196869
0.103848
0.0545455
-0.0656563
-0.013221
-0.048005
0.0236676
0.0379326
-0.0472632
-0.0434541
-0.0224453
-0.00977087
-0.104685
-0.105383
-0.0250037
0.0908366
0.0574032
-0.0736536
0.0141038
-0.0464151
-0.0328558
-0.108204
0.00475604
0.0580998
-0.069686
-0.0342713
0.0658437
0.0887174
0.0403637
-0.0911074
0.0836248
0.0992675
-0.0503787
0.0814425
-0.0630627
0.0730806
0.0686973
-0.04972
-0.0773172
-0.019634
-0.0138741
0.0503788
0.0224631
0.100556
-0.0398272
-0.0167394
0.00913587
0.0756472
-0.0944057
-0.0321361
-0.0842114
-0.0506022
-0.0770156
-0.031043
0.0501815
-0.0472167
0.0320512
-0.015476
-0.00211659
0.0185879
-0.0462654
-0.0199475
-0.036436
0.0666522
0.0412215
-0.00440215
0.0107313
-0.0705796
0.0945021
0.0593098
0.00941719
0.080376
-0.038862
-0.091032
0.0248026
0.105564
0.0628469
-0.0863852
-0.0496181
-0.0274984
-0.04857
-0.0621416
-0.0529836
-0.0490638
-0.10082
-0.0976855
-0.0786063
0.012739
-0.00229482
-0.0814298
0.0310397
-0.0595552
-0.016364
-0.00360079
0.0868349
0.0925962
0.0198954
0.0461392
0.0116147
0.060271
-0.0487805
0.124931
-0.0559736
-0.0555617
-0.0546638
0.0447447
0.11028
0.0968501
0.0227072
0.0924916
0.0912568
-0.00500069
-0.0930633
-0.07763
0.00940807
-0.0574002
0.0200947
0.0871003
-0.0550373
0.0232214
-0.00827928
-0.100729
0.0799553
0.094542
-0.0117572
-0.00976437
-0.0650489
-0.0748871
0.00778195
-0.00128785
0.0677664
0.0495774
-0.0650197
0.0499067
-0.0183603
-0.00716093
0.0333001
0.0821666
-0.0692695
-0.0298789
0.0744427
-0.0397654
-0.0236937
-0.0393824
0.0949482
0.0137406
0.0831469
0.0617852
0.0266314
0.0546356
0.0397119
0.0317519
-0.032738
-0.0258404
0.109934
0.0671058
0.0519292
0.0996253
-0.0676111
-0.102475
-0.0324493
0.0244415
-0.0187563
0.068144
-0.0556445
-0.0307798
-0.102916
0.0575718
-0.0838836
0.0622186
-0.0373517
-0.0151124
0.107216
-0.066394
-0.0298315
-0.107434
-0.0379631
-0.0372301
0.0151677
-0.0871578
-0.000689466
0.0200451
0.100031
0.0173319
0.0948837
-0.0757574
-0.0112875
0.0857329
-0.0631041
-0.0012549
0.0501579
0.0250371
0.0818291
0.0314242
0.00682869
-0.0576071
0.0607958
-0.0179337
-0.0990298
-0.078263
0.0760134
-0.0688377
0.101053
0.0353709
-0.0902177
-0.0838597
-0.0229981
-0.00110646
0.029093
0.10585
0.0865955
0.0172839
0.076964
-0.0804728
0.072943
-0.0783428
0.0810622
-0.0582193
0.0560395
-0.117206
0.000898402
-0.0556592
-0.032276
-0.00119855
-0.0875533
0.0616442
0.0921537
-0.104552
0.0877136
0.0270899
-0.0661124
-0.0651934
-0.0463875
-0.0418425
-0.0389789
0.0286602
0.0161761
-0.0372936
-0.0825799
0.0679875
-0.0583979
-0.0372234
-0.101997
-0.0212389
0.0273407
-0.0507881
0.0518257
-0.0797089
-0.0126313
0.0116251
0.0727028
-0.0997734
-0.0463385
-0.0150135
-0.0484336
0.101787
-0.0840072
0.00269624
-0.0599821
-0.0180853
0.0827249
-0.0469076
0.0550766
0.0850668
0.0581651
-0.00314249
-0.0461102
0.0838553
0.0424199
0.00770862
0.0559351
0.0332936
-0.0206338
-0.00888003
-0.0182976
0.0585322
0.0013032
-0.0773638
-0.0587553
-0.0336432
0.00802411
-0.0267936
-0.101181
-0.0325922
-0.109787
0.100347
0.00575047
0.0358895
-0.0617998
-0.0240068
0.103276
0.0277404
0.0511705
-0.0472833
-0.127039
-0.108852
0.00602382
0.0829455
0.0685231
-0.0714999
-0.0752386
0.0700638
-0.0261658
-0.106583
-0.0383712
0.0764426
0.0632954
-0.0464224
0.0568685
-0.0972531
-0.0262518
-0.0190264
0.0484485
-0.00798813
0.0500287
0.00143512
0.0942642
-0.0545634
-0.0331443
0.0156789
0.030451
-0.0952823
0.00718788
0.0461918
0.0596575
0.0367938
0.0467308
-0.020058
-0.0177887
-0.0626073
-0.0801515
-0.0622951
-0.0110797
-0.0506735
0.133738
-0.071305
-0.0319706
-0.000805264
-0.0911905
0.0930306
-0.0622518
0.0519996
0.00196518
-0.109685
-0.0275522
0.0111613
0.115323
0.00268634
0.0910252
-0.0317786
-0.0462373
-0.0408124
-0.0474708
0.0394329
0.0866707
-0.0709359
-0.0788066
-0.0243248
0.0841365
0.0145301
0.0300545
0.0139957
0.0894409
-0.0630635
-0.0303798
-0.0914609
-0.0572917
0.0684643
0.0841655
0.0171977
0.0397172
0.016838
0.096879
-0.0243874
0.0485107
-0.112106
-0.0142807
-0.0149611
-0.0717244
-0.0427537
0.00330553
-0.0972167
-0.0629075
-0.0861194
0.0286055
-0.0793047
0.048742
0.0517473
-0.0253031
0.0222925
-0.0971816
-0.0170699
0.0242402
0.020634
-0.101317
0.0408804
0.0749291
-0.00544284
-0.100747
-0.0310138
0.0778177
-0.0563986
0.0803818
0.0119894
-0.0259744
-0.0714498
0.0560763
0.0331203
0.0711966
-0.0723011
0.06262
-0.10643
-0.0821452
0.00734931
0.0311366
-0.0705186
-0.0298838
-0.0431761
-0.0147018
0.029233
-0.0719836
-0.0745875
-0.00978774
0.0596085
-0.013246
0.101804
-0.0568119
-0.0653676
-0.0398783
0.0237193
0.0108839
-0.0481231
-0.0523759
-0.0630635
-0.0416066
-0.087107
-0.000119306
-0.013898
0.0723409
0.0369178
-0.014201
-0.049216
-0.0881412
-0.0860474
0.0596133
0.0506844
0.0442056
-0.100282
-0.0669245
-0.024954
0.0914653
-0.084126
0.0374165
-0.0180092
-0.0982525
0.0198706
0.0596173
-0.0915182
-0.0372685
0.0720213
-0.0423699
0.0862184
-0.0552451
-0.0207928
-0.103724
0.0566541
0.0533476
-0.0360986
0.0585015
-0.0314378
-0.063314
0.0749859
-0.0775517
-0.0458008
0.0207807
0.0424847
0.0542632
-0.0437919
0.0851596
-0.0628225
0.049801
-0.0431221
0.0299523
-0.0531343
-0.103278
0.0792703
0.0323116
0.101369
0.0963434
0.0357504
0.0625456
0.0264588
0.00323273
0.0899087
-0.0346322
0.0282277
0.0494995
0.0121317
0.0735263
-0.0119746
-0.00376625
0.0775779
0.0871829
-0.0713542
-0.0467694
-0.0857832
-0.0204455
0.086771
0.0622523
0.0977004
-0.00370846
-0.0447624
-0.0554868
0.00680166
0.064251
-0.0245099
-0.0441256
-0.0678105
0.0877616
0.0806793
-0.102311
0.0585408
-0.0178895
-0.0171039
0.0436387
-0.0845418
0.0226725
0.0615749
0.0341079
0.100219
0.0115801
0.0843851
-0.0790934
0.0920581
-0.0713287
-0.0715391
-0.0781797
-0.0463598
-0.0221964
-0.00142617
-0.0662645
-0.105171
-0.0861353
-0.0981348
0.0793337
0.0695032
0.0526966
-0.0793292
0.000748115
0.0539242
-0.000615446
-0.0719875
-0.0857039
-0.0575623
-0.0988005
0.0536837
0.0911656
-0.0213204
-0.0459498
0.0324859
0.0137501
0.0531992
0.0528311
-0.0516398
-0.0661218
0.06785
-0.108683
0.0498116
-0.0345839
-0.0944818
-0.0558141
-0.0277342
0.0471199
-0.0406177
-0.0343126
0.0649781
-0.0189352
0.0301534
-0.0640389
-0.0906408
0.0433442
-0.0213041
-0.0427284
-0.0207432
0.058018
-0.054473
0.0963066
0.00339603
-0.0700492
0.00906959
-0.0374314
0.0221596
-0.0148579
-0.0536431
-0.0996337
0.105872
0.0906602
0.119681
-0.00922802
0.0708216
-0.00118048
-0.013471
-0.119925
-0.00172449
-0.061336
0.0689836
-0.00567056
-0.0815507
-0.00134914
0.0262456
0.0739788
-0.0523477
-0.0474055
0.0712679
-0.0347009
0.0699243
-0.0860129
0.0105461
-0.0462601
-0.0853882
-0.0750452
-0.0640215
0.107067
0.0954701
-0.0306439
-0.0339892
0.121463
-0.0950058
0.105859
-0.104424
-0.0257951
0.126235
0.0493515
0.0936268
-0.0158006
0.0972113
-0.0193588
-0.0204232
0.0927989
-0.101435
0.0614886
0.0149808
-0.0239755
0.0129969
0.00692148
-0.049938
-0.0261892
-0.07423
0.0892961
0.0942966
0.0687075
-0.0713108
0.0731669
-0.0449699
0.0807788
0.0428211
0.0421314
0.11135
0.0742454
-0.0643561
0.101135
-0.10394
-0.00359546
-0.0533968
0.0031935
0.0132252
0.0919368
0.0284709
0.0134237
0.0553659
0.0370853
0.0680603
0.0474658
-0.00995385
0.0651465
0.00747889
-0.0456331
0.0819253
-0.0722132
-0.0781082
-0.0216697
0.0614414
-0.0634678
-0.084813
-0.0934559
-0.0983992
-0.0115174
-0.0453205
-0.0412124
-0.0826011
0.0341007
0.00341565
-0.0437852
0.101438
0.0426627
-0.0529618
-0.00614849
0.00207179
-0.0912988
0.0396509
-0.000497767
-0.0548023
-0.0128254
0.0368941
0.00278505
-0.0254711
-0.0180531
0.0455289
0.0650278
-0.0746344
0.0506224
-0.0056945
0.0314097
-0.113061
0.0272164
-0.0885193
-0.0730769
0.0908525
-0.00922562
-0.105991
-0.0589097
-0.0318922
0.0598119
-0.0890433
0.0724189
-0.074818
-0.0770901
0.0892766
-0.0169353
0.0363824
0.00783065
-0.0892341
0.0853942
-0.0416516
-0.0261747
0.0692946
-0.0381678
0.0406565
0.0166733
0.0578657
0.0596137
0.0870445
0.0409175
0.0570087
-0.0741885
-0.0310019
-0.0813323
0.0222668
-0.0262901
0.0145199
0.0746645
-0.105342
-0.085498
0.0901019
0.0747871
-0.00619168
0.0620249
0.109369
0.0401192
0.0914673
0.0372698
-0.00592281
-0.0177027
-0.0989275
0.0340929
-0.00980534
-0.0193666
0.0057962
-0.0335912
0.0253298
-0.0704727
0.0701678
-0.0116139
0.0470873
0.0711163
0.0993806
-0.112056
0.0225751
-0.000517153
-0.0827987
0.0965879
0.0567328
-0.0341265
0.0209408
0.0489509
-0.0635024
0.0267243
0.0975733
-0.0575259
-0.103886
0.042799
0.0892046
-0.0741139
0.0983599
0.0212201
-0.0548745
0.0341507
-0.0765499
0.0102017
0.0509746
0.0144555
-0.0784739
-0.0278771
-0.00395894
0.0878103
0.036668
0.0671571
-0.0588567
-0.101953
0.0410204
-0.0116862
0.0827597
0.0438276
-0.0382148
-0.00351033
-0.0287225
0.052692
0.0310203
0.0179222
-0.0910793
-0.0972076
-0.0331496
-0.0692464
0.0819022
0.087674
0.0855506
-0.0533954
0.0657069
0.0807505
0.0537478
0.00173356
-0.097566
0.070296
0.0426402
0.0408509
-0.0599274
-0.0164218
-0.000885217
0.00144825
-0.00373637
-0.0301427
-0.0587742
-0.00681882
0.0740263
0.0342245
-0.0456105
0.0863068
0.037793
-0.0880738
-0.103904
0.0534164
0.0727618
0.0390964
-0.0996748
0.0785955
-0.00231578
0.0956045
0.0972187
-0.011185
0.101549
0.0530009
0.0556415
-0.0147442
0.0962549
-0.0105816
0.000230899
-0.0350475
0.0655659
0.105849
-0.0806703
-0.00702689
0.025598
0.00470286
0.0312069
0.0145255
0.0345711
0.0694392
0.0979172
-0.0067254
0.0131955
-0.0451105
-0.0286161
-0.00567519
-0.0583652
-0.0107154
0.0731275
0.0491903
0.0552626
0.0966147
-0.0464496
0.0471892
-0.0264357
0.0784926
-0.083477
-0.104346
0.0442517
0.00554868
0.065865
0.00585965
0.0526109
-0.101238
0.0123061
0.0482053
-0.0909515
0.0120962
0.0193003
-0.0010826
-0.0590616
0.0791195
0.0529718
-0.0406562
0.0615568
0.0383698
0.10101
0.00603804
0.0364886
0.108431
0.0985103
0.0848711
-0.0609355
-0.0924205
-0.033959
0.0106596
-0.0603612
0.00846442
0.0608418
0.0482326
-0.0231459
-0.0771817
0.0671099
0.0141203
0.0828548
0.100464
-0.083099
-0.0479958
0.00314724
-0.00452588
-0.0685508
-0.0185691
-0.0444947
0.0842433
0.0469418
0.0645606
0.0393965
0.097355
0.0840454
-0.0371451
0.104764
-0.0451092
0.05266
0.106497
-0.0815019
-0.0312518
0.0436469
-0.0884067
-0.0655098
0.0809942
0.0151283
-0.0254023
-0.0487135
-0.052449
-0.0269558
0.049339
-0.0702632
0.0538853
-0.0968264
0.0460646
-0.109955
0.0169265
-0.0541839
-0.0317748
-0.0149671
0.00893287
-0.022437
-0.0884576
-0.0149637
-0.0636813
-0.091266
0.0997083
-0.0160238
0.0196031
0.0259464
-0.0495931
-0.00711279
-0.0666954
0.0211372
-0.0448772
-0.0215982
0.0481806
-0.0113752
0.124179
0.00529329
0.0136644
-0.00369121
-0.0866561
-0.0965545
0.092254
-0.0291065
-0.0115965
0.0341265
-0.0695882
0.0275858
-0.106751
0.0631783
-0.0918667
-0.00015202
0.147081
-0.0317301
-0.0743258
-0.10359
0.115687
-0.131068
0.0169476
0.0352027
0.0366899
-0.0335161
-0.151032
0.108964
0.0939067
-0.0706315
0.00116376
-0.0149677
0.0297656
0.0663006
0.0485918
-0.00773954
-0.0584656
0.05908
0.0811482
0.103083
0.00295168
-0.0984363
-0.0703497
-0.0145353
-0.109584
-0.00793866
-0.0681284
0.0544139
-0.0418445
-0.0934382
-0.0818435
0.0323171
0.0382991
0.0917534
0.0742317
0.0820868
-0.0293471
0.0791297
-0.0108588
-0.0847515
0.0582527
-0.0505084
-0.0565265
-0.0821775
-0.0555858
-0.0917839
-0.0845357
0.0153427
0.0495928
-0.0762494
0.0854581
-0.0593063
0.0713064
0.0765719
0.0712587
0.0248136
-0.0778532
0.0196053
-0.0873865
0.0146177
-0.0942952
-0.0597245
0.0848701
0.000106523
-0.0167817
-0.0113583
-0.10608
0.0901974
-0.0485295
-0.00286113
-0.0424874
0.0680391
-0.0887891
-0.0184227
-0.073483
-0.0840527
0.0774283
0.0770387
-0.00647094
0.0874577
0.0117774
-0.00222016
-0.0311306
-0.0871955
0.0952048
-0.0627201
0.00510979
-0.0712927
0.0898001
0.00021434
-0.0502327
-0.0195022
0.0684028
-0.100842
-0.0895035
0.0539555
-0.0570243
-0.0549675
-0.0255827
-0.063936
-0.10096
-0.0857048
0.0746107
-0.015797
-0.0807964
-0.0632209
0.0515224
-0.100076
0.0967665
-0.107101
0.106059
0.0377539
0.0565672
0.0778713
0.0254504
-0.0986937
-0.0958318
0.0689261
0.0350415
-0.0264347
-0.0569396
0.101719
-0.0698662
-0.00532099
-0.066476
-0.0211158
0.0600607
0.133791
0.0213658
-0.104542
0.063155
-0.0964154
0.0978131
-0.0328237
-0.0295502
-0.0770722
0.0482324
0.0697585
0.0779913
-0.105938
0.118877
0.0795959
0.0549313
-0.082348
0.00923857
0.118339
0.0619868
0.0554746
-0.0254717
-0.000291837
0.0601225
-0.00879429
-0.0618911
-0.0741967
0.061285
0.12557
0.0819274
-0.035106
0.100659
-0.0584855
-0.0303828
0.00947294
0.0643433
-0.00479288
0.0485386
-0.0271085
0.0581407
-0.0193162
-0.0854911
0.0914434
0.113406
-0.0674623
0.0962058
0.0420318
0.0210449
-0.0709903
0.0784732
0.0172695
-0.0329131
-0.0538396
-0.0698364
0.0356215
0.0527734
0.0236814
0.0812204
-0.0889119
-0.0390477
0.0152376
0.00480445
-0.050289
-0.0640537
0.0811103
-0.0702635
0.0377701
-0.053897
0.00829696
0.0455216
-0.0127326
0.0465311
0.0196505
0.0751783
0.0789299
0.0467102
-0.0699303
-0.0787695
0.0311016
-0.0728996
0.00686897
0.0452415
-0.0337487
0.0730178
-0.0951048
0.0543419
0.0598754
0.0850401
-0.0739289
-5.5839e-05
0.00419819
-0.0137878
0.0307096
-0.0872899
-0.0393455
0.0264913
0.126331
-0.0216877
0.0246726
0.075868
0.103874
-0.0956944
-0.0161847
0.0320576
0.060653
0.0598436
-0.00873672
-0.00301643
0.00593198
0.0854131
0.0382917
0.106421
-0.0298002
0.0363879
0.0641214
-0.0101935
-0.103582
-0.0159283
-0.0532659
-0.0715823
0.155022
-0.0727889
0.0416358
0.103854
0.10757
-0.0632298
-0.0864088
-0.033116
0.0697905
-0.0284159
0.0174881
-0.0792727
-0.0654168
-0.0428722
-0.0325381
0.105218
-0.0701683
-0.00519777
-0.0773426
0.0899037
-0.0820734
-0.00466589
0.00668923
0.00144088
0.0826714
0.107425
0.00993676
-0.0483986
-0.0844345
0.0415148
0.0102288
-0.016263
0.01582
-0.0933385
0.0953587
0.0473022
0.0373033
0.0455216
-0.0739769
0.0240802
0.0518442
-0.0796596
0.135814
0.0406325
0.0576621
0.104437
-0.0239013
0.0591901
-0.0885789
0.0716548
0.0855051
0.0152935
-0.00885651
-0.0268347
-0.0299518
-0.093229
0.0297564
-0.0280589
-0.00896364
-0.0281979
-0.0526247
0.0325087
0.0421528
0.110681
-0.0835849
0.0892
-0.102211
-0.0239148
-0.0119716
0.0484681
0.0432804
0.022
-0.0783012
-0.0960411
0.104294
0.0408241
-0.0137387
-0.0763465
-0.0811383
0.0309069
0.0643795
-0.0372303
-0.0554126
-0.0967004
0.0900432
0.0772532
0.108245
-0.0321156
-0.0975019
0.0599526
0.0944978
-0.0669357
-0.0583213
0.087839
0.0160359
0.0300938
0.0968097
-0.028079
0.074361
0.0470342
-0.117602
0.0843068
-0.0658249
-0.101686
-0.0168484
0.0938227
6.49801e-05
0.0655888
0.0431645
0.0983995
0.0542188
-0.0174677
0.0575082
-0.0143143
-0.0731572
-0.0125607
0.0872902
0.0577861
-0.0225839
-0.00276532
-0.0450369
0.0325471
0.0917852
0.0973839
0.0708993
-0.0943452
-0.0573489
-0.0888954
0.0228575
0.00546432
0.0471563
-0.041586
0.0385876
0.0524132
-0.0983196
0.0451074
-0.0963504
-0.0131277
-0.0575343
0.0698309
-0.046596
0.040233
0.0765695
0.129372
-0.0775361
0.0503714
-0.0932912
-0.0875974
-0.120385
0.102183
-0.00975014
0.0896408
-0.0728595
0.00819561
0.0595662
0.0375093
-0.0625813
-0.0780283
-0.0965049
0.0143244
-0.0545998
-0.0977888
0.0441701
0.0891244
0.0782116
0.103959
-0.0903372
-0.0942064
0.102576
-0.0564108
-0.0135914
0.0288462
0.0501474
0.0761764
0.0266669
0.0762989
-0.0712166
0.0220161
0.00239458
0.105005
0.00883996
-0.0182875
0.0835853
-0.0439551
0.0669521
-0.0718856
-0.0734608
-0.0257776
-0.090815
0.0342498
-0.00803502
-0.0358963
-0.0794807
0.0781239
-0.0757711
-0.0638832
0.0421878
-0.013341
-0.113864
-0.0527973
0.0403884
-0.0250258
0.0143163
0.0067786
0.0147502
-0.0375874
0.0008898
0.0299721
-0.0603956
0.0742786
-0.0627425
0.00816253
0.00702974
-0.0971962
-0.0942118
0.0516387
0.0254697
-0.0206336
-0.0118871
0.116936
0.115291
-0.0381955
-0.105911
-0.0433486
-0.0138921
0.0848762
-0.0120864
-0.0625994
0.137511
-0.0824484
0.0223869
-0.0396172
0.00564313
0.00967298
0.0453536
0.0423178
0.0877102
0.0100134
-0.0236727
0.0531826
0.0562708
-0.074988
0.0379836
-0.104044
-0.082895
0.0552881
0.102993
0.0311769
0.0481036
0.10702
-0.0601374
0.106103
-0.0281743
-0.11314
-0.076743
0.0739749
0.0507867
-0.0126237
0.0588603
-0.015844
0.0488265
0.0564674
-0.100859
0.117718
-0.0428904
0.121508
0.0765251
-0.0637953
-0.0889063
-0.0928205
0.0630274
0.0488818
0.0281699
0.0744857
-0.0815912
-0.0671598
0.028604
0.0170555
0.0998165
0.0227347
-0.0396453
-0.091949
-0.0187287
0.0859879
-0.102363
0.00789176
-0.0324134
-0.0524816
-0.0460008
0.00322162
-0.0385277
0.0953052
-0.0690369
-0.0156533
-0.0921876
0.0292528
-0.0814714
0.0926554
0.105243
0.0710926
-0.0834701
0.163641
0.0385744
-0.025138
0.00984485
0.0299799
0.0426774
-0.0393277
0.00954947
-0.0116825
0.0736168
0.102216
-0.075198
-0.0769154
0.00510187
-0.100897
0.0718737
-0.0995583
-0.104875
0.103066
0.0198439
0.0950867
-0.0460826
0.011867
-0.0116204
-0.0570106
-0.0361402
0.015855
0.0290926
-0.111676
-0.0186577
0.0687941
-0.0272947
-0.0721292
-0.0862144
0.106076
0.109594
-0.0738409
0.02576
0.0172448
-0.0504847
-0.0324364
-0.107792
0.076693
0.102802
-0.026965
-0.0916883
-0.0133853
0.0531658
0.0931059
0.00762694
-0.0457197
0.0214273
-0.0695978
-0.0344531
0.0145433
-0.0352633
-0.0915957
-0.0768253
-0.0705945
0.00591595
0.0672548
0.0511426
0.0548011
-0.0709804
0.0696074
-0.048831
0.0161895
-0.0928384
-0.0908589
0.0237328
0.0261503
0.0770071
0.0307766
-0.101252
-0.0389847
0.0161683
-0.00386968
-0.0469602
0.0217023
0.0208614
0.0863095
0.00458867
-0.114713
0.0630767
-0.0470665
0.0540018
0.064295
-0.0120384
0.0248854
-0.0513949
0.101922
-0.00736935
-0.073546
0.023567
-0.0512123
-0.0383378
0.0988921
-0.0852125
-0.0829215
0.0800117
0.0721962
0.0242866
-0.0176148
-0.0595181
0.103739
0.095559
-0.00107342
-0.0713257
0.0302093
0.0151222
0.0705501
0.0390928
-0.0349505
0.0398337
0.0636825
-0.0419547
-0.0430849
0.0985796
-0.102294
0.0933688
-0.0446897
-0.0773111
-0.0654863
0.0493975
-0.0172184
0.0421285
-0.0375081
0.0977942
0.0417444
-0.0824887
-0.0903861
0.0318001
0.0839236
0.102594
0.0589078
-0.0541572
-0.0315327
0.0738118
-0.026777
-0.0843476
-0.084494
-0.0294842
0.0299163
0.061243
0.0511373
0.0136902
0.10301
0.0758809
-0.0906599
-0.0197641
-0.0827976
-0.0973649
-0.0107872
0.0675674
0.0739861
-0.0272065
-0.00653167
0.0242484
0.0253873
0.0677546
0.0343989
-0.0828715
-0.0567151
0.00639923
0.00725206
-0.0274067
0.0372623
-0.0996104
-0.0415941
-0.0895385
-0.0160809
-0.0709355
-0.00429269
-0.0629568
0.00597158
-0.0330306
0.108167
-0.00225474
0.00739819
-0.0030848
0.137737
0.0681894
0.0141202
0.0812714
0.0866875
-0.0789969
-0.103113
0.0774763
0.0176836
0.00880036
-0.0247531
0.115089
0.0299551
0.0928709
-0.0986078
-0.049526
0.113646
0.0748344
-0.0805744
0.0545519
0.0909669
-0.0810324
0.0609836
0.0135502
-0.0252342
-0.0026159
0.0348355
0.0332122
0.0916433
0.0821908
0.0108971
0.055716
-0.0124767
0.0753133
-0.06453
0.100136
0.0928153
0.0591216
-0.0771303
0.0845761
0.0636954
0.0621768
0.0178528
0.127285
0.0202654
-0.114241
-0.0613926
-0.0370993
0.0524078
-0.00154983
0.0364933
0.078955
-0.0745738
-0.0612644
-0.0987858
0.0380543
0.0239649
-0.00395368
-0.0477709
-0.0733098
0.128493
0.0815759
0.0169854
-0.0674259
0.0326057
-0.0847479
-0.033701
0.100669
-0.0322985
0.055103
0.012753
-0.0323628
0.0364824
0.0181034
-0.10064
-0.0123875
0.0772602
-0.0731568
-0.0129769
0.0699185
-0.0137964
-0.0834835
-0.0134874
-0.0252637
-0.0316652
-0.065591
0.0560734
-0.0137891
0.119641
0.0203304
-0.0391896
-0.0901916
0.0506081
-0.0773173
0.119106
0.107657
0.0251336
0.0795869
-0.0279426
0.0745465
0.0743235
-0.0227781
0.0984944
0.0333511
-0.114235
0.0191322
0.0945345
-0.0844747
-0.0910279
-0.0661575
-0.0352144
0.073606
-0.00516361
-0.0953044
0.0752569
0.0887816
0.0123233
-0.000379614
-0.00554025
0.00411889
0.0677559
0.0884769
-0.0201675
-0.0150948
0.0977316
0.0680773
0.0481943
-0.0146243
0.0734136
0.0209523
-0.0523803
0.102778
0.0910509
-0.0677872
-0.0270349
-0.0212048
0.0566022
-0.00252519
0.0505816
0.0475307
0.036733
-0.0134588
0.0382467
-0.0719091
-0.0936846
-0.0662895
-0.0922052
-0.0468781
-0.0607771
-0.0905124
-0.100422
-0.0696258
-0.0803916
0.0706573
-0.033152
0.0553288
0.009778
-0.0951181
-0.0438692
-0.0932383
0.113368
0.00116578
-0.101139
0.0999007
0.03111
0.0528284
-0.038682
0.0666761
0.036484
0.00717288
-0.0219422
0.0735496
0.0796498
-0.0155834
-0.013813
-0.0747832
-0.0233971
-0.0513589
0.0251184
-0.0227571
0.0193593
-0.0855066
0.0910554
0.0296208
0.080926
0.0447744
-0.0334267
0.0928784
0.0103353
-0.0655379
0.0978742
-0.0735094
0.00720889
-0.0970051
0.1175
-0.0688646
-0.0416286
-0.00480247
-0.105997
-0.0642262
0.0258034
0.0577794
-0.0389046
0.0663671
-0.0701183
-0.0744598
0.0907742
0.0636962
0.010112
-0.0492136
-0.00402082
0.103285
-0.0222701
0.0469044
0.0175912
0.0374542
0.0725573
-0.069435
0.00506312
-0.0356374
-0.0631672
0.0955984
-0.00582541
-0.0814702
0.0778616
0.0660754
-0.00144913
0.0476835
0.0483621
-0.0546433
0.086243
-0.00114583
0.00710653
0.0990646
0.0827917
0.105592
-0.093781
0.0436068
-0.0717009
0.104047
-0.059113
-0.0240833
-0.047944
-0.0388163
0.0578096
0.0995624
0.0333801
-0.0406053
-0.0134202
-0.00861025
0.0385374
-0.0785132
0.0430086
-0.0274243
-0.104065
0.090353
0.0673436
0.0808853
0.0436975
-0.101625
0.1105
0.0689268
0.0371945
-0.0858211
0.109547
-0.0919943
0.0829161
-0.0651131
0.0264769
0.0896621
0.061087
0.0626319
-0.05166
0.0847765
0.0777277
0.0054413
0.0160509
0.116141
-0.0279493
0.0276527
-0.00431344
-0.0237997
0.00137323
0.0672703
-0.062705
-0.024905
-0.0308159
-0.0522758
0.136346
-0.0753722
-0.0104538
0.0218358
-0.0279883
-0.108566
-0.00552046
-0.123355
-0.028751
-0.0957152
-0.0334788
0.030694
0.122832
0.0320843
0.0903035
-0.0957248
0.0100507
-0.0190596
-0.0372837
0.0115092
-0.0420874
-0.0994091
-0.00515583
0.0594699
-0.0537761
0.00301764
0.0666017
0.0814945
0.0360815
0.0557318
-0.0111829
0.0624705
-0.0565174
0.056104
0.0836337
0.029236
-0.0248159
-0.0628046
0.0916553
0.0661245
-0.0678585
-0.0264197
0.0881112
-0.0462683
-0.0825025
0.0263258
0.0960276
0.0746128
-0.0906897
-0.100595
0.088261
-0.0560926
0.0623719
-0.0460851
-0.020668
-0.0220748
0.107311
0.058167
0.0491574
0.110353
0.0645243
-0.0129265
0.106102
-0.0152085
0.0868502
-0.0792529
0.0653538
0.0162622
0.10175
-0.0454055
0.0420901
0.104703
-0.0322985
-0.0372681
0.0174559
-0.043038
0.00106803
0.0181508
-0.099774
-0.0819647
0.0689175
-0.095651
-0.0360781
0.0138438
-0.0887974
0.0634015
-0.088246
0.0225208
-0.0691612
-0.000537708
-0.0329989
0.0894768
-0.0773467
-0.0125846
0.00149307
0.11328
0.0468833
0.0140887
-0.0869217
0.085846
-0.05127
0.0720731
0.0905726
-0.0837639
0.019409
0.0214919
0.0131618
-0.0243097
0.0294429
-0.0589065
0.0875175
-0.0890438
0.0837135
-0.00383878
-0.014445
-0.0260104
0.0928458
0.0531729
0.059338
-0.0882304
-0.00689177
-0.00341076
-0.100054
0.0487301
0.0450259
0.0394362
0.0285611
0.00922736
-0.0234509
-0.0569476
-0.0568919
-0.0591632
-0.10075
-0.0827029
0.0801143
-0.0850756
-0.106631
0.0197456
-0.0108238
-0.087212
0.013052
0.019878
-0.0783507
0.056846
-0.067481
-0.013649
0.0874528
0.106219
0.0711067
0.0524364
-2.69812e-05
0.0877188
-0.00567246
-0.0436528
-0.0601334
0.10372
0.123161
-0.0214633
-0.0142072
0.057227
0.0199283
0.0786637
0.0549563
0.0794393
0.0747752
0.0284714
-0.0804574
0.0815431
-0.0652444
0.0243589
0.0140949
0.0276432
-0.020516
0.0283661
-0.0710879
0.0135815
-0.000171178
-0.0440437
-0.0692083
0.0753017
0.00845614
0.00722235
-0.0499323
-0.0625159
0.10522
0.0299289
-0.0579512
0.0015457
0.01569
0.0524479
0.0335561
-0.0571783
-0.0539701
-0.0574859
-0.0772467
0.00470694
0.101523
-0.110787
0.100532
0.0428192
0.100649
0.0722074
-0.0909544
-0.010306
0.0534895
-0.0781063
0.00614019
-0.0913734
-0.0823468
-0.0250866
0.041273
0.00903806
-0.0519999
-0.0969165
-0.0552025
-0.0722213
-0.00796488
-0.0445473
-0.0809503
0.0198243
-0.119153
-0.0010852
0.103026
-0.00690963
0.032962
-0.00619252
-0.0551444
-0.0643403
-0.052143
0.0587141
-0.0672019
-0.000475744
0.0675317
-0.00997865
0.0293037
0.122764
0.0508679
0.0845315
-0.0461219
0.00918047
0.0606869
-0.0537142
0.00703847
-0.0662683
0.0842776
0.0640457
-0.0901467
0.0758857
-0.0485654
-0.0150992
0.0677686
0.0970338
-0.0766972
0.0491448
0.0395545
0.0706575
0.0881603
-0.0612856
-0.045221
-0.0235671
-0.110553
-0.0152421
-0.0965093
-0.0356327
0.0552648
0.00500845
-0.0382843
-0.016505
-0.0255053
-0.0385453
0.0466952
-0.0812118
0.062776
0.0950637
-0.0366389
-0.00383289
-0.047485
-0.0286871
0.0608826
-0.0570379
0.0403802
-0.0716785
-0.0258552
0.0396642
-0.0467715
-0.0361
0.00351938
-0.0710836
0.0450606
-0.0186674
0.000924096
-0.00532867
-0.00958958
-0.0651474
-0.0450696
-0.0851102
0.0330299
0.0372027
0.0810216
-0.0460728
-0.00441905
0.018112
0.0752743
0.0823869
-0.0186662
-0.0825721
0.0663295
-0.0384422
-0.0144725
0.0402606
0.0705155
-0.00245682
0.0942258
0.0404032
-0.00474652
0.00271834
-0.0983277
0.0589219
0.0118674
0.0508545
-0.0942949
0.0554203
0.004101
0.101885
0.0425934
0.106865
0.101617
0.0332448
0.0877248
-0.0259165
-0.099475
0.0424339
0.108758
0.0804003
-0.0662062
0.0569413
0.0239317
-0.107278
-0.0371202
-0.107705
0.109704
0.00687916
-0.00107099
-0.103111
0.0717868
-0.0329208
-0.08796
0.0299281
-0.052791
-0.0197626
-0.018988
0.0707392
0.000920981
-0.0200422
0.0839604
-0.00463931
0.064428
0.00794664
0.0472418
-0.0541708
-0.107464
-0.052184
0.0887417
0.0745254
-0.0135195
-0.0992664
-0.0295831
