0.00104194
0.0182521
0.000177157
0.0181621
0.0128204
0.0147441
0.0115275
0.0124256
0.00712747
0.0145289
0.018419
0.00705039
0.000225904
-0.00337655
0.00208231
-0.00539264
-0.0161791
0.00547256
-0.00972842
0.00481084
-7.83145e-05
0.00118361
0.00284481
0.0108758
0.000336124
-0.00861785
0.00713786
0.0133523
0.0132998
0.0030225
0.00675462
0.00617179
0.00847382
0.00733549
0.0104567
0.00426586
0.00791685
0.000938528
0
0.0185172
-0.00284733
-0.00277505
0.000653807
0.0092933
0.00122695
-0.0222637
-0.0109615
0.00496409
0.00864774
-0.000378608
0.00983759
0.0202506
0.00878964
0.00124746
-0.0184679
0.00176767
-0.000927705
0.00286198
0.00795961
-0.0107119
0.0169617
0.010252
3.99882e-05
0.00639554
0.000844125
-0.000786911
0.00366267
0.00112673
-0.00898386
-0.00234046
0.00258114
0.00342485
0.00363946
-0.0115565
0.00289118
0.00613672
0.00847334
-0.0067467
-0.000766928
0.00258212
-0.00292611
-0.0103483
-0.00188817
0.00125227
0.0212073
0.00118192
0.00252735
-0.00724968
-0.00646592
-0.000480572
0.000738407
-0.00526675
0.010038
-0.0156847
-0.010378
0.0249234
-0.00101027
-0.0086265
0.00439801
0.00173572
0.00202312
-0.000814766
-0.00246802
0.00726526
0.000248277
-0.00897769
0.00302763
0.00222425
0.00494187
-0.000678767
-0.0107727
0.00521619
-0.00963419
0.00335703
0.00445577
-0.00244927
-0.00447087
0.0102063
0.0129405
-0.000549611
