-0.044922
-0.005859
-0.054199
0.043457
-0.076172
-0.063965
0.072754
-0.012695
-0.037109
0.050781
0.019531
-0.015625
0.033691
0.027832
0.075684
0.062012
-0.066895
-0.051758
-0.062500
0.067871
0.062500
0.067383
-0.062012
0.020508
-0.019531
-0.019043
0.070801
0.000977
-0.020020
0.083984
-0.004883
0.064453
0.007813
0.047363
-0.054199
-0.107422
-0.052246
0.088867
0.074707
-0.013672
-0.099121
-0.029785
-0.003418
0.016113
0.041504
0.026855
0.059570
0.032227
-0.085938
-0.020508
0.040527
-0.019043
-0.098633
-0.052246
0.043457
-0.005371
0.003418
0.050293
0.098633
-0.028320
-0.023438
0.020020
0.080078
0.080566
-0.015625
-0.003906
0.041992
-0.080566
0.070801
-0.031250
-0.020508
-0.024414
0.064453
-0.060547
-0.060547
0.033203
-0.095703
-0.056152
-0.010254
-0.049316
0.080078
-0.033203
0.105957
-0.033691
-0.083008
-0.041992
-0.089355
-0.024902
0.029297
0.014648
-0.022949
0.014160
0.023926
0.051758
-0.072266
0.074707
0.089844
0.052734
0.093262
-0.093750
-0.041992
-0.092773
0.087891
0.083496
0.060059
-0.054688
0.028809
-0.039063
-0.095215
-0.056152
0.023438
0.025879
-0.028809
0.042480
-0.026855
0.044922
-0.081543
0.003906
-0.010742
-0.019043
0.020020
-0.104004
0.070313
0.011230
-0.083496
-0.105957
-0.093750
-0.076660
-0.023438
0.032715
0.098633
0.004395
-0.071289
-0.046387
-0.070801
0.009277
0.037598
-0.088867
-0.036133
0.024902
-0.070801
-0.002930
-0.041504
-0.017090
-0.011719
0.005859
-0.094727
-0.051758
-0.015625
0.064941
0.044922
0.003418
0.000977
-0.013184
-0.013184
-0.013672
0.091309
0.038086
-0.093750
-0.068359
-0.049316
0.086426
-0.040527
-0.104980
-0.080566
-0.085938
-0.044434
-0.100586
-0.034180
-0.050781
0.097168
-0.083496
-0.028320
-0.010254
0.054199
0.036133
0.033691
0.094238
0.099609
0.072266
0.024902
0.100586
0.102539
-0.001465
0.030762
-0.082520
-0.019531
0.068359
0.069336
-0.078125
0.105469
-0.027344
0.047363
-0.003418
0.063965
-0.075195
0.074219
-0.000488
-0.016602
0.057617
-0.018555
-0.095215
0.067871
-0.095215
-0.094238
-0.077148
-0.043457
-0.054688
-0.037598
0.026367
0.101074
-0.009766
0.003906
0.001465
-0.066406
-0.012207
-0.081055
0.017090
-0.007324
-0.005859
-0.046387
-0.008789
0.068359
-0.001953
-0.072266
0.055664
-0.036621
0.096680
-0.033691
0.066895
0.095703
0.035645
-0.101074
-0.083008
0.092285
-0.062500
-0.103516
0.071777
-0.049316
-0.086426
0.000000
0.027344
-0.085938
-0.018555
-0.001465
-0.019043
-0.099121
0.049805
-0.036621
-0.001953
-0.053223
0.053223
0.039551
0.032715
0.062500
0.052246
-0.011230
0.095703
0.036133
-0.034180
-0.016113
-0.071289
-0.024414
0.003906
-0.085449
-0.049316
-0.017578
0.061523
-0.062988
0.080078
-0.036621
-0.080078
-0.017578
0.058594
0.036133
0.055664
0.060547
-0.078125
0.050293
-0.047363
0.098633
-0.038574
-0.068359
0.052734
-0.060059
0.049316
-0.087402
-0.090820
0.065430
-0.021484
0.099609
-0.016113
0.076660
-0.024414
-0.057617
0.045410
-0.100586
0.033691
0.006348
-0.016602
-0.029785
0.019043
-0.072754
0.064941
-0.093262
0.096191
0.095703
-0.006836
-0.002930
-0.029297
-0.101563
-0.028809
-0.073730
-0.015137
-0.007324
-0.092285
-0.105469
0.102051
-0.091309
-0.001465
-0.097656
-0.097656
-0.023926
-0.040527
0.103516
0.022949
0.067871
0.107422
0.008301
0.034668
0.011230
0.092773
-0.081055
-0.003906
-0.057129
-0.072754
0.028809
-0.024902
0.101563
0.013184
0.043945
-0.081055
0.024902
0.003906
0.041016
0.021973
0.090332
0.067871
-0.048828
-0.052246
0.078613
-0.006348
-0.065430
0.097656
0.079102
-0.096680
-0.044922
0.066895
-0.019531
-0.042480
0.056641
-0.091309
0.101563
-0.089844
-0.086914
-0.077637
-0.018555
0.093262
0.034668
-0.005859
-0.039063
-0.092285
-0.074707
-0.067871
-0.022461
-0.076660
0.066895
-0.034180
-0.081055
-0.068359
0.066895
0.048340
0.057617
-0.053223
-0.026367
0.005859
-0.005859
-0.021973
-0.019043
0.089844
0.118164
-0.087891
0.087891
0.057617
0.044922
-0.102539
-0.073730
0.071289
0.040039
-0.072266
0.035156
0.081543
-0.020996
-0.063477
0.023438
0.000000
-0.071289
0.015137
0.053223
0.088867
0.110840
-0.089844
-0.065918
0.101074
-0.010254
0.038086
-0.012207
-0.037109
0.065430
-0.076172
-0.089355
-0.052734
0.013672
-0.022949
-0.026855
-0.056641
0.030762
-0.061035
0.023438
0.097656
-0.001953
0.014648
0.005859
-0.036621
-0.031250
0.094727
-0.002441
-0.031250
0.018066
0.086426
-0.014160
-0.077148
0.031738
-0.012695
-0.037598
-0.055176
-0.075684
-0.013672
-0.040039
-0.006348
-0.003418
-0.057129
0.034180
0.073242
0.041992
0.056641
-0.011230
0.109375
-0.094238
-0.042969
-0.058105
0.014160
0.045898
-0.012207
-0.042969
0.055176
-0.046875
-0.059082
-0.051758
0.062500
-0.071289
0.021973
0.060547
0.039551
-0.045410
0.023438
0.110352
0.071289
-0.090820
-0.082031
0.021973
-0.039063
0.025879
0.024902
0.056641
0.065430
0.089355
0.044922
0.021973
0.093750
-0.086426
-0.073242
0.054199
0.034180
-0.005859
0.035156
0.082520
-0.038086
-0.099121
-0.063965
0.094238
0.072754
0.005859
-0.061523
0.038574
0.020996
-0.043945
-0.004883
0.007324
0.057129
-0.014648
-0.079102
-0.020996
0.102539
-0.060547
-0.081055
0.102051
0.056641
-0.077637
0.064941
-0.084473
-0.006836
0.082520
-0.090332
-0.062988
0.069336
0.085449
0.106445
0.019043
0.037598
-0.017090
-0.086426
0.063477
-0.102051
-0.025391
-0.061523
0.091309
0.064453
-0.103027
-0.006348
0.050781
-0.087402
-0.065430
0.083496
-0.028320
0.083984
-0.057129
0.056152
-0.041016
0.036133
0.086914
0.038574
-0.007324
-0.021484
-0.016602
-0.079590
-0.027832
0.048828
0.014648
-0.008789
-0.056152
-0.074707
0.098145
0.047852
0.078125
-0.093750
-0.055664
-0.106445
-0.010742
-0.052246
0.096680
-0.016113
-0.095215
-0.019531
-0.003418
-0.088379
0.043945
-0.049805
0.030762
-0.085449
-0.051758
0.066406
0.104492
-0.063965
0.007324
-0.040527
0.105469
0.075684
0.089355
0.094727
-0.082520
0.098145
0.075195
-0.059082
-0.057129
0.041016
-0.000977
-0.005859
-0.008301
0.069336
0.008789
-0.093750
0.026855
0.069336
-0.027344
0.065430
0.034180
0.092773
0.007324
-0.015137
-0.059082
0.002441
-0.049316
-0.037598
-0.067871
-0.063965
0.041504
0.070313
-0.062500
-0.080078
-0.041016
-0.045898
-0.069336
-0.011719
0.076172
0.008301
-0.019043
0.088867
-0.090820
0.050781
0.011230
-0.047852
-0.042969
-0.066406
0.056152
0.032715
0.106934
0.050781
0.009277
0.081055
-0.007813
-0.067871
-0.041992
-0.048828
0.024902
-0.061035
0.100586
-0.006836
-0.097168
-0.092285
0.097168
0.058594
-0.014648
0.090332
-0.012695
-0.032715
-0.091797
0.033203
-0.089844
-0.033203
0.039551
0.105469
0.060547
0.020508
-0.020996
-0.007324
0.002930
0.072266
0.014648
-0.008789
0.092285
-0.070313
0.057129
0.002930
0.036621
-0.023926
-0.054688
-0.023926
0.082520
0.005371
-0.061035
0.062012
-0.029297
0.001953
-0.084961
0.082520
-0.073242
0.030762
-0.019043
0.088867
0.086914
-0.001953
-0.090820
-0.096680
0.058594
0.006836
-0.034668
0.060547
-0.081543
-0.017578
-0.098633
0.037598
0.087891
-0.012695
0.027832
-0.090332
-0.095215
-0.001953
-0.040039
-0.019043
-0.054688
-0.020020
-0.073242
0.031738
-0.048340
0.087402
-0.027344
0.113281
-0.079590
0.060547
-0.038086
0.059570
0.063477
0.096680
-0.087891
-0.009766
0.058594
0.076660
-0.023926
-0.064941
0.056641
-0.080078
0.038086
0.002930
0.052734
0.051270
0.065430
-0.088867
-0.066895
-0.016602
0.016113
-0.080566
0.060547
-0.100586
0.062012
-0.100586
0.029297
0.007813
0.006348
-0.020508
0.109375
-0.095703
-0.012207
0.037109
0.091309
-0.103027
0.051270
-0.075684
-0.041016
-0.085938
0.104004
-0.081055
-0.076660
0.001465
-0.057617
0.101563
0.055664
0.038574
-0.005371
-0.027344
-0.089355
0.053711
0.010742
0.063965
-0.003906
0.009766
-0.078125
0.065430
0.061035
0.100098
-0.073730
-0.057617
0.031738
-0.100586
0.052734
-0.000977
-0.086426
0.090332
0.069824
-0.025391
0.062012
-0.062988
-0.076660
-0.099609
-0.013672
0.101074
0.089844
0.000000
0.068359
0.045410
-0.015625
0.039063
0.090332
0.097656
0.023438
0.088867
0.107422
-0.032227
0.036621
-0.033203
0.094238
0.022949
0.027832
0.030762
0.089355
-0.016602
0.051270
0.075195
-0.093262
-0.106445
0.049805
0.028809
-0.035645
0.062500
0.057129
-0.049316
0.062988
-0.020508
0.075684
-0.060059
-0.029297
-0.011230
-0.081543
-0.078125
0.103516
0.000977
-0.056641
-0.063477
0.102051
0.072266
-0.099609
0.003906
0.052734
-0.057617
0.033203
-0.064453
-0.084961
-0.106934
0.130371
-0.058105
-0.105957
-0.064453
0.002930
0.016113
0.045898
0.034180
-0.035156
-0.082031
0.053711
-0.020020
-0.055176
0.043457
0.034180
-0.068848
-0.039551
0.095215
-0.020020
0.036133
0.061523
0.027344
0.076172
-0.073730
-0.013672
-0.083984
-0.092773
0.039063
-0.110840
0.044434
-0.027344
-0.002441
-0.109375
0.070801
-0.067383
-0.023926
0.005371
0.041504
-0.042480
-0.066895
-0.095703
0.036621
-0.063477
0.021484
0.077637
-0.015625
-0.056641
0.062012
-0.099121
-0.062500
-0.053223
-0.063965
-0.016113
-0.053223
-0.027832
-0.103027
0.009766
0.033691
-0.026367
-0.011230
-0.016113
-0.013184
0.074707
-0.019043
-0.041016
0.032715
0.013672
0.082520
-0.066895
-0.017578
0.074707
0.009277
0.024414
0.068848
0.078613
-0.070313
0.090332
0.002930
-0.047363
0.095215
-0.083496
0.078125
-0.065430
0.083496
0.020508
-0.006348
-0.096191
-0.040039
0.031738
0.081543
0.073242
0.019043
0.026367
0.085938
0.021973
0.076172
-0.027832
0.019043
0.069336
-0.004395
-0.035645
0.036133
-0.046875
0.096191
-0.009277
-0.069824
0.012207
0.070313
0.107910
0.095703
-0.046387
-0.069336
-0.026367
-0.107910
0.064941
0.074707
0.082520
-0.038574
-0.004395
0.059082
0.003906
0.031738
0.056152
0.048828
-0.045410
-0.036133
-0.047363
-0.028809
-0.001953
0.045410
-0.045898
0.066895
0.000977
-0.011719
0.066895
0.025391
-0.098633
-0.043457
0.083984
0.012695
0.067871
-0.075195
0.089844
0.006836
-0.020996
0.033691
-0.011719
0.043457
0.091797
0.048340
-0.076660
0.018066
0.034180
-0.035645
-0.034668
-0.093750
-0.062500
-0.053223
0.049805
-0.076660
0.073242
0.022461
0.037109
-0.033203
-0.103516
0.005371
-0.027832
0.025391
-0.037109
-0.052734
0.051758
-0.029297
-0.065918
0.103516
-0.037598
0.100586
-0.078613
0.048340
-0.019043
-0.018066
-0.008301
-0.080566
0.078613
0.021484
0.001465
0.083984
0.080566
-0.090820
-0.089355
0.048828
0.029785
-0.004883
0.058105
-0.014160
-0.006836
0.088379
-0.055664
0.086426
-0.014160
-0.018555
0.069336
-0.072266
0.004883
-0.097656
-0.076660
-0.078125
0.061035
-0.023926
-0.001953
0.037598
-0.055176
-0.060547
-0.061523
0.085449
-0.067383
0.080078
-0.012207
0.032715
0.068359
-0.096191
-0.082031
0.048828
0.038086
0.016602
0.089355
0.002441
0.009766
0.073242
0.012207
0.001465
-0.032715
0.058105
0.049316
0.108887
0.083496
0.003906
-0.055664
0.031738
0.063477
0.026367
0.005859
0.052734
-0.089355
0.092285
-0.046387
-0.068848
0.086426
-0.078125
-0.075195
-0.041504
-0.089844
0.079102
-0.062012
0.098145
0.046387
-0.042969
0.020508
-0.078613
-0.057129
-0.062500
0.004883
-0.030273
0.060547
-0.054199
-0.015137
0.033691
0.034668
-0.079590
0.071777
0.043457
-0.100586
0.059082
-0.025879
0.090820
-0.090820
-0.104004
0.102051
0.028809
-0.023438
0.089355
0.076660
-0.050293
-0.068848
-0.077637
-0.043945
0.079102
0.028809
0.090820
0.013184
-0.024902
-0.012695
0.087402
0.030273
0.074707
0.010254
-0.076660
-0.093262
-0.014160
-0.091309
-0.083008
0.076660
0.067871
0.009766
-0.051270
-0.025391
-0.069336
0.073730
0.084473
-0.016602
-0.083496
0.062012
0.074707
0.040039
0.020508
-0.008301
0.059082
-0.041992
-0.074707
0.028320
-0.060059
-0.096680
0.004883
0.034668
-0.025391
-0.066406
-0.095215
-0.056641
-0.098633
-0.044434
-0.079102
0.057617
-0.025879
0.077148
-0.104004
-0.019531
0.099121
-0.092285
0.051758
-0.063965
0.000000
0.020996
-0.089355
-0.085449
-0.006348
-0.024414
0.052734
-0.034668
0.006836
0.037598
0.045410
-0.036133
0.058594
-0.088379
0.010254
-0.033691
0.048828
0.007324
-0.099609
0.112793
-0.091309
0.017578
-0.004883
-0.048340
0.109375
-0.032715
0.047363
-0.111328
-0.037598
-0.084473
0.044434
-0.067871
0.046875
0.046875
-0.038086
0.106445
0.013672
0.083008
-0.101563
0.029785
-0.053223
0.023926
0.025391
0.113770
0.085938
0.022461
-0.064453
-0.054688
-0.022461
-0.074219
-0.037109
-0.062988
0.048340
0.100098
-0.030762
0.022461
0.117676
-0.071777
0.045410
-0.067871
0.046875
0.054688
-0.088867
0.001465
0.039063
-0.074219
0.092285
0.040527
-0.030762
-0.097168
-0.077637
-0.048828
-0.039063
0.069336
-0.043945
0.074219
-0.002441
0.100098
-0.011230
-0.075684
-0.012695
-0.097168
0.023926
0.060059
-0.044922
0.049805
0.108398
0.028320
-0.046875
-0.077148
-0.080566
-0.041992
-0.016602
0.036133
0.026855
0.010742
-0.062988
0.045410
-0.002441
-0.088379
0.028320
-0.001953
-0.033691
0.068848
-0.053223
-0.055176
-0.023438
0.057617
0.086426
-0.018555
-0.072266
0.030762
-0.002441
-0.047363
-0.046875
-0.088867
-0.108887
-0.088867
0.021973
0.058594
0.052734
0.063477
-0.021973
0.038086
-0.070313
0.027832
0.002441
0.021973
-0.004883
-0.066895
-0.002930
-0.023438
-0.044922
0.075195
0.074219
-0.098633
-0.034668
0.052734
0.085938
0.046875
-0.001465
0.027344
-0.014160
-0.093750
0.001465
0.086426
-0.078125
-0.086426
-0.039063
-0.088379
-0.032227
0.049805
0.017090
-0.079102
0.019531
-0.091797
-0.070313
-0.084961
0.026855
-0.061523
0.094238
0.070313
-0.092773
0.091797
0.098145
0.046875
-0.068848
-0.094727
0.023926
0.098633
-0.046387
-0.081543
0.078613
0.061035
-0.012207
0.098633
-0.028809
0.085938
0.025391
0.051758
-0.075684
0.076172
0.030273
0.072266
-0.073242
-0.017090
-0.067871
0.022949
-0.071777
-0.064941
-0.023926
-0.023438
0.008301
-0.048340
0.049805
0.031250
-0.104004
-0.046875
0.066895
0.029297
0.035156
0.055176
-0.107422
0.086914
0.058594
-0.020020
0.037109
-0.016602
-0.086426
-0.058105
-0.023438
-0.086426
-0.076660
-0.090332
-0.095215
-0.000977
0.013184
0.096680
0.021973
-0.006836
0.066406
-0.001953
-0.075684
0.105957
0.088379
-0.021484
0.069824
0.025391
0.084961
-0.031738
0.019043
-0.007813
0.017578
0.014648
0.095215
-0.042969
-0.037109
-0.004395
0.000000
0.051270
0.053711
-0.073242
0.079102
0.102539
0.070313
0.029297
0.030273
0.078125
-0.017578
0.064941
0.051270
-0.022461
-0.063965
0.067871
-0.053711
0.078125
0.043457
-0.099609
0.038086
-0.060547
0.101074
-0.086426
0.003418
0.083984
-0.036621
-0.079590
-0.001953
-0.094238
0.027344
0.011230
-0.052246
0.101563
-0.089844
-0.071289
0.082031
0.083496
-0.101563
-0.094238
0.071777
-0.061523
-0.065918
-0.049805
0.057129
0.098145
-0.017578
0.003418
0.066895
-0.015137
-0.109863
-0.103516
0.006836
-0.092285
0.057617
0.053223
-0.076172
0.025391
-0.065918
-0.081543
0.049805
0.005859
0.013672
0.051758
0.071289
-0.102539
0.025391
0.086426
-0.064941
-0.040039
-0.041504
0.070801
-0.037109
-0.000488
-0.015625
0.049316
-0.052734
-0.090820
0.099121
0.005371
0.070313
-0.091797
-0.058105
0.087402
0.014648
-0.084473
0.007324
0.031250
0.050781
0.075195
-0.069824
0.106445
0.084473
0.028320
0.053711
-0.015625
-0.037598
0.105469
0.008789
0.015137
0.054199
0.062988
-0.062012
0.078125
-0.096191
-0.026855
-0.014648
0.058594
0.034668
0.078613
-0.076660
-0.070801
0.033691
0.039063
-0.084473
-0.001953
0.043457
-0.038574
0.070801
-0.047363
-0.029297
0.009766
0.060059
0.011230
0.037109
0.050293
0.096680
0.104980
-0.018066
-0.042969
0.019531
0.096191
-0.005859
0.050781
0.056152
-0.093262
-0.041504
-0.083984
0.062988
-0.065918
0.065430
0.075684
0.094238
0.043457
0.077637
0.036133
-0.053711
0.007324
0.066895
0.007813
0.104492
0.044434
0.053223
-0.062988
0.030762
-0.049316
0.070801
0.060059
0.083496
-0.104980
-0.048340
-0.076660
0.070313
0.061035
-0.106934
-0.020508
-0.014648
-0.077637
0.074219
-0.076172
-0.091797
-0.079102
-0.027344
0.042480
0.096680
0.006348
-0.062500
-0.090820
-0.076172
-0.072266
0.097656
0.029785
0.019043
-0.046387
-0.018066
0.039063
0.078613
-0.036621
0.081543
0.028809
-0.086914
0.083008
0.075684
0.075195
0.018555
0.051270
-0.093750
-0.042969
0.017090
-0.015137
-0.098633
-0.006348
0.013672
-0.075195
0.095215
-0.116699
0.068359
-0.012695
0.103516
-0.017090
0.108887
0.093262
-0.004883
0.055176
0.109863
0.052246
-0.101074
-0.006348
0.051758
-0.109375
-0.067871
-0.058594
-0.075195
-0.087891
0.046875
-0.047852
-0.048340
-0.106445
-0.027344
-0.085449
0.002441
0.100098
0.001465
0.079102
0.000488
0.064453
0.020996
-0.107422
-0.015625
0.002930
-0.058594
-0.016602
-0.101074
-0.063965
-0.086426
0.086914
-0.001953
-0.010254
0.056641
0.111816
-0.035645
-0.107422
0.082520
-0.008789
-0.035156
0.069824
0.070313
-0.027832
0.036621
0.101563
-0.068848
0.066895
-0.103027
-0.017090
-0.068359
-0.012207
0.045898
-0.063477
-0.061523
0.089355
0.103027
0.037109
0.020996
-0.020020
-0.039551
-0.067383
0.113281
-0.051758
-0.115723
0.030273
0.093262
-0.065430
0.071289
0.073242
-0.086914
-0.021973
0.096191
0.062500
0.096680
-0.002441
-0.056641
0.049805
0.050781
-0.057129
-0.011230
-0.066895
-0.017578
-0.028320
0.071289
-0.005859
-0.104004
-0.048340
-0.055176
-0.008789
0.043945
-0.041504
0.040039
0.046387
0.033203
0.039063
0.065918
0.077148
0.042969
0.092773
-0.075684
0.006836
-0.015137
0.031738
0.081543
-0.099121
-0.052734
-0.037109
-0.096680
0.077148
0.081055
-0.006836
-0.052246
-0.036621
0.040527
-0.082031
0.034180
-0.044922
0.020020
0.039063
-0.017578
-0.079590
0.050293
0.088867
-0.002930
-0.000977
-0.045898
0.019531
0.008301
-0.042969
0.063477
0.012695
0.080078
-0.072266
0.077148
0.073242
-0.054688
-0.043945
-0.024414
0.053223
-0.107910
-0.080078
-0.064453
0.071289
-0.075684
-0.078613
0.015625
0.037598
0.026855
-0.052246
-0.044434
0.081055
-0.098145
-0.109863
0.027344
0.046875
-0.074219
-0.047852
0.048828
0.102539
-0.003418
-0.103516
-0.024414
0.039063
-0.085938
0.032715
0.106934
-0.069336
-0.058594
-0.050781
0.009277
0.105469
-0.083984
-0.020508
0.087891
0.017090
0.053223
0.032715
0.056152
-0.031250
0.107422
0.016113
-0.062012
-0.064453
-0.012207
0.064941
-0.030273
-0.103027
-0.072754
-0.079590
0.069336
0.001953
-0.005859
-0.012207
-0.047363
0.094727
0.057617
0.092285
0.081055
0.095703
0.052246
0.092773
-0.076172
0.061523
-0.001465
-0.020020
0.070313
-0.011230
-0.069336
-0.070313
0.028320
0.014160
0.099121
0.083496
0.097168
0.012207
0.052246
-0.104004
0.099609
0.083008
-0.099609
-0.070801
-0.054199
-0.040527
0.037109
-0.013672
-0.044434
0.058105
-0.073730
-0.005859
0.040527
-0.045898
-0.020508
0.053711
-0.066406
-0.104492
-0.041016
0.083984
-0.091797
0.069336
-0.076172
0.080566
0.006348
-0.092773
0.073730
-0.076660
0.009277
-0.067383
-0.081055
-0.018555
-0.049805
-0.005371
-0.099609
0.095703
0.011230
0.028320
-0.101563
-0.032715
-0.015137
0.109863
-0.062012
0.038086
-0.038574
-0.003418
-0.058594
0.002441
-0.075684
0.011230
-0.064941
0.006836
-0.058105
0.028809
0.060059
-0.066406
0.094727
0.102051
-0.104492
0.074219
0.078125
-0.042969
-0.081055
0.106445
-0.082031
-0.030273
-0.042480
0.062012
-0.016113
0.116211
-0.035645
-0.059082
0.047852
-0.047852
-0.089844
-0.105469
0.048340
-0.011230
-0.053223
-0.058594
0.001465
-0.051758
0.028809
-0.037109
-0.054199
0.074707
0.076172
-0.019531
0.014160
-0.059570
0.003418
-0.044922
-0.065918
0.025879
0.068848
0.072266
0.108887
-0.051758
0.093750
0.087402
-0.029297
-0.063477
-0.099121
-0.102539
-0.091309
-0.070313
-0.050781
-0.057617
-0.104492
-0.084473
0.037109
0.009277
-0.026367
-0.080566
0.086426
-0.093262
0.072754
-0.026855
-0.058105
0.083984
-0.014160
-0.104980
0.071777
-0.025391
-0.111328
0.083984
-0.016113
0.020020
0.030273
0.076660
-0.069336
0.058105
0.028809
0.027344
0.019043
-0.049805
-0.024902
-0.015625
-0.029785
-0.014648
-0.097168
0.064453
0.071289
-0.079590
0.074707
-0.034180
-0.084961
-0.008789
0.016602
0.034668
-0.050781
0.095703
0.037598
0.046875
0.021484
-0.072266
-0.087402
-0.044434
-0.024902
0.030762
-0.117676
0.090332
0.000000
0.026855
-0.004883
0.094238
0.044434
0.096680
-0.082520
-0.100098
-0.002930
0.006348
0.071777
-0.023438
0.079590
0.092773
0.083984
-0.096191
0.015137
-0.019043
-0.000977
-0.030273
0.069336
0.036621
0.106445
0.067383
-0.113281
-0.054688
0.073242
0.077148
0.085449
-0.050781
-0.120605
-0.047852
0.005859
-0.081543
-0.014160
0.064941
0.061523
-0.091309
-0.103516
-0.014648
0.029297
-0.034668
-0.068359
0.037109
0.076172
0.000000
0.080566
0.043945
-0.079590
0.091309
0.037598
-0.017090
0.008301
-0.092773
0.095215
-0.108398
0.029297
0.117676
-0.057617
-0.070801
-0.098633
-0.001465
-0.089355
0.055664
0.095703
0.095703
-0.094727
0.077637
-0.031250
-0.034668
-0.092285
0.083008
-0.028809
-0.071289
-0.072754
-0.077148
-0.066406
0.039063
0.009766
-0.062012
0.047363
0.007324
-0.024414
-0.038574
-0.089355
0.076660
-0.008789
0.031738
0.052734
0.027344
0.002930
-0.087891
0.085938
0.043457
0.059570
0.069824
-0.107422
0.013184
0.047363
0.035645
0.071777
0.070801
-0.106934
-0.019531
-0.039551
-0.024414
-0.072754
-0.074707
0.093750
0.064453
-0.039063
0.043945
0.090820
0.071777
0.040527
0.061035
-0.039063
0.001465
-0.004395
-0.103516
-0.112305
-0.073242
0.096191
0.006836
0.102539
-0.084961
0.002930
-0.088867
0.050781
-0.027832
-0.086914
0.070801
0.034180
-0.044434
0.023438
-0.065918
-0.015625
0.131348
0.125000
-0.112793
0.071289
0.095703
-0.009766
0.020508
-0.014648
-0.088867
-0.101074
0.086426
-0.009277
-0.073242
0.040039
0.041992
0.033691
-0.084473
-0.067871
-0.073730
-0.088867
-0.006348
-0.090820
0.006348
-0.067383
0.083496
0.048828
0.020508
0.083496
-0.010254
0.044434
-0.077637
-0.005371
0.099609
-0.093750
-0.104004
0.051270
-0.045410
0.000977
0.079102
-0.033691
-0.072754
0.014160
-0.015625
0.042480
-0.046875
-0.005371
0.037598
-0.032227
-0.029785
0.108887
0.051758
0.120605
-0.061035
0.028320
-0.058105
0.011719
0.056152
0.051270
-0.014160
0.009277
0.062012
-0.057129
0.001465
0.064941
0.042480
0.043457
-0.012207
0.045410
-0.079590
-0.091797
0.005859
-0.011230
-0.052734
-0.086914
-0.007813
0.008301
0.060059
0.000977
-0.020996
0.000000
-0.024902
-0.065918
0.042480
0.014160
0.065918
0.028320
0.080566
0.009766
0.079590
-0.054199
0.043457
0.008789
-0.045898
-0.037109
-0.007813
-0.097168
-0.105957
-0.071777
0.032715
-0.017090
0.024414
0.041992
0.076172
-0.047852
-0.101074
0.006348
-0.078613
0.072754
0.044922
-0.097168
-0.051270
-0.000977
-0.065430
0.084473
-0.027832
0.023926
-0.105469
0.092773
0.002930
-0.064453
0.104004
0.047363
0.005859
0.060059
-0.026855
0.033691
-0.043457
0.050293
0.081543
0.013184
-0.083008
0.024414
0.039551
-0.090820
-0.091797
-0.004883
0.074219
-0.045410
-0.081055
-0.074219
-0.025879
-0.030762
0.021973
-0.034668
0.012695
-0.068359
0.029785
-0.081055
0.039551
0.044922
-0.020996
0.067383
0.041504
0.067871
-0.054688
-0.040039
0.096191
0.098145
0.057129
0.007813
0.067383
0.014648
0.016113
-0.058105
0.023438
-0.079590
0.093750
-0.066895
0.001465
0.051758
0.077637
0.092285
-0.033203
0.091309
-0.093262
0.084473
0.052246
-0.051270
-0.029297
0.025391
-0.043457
0.031250
-0.102051
0.057617
0.064453
0.057617
-0.106934
0.069336
-0.104492
-0.094238
-0.045898
-0.026367
0.001953
0.106445
0.105957
0.071289
0.009766
0.041992
-0.082031
-0.061035
0.075684
-0.105469
-0.086914
-0.064941
-0.061523
-0.045410
-0.058594
-0.040527
0.019531
0.023438
0.097656
0.062988
0.057617
0.067383
-0.064453
0.104980
0.026367
0.078125
0.049316
-0.022949
0.041504
0.103516
-0.092773
-0.033203
-0.061523
-0.088379
0.102051
-0.030762
0.083008
-0.073242
-0.000488
0.001953
-0.059082
0.084473
-0.080566
-0.027344
-0.099609
0.101563
-0.096680
-0.002441
0.020508
0.013672
-0.062500
0.044922
0.100586
0.001953
-0.038086
-0.058594
0.102539
-0.003906
0.088379
-0.045898
0.023926
0.098145
-0.083496
-0.022461
0.062988
-0.065430
-0.028320
0.057617
-0.080566
0.020508
0.012695
0.090820
-0.030762
0.059082
0.063965
0.080566
-0.077637
-0.068359
-0.006348
0.106934
0.080566
0.041016
0.099121
-0.094727
-0.043457
0.043457
-0.086426
-0.023438
-0.040527
0.085938
0.072754
0.062012
-0.099609
-0.011719
-0.033203
-0.035156
-0.016113
0.065430
0.009766
-0.058594
-0.056152
0.053223
-0.027832
0.080566
-0.069336
-0.103027
0.042480
-0.068848
0.021484
0.083496
-0.061035
-0.018555
0.101074
-0.077637
-0.002441
0.084473
0.101074
0.029785
0.031738
-0.057129
0.085449
-0.036133
-0.097656
-0.095215
0.104980
0.063477
0.057617
-0.044922
0.066406
0.043457
-0.006836
0.119629
0.008789
-0.101074
0.023926
0.070801
-0.094727
0.096680
-0.036133
-0.061523
0.031738
-0.081055
0.037598
0.053711
0.012695
-0.053223
0.086426
-0.076660
-0.103516
0.061035
0.007813
0.012695
-0.041504
-0.049805
-0.094727
-0.023926
-0.000488
-0.055664
0.106934
-0.113281
-0.101563
0.007813
0.031738
0.071289
0.051270
-0.011719
-0.067383
0.013184
0.067383
0.089355
-0.044434
0.040527
0.037109
0.021973
-0.047852
-0.003906
-0.093262
0.101563
0.113281
-0.021484
0.034668
0.006836
0.111816
0.088867
0.106445
0.050293
-0.097168
0.094727
-0.048828
-0.074707
-0.022949
0.005371
-0.071777
-0.037109
-0.016113
-0.067383
-0.061035
-0.084961
0.084473
-0.042969
0.052734
0.047363
0.062500
-0.018555
-0.060059
-0.014648
0.102539
0.065430
-0.015625
-0.034180
-0.099609
-0.006836
-0.051758
-0.094238
0.062500
0.044434
0.034180
0.018066
0.056152
-0.055664
-0.079102
0.070313
-0.002930
0.096680
-0.030762
0.058105
0.076660
0.018555
-0.030762
0.052246
-0.039063
0.068848
0.002930
-0.091309
-0.037598
0.017090
0.026367
-0.001465
-0.089355
0.070801
0.078125
0.059082
-0.023926
-0.068359
-0.052734
0.069336
0.017578
0.015137
0.011230
0.047852
-0.031738
0.063965
-0.018066
0.000000
-0.052246
0.065430
0.046875
0.039551
0.069336
0.097656
0.106934
0.111328
0.055664
-0.001465
-0.032227
0.007324
0.070801
-0.032715
0.056152
0.069336
-0.072754
-0.031738
-0.025879
-0.023438
0.082031
0.076172
0.064453
-0.050781
-0.059570
-0.065430
-0.033203
0.041504
-0.085938
0.011230
-0.109863
0.083008
-0.099609
0.022461
0.115234
0.007813
0.024414
0.049316
-0.043457
0.018555
0.061523
-0.029785
-0.076172
-0.101074
-0.090820
-0.016113
-0.016113
0.092773
0.042969
0.076172
0.093262
0.108398
0.057129
-0.064453
-0.022949
0.015137
-0.087402
0.022461
0.090820
0.115723
0.043457
0.070313
-0.038574
-0.050293
0.083496
-0.045898
-0.034668
-0.049316
-0.016602
-0.123535
0.073730
0.034180
-0.087402
-0.055664
0.085449
-0.028809
-0.101563
0.061035
0.091797
0.098145
-0.041992
0.005371
0.094238
0.012207
-0.011719
-0.042969
-0.003906
0.012695
-0.051270
-0.066406
0.082031
-0.054199
0.054199
0.018555
-0.099609
0.065918
-0.006348
0.065918
0.060059
0.017578
0.084473
0.000488
-0.094727
0.041992
0.013184
-0.045898
0.006836
-0.063477
-0.050293
-0.028809
-0.032715
-0.047363
0.063477
0.011719
0.077637
0.026855
0.044922
-0.008789
-0.086914
0.017090
-0.046875
0.070313
-0.070801
-0.015137
0.080566
-0.060547
0.014160
-0.052734
-0.003418
0.101074
-0.012695
0.042969
0.017090
-0.040039
0.014648
0.111816
0.076172
-0.046387
-0.063965
0.086914
0.053711
0.048340
-0.083008
0.047852
-0.059570
0.062012
-0.031250
-0.087891
-0.082031
0.039551
0.020020
-0.014160
0.096680
-0.006836
-0.076660
-0.067383
0.047363
0.091797
0.028809
0.082031
-0.094727
-0.033203
-0.000977
0.009766
-0.052246
-0.035156
0.139648
0.034668
-0.048828
-0.033203
-0.070801
0.042480
-0.025391
-0.087402
0.086914
-0.008301
0.067871
0.105957
0.009766
0.053711
0.011230
0.013672
0.033691
-0.066406
-0.104004
0.007324
-0.012695
-0.021484
0.029785
-0.017090
-0.031738
0.065430
-0.094238
0.001465
0.043945
-0.036621
-0.027832
-0.066406
-0.042969
0.080078
-0.009277
0.025391
0.082520
-0.086914
0.007813
-0.051758
0.014160
-0.089844
-0.012207
0.042480
0.032227
-0.088867
0.012207
0.077637
0.051758
-0.061523
-0.063965
-0.097656
0.013672
0.105469
0.095703
-0.015137
-0.060547
-0.032715
-0.079102
-0.016602
-0.005859
0.103027
-0.012207
0.072266
-0.088867
-0.014160
-0.028809
-0.060547
0.014160
-0.032227
-0.017578
-0.060059
0.054199
-0.062500
0.053223
-0.092285
-0.056152
0.072754
-0.043457
-0.013184
0.042969
-0.005859
-0.016602
-0.038574
0.023926
-0.037598
0.019043
0.084473
-0.087402
0.041504
-0.016602
-0.088867
0.061523
-0.066406
0.093262
0.085938
-0.003906
0.021484
-0.081543
-0.058594
0.016602
0.069824
0.100586
0.060547
-0.000488
0.034668
0.127930
-0.009277
0.037109
0.055664
0.076660
-0.104004
-0.057129
-0.033203
0.011719
0.050293
0.056641
0.042480
-0.099609
0.066406
0.082031
-0.029297
0.037598
0.064941
-0.070801
0.028320
0.014648
0.091309
0.000977
0.097168
-0.046875
0.021973
0.063965
-0.068848
-0.007324
0.013184
0.089355
0.000488
0.039063
-0.111816
-0.005859
0.066406
0.007324
0.001465
-0.041992
0.059570
-0.070313
-0.031738
-0.012207
-0.096191
-0.002930
0.019531
-0.058594
-0.048828
0.105469
0.092773
0.005371
0.044434
-0.085449
-0.070801
0.111328
0.095215
0.045898
-0.011230
-0.050293
0.002441
-0.080566
-0.042480
-0.083496
-0.061523
0.045410
0.087891
-0.017090
-0.055664
-0.037598
0.065918
0.028809
0.081055
0.038574
-0.036133
0.039063
-0.050781
0.022949
0.075195
0.076172
-0.020020
0.044434
-0.095703
0.015625
0.053223
0.073730
0.023926
-0.046875
-0.039063
0.051270
-0.066895
-0.052734
0.017578
-0.035645
0.032227
0.007324
0.085938
0.020508
-0.059082
-0.102539
0.060059
0.097656
0.020508
0.046387
0.012695
0.027344
-0.101563
0.023438
0.064453
0.059082
-0.042969
-0.086426
0.045410
-0.048340
-0.106934
-0.024902
-0.013184
0.041992
-0.104980
-0.039063
-0.050781
0.040039
0.103516
-0.004395
-0.005859
-0.061035
-0.070801
-0.046387
0.006348
0.066406
0.058105
-0.079102
-0.013184
0.070801
-0.066406
-0.030273
0.097168
0.010254
0.041504
-0.078613
-0.035645
-0.094238
0.032227
-0.033691
0.059570
0.014160
0.027344
0.079102
0.084473
0.054688
0.064453
0.073242
0.013672
0.010742
-0.092773
0.046875
-0.002441
0.060059
0.081543
0.054199
-0.053711
0.093750
0.071289
0.075684
0.027344
-0.044922
0.017578
0.034668
0.033203
-0.075684
0.026367
-0.031738
-0.020996
-0.062988
-0.030273
0.072266
0.087402
0.090820
0.011719
-0.098145
0.032715
0.051270
-0.071289
0.001953
-0.063477
-0.102051
0.091309
-0.075195
0.014160
-0.002930
-0.099121
-0.038574
-0.063965
-0.022949
0.046875
0.013672
0.066895
-0.084473
0.056152
0.027344
0.045410
0.094727
0.102539
-0.086914
0.045410
-0.022461
-0.071777
0.104004
0.017090
0.010254
0.032715
0.017090
-0.084961
-0.045898
-0.098145
-0.015625
0.106934
-0.057129
-0.001953
0.052734
-0.109375
0.047852
-0.086914
-0.045410
-0.059082
-0.104980
-0.094238
0.030273
-0.019531
0.064941
0.050781
-0.017578
0.018066
0.074219
-0.104492
-0.013184
-0.047852
0.034180
-0.004395
0.076660
0.083984
0.002930
-0.063965
0.058594
-0.061035
-0.061035
-0.034180
0.031738
0.114258
-0.065430
0.073730
0.105957
-0.086426
-0.016113
-0.111816
0.026855
-0.117676
-0.016602
0.091309
-0.055176
-0.091797
-0.018066
-0.052734
-0.007813
0.017578
0.118652
-0.074219
-0.086426
0.019043
0.095703
0.056641
-0.108398
-0.029785
-0.019531
0.008301
0.095215
-0.078125
-0.037109
-0.023438
-0.075195
-0.052734
0.102051
0.083984
-0.071777
0.086914
0.014160
-0.064453
0.048828
0.012695
0.086914
0.119141
-0.062500
0.064941
-0.076660
0.060547
-0.012207
0.003906
0.072266
-0.084961
0.093262
0.102051
0.084961
0.041992
0.012207
-0.052734
0.085938
-0.066895
0.009766
0.091797
-0.005371
0.032227
-0.041504
0.025879
-0.075195
-0.061523
0.098633
-0.065918
0.035156
0.069336
-0.029297
0.110352
-0.036621
-0.010254
0.074219
-0.099609
-0.016602
-0.050293
0.044434
-0.037109
0.004395
-0.038086
0.119629
-0.068359
0.093262
-0.096191
0.069824
-0.011719
-0.052734
-0.082031
-0.000977
0.089844
0.038574
-0.009277
0.080078
0.009277
0.062988
0.010742
0.102539
0.052734
-0.000488
0.055664
0.070801
-0.075684
-0.031250
0.056641
0.053711
0.007813
0.076172
0.063965
0.065430
0.036133
0.041504
0.101074
-0.062012
0.048340
-0.059570
-0.094238
0.043945
-0.074219
-0.010254
-0.073730
-0.075684
0.031250
-0.082520
-0.020508
-0.042969
0.095703
0.079102
0.085938
0.041016
-0.088379
-0.091309
0.016113
0.018555
-0.012207
0.002441
0.004395
0.017578
-0.082031
0.005859
-0.032715
0.105469
0.063965
-0.088867
0.063477
0.020020
0.057129
0.122070
-0.090332
-0.069824
0.006348
0.028809
0.024902
0.031738
0.080566
-0.035645
-0.025879
-0.061523
0.092285
-0.075684
0.071289
-0.062012
0.072266
0.019043
0.003906
-0.077148
-0.054199
-0.069824
0.025879
0.039063
0.060059
-0.065918
-0.093750
-0.085938
-0.002441
0.044434
-0.026367
-0.018555
-0.066895
-0.005859
-0.099609
0.106445
0.021484
-0.025879
0.065918
-0.080566
0.092285
0.127441
0.081543
-0.007324
-0.076660
-0.020996
0.008789
0.073730
0.051758
0.094238
-0.005371
0.021973
-0.049805
-0.070313
0.059570
0.032227
0.055176
0.082031
0.084961
-0.098633
-0.012207
-0.006836
-0.074707
0.110352
-0.020508
-0.059570
0.049316
0.063477
-0.046875
0.002441
0.044922
0.088379
0.047852
0.052734
0.083008
0.070801
-0.044922
0.080078
-0.051270
0.066895
0.008301
-0.042480
-0.105957
-0.064941
0.032227
0.066895
0.100586
-0.093262
0.018555
0.033203
0.057129
0.062500
-0.027344
0.068848
-0.005371
-0.057617
0.062500
0.002930
0.001953
0.060059
0.047363
-0.018555
-0.057617
0.035645
-0.070313
0.088379
0.073730
0.018066
-0.021973
-0.064941
0.094727
0.098145
0.038574
0.010254
-0.007813
-0.064453
-0.022949
0.005371
0.077148
-0.007324
-0.085938
0.094727
-0.071289
-0.008789
0.067383
0.039551
-0.026855
0.027344
-0.099609
0.097656
-0.014160
0.042969
-0.063477
-0.034180
-0.030762
-0.043945
-0.089355
-0.003418
-0.048340
0.046875
0.017090
0.000000
0.075684
0.065430
-0.001465
0.060547
0.041016
-0.016113
0.076172
-0.037598
-0.067383
-0.093262
-0.047363
0.071777
-0.050781
-0.065430
-0.017090
-0.048828
0.019043
0.002930
-0.081543
-0.090332
0.086426
-0.036621
-0.055664
-0.030762
-0.001465
-0.073242
0.101074
-0.037598
0.042480
-0.003418
-0.085449
-0.046387
0.046387
-0.105957
0.111816
0.056641
0.006836
-0.035156
0.074219
-0.085938
0.018066
-0.074219
-0.007813
-0.025879
-0.075684
-0.045898
0.121582
0.088867
-0.010254
-0.075684
-0.021484
-0.086426
0.105957
0.002930
0.054688
-0.043457
-0.026855
0.037109
-0.016113
0.016602
0.009277
0.024414
-0.009766
-0.091309
0.083496
0.012695
-0.017090
0.079590
-0.094727
0.013672
0.086914
0.096680
-0.039551
-0.063477
-0.038574
-0.067383
0.047852
0.108887
-0.071777
-0.038086
0.059082
-0.053711
0.036621
-0.004883
0.050781
-0.088867
-0.041992
-0.102539
-0.044434
-0.096680
0.029297
-0.070313
0.014648
-0.031738
0.015625
0.033691
0.003906
0.034180
-0.008301
0.100586
0.100098
0.095215
-0.075684
-0.025879
-0.044922
-0.044922
-0.025391
-0.088379
-0.077637
0.034180
-0.103027
0.100586
0.039063
-0.066406
-0.057129
0.111328
-0.068359
-0.038574
0.006348
0.037109
0.018555
0.096191
-0.069336
-0.101074
0.039551
0.058105
0.071289
-0.044922
0.091797
0.032715
0.049316
0.040039
0.053223
0.086426
-0.012207
0.066895
0.064453
-0.071289
0.013184
0.057617
0.038086
-0.104492
-0.055176
0.003906
0.105469
0.048340
-0.007813
0.003418
0.095215
-0.076172
-0.008789
-0.049316
-0.010254
0.084961
0.074219
-0.069824
-0.077148
-0.027832
0.009766
0.034180
0.080078
-0.003418
0.018066
0.036133
-0.113281
0.058105
-0.080566
0.077148
0.048828
0.054688
-0.089355
-0.087402
-0.104980
-0.024902
0.096191
0.035645
-0.033691
-0.042480
0.002930
-0.046387
-0.077637
-0.062500
-0.100098
0.028809
0.081543
-0.088379
-0.030762
-0.024414
0.106445
-0.062988
0.067871
-0.019043
-0.093262
-0.067871
0.093750
0.046875
0.060059
0.056152
0.052734
-0.092285
-0.005859
-0.039551
0.012207
-0.081543
0.075684
-0.065430
-0.084473
-0.041016
0.061523
0.009766
0.102539
0.113770
-0.088867
0.042969
-0.081055
-0.019531
0.029297
-0.020508
0.025879
0.095215
-0.070313
0.000000
-0.057129
0.098145
0.058594
-0.061035
0.035156
0.038086
-0.107910
-0.031738
-0.047363
-0.062012
0.017578
0.053223
0.069336
-0.011230
0.081055
0.014160
-0.103516
0.076172
-0.105957
-0.085449
-0.023438
-0.065430
-0.052246
-0.099121
-0.076660
-0.083496
0.011719
-0.070801
0.031738
0.076660
0.097656
0.108887
0.040527
-0.096680
0.001953
-0.032715
-0.076660
0.087402
-0.090332
0.064941
0.061035
0.104980
-0.036133
-0.029785
0.049805
-0.052734
-0.042969
-0.034180
-0.070801
0.106934
0.080078
0.082520
-0.115234
0.072266
-0.050781
-0.014648
0.009766
0.013184
-0.099609
0.005859
0.013672
0.091309
-0.022949
0.018066
0.054688
-0.055176
-0.077148
-0.013184
0.047363
-0.053223
0.064941
-0.023438
-0.032227
-0.101074
0.021484
0.073242
-0.003906
0.033203
0.033203
-0.024414
0.010742
0.050293
-0.015625
0.070801
-0.040527
0.021973
-0.067871
0.095215
-0.044922
0.083496
0.046387
-0.021973
-0.040527
0.009766
-0.028320
-0.090332
0.041016
0.061523
-0.064453
-0.090820
-0.085938
-0.059570
-0.051758
-0.097656
0.070313
0.095215
0.010254
-0.058594
0.075195
-0.072266
0.007813
-0.088379
0.038086
0.045898
0.051758
0.104980
-0.043457
0.055176
0.075195
0.104004
-0.064941
-0.067871
0.017090
0.062500
-0.058105
-0.017090
0.060059
-0.026367
-0.036133
-0.020020
-0.029785
-0.050293
-0.062500
-0.090332
-0.044922
0.074219
0.031738
-0.008301
-0.021973
0.031250
-0.079590
-0.090820
-0.085938
0.050781
0.060547
0.050293
0.069824
0.049805
-0.089355
0.070313
0.062988
-0.115723
0.069336
-0.026367
0.024902
-0.098145
-0.030273
-0.019531
0.101563
0.053711
0.024902
0.090820
0.038086
-0.059570
-0.087402
0.027344
0.094238
0.004883
0.020508
0.088379
0.012207
0.062500
-0.013672
0.069336
-0.022461
-0.020508
-0.088379
-0.046387
0.090332
0.062988
-0.049316
0.070801
0.021484
-0.005859
0.095703
0.084961
-0.007324
-0.047363
-0.001465
0.078125
-0.102051
-0.026855
0.058594
-0.031250
-0.041992
0.044434
-0.050781
-0.013184
-0.041016
-0.110352
-0.048828
-0.083008
0.043945
-0.062988
0.082520
-0.005371
-0.019043
0.038086
0.071777
0.072266
0.057617
-0.041992
0.028809
0.111328
0.066406
-0.009277
0.079590
0.004395
0.034668
0.080078
-0.019531
0.096680
-0.062988
-0.041504
-0.063477
-0.069336
0.102051
-0.075684
-0.096191
-0.090820
-0.023438
-0.028320
-0.093262
0.055176
-0.051758
-0.104980
0.015137
0.093750
-0.028320
0.041504
-0.040039
0.030273
0.078125
0.075195
0.065430
-0.100586
0.002441
0.092773
-0.013672
0.041992
-0.078125
-0.044434
-0.001465
0.086426
-0.016602
-0.113770
-0.070313
0.000977
0.081055
-0.018066
-0.023926
0.028320
-0.046387
0.076660
-0.013184
0.020996
0.007813
-0.088867
-0.100098
-0.067871
-0.098145
-0.028320
-0.011719
-0.076660
0.047363
-0.003418
-0.075684
-0.020996
-0.064941
-0.008789
-0.101563
-0.025879
0.059570
0.005859
0.067871
0.091797
0.062988
-0.033203
-0.106445
-0.076172
-0.050781
0.044922
0.094727
0.087402
0.015625
-0.073242
-0.023926
0.073242
0.065918
0.039551
0.058594
-0.064941
0.031738
0.083496
0.032227
0.060059
0.065918
-0.045898
-0.038574
0.091309
0.090820
-0.019043
0.096680
-0.041504
0.066406
0.046875
0.089844
0.062012
-0.079102
0.000000
0.001953
-0.000488
0.060547
0.048828
-0.027832
0.098633
-0.083496
-0.034668
0.038086
0.046387
0.034668
0.032227
0.000488
0.040039
0.073730
-0.031738
-0.065430
0.117676
-0.068848
-0.082031
-0.041504
0.019531
-0.044922
0.003418
-0.105469
-0.035645
0.010742
0.038086
-0.019531
0.125000
0.046875
-0.068359
-0.002441
0.001465
0.077148
0.090332
0.098145
-0.076660
0.006836
-0.006836
0.012207
0.094238
0.010742
0.104004
-0.119629
-0.096680
0.004395
0.031250
-0.047363
-0.048828
0.144531
0.018555
0.047852
0.005859
0.019531
-0.003906
-0.042969
-0.062500
-0.027344
-0.030273
0.047852
0.028320
-0.052734
0.005371
-0.038086
0.018555
0.063477
-0.015625
0.009766
0.034668
0.002930
0.023926
-0.045898
0.111816
-0.083984
0.082031
0.062988
-0.038086
-0.093262
-0.042969
0.005371
0.085938
0.066406
-0.011719
-0.060059
0.055176
-0.017578
0.085449
0.086426
0.048828
-0.052734
0.125488
-0.065918
-0.053223
0.020996
-0.012207
-0.026855
-0.045898
-0.055176
0.086426
0.078125
-0.089355
-0.037598
-0.098633
-0.053223
-0.113281
0.082520
-0.029297
-0.006836
0.121094
-0.077148
0.070801
0.014648
0.037598
-0.024902
0.080078
0.038574
-0.049316
0.080078
-0.058105
-0.037598
-0.014160
-0.071777
0.042480
0.063965
0.045410
-0.107422
-0.077148
0.041016
0.001465
-0.011719
-0.059570
-0.087891
0.096191
0.058105
-0.064453
-0.028809
-0.013184
0.085449
-0.083008
0.020508
-0.076660
-0.018066
-0.065430
0.048340
-0.040039
0.027832
-0.037598
-0.095215
-0.048828
-0.014648
0.004395
-0.002930
-0.024902
0.085938
0.058105
-0.054199
0.105469
-0.014160
0.092773
-0.089355
-0.068359
-0.034668
0.059082
-0.087891
0.083496
-0.088379
-0.001953
-0.098145
-0.090820
-0.092285
0.029785
0.070801
0.009277
0.006348
-0.015137
0.097168
-0.012207
-0.070801
0.062988
-0.090820
-0.087402
0.036621
-0.049316
0.099121
0.068848
-0.053223
0.059570
0.020020
-0.056641
-0.047363
0.016602
-0.093262
0.017578
0.038086
-0.065918
-0.062012
0.069336
-0.070801
-0.058105
0.089355
0.036133
-0.106934
0.029785
-0.019043
-0.063965
0.001465
-0.019043
0.081543
-0.029297
0.037109
-0.012695
-0.090332
0.055664
0.053223
0.094238
0.081055
0.019043
0.000977
-0.066406
-0.051758
-0.003906
0.071777
0.013672
-0.010742
0.060059
-0.053223
-0.037109
-0.055176
0.068848
-0.010254
-0.024902
-0.106445
0.087891
0.029785
0.028809
-0.050293
-0.052246
0.024414
-0.053223
0.000488
0.017578
0.049316
0.102539
-0.097656
-0.048828
-0.027344
-0.023926
0.035645
0.050293
0.074707
0.011719
0.065430
0.024902
-0.007813
0.064453
0.000977
0.067871
-0.042480
0.081543
-0.039063
0.017090
-0.102051
0.060059
0.041504
-0.022461
0.001953
0.084961
0.073242
0.094238
0.035156
0.041016
-0.029785
0.073242
-0.021484
0.100586
-0.032227
0.000488
0.019531
0.030762
0.103516
0.067871
-0.053223
-0.016602
0.098145
0.064453
0.062012
0.071289
0.064941
-0.080078
0.078125
0.069336
0.060547
-0.043457
0.033691
-0.038086
-0.044434
0.071777
0.052734
0.104980
-0.050293
-0.008789
0.068848
0.081543
-0.066406
0.085449
-0.010254
0.080078
-0.000977
-0.079102
0.085449
-0.037598
-0.107910
0.055664
-0.097168
-0.064941
-0.090820
0.062012
-0.091797
-0.011230
0.025391
-0.050293
-0.008301
-0.037598
0.032715
-0.088867
-0.021484
-0.048828
0.081055
-0.041504
0.065918
0.074219
0.001465
-0.088867
0.003418
-0.095215
0.094727
-0.097168
0.008301
-0.057617
0.094238
-0.105469
0.072754
0.045410
0.103516
0.094238
0.099609
0.091309
-0.080078
0.097168
0.046875
-0.032715
-0.090820
-0.100586
0.026367
-0.041504
-0.070313
0.086426
0.117188
-0.065918
0.028809
-0.006836
0.069824
0.025391
0.091309
-0.099121
-0.083008
-0.046387
0.098633
-0.005859
0.076660
0.094727
-0.084961
0.012695
-0.068359
0.003906
0.008789
0.043457
0.006348
-0.024414
-0.021973
0.005859
0.072754
0.097656
-0.043457
-0.034180
0.009766
-0.059082
-0.052246
0.011719
0.078613
0.053223
0.104004
0.036621
-0.079102
0.039551
0.011719
0.035156
-0.009766
0.086426
0.117676
0.096191
0.056152
-0.118164
-0.090820
0.069336
0.063477
0.038574
0.018066
-0.093262
0.011230
-0.088867
-0.105469
0.084473
0.062988
0.002441
0.061035
-0.107422
0.092285
0.006836
-0.013672
-0.081055
0.076172
-0.075195
0.073242
0.092285
-0.085938
0.059570
0.030273
-0.026367
0.083496
-0.061523
-0.094727
-0.068359
0.051758
-0.007324
0.057129
-0.010254
-0.098633
-0.059570
-0.029785
-0.046875
-0.070801
-0.091797
-0.048828
0.053223
0.106445
-0.088867
0.090332
0.037598
-0.088379
0.021484
0.007324
-0.000488
-0.052734
0.060547
-0.057617
-0.097656
0.024414
-0.035156
-0.010254
0.102539
0.086426
0.083496
0.092773
0.010254
0.103027
0.092285
0.082520
-0.032715
-0.036621
-0.029785
0.048828
0.115723
-0.052246
-0.010742
0.075684
0.045898
0.086914
-0.041016
0.080078
0.077637
0.051758
0.034668
0.107422
0.004883
-0.054199
-0.078613
0.065430
-0.081543
-0.065430
0.060059
-0.087891
-0.026367
-0.035156
0.106445
-0.046387
-0.039063
0.054199
-0.012207
0.079102
0.090332
-0.094727
0.043457
-0.000488
0.073242
-0.101074
0.104004
-0.044922
0.109863
0.092285
0.038086
-0.058105
0.049805
0.040039
0.082520
0.108887
-0.054688
0.066406
0.051270
-0.073242
0.120605
0.098145
0.050293
0.113281
-0.103516
0.092773
-0.001953
0.043945
0.036133
-0.052246
0.050293
0.062012
0.013184
0.050293
0.036133
0.088867
0.105957
-0.103027
-0.044434
-0.047852
-0.100586
-0.040527
0.027832
-0.034180
-0.000977
0.093262
-0.079102
0.092285
0.044434
-0.064941
-0.130371
0.063477
-0.004395
-0.070801
0.087402
0.030273
-0.006836
-0.007324
0.085449
-0.078125
-0.019531
0.026855
-0.032227
0.097168
0.074219
0.100586
0.035156
0.067871
-0.102539
0.078613
0.105957
0.026367
0.088379
-0.022461
-0.003906
0.100586
0.022461
-0.021973
-0.053223
-0.003418
0.006836
0.018066
-0.075684
-0.047363
-0.035156
0.084961
-0.094238
0.100586
-0.012207
0.073242
-0.101563
-0.011230
-0.076172
-0.056152
-0.088867
-0.012695
0.019043
-0.044434
-0.077148
0.005371
-0.093262
0.075195
-0.016113
-0.094727
0.076660
-0.024414
0.034668
0.032227
0.097656
-0.099609
0.111328
-0.039551
0.088379
0.075684
0.077637
0.083008
0.042480
-0.082520
-0.010254
-0.022949
-0.065918
-0.028809
-0.070801
-0.032227
0.015625
0.062988
0.001465
0.102051
-0.102051
-0.089844
-0.080078
0.102539
0.040039
-0.005859
0.020996
-0.062988
-0.011230
-0.057129
-0.048828
0.037598
0.085938
-0.058594
0.082031
-0.021973
0.101563
-0.001953
0.020996
-0.070801
-0.032715
0.084473
0.107910
-0.041992
0.064453
0.058594
0.034180
-0.008789
-0.086914
-0.040039
-0.004883
-0.052246
-0.106934
0.046387
-0.056152
-0.009766
0.035156
-0.064453
0.017578
0.122070
0.079102
0.067383
-0.035645
-0.003418
0.083984
0.020020
0.055664
-0.014160
0.093262
-0.099609
0.037598
0.058105
-0.013672
0.094727
0.095215
-0.087402
0.109863
-0.013184
0.063477
0.097168
-0.082031
0.066406
0.013672
0.088867
0.041504
-0.080566
0.080566
0.008789
0.097656
0.117676
-0.095215
-0.070801
0.065430
0.006348
0.054199
0.113281
0.085938
-0.004395
0.090820
-0.043457
-0.004395
0.060059
0.088379
-0.069336
0.028809
-0.091797
0.039551
0.036133
0.031250
-0.055664
-0.076660
0.058105
0.070801
-0.005859
0.015625
0.036133
0.072754
0.059570
0.059570
-0.089844
-0.064941
0.016602
-0.020996
-0.120117
0.040039
-0.038574
0.069824
0.024902
-0.013672
0.018066
-0.025391
0.029785
0.090332
0.056641
0.006836
-0.085938
-0.047363
-0.048340
0.012695
0.096680
0.016602
0.091309
-0.071777
-0.080078
0.041504
-0.066895
-0.051270
-0.067383
0.031738
-0.111328
-0.088867
0.082520
0.038574
0.072266
-0.111328
0.004883
-0.069824
-0.056641
-0.007324
-0.072266
-0.107422
-0.084473
0.055664
-0.070313
0.085938
0.065430
0.109863
-0.065918
-0.038086
-0.062988
-0.078613
0.077637
-0.103027
0.074707
-0.092773
0.109375
0.041016
0.035645
0.101563
-0.073730
-0.052246
0.058105
0.047852
-0.010254
-0.076660
-0.112793
0.007324
-0.072754
-0.025391
-0.064941
-0.000977
-0.081543
0.106934
-0.035156
-0.053711
0.020996
-0.016113
0.020508
-0.039063
0.100586
-0.078613
-0.108887
0.068359
0.058594
-0.107422
-0.087891
-0.071289
0.014160
0.014160
0.016113
0.049316
0.104492
0.039063
0.082520
-0.027344
0.072754
0.020020
0.068359
-0.041992
0.093262
0.061035
-0.097656
-0.097168
-0.022461
0.094727
0.107910
-0.076660
-0.013184
0.056641
0.000488
0.083008
0.072754
-0.049316
-0.016113
0.038086
-0.040527
-0.050293
-0.084473
0.031738
0.086426
-0.011230
0.014648
-0.096680
0.002441
0.003418
0.055176
-0.050781
0.095703
0.061035
-0.097168
-0.006348
0.018555
0.044434
0.074219
-0.071289
0.062012
-0.043945
-0.036133
-0.016602
0.063477
-0.046387
0.110352
-0.094727
0.062988
0.001465
0.108887
-0.057617
0.073730
-0.063965
0.066406
-0.084473
0.049805
-0.052246
0.065430
-0.062988
0.006836
0.074219
0.048828
-0.008301
0.007324
-0.001465
-0.039551
-0.106445
0.067383
0.070801
-0.085449
-0.010742
-0.038574
-0.084961
-0.045410
-0.000977
-0.089844
-0.084473
0.009277
0.067871
0.027344
0.009766
0.089355
-0.045898
-0.003906
0.006836
-0.067383
0.018066
-0.098633
0.073730
0.053223
-0.068848
0.013672
0.098633
-0.021484
0.003418
0.037109
-0.031738
0.010742
-0.055176
0.088379
-0.093750
0.090820
-0.064453
-0.083984
0.001465
0.050781
0.038574
-0.090332
-0.019043
0.075195
-0.050781
-0.043457
-0.057617
0.080566
0.019531
-0.024414
0.005859
0.046387
0.076172
0.077148
0.092285
-0.019043
-0.094727
-0.094238
-0.037109
0.052246
-0.105469
0.013184
-0.030762
-0.002441
-0.084961
0.103516
0.057129
-0.104980
0.015137
-0.044434
-0.009277
0.099609
0.059082
-0.020508
0.101563
-0.091309
-0.088867
0.023438
0.042480
0.048828
0.097168
0.057129
0.044434
0.060059
0.007813
0.078125
-0.062500
-0.029785
-0.071289
-0.044922
0.090332
0.016602
0.100098
0.099609
-0.017578
0.101074
0.042969
0.089844
-0.070313
-0.051758
0.005371
-0.104004
0.049316
0.058594
-0.009766
-0.101563
0.045898
-0.068848
0.012695
-0.044922
0.013672
0.036621
-0.079590
-0.099121
0.006836
-0.048828
-0.005371
0.070801
0.041016
0.014648
-0.053223
0.059082
0.057617
0.110840
-0.025391
-0.033203
-0.051270
-0.041016
0.014160
-0.031738
0.057617
0.088379
-0.034180
-0.044434
0.024414
-0.057129
0.101074
-0.024902
0.077148
-0.100098
0.039551
-0.078613
-0.044922
0.086426
0.078613
-0.037109
0.003906
0.043457
0.063965
0.049316
0.077148
-0.087891
-0.014648
-0.010254
-0.014648
0.057129
0.037598
0.010742
0.039551
-0.094727
0.030762
0.003906
0.072754
0.001465
-0.103516
-0.068359
-0.064941
0.066895
0.045410
0.027832
-0.083984
-0.018066
0.007324
0.085449
0.038574
0.011230
-0.005859
-0.086914
-0.089355
-0.094727
-0.017578
-0.025879
0.102539
-0.106934
-0.079102
0.062988
-0.035645
0.069824
-0.005371
-0.085449
0.052246
0.087891
0.105957
0.071777
0.007813
0.057129
-0.073730
-0.044922
-0.006348
-0.051758
0.035156
-0.076172
-0.041992
0.071777
-0.076660
-0.024902
-0.046875
0.068848
0.052246
0.104980
0.075195
-0.065430
-0.023926
0.015625
-0.049805
-0.061523
-0.085449
-0.016602
-0.064941
-0.032227
-0.105957
0.020996
0.079590
0.102539
0.021973
-0.006348
0.064941
0.072266
0.034668
-0.010742
0.049805
0.071777
-0.052734
-0.008301
0.015625
-0.007324
0.103516
-0.046875
0.064453
0.058105
0.006836
0.078613
0.022949
0.066406
0.092285
0.060059
-0.027832
-0.043457
-0.064453
-0.097656
0.023926
0.024902
0.013672
-0.050293
-0.027832
-0.051270
0.101563
-0.005859
-0.008301
0.038574
-0.077148
0.023438
0.006348
0.058594
0.010254
0.006348
0.141602
-0.018555
0.009766
-0.007813
0.100098
-0.012207
0.075195
0.063477
-0.019531
0.095215
-0.092285
-0.075684
0.053711
0.017578
0.090820
-0.023926
0.072266
-0.023438
-0.004883
0.017090
0.004883
0.089355
0.083496
0.010254
-0.096680
0.123047
0.086914
0.023438
-0.057617
-0.055176
0.044922
-0.013672
0.053711
-0.026367
-0.055176
-0.068359
0.012695
-0.048828
-0.061035
-0.009766
-0.076172
0.040527
-0.085938
0.080078
0.039063
-0.081543
-0.104980
-0.036133
-0.036133
-0.055176
0.004883
-0.021484
-0.090820
0.060059
0.009277
0.066406
0.034668
-0.019043
0.052734
-0.076172
0.051270
0.005371
-0.052246
-0.065918
0.019043
-0.026855
-0.085449
0.056641
-0.096680
-0.064941
-0.043945
0.050781
-0.036621
0.041992
0.097168
-0.021973
0.004395
0.074219
-0.082031
0.114258
0.126953
-0.067383
0.014648
0.031250
-0.086426
0.011719
0.020020
-0.086914
-0.056641
-0.109863
-0.002930
-0.092285
0.018555
0.105469
-0.065918
0.033691
0.103516
-0.015137
0.015137
0.065430
0.073730
0.049805
-0.016602
-0.032715
0.081055
0.046875
0.014648
0.048828
-0.011230
0.003418
-0.015625
-0.009277
-0.003418
-0.038086
0.122559
-0.092773
0.031738
-0.010254
0.104492
0.088867
-0.084473
-0.087402
0.033691
-0.085449
-0.015625
-0.025391
0.063965
0.105469
0.062500
0.100586
0.010254
-0.028809
-0.089844
-0.083984
0.006348
-0.030762
0.023926
0.080078
-0.079590
0.083008
-0.078613
0.020020
-0.059082
0.044434
-0.054688
-0.056152
0.088379
0.006836
-0.075195
-0.027344
0.045898
0.079102
0.080566
0.032227
-0.075684
0.046387
0.035156
0.020020
-0.025879
-0.019043
0.103516
0.055664
-0.012207
0.091797
0.061523
0.077637
0.063477
-0.103027
0.096680
0.062500
0.077637
-0.011230
0.099121
0.017090
-0.060059
0.027344
-0.095215
-0.077637
-0.081543
-0.020996
0.076172
-0.048828
-0.102539
0.105469
0.044434
-0.091797
-0.036621
0.086426
-0.043457
0.085449
-0.078613
-0.064941
-0.099609
-0.044434
-0.103516
-0.085449
0.017090
-0.053711
-0.106445
-0.002441
-0.036621
-0.062988
-0.005371
-0.036621
0.068848
-0.036133
0.067871
-0.027832
0.087402
-0.070313
0.026367
-0.084961
0.055664
-0.016113
0.020996
-0.061523
-0.057617
-0.055176
0.063477
-0.040527
-0.057129
-0.073242
0.004395
0.093750
0.000488
0.060059
-0.051758
0.115234
0.106445
-0.055176
-0.002441
0.105469
-0.033203
-0.066895
-0.085938
0.061523
0.106445
0.003906
-0.004883
0.081543
0.001465
-0.018555
0.061523
-0.012695
-0.015625
-0.014160
0.084961
0.007813
-0.068359
-0.062012
-0.022461
0.075684
-0.081055
-0.038086
-0.113281
-0.035156
0.089844
0.046875
0.052246
-0.075195
0.023438
0.009766
-0.086426
0.081055
-0.064941
-0.088867
-0.070801
0.007324
-0.095215
-0.023926
0.098145
0.052734
0.101563
0.092773
0.045898
-0.052246
-0.073730
-0.001465
-0.041992
0.052246
0.076172
-0.085938
0.036133
-0.009766
-0.009766
-0.071777
0.015625
0.045410
0.087891
0.045898
0.100586
0.061035
0.070801
0.046387
-0.042480
0.018555
-0.112305
-0.018066
-0.053223
0.032715
0.020020
-0.001465
0.094238
-0.074707
0.029785
0.032227
0.020996
0.049316
0.072754
0.028809
-0.088867
0.010254
-0.018066
-0.002441
0.058594
-0.019043
-0.059570
0.103516
0.049805
0.085938
0.054688
0.036621
-0.010254
-0.078613
0.020508
-0.071777
-0.006836
-0.052734
-0.095215
-0.029785
0.010254
0.052246
-0.075195
-0.073730
0.032227
-0.076660
-0.067871
-0.079102
-0.010254
0.068359
-0.095215
-0.093262
0.037598
0.052734
0.079102
0.037109
-0.004883
0.096680
0.061523
0.009277
-0.004883
-0.026367
-0.077148
0.020996
0.084961
0.089844
-0.075684
0.102539
0.019531
0.063965
0.078613
0.083008
0.092285
-0.019531
-0.096680
-0.057129
0.081543
0.098145
-0.009277
0.019043
0.011230
0.033203
0.038574
0.057617
0.004883
0.079590
0.058594
-0.100098
0.080566
-0.003906
0.040039
0.032227
0.001465
-0.032227
-0.078125
0.008789
0.000488
-0.105469
-0.003418
0.003906
0.045898
-0.072754
-0.065918
0.042969
0.051758
0.050293
-0.012695
-0.052734
0.013672
0.039551
0.097656
-0.030762
0.086914
-0.003906
-0.082520
0.098633
0.004395
-0.061035
0.043945
-0.063477
0.033691
0.033203
0.055176
-0.048340
-0.020996
-0.075684
0.041992
0.022949
0.031250
0.069824
-0.070313
-0.016113
0.106934
-0.022461
-0.057617
0.024414
0.018555
-0.070801
-0.045898
-0.090332
0.006836
-0.048828
0.080566
-0.021484
-0.079590
-0.011230
-0.064941
0.094238
0.024414
0.045410
-0.038574
0.060547
0.076660
0.043945
0.110840
0.011719
-0.037598
-0.042969
0.079102
-0.090820
0.048340
0.030273
0.052246
0.116699
0.036133
-0.019531
0.076660
0.015137
0.057617
-0.077637
-0.023926
-0.064941
-0.035645
-0.117188
0.016602
0.061035
0.037598
-0.084473
-0.019043
0.053223
-0.069824
0.078125
0.020508
0.065430
0.064453
0.045410
0.003418
-0.037109
-0.045898
-0.099121
0.094238
0.011719
-0.083496
0.021973
0.125000
-0.020020
0.103516
-0.030762
0.046387
0.021973
0.096191
-0.042480
0.093262
0.037109
0.044922
0.067871
0.057129
0.104492
0.086426
0.063477
-0.037109
0.004883
-0.037598
-0.076660
-0.004883
-0.103516
-0.031738
0.052734
-0.051758
0.017090
-0.103516
0.037598
0.065918
-0.043457
0.024902
-0.064453
0.011719
0.048340
0.112793
0.082520
0.000000
-0.024414
-0.069824
-0.000488
0.062012
0.038574
-0.056152
-0.048340
-0.032227
-0.100098
0.025391
-0.062012
-0.063965
0.101563
0.054688
0.006348
0.074219
-0.001953
-0.079102
-0.008301
0.060547
-0.071777
0.096191
-0.007324
0.017578
0.024414
0.042480
0.027344
0.056641
0.039063
-0.041504
-0.048828
-0.042969
-0.035645
-0.025879
-0.077148
0.010742
0.029785
0.034668
-0.054199
-0.080566
-0.091309
0.095703
-0.020996
-0.007813
0.078613
0.034668
0.003418
0.040039
0.059082
-0.055664
0.045898
-0.078125
0.047852
0.029297
-0.014160
0.010254
0.037109
0.095703
0.020508
-0.050781
0.091309
0.077637
-0.089355
0.041992
-0.061035
-0.048340
0.003418
0.078125
0.005859
-0.084961
0.053711
0.098145
0.008301
0.056152
0.089355
0.110352
-0.008789
0.016602
-0.005859
-0.055176
-0.014648
0.080566
0.064941
0.099121
0.031738
-0.061035
-0.028809
-0.028320
0.060547
-0.032227
0.063965
0.055176
-0.047363
-0.027344
-0.118652
0.067383
0.036133
0.113770
-0.024414
-0.018066
-0.005859
-0.072754
-0.027832
0.102539
-0.085449
-0.050781
0.002930
0.032715
0.052734
-0.019043
0.077148
-0.076172
-0.081543
-0.082520
0.062500
0.084473
0.061035
0.014160
0.059570
-0.020996
0.015625
-0.087891
0.058105
-0.091309
-0.056641
-0.114746
0.024902
0.044434
0.051270
-0.003906
-0.003418
-0.066406
-0.028809
-0.000488
0.049316
-0.098633
-0.105957
-0.041504
-0.107910
0.004883
0.087402
0.055176
-0.077637
-0.089355
0.026855
-0.023926
-0.091797
0.023438
-0.053711
-0.105469
-0.098633
-0.019043
0.023438
0.009766
-0.003418
0.076172
-0.077637
-0.059082
0.092285
0.021973
-0.055176
0.085449
0.015625
-0.043457
0.075195
-0.109375
0.083984
-0.048340
-0.084961
-0.011719
-0.104980
0.059570
-0.035645
0.069824
0.077148
0.087402
0.058594
0.094727
-0.032715
-0.016113
0.088379
0.030762
-0.073730
0.074219
0.061035
0.020996
-0.080078
0.069824
-0.100586
-0.007324
0.075684
-0.048340
0.004883
-0.042480
0.066895
0.035156
0.053223
-0.035645
0.096191
-0.117188
0.035156
0.079102
-0.019531
-0.093262
-0.054199
0.062988
0.046387
0.091309
-0.013672
-0.091797
-0.006348
0.035645
-0.049316
0.002441
0.039551
-0.000977
-0.080078
0.098633
0.036133
-0.035156
-0.038574
-0.107910
0.018066
-0.010742
0.027832
0.024414
0.079102
0.019531
-0.003906
0.070313
0.042480
-0.076660
-0.067383
0.095703
-0.023438
-0.038086
0.022949
-0.075195
-0.063965
-0.033203
0.076660
0.049316
0.018066
-0.096191
-0.098633
0.082031
0.088867
-0.027832
0.085938
-0.036621
0.115723
0.039063
-0.001953
0.054688
-0.049316
0.096680
-0.034180
-0.021973
0.114746
0.048828
-0.041016
-0.085938
0.080078
-0.081055
-0.070801
0.096680
-0.006348
0.012207
-0.088867
-0.015625
0.033691
0.027344
-0.086914
0.081543
0.027344
-0.095215
-0.029297
-0.030273
0.026367
-0.091309
0.002930
-0.005371
-0.062012
0.081543
-0.087402
-0.035156
0.080566
0.037109
-0.095215
-0.004395
0.024902
-0.018066
-0.002441
-0.039063
-0.066406
0.058105
-0.019043
-0.043457
0.022949
0.070313
-0.023438
-0.085938
-0.083984
0.036133
0.054688
-0.005371
0.063477
0.071289
0.066895
0.116699
-0.045898
-0.044434
0.101563
0.014648
-0.040527
0.058105
-0.025391
-0.012207
-0.017578
0.028809
0.048828
-0.073242
-0.055664
-0.007813
0.111816
0.052246
-0.083496
-0.079102
0.104492
-0.004883
0.083496
0.025391
0.020996
-0.076660
-0.083984
0.079102
-0.036621
0.000000
0.072754
0.051270
-0.018066
0.007813
0.005859
0.026367
0.068848
-0.076660
0.008301
-0.114746
0.046875
0.092773
-0.096680
-0.036133
-0.028320
0.063477
0.042969
-0.023926
0.096191
0.053711
0.033203
0.019531
0.018555
-0.009277
-0.047852
0.053223
-0.042480
-0.039551
-0.036133
-0.032715
0.102051
-0.008301
0.021973
0.076172
-0.036133
0.114746
0.015625
0.062012
-0.065430
-0.012207
0.042969
0.008301
-0.085449
0.061523
0.080078
-0.055664
0.004883
0.054688
0.039551
0.002441
-0.074219
0.083984
0.086426
0.029785
0.028809
-0.014648
-0.012207
0.096191
-0.024414
0.012695
0.004883
-0.053711
-0.058105
-0.056641
-0.043945
-0.081543
0.114746
0.100586
-0.033691
0.089355
-0.014648
0.094727
-0.092285
-0.070801
0.107422
0.040527
0.084961
0.091797
0.078613
-0.028809
-0.068848
-0.066895
-0.032715
0.011230
0.107422
0.000977
0.036133
0.044434
-0.021484
-0.083984
-0.020508
0.051270
-0.061523
0.001465
-0.006348
0.104492
0.001953
0.041992
-0.030762
0.091797
-0.075684
0.083008
0.041016
-0.018066
-0.049805
0.085449
0.016602
0.060547
-0.004395
-0.003906
0.042969
-0.057617
0.028809
-0.009277
-0.084473
-0.041016
0.021484
0.015137
-0.045410
0.098145
-0.081055
0.064941
0.066895
-0.097656
-0.003906
0.006836
0.031250
0.001953
-0.088867
-0.092285
0.051758
-0.059082
0.055664
-0.086426
-0.012207
0.090820
-0.072266
0.019531
0.092285
-0.017578
0.095215
-0.098145
0.060547
-0.028809
-0.028320
0.022461
-0.019043
-0.018066
-0.022949
-0.094238
-0.091797
-0.022461
0.049805
0.090820
0.103516
0.004883
0.050781
-0.018555
0.082520
0.058105
0.035645
-0.089355
-0.010254
-0.011230
0.075195
0.056641
-0.058594
-0.069824
0.049316
0.020996
-0.076172
-0.062012
-0.042480
-0.048828
0.021484
-0.050781
0.025879
0.090332
-0.060547
-0.002930
-0.008789
-0.028320
0.054688
-0.051270
0.037598
0.088379
-0.027344
0.005859
-0.104004
0.069824
0.097656
-0.071777
0.044922
-0.069824
0.037598
-0.037109
-0.077148
-0.039063
-0.106445
0.006836
0.026367
-0.046875
0.053223
-0.002930
0.066895
0.054199
0.040039
-0.087891
-0.099609
-0.025391
0.054688
-0.023926
0.006348
-0.072266
-0.007324
-0.071777
0.084473
-0.122559
-0.012207
0.097168
-0.058594
0.116211
0.062988
-0.090820
0.012207
-0.074707
0.093750
0.081543
0.012207
0.036621
-0.097656
-0.079102
-0.061035
0.013672
0.066406
0.071289
-0.096680
-0.073730
0.011719
-0.020020
0.053223
-0.019531
0.094238
0.066895
-0.080566
0.034668
-0.072754
-0.061523
-0.004883
-0.019531
0.112305
-0.081055
0.043945
-0.077148
-0.005371
0.007813
0.021973
-0.098145
0.049316
-0.003418
-0.017090
-0.072754
0.002930
-0.004395
0.034668
-0.041016
-0.040039
0.001465
0.093750
-0.102051
-0.050781
0.048340
0.024414
-0.033203
0.110352
0.097168
0.021484
0.014160
0.012695
0.070313
-0.077637
-0.071289
-0.050293
-0.099121
0.090332
0.087891
0.055176
0.031250
-0.107422
-0.063965
0.031250
0.093750
-0.051270
-0.016602
-0.052246
0.107422
0.106934
-0.088867
-0.083496
0.103516
-0.026855
0.004395
-0.088867
-0.001465
-0.012207
-0.062988
-0.029785
-0.087891
0.072754
-0.037109
0.029297
-0.057617
-0.021973
0.087402
-0.076660
0.028320
0.032227
0.000000
-0.091797
0.100586
0.022461
-0.062012
-0.101074
-0.069824
0.025879
0.024902
-0.071777
0.065918
0.021484
-0.054199
0.012695
-0.042480
-0.025391
0.033203
-0.072266
-0.101563
-0.089844
-0.038574
-0.054688
-0.098633
0.022461
0.065918
-0.090332
0.002930
0.100586
-0.007813
0.103027
0.080078
0.071289
-0.007324
-0.006348
0.101074
-0.065430
-0.014160
-0.061523
0.030273
0.104980
-0.024902
0.062500
-0.095215
-0.028320
0.013672
-0.102539
-0.072266
0.091797
0.094727
-0.051758
0.011230
0.115723
-0.012207
-0.014648
-0.098633
0.003906
0.046875
0.055176
0.069824
0.037109
0.109863
0.000488
-0.001953
-0.053223
-0.035645
0.085449
-0.032227
-0.033203
0.011719
0.056641
0.062012
0.042969
-0.076660
-0.096680
0.020996
0.069824
0.102539
0.046387
0.082520
0.009766
0.017578
0.005371
-0.087891
0.089844
-0.038574
-0.038574
-0.087891
-0.027832
0.077637
0.030273
0.090332
-0.097656
-0.024414
0.030762
-0.093750
-0.005371
0.003906
-0.089844
0.094727
-0.033203
-0.093750
-0.032227
0.111328
-0.089355
-0.083496
-0.061035
-0.065918
0.093262
-0.019043
0.032715
-0.095215
-0.068848
0.009766
-0.014160
-0.103027
0.076172
-0.031738
-0.008301
-0.003418
0.081055
-0.041016
0.041504
0.065918
0.089844
-0.045410
-0.048828
0.048340
0.087891
-0.007324
0.037598
-0.074707
0.095215
0.072754
-0.053711
0.011230
0.010742
0.041992
0.104980
0.038086
0.050781
0.006348
0.124512
0.013184
-0.082520
0.061523
-0.085449
-0.009766
0.025391
-0.038086
0.041016
-0.106934
-0.027832
-0.081055
0.083008
0.073730
-0.087891
-0.003418
0.027344
0.043457
0.014648
0.028809
-0.091797
0.032227
0.093262
-0.018555
0.023926
0.001953
-0.024414
0.044434
0.019531
0.046387
-0.084961
-0.108887
-0.054688
0.005859
-0.078613
-0.096680
-0.002930
-0.099121
-0.075195
-0.061523
-0.048340
0.070313
-0.044434
-0.080566
-0.093750
-0.055176
0.065918
0.015625
0.103516
0.044434
-0.075195
-0.055664
0.053223
-0.077148
0.046875
0.102539
-0.015625
0.062012
-0.081055
-0.066406
-0.059570
0.006836
-0.027832
0.004883
0.064453
0.064941
-0.091797
0.032715
-0.021973
0.018066
-0.077148
0.016113
-0.030273
-0.102539
0.098145
0.050781
0.086426
0.007813
-0.034668
-0.091797
-0.051758
-0.010254
0.098145
-0.033203
0.067383
-0.108887
0.101563
-0.089355
0.015625
0.057129
0.073242
0.091309
0.045410
0.041504
-0.100098
0.074707
0.013672
-0.106934
-0.011719
-0.028320
0.023926
-0.039551
0.029785
0.063965
0.120605
0.095215
-0.026855
-0.010254
0.098633
-0.010742
-0.086914
-0.069336
-0.005859
0.003418
0.030762
-0.068359
0.069824
-0.113770
0.055664
-0.040527
0.060547
-0.049316
0.057129
-0.027832
-0.034180
-0.003906
0.063965
0.043945
0.045410
-0.023438
0.046875
-0.056152
-0.044922
-0.088379
0.085449
0.100586
-0.082031
-0.010742
0.106445
0.047852
0.073730
0.081543
0.039551
0.003906
0.104492
0.092285
0.010254
-0.105469
0.067383
-0.065918
0.014648
-0.097168
0.096680
-0.092773
-0.017578
-0.035156
0.042480
0.086914
-0.057129
-0.001953
-0.096191
0.032227
-0.074707
-0.054688
0.117676
-0.103027
0.023438
-0.047363
0.004395
0.032227
0.103027
0.061035
-0.051270
0.041016
-0.046875
-0.091797
0.053223
0.071289
-0.091797
-0.015625
-0.074707
-0.073730
0.051270
-0.056641
-0.022461
0.022949
0.042969
0.018066
0.066895
0.004395
0.093262
-0.000488
0.099609
0.024902
0.076172
0.001465
0.074707
-0.101074
-0.010742
0.020996
-0.080078
-0.048340
0.024414
-0.033691
0.008301
0.092773
0.059082
-0.064453
0.062012
-0.095703
0.068848
0.003906
-0.095215
0.103516
0.112305
-0.011230
0.034668
-0.005859
-0.014160
-0.012695
-0.036621
-0.025879
0.053711
-0.000977
0.040039
-0.072266
-0.002930
0.060547
0.067871
-0.104492
0.041016
0.088379
0.025879
0.075684
0.005371
0.017090
0.091797
0.023438
-0.013184
-0.063477
0.119629
0.012207
0.051270
0.032715
-0.053711
-0.030762
-0.086914
0.083008
-0.066406
0.063477
0.011230
-0.049805
-0.111328
-0.095703
-0.019531
-0.029785
-0.006836
0.012695
-0.011230
-0.022949
-0.046875
0.097168
-0.025879
0.080078
0.089844
-0.015625
0.012695
-0.080078
-0.014648
0.055176
0.004883
-0.121582
-0.090820
0.066895
-0.041016
0.105957
0.019043
-0.000488
0.006348
0.020996
0.061523
0.051758
-0.052246
0.016602
-0.074219
-0.085449
-0.014648
-0.015625
-0.087402
-0.084473
-0.084473
-0.046875
-0.043457
0.031738
-0.002930
0.000488
-0.090820
0.033691
-0.030273
0.004883
-0.103027
0.002441
0.086914
0.000977
0.024902
-0.090332
-0.020996
-0.081543
0.016602
0.040527
-0.027344
0.020020
0.095215
-0.036621
0.015137
0.071289
0.008789
0.000488
0.008301
0.107910
0.107422
-0.009277
0.079590
0.000488
-0.102051
-0.037109
-0.075684
-0.033691
0.062500
-0.013672
-0.020020
-0.071777
0.082520
-0.076660
0.079102
-0.023926
0.080078
0.085449
-0.006348
0.046387
0.003906
0.009766
0.090820
0.051270
-0.024414
0.020508
0.014160
0.090820
-0.098145
0.089844
0.030762
-0.012207
-0.071777
-0.089355
0.066895
0.008301
-0.033203
0.108398
0.021973
0.078125
0.084961
0.097656
0.044922
-0.052246
0.102051
0.026367
0.003906
-0.021973
-0.014160
0.029785
-0.027832
0.011719
0.036621
-0.041504
-0.066895
-0.013184
-0.095215
0.000000
0.054688
0.092773
-0.087891
-0.106445
0.080566
-0.046387
0.057617
-0.018066
-0.073242
0.087891
0.112305
-0.072754
0.050293
-0.060059
-0.034668
-0.045410
0.079590
-0.055664
0.039551
0.010254
-0.105957
0.065430
0.104492
0.063477
-0.092285
0.037109
-0.066406
-0.050781
0.054688
0.019531
0.096191
0.065918
-0.032227
-0.018066
0.105469
-0.090820
-0.085449
0.020508
0.059082
-0.021484
-0.015625
-0.093750
-0.092285
-0.087891
-0.035156
0.047363
0.023926
0.064453
0.037598
-0.009766
-0.054199
0.053223
-0.068848
0.048340
0.009277
-0.017090
-0.033203
0.085938
0.072754
0.037598
-0.092285
0.091797
0.116699
-0.105957
-0.050781
-0.062988
-0.073242
0.022949
-0.073730
0.053711
-0.073730
0.089844
-0.041504
0.025391
-0.050781
0.063965
-0.065918
0.072266
0.065430
-0.065918
0.075195
0.093750
0.051270
0.078125
-0.087402
-0.055664
-0.017578
0.093262
0.059082
-0.071777
0.049805
0.046875
-0.100098
0.047363
-0.054199
-0.015625
-0.004395
-0.102539
-0.099121
0.052246
0.005859
0.076172
-0.099121
0.057617
0.049805
-0.001465
0.044922
-0.077637
0.056641
0.057129
0.053223
0.027344
-0.102539
-0.108887
0.031738
0.064453
0.096680
0.085449
0.079102
-0.107422
-0.009277
-0.066406
-0.002930
0.019043
0.000488
0.026855
-0.041504
0.102539
0.036621
0.016113
0.055176
0.002930
0.065918
-0.008789
-0.072754
-0.083008
-0.002930
0.006836
0.023438
0.049316
0.066406
0.064453
-0.053223
0.070801
0.038086
-0.060059
-0.007324
-0.088379
0.030762
0.054199
0.027344
0.110352
0.037598
-0.095703
-0.105957
0.076660
0.024902
-0.009766
0.113281
0.060059
0.125488
0.096191
0.076172
0.030762
-0.031250
-0.067383
-0.014160
0.007324
0.022461
0.061035
-0.016602
-0.003418
-0.001465
0.050781
0.001953
0.066895
-0.041992
0.037598
0.047363
0.088379
-0.066895
-0.015625
0.074219
0.029297
0.083984
-0.106445
0.047363
-0.042969
-0.086426
0.070313
0.119629
-0.055664
-0.072754
-0.065430
0.051758
0.096191
-0.005859
0.020996
0.098633
-0.074707
0.022461
-0.042969
0.062500
0.080078
-0.029785
0.022461
-0.040039
-0.069336
-0.077637
-0.086914
-0.079590
-0.018066
-0.016113
0.037109
0.076172
-0.084473
-0.090820
0.102051
-0.049805
0.020020
-0.100586
0.032227
0.022949
-0.086426
-0.002441
-0.007813
-0.011719
0.027344
0.030273
-0.046387
-0.022461
0.041016
-0.077637
0.027832
-0.035156
-0.034180
-0.055176
0.026855
0.000488
0.079102
-0.026855
-0.086426
0.039551
-0.090332
-0.088379
-0.086426
0.083984
0.059570
0.068848
0.001953
-0.023438
-0.020020
-0.042480
0.065918
-0.001953
-0.030273
-0.083008
0.056641
0.091309
0.078125
-0.042969
-0.093262
-0.075684
0.104004
-0.043945
-0.041504
-0.047852
-0.014160
-0.076172
0.004395
0.028809
-0.021484
-0.088379
0.085449
-0.005859
0.026367
-0.070801
-0.104004
0.125000
0.028809
0.101074
0.006836
-0.005371
-0.047363
0.054688
0.032715
0.019531
0.081055
-0.058594
0.092285
-0.082520
-0.097168
0.074219
0.038574
0.020020
-0.068848
-0.103027
-0.021973
-0.028320
-0.006348
-0.052246
-0.003906
0.011230
-0.006836
-0.056152
-0.063965
-0.082031
0.003906
-0.012695
-0.041504
0.054688
-0.072754
0.057617
-0.093262
0.049805
-0.087402
-0.030273
0.056641
-0.016602
0.085938
0.001465
-0.101074
-0.080566
-0.012207
0.057617
-0.079102
-0.062988
-0.040039
0.038086
0.088379
-0.012695
-0.067383
-0.080566
0.027832
-0.034180
0.032227
-0.083496
0.082520
-0.028809
-0.093262
-0.026855
0.097656
-0.043457
-0.079590
0.074219
-0.010254
-0.089355
-0.026367
0.090332
0.074707
-0.006836
-0.010254
-0.035156
-0.000977
-0.057617
0.002441
0.063965
0.098145
0.042969
0.032227
-0.024414
-0.007324
-0.058105
-0.032227
0.054688
-0.002441
0.060547
0.013184
0.046387
0.002441
0.111816
0.019043
-0.070313
-0.039551
0.077637
0.090332
0.028320
0.020020
0.067383
-0.010742
0.065918
-0.035645
-0.040527
0.005859
0.021484
-0.047363
-0.039063
-0.068848
-0.073730
-0.084961
-0.082031
-0.059082
0.088867
-0.068848
-0.062012
0.051270
0.104004
-0.090332
-0.063477
0.000977
0.040527
-0.084961
0.096680
0.028320
-0.096191
0.046387
-0.053223
0.027832
-0.062500
-0.089844
0.013184
-0.031250
0.049316
-0.067871
0.017578
-0.051270
-0.039063
-0.099121
-0.079102
0.012695
-0.024414
-0.001465
0.020996
-0.006348
0.010254
-0.012207
0.052734
-0.048340
0.031738
0.096680
0.066895
0.076172
-0.037598
0.033691
-0.009277
0.103516
0.102539
0.007813
-0.089355
-0.060547
0.078613
0.116211
0.033691
-0.011230
-0.041992
-0.036133
0.034180
0.040527
0.039063
-0.016602
0.042969
-0.089355
0.043457
-0.091797
-0.026367
-0.052734
-0.094727
-0.001953
-0.066895
-0.105957
-0.044922
-0.059570
-0.081543
0.013184
0.045410
0.022949
0.000000
0.101563
-0.052246
0.092285
0.041504
-0.082031
-0.035156
0.057617
-0.028320
0.033203
-0.011230
-0.063477
-0.101563
-0.116211
0.053223
0.099609
0.003418
-0.084961
0.106445
-0.011230
-0.011719
-0.010742
-0.087402
-0.038086
0.036621
0.070313
0.038574
0.047852
0.101563
-0.094238
-0.047363
0.078125
-0.103516
0.071289
0.050781
-0.088379
-0.044922
0.069336
-0.025879
0.079590
0.018066
0.045410
-0.060059
-0.097656
-0.075195
-0.017090
0.084473
-0.114746
-0.073730
-0.082031
0.094727
-0.039551
0.081055
-0.034668
0.034668
-0.090332
-0.067871
-0.133301
-0.034668
-0.047363
0.066406
-0.067871
0.027832
0.090332
-0.029297
-0.042480
-0.105957
0.001953
-0.088867
0.019531
-0.000977
-0.094238
-0.079590
0.025879
-0.115234
0.016602
0.023438
0.000000
-0.037598
-0.060547
0.046387
-0.068359
0.020508
-0.073242
-0.031250
0.041992
-0.051758
0.106445
-0.001465
-0.061523
0.056152
0.015625
0.052734
-0.012695
0.021484
0.008789
0.096680
0.020996
0.009277
-0.097168
0.059570
0.003418
0.020996
-0.092285
0.042480
0.002930
-0.050781
0.019531
-0.046875
0.118164
0.025879
0.097656
-0.098145
-0.071289
-0.046875
-0.078613
-0.083008
0.032227
0.040039
0.071777
-0.091797
0.091309
-0.092773
-0.032227
-0.035645
-0.066406
0.044922
-0.031250
-0.123047
0.039551
0.042480
-0.074219
-0.015137
0.083008
0.083496
0.030762
-0.100586
-0.076172
0.083008
-0.019531
-0.001953
-0.067871
-0.040039
0.077637
-0.097168
0.038086
-0.058105
0.016113
-0.015137
0.073242
-0.000488
-0.108398
0.009277
0.042480
0.082520
0.071289
-0.068848
0.079102
0.035645
-0.035156
-0.017090
0.041016
-0.034668
0.058594
0.085449
0.087891
-0.068848
0.040527
-0.034180
-0.102051
-0.024414
0.057617
0.003906
-0.074707
0.083984
-0.035156
0.115234
0.083984
0.053711
0.096191
-0.109375
-0.091309
-0.034668
-0.003418
0.073242
-0.028809
0.097656
0.084961
-0.018555
0.065918
-0.052246
-0.032227
0.080566
-0.025391
-0.015137
0.093262
-0.033691
-0.055664
-0.064941
0.056152
0.079102
0.082031
0.085938
0.033691
-0.008789
-0.037598
0.047852
0.039551
0.089355
0.067871
0.103516
0.104004
0.059082
0.016602
0.058594
-0.046387
-0.036133
-0.088867
-0.066895
0.088867
-0.074219
-0.070801
-0.093262
-0.031738
-0.048828
-0.086426
-0.069824
0.086426
-0.029785
-0.071777
-0.087402
-0.075684
-0.041504
0.061523
0.046875
-0.060059
0.061523
-0.092773
-0.014648
-0.005371
0.040527
0.037109
-0.041016
-0.082520
0.090820
-0.104004
0.052246
0.050781
0.091797
0.062500
0.071289
0.083496
0.034180
-0.113770
0.062988
-0.042480
0.062012
0.005371
-0.011230
-0.009766
-0.114258
0.051270
0.081055
0.101563
0.000977
-0.034180
-0.008301
-0.071777
0.059570
-0.049805
-0.003418
0.083496
0.000977
-0.070801
0.063965
-0.018555
0.053711
0.025391
-0.009766
-0.083984
0.027344
-0.083008
-0.060059
0.044922
0.018555
-0.063477
0.065918
0.078125
-0.028320
-0.058105
0.071777
0.060059
0.075195
-0.101563
0.028809
0.100586
-0.052246
0.010742
-0.075195
0.030762
0.091309
-0.062500
0.002441
-0.022949
0.079102
-0.007324
-0.093750
-0.003906
0.007324
0.053711
-0.024902
-0.109863
0.043457
0.030273
0.096680
-0.005371
0.039063
0.011230
-0.093750
0.074707
0.025391
0.066895
-0.028320
0.035645
0.052246
-0.067871
0.078613
-0.033203
-0.107910
0.060059
0.070801
0.091797
-0.028320
0.011230
0.019531
0.076660
0.049805
0.011230
-0.010254
-0.066406
-0.012695
0.033203
0.035156
0.047852
0.014160
-0.014160
-0.004395
0.044922
0.020508
0.042969
0.095703
0.034180
0.095703
0.109375
-0.052246
-0.058105
-0.075684
-0.080078
-0.001465
-0.002441
-0.043457
0.077148
0.041016
0.113281
-0.051758
0.049316
0.073730
-0.112793
0.088379
-0.100586
-0.000977
-0.105469
-0.029297
0.000488
0.055664
-0.005371
-0.045410
0.047852
-0.108398
-0.104492
-0.132324
-0.002930
0.003418
0.081543
-0.006836
0.074707
0.047852
0.091797
0.102539
-0.025391
0.072754
-0.024414
0.105957
0.042480
0.033691
0.036621
-0.076172
-0.051270
0.049316
0.089844
-0.000977
0.051758
0.049805
0.041992
0.001953
-0.058594
-0.084473
-0.117676
-0.043457
0.018066
-0.081055
-0.106934
0.002930
0.031250
0.027832
-0.091797
0.015137
0.036621
0.032227
0.069824
0.057617
0.077148
0.027832
0.009766
-0.014648
-0.083008
0.066406
-0.009277
-0.004395
0.060547
0.070313
0.016602
-0.051758
0.034668
0.094238
0.065430
0.078613
-0.001953
-0.055664
0.084473
0.066406
-0.093750
0.084961
-0.061523
0.079102
-0.042969
0.054199
-0.006348
0.021484
0.025879
-0.042480
-0.032227
-0.075684
0.026367
0.009277
0.043457
-0.050293
0.095215
0.004883
-0.065430
0.070801
-0.015137
-0.046875
0.104492
-0.026855
0.073242
0.020508
-0.009766
-0.056641
-0.041504
-0.079590
0.006348
0.092773
0.101563
0.066895
-0.041016
0.021484
0.015137
0.070313
0.036133
0.093750
0.049316
-0.043945
0.033203
0.015137
0.093262
0.092773
-0.000977
-0.052246
-0.065918
-0.042480
0.062988
0.060547
0.050293
0.004883
0.052246
0.037109
0.017090
-0.090332
-0.069824
-0.075195
-0.105469
0.023926
0.089844
0.104492
0.045410
-0.101074
0.102051
-0.034180
0.049316
0.008789
-0.053223
0.033203
0.047363
-0.059570
-0.051758
-0.069336
-0.013184
0.008301
0.040039
0.031250
-0.094727
-0.054199
0.034668
-0.001953
0.002441
-0.047852
0.019043
0.027344
-0.027832
-0.023438
-0.052246
0.090820
0.065918
-0.079590
0.116699
-0.073730
-0.034668
0.036133
-0.054199
-0.095703
0.013184
-0.094238
-0.001953
0.083496
0.066895
-0.039551
0.044434
-0.087402
0.024902
0.046387
0.090820
-0.104004
-0.073242
0.080078
0.020996
0.071289
0.037598
0.070801
0.002441
-0.116211
0.014160
0.073242
0.061035
-0.036621
-0.066406
0.014648
-0.046387
-0.037109
0.044922
0.112793
0.020508
0.073242
0.037598
0.011230
0.070313
0.060547
0.090332
-0.059082
0.127930
-0.025391
-0.088867
0.026367
0.027832
-0.000488
0.067871
-0.089355
0.020020
0.063965
0.065430
-0.080566
-0.100098
0.057617
0.117188
-0.085449
-0.057129
0.114258
-0.099609
-0.089355
0.048340
-0.095215
-0.000488
-0.093750
0.052734
0.116699
0.018555
-0.057617
-0.089355
-0.008301
-0.035156
-0.096191
-0.082520
-0.066406
-0.124023
-0.029297
0.078613
0.020996
-0.071777
-0.020020
-0.093262
-0.091797
0.060059
0.073730
-0.087891
-0.055176
0.076172
0.003906
0.120605
0.040527
-0.081055
0.082031
0.023438
0.095215
-0.034180
-0.001465
0.099121
0.037109
0.099609
0.050293
-0.078613
-0.125000
-0.099121
0.073242
0.087402
-0.022461
-0.006348
0.024902
0.024902
0.030273
-0.048340
0.089844
-0.076660
0.073242
0.032227
0.079590
-0.090332
0.015625
-0.020996
-0.055176
-0.004395
0.009766
-0.012695
-0.020020
0.076660
-0.100586
0.051270
-0.088867
-0.044922
0.083984
-0.019531
-0.114258
-0.057617
-0.022949
0.072754
0.094238
0.093750
-0.021484
-0.055176
0.053223
0.040039
-0.001465
-0.008301
-0.001465
0.068359
-0.012207
0.077637
0.032227
0.011719
0.047363
-0.053711
0.087891
0.032715
0.084473
-0.073242
0.094727
0.024902
-0.024902
0.013672
0.047852
-0.054688
-0.013672
0.085938
-0.069824
-0.068359
0.032715
0.095215
-0.018555
0.090332
0.022461
0.075195
-0.011230
0.073242
0.039063
0.002441
0.051758
-0.099609
-0.027832
0.029785
-0.029785
-0.086426
-0.095703
0.014648
-0.017090
-0.021484
0.019043
0.089844
-0.095215
0.028809
0.023926
0.037109
-0.038574
-0.087891
0.012695
0.050293
-0.030762
-0.056641
0.017578
-0.026855
-0.034668
-0.073242
0.108398
-0.040039
0.085938
-0.017090
0.063477
-0.102539
0.004395
-0.046875
-0.089355
-0.029785
0.008301
0.020020
0.034180
0.018066
-0.100098
-0.099609
-0.046387
0.092773
-0.039551
-0.062012
0.083984
0.018555
-0.066895
0.042969
0.045898
0.078125
-0.050293
0.051758
0.005859
-0.054199
-0.037109
0.032715
0.035645
0.093750
0.115723
0.006348
0.082031
-0.068848
0.086426
-0.000977
-0.053223
0.012207
0.031250
-0.076660
-0.105469
-0.059082
0.102051
0.080078
0.068359
-0.032715
0.022461
-0.063965
-0.083496
-0.092773
-0.037109
-0.065430
0.026367
-0.013184
-0.087891
-0.081055
0.060059
0.074707
0.062500
0.072754
-0.026367
0.033691
-0.028809
-0.037598
-0.051270
-0.105957
0.075195
0.017578
-0.044434
-0.019043
0.079102
0.025879
-0.081055
-0.043945
0.014648
0.036133
-0.091309
0.019043
-0.032715
-0.009277
0.055176
0.037598
-0.093750
0.052734
-0.087891
0.000977
0.048340
0.084961
-0.014160
-0.008789
-0.035645
0.034180
-0.115234
-0.065918
-0.054688
0.058594
0.069824
0.062012
-0.026855
-0.011230
-0.015625
0.033203
-0.026367
0.038574
-0.095703
-0.026367
-0.004883
0.086914
0.048340
0.071777
0.007813
-0.000977
0.006348
-0.100098
-0.086426
-0.093262
0.052734
-0.007324
-0.063965
-0.052246
0.082031
0.049805
0.087891
0.053711
0.101563
-0.045898
-0.039063
0.097168
0.020508
0.019043
0.037109
-0.075195
0.065918
0.112305
-0.067383
-0.093262
0.031250
0.061523
-0.071777
0.004395
-0.041992
-0.054688
0.092773
-0.085938
-0.053711
0.101074
-0.060059
-0.088379
-0.045898
0.004395
-0.060547
0.093262
0.057617
-0.057617
0.058105
-0.079102
-0.068848
-0.034180
0.009277
0.009277
0.069336
-0.035645
0.035645
0.008301
0.074707
0.041504
-0.021973
0.092773
-0.096680
0.021484
-0.055664
0.104004
-0.030273
-0.083496
0.044434
0.094238
0.005859
0.083008
0.079590
0.036133
0.078613
-0.032715
0.074219
-0.065430
0.082520
-0.058594
0.024902
-0.012207
0.001465
0.073730
-0.098145
0.074219
0.056152
-0.006348
-0.063477
0.071777
0.048340
-0.037598
0.024414
-0.058594
0.016113
0.040039
0.021973
-0.038086
-0.067871
-0.088379
-0.105957
-0.045410
-0.048828
0.094238
0.100098
0.030273
0.090820
0.011230
-0.038574
0.105469
-0.003418
-0.015625
0.021973
0.095215
-0.067383
0.062012
-0.012695
0.072266
-0.071777
-0.085938
0.102539
0.021973
0.076172
-0.069824
0.020996
0.040527
0.041504
0.039063
-0.053711
0.058105
-0.057129
-0.039063
-0.100586
-0.070801
-0.020996
0.082520
-0.056641
-0.084961
-0.106445
-0.100586
-0.079102
0.045898
0.100586
-0.029785
0.048828
0.033203
0.053223
-0.064453
0.061035
0.005371
0.044434
-0.074219
0.105469
0.091309
-0.036621
-0.088379
-0.087402
0.011230
-0.082520
0.059082
-0.004395
-0.008301
0.041016
0.104004
-0.019043
0.064941
0.101074
0.063477
-0.050781
-0.066895
-0.049316
0.025391
0.089355
-0.012695
0.012695
0.070313
0.070801
0.077637
0.012695
-0.052246
-0.072266
0.010254
-0.004395
0.092285
-0.052734
-0.022949
-0.048340
0.090820
0.072266
0.033691
0.038574
-0.074707
-0.078125
-0.012207
0.020996
0.023926
-0.088379
0.070801
0.007813
-0.006836
0.044922
0.017578
-0.102051
-0.053223
0.022461
0.077148
0.007324
0.038086
0.010254
0.101563
0.061035
-0.060547
0.091309
-0.012207
0.075195
0.074707
-0.028809
0.094238
0.053711
0.074219
-0.080078
0.024414
0.094727
0.063477
0.057617
0.026855
-0.079590
0.098633
0.096191
-0.001465
0.062500
0.086426
-0.061035
-0.006836
0.070801
-0.000977
0.088867
-0.027344
-0.091309
0.025391
0.006348
-0.040039
-0.041504
0.055176
-0.097656
-0.079590
0.103516
0.017090
-0.065430
-0.091309
-0.017090
-0.052246
-0.066895
-0.001465
0.047852
0.052734
0.030273
-0.014648
0.106934
-0.020020
0.041992
-0.008789
0.093262
-0.033203
-0.056152
-0.062012
-0.098633
-0.033691
-0.041504
-0.004883
0.083496
0.041504
-0.002441
0.044434
0.006348
0.029785
-0.045410
0.062500
-0.062988
0.090820
-0.017090
-0.009277
-0.031738
0.018555
-0.097656
0.013672
-0.067383
-0.015625
-0.083984
-0.024902
0.033691
-0.068848
0.081055
-0.019043
0.005859
-0.041016
-0.040039
0.001465
-0.061523
-0.058105
-0.048340
-0.103516
0.034668
0.073730
-0.000977
0.108398
-0.054688
0.030762
-0.041992
-0.033203
-0.013184
0.097168
0.100098
0.000488
-0.044922
0.005859
-0.042969
-0.027832
0.012695
-0.048340
-0.020508
0.095703
0.061035
-0.047852
0.090332
0.040527
-0.033691
0.108398
0.026855
0.109863
-0.006836
0.013672
0.017090
0.078125
-0.056641
0.008789
-0.045410
0.075684
-0.049316
0.009766
-0.061523
-0.063965
0.062012
-0.028809
0.106445
-0.020020
0.049316
0.040039
-0.011230
0.004883
0.034668
0.020996
0.003418
0.035156
0.008789
-0.027344
0.055664
-0.041992
-0.097168
0.027832
0.017090
0.035645
0.055176
0.020996
-0.062500
-0.073242
-0.094727
-0.062988
-0.051758
0.094238
-0.095215
-0.103027
-0.014648
0.097656
0.089355
-0.104492
0.064941
-0.011230
0.003418
-0.103516
-0.020508
0.000488
0.021484
-0.091309
-0.051270
0.103027
0.070313
0.046875
-0.047363
0.077148
0.018066
0.078125
0.001465
-0.020020
-0.064453
-0.060547
-0.092285
0.038086
-0.037598
-0.094727
-0.004883
-0.093262
0.022461
0.018555
-0.033203
0.020996
-0.020508
-0.115234
-0.048340
-0.090332
-0.058105
-0.021484
-0.020020
0.000000
0.024414
-0.010742
0.083008
0.025391
-0.045898
-0.094727
0.023926
-0.009766
-0.039063
-0.057617
0.083496
-0.052246
0.061523
0.078125
0.048340
0.045410
0.021484
-0.004883
-0.048340
0.080566
0.023438
0.014160
0.081543
0.085938
0.093750
-0.026367
0.017578
0.086914
0.090820
-0.045410
-0.090820
0.080566
-0.028320
-0.011230
-0.048828
-0.056641
0.086426
-0.026855
-0.067871
0.106934
0.078125
0.087891
0.058105
-0.047852
-0.102051
-0.071289
-0.086426
0.093262
0.027344
-0.074707
-0.101563
0.006836
-0.100586
-0.016113
-0.009277
0.012207
-0.027832
-0.018555
0.042969
-0.024902
0.083496
0.101563
0.068848
0.065430
-0.071289
0.078613
0.071777
-0.006836
-0.033203
-0.012207
0.009277
0.045898
0.080566
-0.064453
0.026367
-0.044922
0.058105
0.051758
-0.090820
0.084961
-0.064453
-0.053223
-0.018555
0.102051
-0.093750
0.087891
-0.075195
-0.071289
-0.058594
0.083984
0.057129
0.037109
-0.035156
-0.052246
0.109863
0.085938
-0.111328
-0.090332
0.068848
0.061523
0.084961
-0.083984
-0.032227
-0.042969
0.026855
-0.074219
-0.075195
0.106934
-0.009277
-0.077637
0.039551
-0.031738
0.042480
-0.019531
0.093262
0.107910
0.091797
0.061523
0.042480
-0.096191
0.102539
0.023926
-0.041504
0.069824
-0.097656
0.040039
-0.059082
-0.081055
-0.098633
0.012207
0.025879
-0.019531
-0.055664
-0.073242
0.068848
0.040039
-0.097168
-0.036133
0.089844
0.097656
-0.072266
-0.063965
-0.084961
0.064453
-0.090332
-0.049805
-0.027832
0.045410
-0.096191
0.056152
0.057129
-0.020508
-0.004883
0.049316
0.011230
0.000488
0.013184
0.035645
-0.052734
0.082520
0.101074
0.081543
-0.007324
-0.025391
0.043457
0.018555
-0.106445
-0.101074
-0.106445
0.011230
-0.112793
-0.036133
-0.103516
0.067871
0.052246
-0.002930
0.007324
0.098633
0.019531
-0.098633
-0.007324
-0.067383
-0.005371
0.000977
0.045410
-0.073242
-0.078125
-0.072266
0.070801
-0.088867
0.034180
0.032227
0.062988
-0.045410
-0.045410
-0.039063
0.043457
0.066895
0.085449
-0.105469
-0.101074
-0.072754
0.063965
-0.049805
-0.103516
-0.000977
0.027832
-0.018066
0.029297
0.051270
-0.038086
0.022949
-0.042480
-0.008789
0.095703
-0.049316
-0.096680
0.086914
-0.021973
0.017578
-0.091797
-0.082031
0.018066
0.027344
-0.101074
0.100586
0.039551
-0.031250
-0.096191
-0.057129
-0.038086
0.021973
0.030273
0.052734
0.019531
0.128906
0.002930
0.025879
0.129395
0.020996
-0.041016
0.003418
-0.019531
0.037598
-0.058594
-0.048340
0.055664
-0.087402
-0.080566
-0.045410
0.028809
-0.065918
0.019531
0.082031
0.014160
0.080078
0.077148
-0.037598
0.017090
0.002441
0.005859
0.105469
-0.046875
0.103027
-0.076660
0.004883
-0.053223
-0.083008
0.050293
-0.028809
-0.040039
0.121582
0.003906
0.027344
0.011230
0.061523
0.063477
0.057617
-0.093750
-0.050293
0.045410
0.061035
-0.069336
0.071289
-0.041992
-0.010742
-0.014160
0.065430
0.006836
-0.065918
-0.007813
-0.044922
0.013672
0.060059
-0.057617
0.085938
-0.065918
-0.094727
-0.038086
-0.011230
0.054688
0.091309
-0.074707
0.052734
-0.067871
-0.096191
0.073730
0.080566
-0.001953
0.005859
-0.076660
0.043945
-0.063965
-0.039063
0.077148
-0.012695
0.022461
0.082520
-0.113281
-0.034668
0.027344
0.011719
0.088379
0.059082
-0.041992
0.011719
0.055176
-0.016113
-0.023926
-0.097168
0.059570
0.076172
0.088379
0.041016
0.077637
0.103027
-0.040039
-0.045410
-0.087891
0.010742
-0.045410
-0.103027
-0.068359
-0.031738
0.062012
0.096680
0.005371
-0.082031
-0.052246
0.026855
0.067383
0.076660
0.071289
0.037598
0.025879
0.068359
-0.004883
-0.071289
0.027344
0.041016
-0.084961
0.055664
0.108398
0.020020
-0.022461
-0.055664
-0.051758
-0.026367
0.041504
0.028809
-0.051758
-0.038086
-0.038574
-0.045898
0.089844
-0.104980
0.053711
-0.093750
0.065918
0.097168
0.041016
0.070313
0.091797
0.026367
0.086914
-0.067383
-0.078125
-0.069336
0.009766
-0.027832
0.090332
0.061523
0.109375
-0.057129
-0.080078
-0.062500
-0.059082
-0.097168
-0.041992
0.008301
-0.002930
-0.106445
-0.031738
-0.006348
0.034180
0.029785
0.071777
-0.015137
0.089355
0.054688
-0.101563
-0.020996
-0.036133
0.084473
-0.095215
-0.067383
0.105957
0.073730
0.013184
0.034180
-0.116211
0.042969
-0.072266
-0.069824
-0.100098
-0.027832
-0.004395
0.057129
-0.082031
-0.047363
-0.104980
0.088867
0.022949
-0.066406
-0.054688
-0.028320
0.010742
-0.002441
0.049316
-0.046875
0.034180
-0.088379
0.002441
-0.054199
-0.103516
-0.007813
0.069336
-0.014648
-0.019531
-0.010254
0.096680
0.077148
-0.023438
0.070313
0.089844
0.005371
0.036621
0.050293
0.081055
0.057617
-0.012207
-0.107422
0.018066
0.088379
-0.043945
0.013672
0.002930
0.088867
0.029297
-0.111816
-0.017578
-0.003906
-0.109863
0.061035
-0.055664
0.074219
0.024902
-0.060547
-0.104004
0.037109
0.005859
-0.018555
0.018066
0.062012
-0.087891
-0.003418
-0.003418
0.049805
0.001953
0.000977
-0.121094
-0.101074
-0.065918
-0.029297
0.083496
0.041016
0.003906
-0.053223
-0.012695
-0.012207
0.076660
0.032715
0.044922
-0.009766
0.081543
-0.062988
-0.064453
0.016113
0.075684
-0.095215
0.032227
-0.112305
-0.074707
0.080078
0.109375
0.042969
0.084473
-0.024414
0.001953
0.023438
0.022461
-0.088379
-0.079590
0.054199
0.089844
-0.000488
-0.053223
0.106934
0.034180
-0.021484
-0.009766
-0.025391
0.005859
0.022949
0.048828
0.031250
-0.090332
0.032227
-0.058105
0.090820
0.064941
-0.095215
0.021484
0.053711
-0.064453
0.051270
-0.051270
-0.009277
0.080566
-0.099121
-0.002930
0.066895
0.024902
0.065918
-0.056641
0.035645
0.064453
0.077148
0.034180
-0.105957
-0.001465
0.010742
0.065918
0.097656
-0.033691
0.035645
0.017578
0.093750
0.056641
0.015137
-0.060547
0.094238
0.115723
0.036133
-0.081543
0.070313
0.001465
0.084961
-0.055664
-0.043457
0.093750
0.063965
0.013672
-0.069824
0.059082
-0.096191
-0.066406
0.000488
0.008789
-0.067871
0.015625
-0.069824
0.001465
0.055176
0.033691
-0.002441
0.019043
0.066406
-0.058594
-0.023438
0.082031
-0.048828
-0.093750
-0.081055
-0.062988
0.009277
-0.003418
0.003906
-0.004395
0.043945
-0.076172
0.078125
0.104004
0.020996
-0.087891
-0.003418
0.063477
-0.109375
0.017578
0.036133
0.051758
-0.044434
0.077148
-0.074219
-0.032227
0.065430
-0.038086
0.077637
0.062500
-0.033691
-0.057617
0.110352
0.114258
-0.052734
-0.032227
0.031250
-0.053711
0.012207
0.081543
0.099609
0.086914
-0.105957
-0.001953
0.054688
0.068848
0.042480
-0.008789
-0.043945
-0.095215
-0.006836
-0.005371
0.057617
-0.062012
-0.093262
-0.013672
0.091797
-0.060059
0.040527
0.032227
-0.094238
0.028809
0.089355
-0.055664
0.076172
0.017090
-0.082031
-0.024414
0.090820
-0.050293
-0.075684
0.028809
-0.045898
0.065430
-0.038574
-0.047852
-0.019043
-0.082520
-0.098145
-0.089844
-0.064453
-0.074219
0.041504
-0.003418
-0.097168
-0.006348
0.061523
0.073242
-0.083984
0.084961
0.024902
-0.020020
-0.061523
-0.018555
0.015625
0.074707
-0.105469
0.089355
0.050781
0.057617
-0.004395
-0.028809
-0.072266
-0.102051
0.004395
0.004395
0.057617
0.125977
0.007324
0.089355
-0.016602
0.089844
-0.083008
0.017090
-0.143066
-0.116211
0.073242
0.053711
0.070801
0.126465
-0.027832
-0.069824
-0.092285
0.062988
0.055664
-0.123047
-0.100586
-0.015137
-0.030273
0.059570
0.052246
0.086426
0.095703
0.016602
-0.022949
0.051270
-0.020508
0.110840
-0.103027
-0.020996
-0.067383
0.101074
0.140625
0.108887
0.077637
0.070801
-0.077148
0.095215
0.049805
-0.034668
0.071777
0.052246
0.065430
0.053711
0.049316
0.083984
0.005859
0.015137
0.008789
-0.006348
-0.014648
-0.006348
-0.096680
0.021484
0.057617
0.044922
0.080078
0.003906
0.006348
-0.046875
0.082031
0.041992
0.083984
-0.011230
-0.041016
0.001953
-0.035645
-0.020020
-0.085449
0.038574
-0.039551
-0.096680
-0.079102
-0.061523
-0.022949
-0.062500
0.012695
-0.041504
-0.041504
-0.098145
0.039551
-0.014648
-0.100586
0.004883
-0.049805
0.012695
0.035156
0.027832
-0.104492
-0.122559
0.081543
-0.091309
-0.047852
-0.084961
-0.047363
0.080566
0.098145
-0.082031
-0.093750
0.023926
0.086426
-0.064453
-0.088379
-0.080078
0.047363
0.049316
0.051270
0.009766
0.047852
-0.016602
-0.067871
0.014648
-0.095703
0.022949
-0.060547
-0.053223
-0.048340
0.104980
-0.031250
-0.066895
0.017578
-0.036133
-0.004883
-0.000977
-0.083984
0.033691
-0.070801
0.047852
-0.068848
0.059570
-0.040039
-0.044922
-0.039551
0.011719
-0.002930
0.097168
-0.014160
-0.092285
-0.088867
0.018555
0.032715
0.015625
0.043945
-0.079590
0.100098
0.048828
0.088379
0.075195
0.065918
-0.098633
0.053711
0.067871
-0.045898
-0.013184
0.026855
-0.097656
-0.018555
-0.059570
-0.063965
0.113281
0.072754
-0.062988
0.087891
0.073730
0.056641
0.067383
0.090820
-0.094238
0.019043
0.098633
0.027344
0.021484
-0.029297
-0.023438
0.070313
0.023926
0.086914
0.103516
0.082520
0.066895
0.017578
0.044922
0.047852
0.004883
0.100098
-0.002441
-0.060059
-0.013184
0.007324
0.046387
0.078613
0.016113
0.104980
0.058594
-0.031250
0.104492
-0.011719
0.062012
-0.014160
-0.034668
-0.076172
-0.015137
-0.031738
-0.007813
-0.080566
-0.087402
-0.042969
0.021973
-0.003906
-0.107910
0.074219
0.046387
0.031250
0.020020
0.073730
-0.064453
0.039551
0.025879
-0.097656
0.090332
-0.095703
-0.032227
0.088867
-0.011719
0.039063
-0.047852
0.018066
-0.053711
-0.053223
-0.030273
-0.000488
-0.076660
0.063965
-0.096680
0.057617
0.071777
-0.003418
-0.050781
0.091309
0.062988
-0.043945
0.087891
-0.040527
-0.016602
-0.071289
0.051270
-0.031250
0.076172
-0.091797
0.089844
0.024902
-0.024902
0.025879
-0.057129
-0.072754
0.045410
-0.066895
0.041992
-0.091797
0.033691
-0.030762
-0.041504
0.002441
0.083984
-0.021973
-0.101074
0.031738
0.006836
-0.002930
-0.092773
0.022949
-0.021484
0.002930
-0.009766
-0.020020
-0.063477
0.002441
-0.078613
0.010254
-0.083496
-0.005859
0.081055
0.109375
-0.052246
-0.019043
0.053711
-0.014648
0.058105
-0.105469
0.042969
0.010254
0.050781
0.049316
0.051758
-0.083984
-0.088379
0.103027
0.030273
0.052246
0.065918
0.020996
0.079590
0.031250
0.057129
0.098145
0.008789
0.066895
0.052246
-0.083008
-0.029297
0.063965
-0.074707
-0.001465
-0.054199
-0.087402
0.068848
-0.079590
-0.007324
-0.001465
-0.040527
-0.105469
-0.097656
-0.065430
-0.091309
0.107910
0.002441
0.076172
0.064453
0.083984
0.058105
0.001953
0.020508
-0.079590
-0.079102
-0.014160
-0.104980
0.102539
-0.043457
-0.116699
0.043945
-0.019043
0.102539
0.049316
-0.003418
-0.012695
-0.000977
0.000977
0.024902
-0.007324
0.084473
-0.037109
-0.072266
-0.000977
-0.106445
0.029785
-0.005371
0.090820
-0.104980
-0.071777
-0.065430
0.055664
0.080078
-0.087891
-0.016113
0.086426
0.082520
-0.098633
-0.008301
-0.082031
0.005371
-0.017578
-0.020508
0.052246
-0.061035
-0.038574
-0.009277
0.025391
-0.096191
0.030273
-0.071289
-0.095215
-0.032227
0.062988
-0.016602
0.086914
0.062500
-0.108398
-0.000488
0.060547
0.091309
0.059082
-0.072266
0.098145
-0.013672
0.053711
-0.021484
0.051270
0.019043
-0.044434
0.041016
-0.033691
-0.021973
-0.037109
0.046875
-0.018066
0.057129
0.083984
0.039063
0.037109
-0.010742
0.034180
0.024902
0.047852
0.005371
0.075684
-0.099121
0.073730
-0.101563
-0.098633
-0.053223
0.008301
-0.012695
-0.020508
0.036621
0.102051
-0.103516
0.021484
-0.020020
0.040039
0.033691
-0.025391
-0.093262
0.021973
0.041992
0.049316
0.010742
0.052734
0.098633
0.096680
-0.030273
0.009277
-0.003418
0.023438
0.054688
-0.092285
-0.011719
0.103027
-0.006348
-0.073730
0.042480
0.082031
0.100586
-0.045410
0.023926
0.085449
-0.082520
0.048340
-0.074219
-0.062988
0.022949
-0.046875
-0.024414
0.093750
-0.081543
-0.091797
0.002441
-0.039063
-0.081055
0.056152
-0.073730
0.008789
-0.076172
-0.012207
-0.076660
-0.054199
-0.025391
0.022949
0.059570
-0.059570
0.095703
-0.038574
-0.081055
0.017578
-0.041992
0.106934
0.049316
0.017578
0.083496
0.007324
-0.055664
0.003906
0.017090
-0.049316
-0.025391
0.005859
-0.058594
-0.103516
-0.053223
0.012207
0.029297
-0.022461
-0.035645
0.027832
-0.091309
0.089355
-0.011719
0.031250
-0.051270
-0.014648
-0.042969
0.080566
-0.062500
0.050293
-0.038574
-0.080566
-0.098633
0.005859
-0.005859
0.037598
0.028320
0.087402
-0.012207
0.080078
0.022461
-0.060547
0.091309
-0.072754
-0.042480
-0.060547
-0.020508
-0.027832
-0.089355
-0.050293
-0.005859
0.046875
-0.066895
0.092285
-0.027344
-0.073730
0.068359
0.060547
0.015137
-0.043945
0.033203
0.060547
0.055664
-0.083496
0.063965
0.068359
0.053223
0.081055
-0.032715
0.033691
0.084961
0.040039
0.053223
0.068359
-0.089844
0.023438
-0.099609
-0.029297
0.006836
0.023926
0.044434
0.051270
-0.038574
-0.097168
-0.003418
0.073242
0.024902
-0.001465
-0.044434
0.045410
-0.011719
0.063965
0.075684
-0.004395
-0.085449
0.023926
0.083984
0.046875
-0.040527
-0.039063
-0.084961
0.088379
0.052734
0.081055
0.075195
-0.091797
-0.017090
-0.064941
0.087891
0.020020
0.020020
-0.056641
0.041016
0.010742
0.041504
0.044922
0.044922
0.033691
0.064453
-0.015137
-0.033691
-0.053223
-0.092773
0.043457
0.096191
0.093262
-0.102539
-0.049316
0.081055
0.085938
-0.078125
0.093750
-0.028320
0.102539
-0.072266
-0.025879
-0.047852
0.042480
-0.085449
-0.007813
0.056152
0.007324
0.061035
-0.039063
0.085938
0.077637
0.089844
-0.041016
0.080566
-0.063965
-0.026855
-0.001465
0.073242
0.065430
0.045898
-0.099121
0.063477
0.041016
0.094727
-0.051758
-0.071289
-0.004883
0.050781
0.058594
-0.009277
0.074219
-0.011719
-0.035645
-0.100586
-0.016602
0.014160
-0.034180
-0.068848
0.104492
-0.041992
0.089844
-0.010742
-0.046387
0.075684
0.065430
0.016113
0.081055
0.098145
0.043457
-0.102051
-0.054688
0.075684
-0.053711
0.065430
-0.098633
0.001465
-0.079102
-0.032227
-0.016113
0.097168
0.086426
-0.003906
-0.100586
-0.013672
-0.085938
-0.005371
-0.080566
-0.008301
0.021973
0.087891
0.025879
0.031250
-0.014160
-0.083496
0.095703
0.052734
0.092285
-0.030273
-0.030762
-0.003418
-0.104004
-0.068848
0.010254
0.011230
0.042969
-0.020020
0.082031
-0.009766
-0.094238
-0.039551
0.065430
0.103027
0.071289
0.032227
0.026367
-0.040039
0.098145
0.070313
0.017578
0.023438
0.086914
-0.080566
-0.094727
-0.095215
-0.080566
0.014648
0.089844
0.000977
-0.064941
-0.023438
0.074219
-0.098633
0.010742
0.017090
-0.069824
0.080566
0.069336
-0.097656
0.103516
0.094727
0.034668
-0.070313
-0.106445
0.033691
-0.086426
0.052246
0.087402
-0.016113
0.020508
0.112305
-0.106934
-0.051270
0.039063
0.002441
-0.065918
-0.020508
-0.101563
-0.004395
0.054199
-0.026855
0.060547
0.079590
0.013184
0.056641
-0.021484
0.057617
0.046875
0.073730
0.026855
0.032715
-0.074219
0.098633
0.030273
0.115234
0.021484
-0.038574
0.083008
0.104980
0.100098
-0.029297
-0.013184
0.100586
0.027344
-0.045410
-0.096191
0.029785
-0.070313
-0.016113
-0.092773
-0.061523
0.001953
-0.009766
0.037109
0.051758
0.087402
-0.051270
0.002441
0.057129
-0.046875
0.003906
-0.085449
-0.060059
-0.025391
0.041992
0.018066
0.031738
0.069824
-0.079102
-0.082520
-0.005371
-0.076660
0.014648
-0.053711
-0.107422
-0.035156
0.037109
-0.051270
0.037109
-0.006348
0.092773
0.026367
0.003418
0.005371
0.015625
-0.094727
0.047852
0.009766
0.047852
0.037598
0.092773
0.091797
-0.061523
0.017090
0.088867
0.058594
-0.083008
0.106445
-0.054199
0.069336
0.072266
0.096191
0.104980
0.080078
-0.104492
-0.058105
0.052246
-0.084961
-0.019043
0.102051
0.086914
-0.074707
0.049316
0.041992
-0.083984
-0.029785
-0.083008
0.087402
-0.053223
0.096191
0.001953
-0.028320
0.078613
-0.097168
-0.095215
-0.093262
-0.000977
0.089355
-0.075684
0.090332
0.047852
0.055664
0.027344
-0.043945
-0.019531
-0.042969
0.089844
0.087402
0.009766
0.038574
0.024414
0.055664
-0.008789
0.042969
0.044922
-0.009766
0.073242
-0.026367
0.030273
-0.041016
0.079590
0.028320
-0.048828
0.026855
0.100098
0.040039
-0.027344
0.106445
-0.058594
0.050293
0.054688
0.099121
-0.085449
-0.012695
0.067871
0.028320
0.011719
-0.063477
-0.087402
0.106934
0.016113
0.001953
-0.088867
-0.095215
-0.024902
-0.061035
0.017090
0.046387
-0.084473
-0.049316
-0.090820
-0.014160
-0.054688
0.091309
-0.035156
-0.004883
0.098145
-0.088867
-0.072754
0.067383
-0.004395
0.009766
-0.070313
0.023438
0.023926
0.043945
-0.049805
0.086914
-0.071777
0.021484
0.068848
-0.009277
0.021973
0.091797
-0.085449
0.002930
-0.030762
0.020020
0.099121
0.019531
-0.103027
0.091309
0.039551
0.076172
-0.046387
0.010254
0.104004
0.078613
-0.085449
0.051758
-0.088867
0.081543
-0.071777
0.031738
0.094238
0.078125
-0.068359
0.053711
0.039063
-0.061035
-0.048340
-0.088379
-0.037109
0.034668
0.085938
0.080566
-0.057617
0.055176
0.016602
-0.007813
0.020508
-0.002930
-0.011719
0.043457
-0.003906
-0.100098
0.040039
-0.005859
-0.048828
-0.018555
0.000488
0.047852
-0.097168
-0.032715
0.065430
-0.074707
-0.052246
-0.059082
-0.079102
-0.038086
0.087402
0.014160
-0.044922
-0.077637
0.111328
0.054199
0.120605
0.081055
0.055176
0.030273
-0.082520
0.080078
-0.085938
0.097656
0.098633
0.095215
-0.025391
0.104492
-0.049316
-0.068359
-0.055176
-0.071289
0.022949
-0.037109
-0.055664
0.098145
0.025879
-0.012695
0.003418
0.101074
0.074219
-0.025391
0.000977
0.014648
0.014160
-0.069336
-0.002441
-0.049805
-0.087891
-0.096680
-0.042969
0.059570
-0.058105
0.113281
0.032227
-0.075195
-0.111328
0.002930
0.046387
0.017090
0.056641
-0.022461
0.021484
0.067383
-0.033691
0.055664
-0.063965
-0.095703
0.087402
-0.073242
0.065918
0.043457
0.038574
-0.095703
0.023926
0.083496
-0.028320
-0.093262
0.079590
-0.062988
-0.072266
0.089355
0.091797
-0.093750
0.069336
-0.005859
-0.006836
-0.011719
-0.059082
0.004883
-0.096191
0.080078
0.033691
-0.050293
-0.081543
0.006348
-0.013672
-0.034668
0.053711
-0.075195
0.057129
0.024902
-0.074707
0.009277
0.102539
-0.069824
0.017578
0.109863
0.000977
0.010254
-0.019043
0.103027
-0.022949
-0.002441
0.048340
0.059082
0.073242
0.089355
0.107910
-0.020020
0.032715
-0.084473
-0.048828
0.072754
0.029785
-0.068359
0.031738
0.034180
0.027832
0.060059
0.052246
-0.070801
0.076172
0.105957
-0.083496
-0.044922
0.086426
-0.010742
-0.072754
-0.047363
-0.025391
-0.003418
-0.019531
0.040527
-0.012695
0.063965
0.018066
0.047852
-0.106934
0.069336
-0.063477
-0.062500
0.062500
-0.046387
-0.059082
0.098633
-0.002441
0.012207
0.083984
0.082520
0.072266
0.023926
-0.092773
-0.020508
-0.045898
-0.104004
0.099121
0.052246
0.033691
-0.083496
-0.038086
0.008301
-0.096680
-0.039063
-0.029785
-0.028809
-0.102539
-0.068359
0.045410
0.053223
0.061035
-0.079102
-0.025391
0.014648
-0.093750
0.080078
0.017578
-0.079590
-0.012695
-0.064453
-0.029785
-0.007324
0.005371
0.052246
0.006836
0.028320
-0.016113
0.061035
-0.054688
0.059082
-0.018066
-0.035645
0.026855
-0.029297
0.023926
0.070801
-0.052246
-0.052734
-0.080566
0.039063
0.109863
0.075684
-0.021484
-0.090332
0.110352
0.094727
-0.079102
-0.055176
-0.037598
-0.090332
-0.029297
-0.021973
-0.083984
-0.048828
0.010742
0.085938
0.037598
-0.024902
0.028809
-0.065430
0.082031
-0.042480
0.075684
-0.076172
0.069336
0.056152
0.027344
-0.063965
0.004883
-0.081543
0.031250
-0.051758
0.049316
0.033203
-0.012207
-0.096680
-0.084473
0.016602
0.029297
0.015625
0.095703
-0.046387
0.052246
0.072266
0.012207
-0.086914
-0.048340
-0.014160
-0.064941
-0.092773
0.093750
0.013184
-0.078125
-0.000977
0.014160
-0.046387
-0.086914
0.044434
-0.092285
-0.017578
-0.028809
0.016113
-0.018066
0.019531
-0.090820
-0.045410
-0.071777
-0.094727
-0.003418
0.067871
-0.104004
0.019043
0.103516
-0.065430
0.064453
-0.076172
-0.085938
0.004395
0.055176
0.015137
-0.102539
0.020508
-0.100586
0.060547
-0.012207
-0.000488
0.041504
0.112305
-0.089355
-0.055176
-0.108887
0.087891
0.076172
-0.092773
-0.114746
0.020020
-0.021484
-0.012695
-0.109375
