0.151902
-0.0951686
-0.176996
-0.00406254
-0.197936
0.127715
-0.142349
-0.0450634
-0.237448
-0.172253
-0.315674
0.252539
-0.0277832
-0.260202
-0.127811
-0.0424
0.0400961
0.217784
0.112642
-0.121476
0.136554
-0.114276
0.0775737
0.094877
-0.23122
-0.149592
0.253157
-0.0875326
0.245316
-0.193368
-0.231197
0.184696
-0.133563
-0.252405
-0.190649
0.072937
0.0873609
-0.0613386
-0.249169
-0.243936
0.160799
0.204519
0.136315
0.182593
0.0625373
-0.213513
0.123304
-0.0498032
0.00936192
-0.0991101
-0.188311
-0.104931
0.19434
-0.103827
0.159276
0.138935
0.139307
-0.018013
-0.192511
0.176357
0.166513
-0.0947768
-0.0140555
0.216098
0.0612409
0.0829041
0.144398
-0.245588
-0.280975
0.0723843
0.111908
0.170488
0.225179
-0.164112
-0.333786
-0.0879306
0.0944281
-0.209358
0.271416
-0.097386
-0.100914
-0.160391
-0.224855
-0.188629
0.0905768
-0.27884
-0.16255
-0.275635
0.191715
-0.0543742
0.19132
-0.161905
-0.219974
0.184259
0.253517
-0.174712
0.308264
-0.22585
0.169604
-0.116316
0.276722
0.0763539
-0.106579
-0.150216
-0.334387
0.305943
-0.0473205
0.117117
0.0613924
0.0994898
0.0504569
0.145916
0.342749
0.0844412
-0.12847
0.156393
-0.236283
-0.108866
0.239839
0.00571268
-0.131493
0.065728
-0.249137
-0.247852
-0.0114006
-0.250689
0.251486
0.0267588
0.139274
-0.206519
0.000234008
-0.0479691
-0.0613086
-0.116468
0.242731
0.159583
-0.0617085
-0.243005
-0.0470876
-0.0789055
0.224335
0.303675
-0.168486
-0.274408
0.200571
-0.190972
0.276486
0.0338583
-0.166701
0.0411016
0.193731
0.236106
-0.186483
-0.181656
0.152401
-0.16997
0.0124189
0.105802
0.0432108
0.0469486
-0.140748
-0.252973
0.0653461
0.116114
0.0233823
-0.23925
-0.10128
-0.204162
0.15314
-0.0567955
0.246445
-0.154325
0.201222
-0.0190843
0.0902854
0.147851
-0.0194155
-0.107898
0.114174
-0.190109
-0.151577
-0.0868498
-0.158896
0.20493
0.203324
0.174253
-0.093524
-0.165168
-0.0508749
-0.221063
0.185317
-0.253681
0.228118
-0.219906
0.288638
0.164653
0.02146
-0.152661
0.185686
0.270301
0.02516
-0.149296
-0.204658
-0.140738
-0.153815
-0.237026
-0.0811331
-0.156948
-0.213686
0.0752741
0.0797197
0.0897881
0.230883
-0.0372412
-0.0476203
-0.055864
0.0586363
0.0750521
-0.142946
-0.201834
0.255795
0.280556
-0.232215
-0.0704115
-0.0808535
-0.0753809
-0.211504
0.134365
-0.266282
-0.0492599
-0.182961
0.263112
0.163695
-0.186087
0.125519
-0.11735
0.00528228
0.226233
-0.0400424
0.173743
-0.0217852
-0.140643
0.185498
-0.199145
-0.0712414
-0.0710434
-0.191772
0.29596
0.101453
0.0856447
-0.145033
-0.226168
-0.346478
0.265572
0.163067
-0.107368
0.0761034
0.0289631
0.209879
0.352691
-0.300162
0.153113
-0.0407564
0.00815809
0.120729
0.259864
-0.0210909
-0.262589
0.0150899
0.322218
0.00810206
-0.135742
-0.284794
-0.227038
-0.218812
-0.231891
0.167094
0.322124
-0.0888604
0.154382
0.212813
0.103018
-0.167083
-0.125546
0.097626
-0.121825
0.224297
0.0832504
0.0323982
-0.122212
-0.226959
-0.116601
-0.0309245
0.234562
0.107847
-0.0227149
0.0666333
-0.0138151
0.206282
-0.0760485
0.0281284
-0.0658993
-0.224491
0.21648
0.144842
0.201246
0.209822
-0.0724682
0.248941
-0.108884
0.138421
-0.267275
-0.27688
0.0479239
0.176556
0.191738
0.0739685
-0.187617
-0.256754
0.170371
-0.186636
-0.0903189
0.271843
0.0246379
0.257087
0.0381968
0.101026
0.0732994
0.227922
-0.174704
-0.219548
-0.0580801
-0.170738
0.241983
0.0498627
0.145888
0.0541018
-0.170992
0.118248
0.106616
-0.131061
0.227471
-0.303824
0.315074
0.19322
0.209162
-0.106668
0.0649846
-0.0756219
-0.237711
-0.261688
-0.20562
0.195458
-0.0540519
0.240174
0.259128
-0.196361
0.190423
0.221793
-0.139709
0.184201
-0.0439727
-0.204438
0.234833
-0.000615087
-0.0735725
0.0501062
0.179675
0.0977671
-0.0291045
0.0750214
-0.0162657
-0.0727763
0.183259
-0.188969
-0.221932
-0.150504
-0.246116
-0.214441
-0.0881749
0.153304
0.103412
0.143995
-0.0372088
-0.173292
-0.0738386
-0.122643
-0.200607
-0.234414
0.0975223
0.220606
0.257828
0.164643
-0.284792
0.109532
0.241303
0.1876
-0.290602
0.103994
-0.12262
0.181952
-0.231458
0.239788
0.173342
-0.238495
-0.210604
-0.155613
0.207503
-0.148632
0.179603
-0.0483632
-0.125843
0.0953473
-0.142302
0.286822
-0.1129
0.0681866
0.0736739
-0.0135428
0.149487
0.13779
-0.132257
0.214882
0.306014
-0.1821
0.120589
0.0475186
-0.253078
0.0784728
0.240468
-0.172733
-0.153113
0.195093
0.314685
0.115039
-0.228412
-0.0312571
-0.0436457
0.221749
0.256645
-0.107228
-0.197641
-0.0419497
0.242973
-0.129645
0.116592
-0.151444
0.14475
-0.103731
-0.201021
-0.123404
0.0196082
0.222963
-0.250249
-0.0542181
0.183845
0.0737128
-0.177341
0.162431
-0.0503666
-0.1348
0.237099
0.322852
0.19469
0.227756
-0.0438016
-0.285979
0.259656
0.0912092
-0.150147
-0.180441
0.0127023
0.0335029
0.23656
0.138788
-0.143674
0.103269
0.0345261
0.168724
0.00739084
-0.101152
0.188297
-0.191991
-0.178752
-0.180568
-0.19413
0.0341585
0.19203
-0.0792685
-0.128498
-0.157047
-0.246309
-0.251463
-0.233436
0.0590235
-0.13955
0.135373
-0.0876776
-0.0999057
0.0603434
-0.153496
-0.26778
0.0131692
-0.22984
-0.0276587
0.19173
-0.150121
-0.0158478
0.266093
0.00676008
0.00384654
0.0905424
0.209224
0.0948403
0.218331
-0.342534
-0.101669
0.104424
0.00320735
0.279047
-0.24537
-0.260397
0.145317
-0.0165554
0.17028
0.0876117
0.0584929
0.00311466
0.0359367
0.182244
0.110494
-0.0835037
0.107105
0.314289
-0.153923
-0.202535
-0.341409
0.0389344
-0.281453
0.017817
-0.249941
-0.0664809
0.0583785
0.2464
0.119401
-0.0757905
0.244589
0.248809
-0.24612
-0.125185
0.216714
0.0480246
-0.31082
-0.183337
-0.130061
0.192084
-0.247159
0.241783
-0.195639
0.146948
0.0333441
0.199744
-0.206193
-0.162486
-0.180029
-0.0799105
0.325042
0.0741198
-0.144108
-0.253358
-0.0866425
0.0478152
-0.229421
0.268241
0.177094
0.280415
0.0928996
-0.010427
0.192282
0.177214
-0.219811
-0.100165
0.274614
0.158101
-0.100475
-0.121432
0.0493886
-0.130198
0.00819359
0.0119089
-0.270644
0.131483
0.287128
0.23635
-0.270514
0.2592
-0.175442
0.187827
0.0227506
-0.233667
-0.117325
-0.108371
-0.233058
-0.011604
-0.0343554
-0.136112
-0.183636
-0.244439
0.162898
-0.099329
-0.150559
0.248937
0.17797
-0.243323
-0.229182
-0.196907
0.103236
0.150298
0.0689456
-0.131745
-0.153378
-0.112717
-0.0652474
-0.245893
-0.0615322
-0.159783
0.198248
0.143027
-0.23343
-0.202352
0.02482
0.248921
0.0479018
-0.198469
-0.0644637
0.0103018
0.117008
-0.103998
-0.294302
0.00711538
-0.308638
-0.0614212
-0.244071
0.269339
-0.331785
0.297818
-0.0888707
-0.159934
-0.0454944
-0.136947
0.188422
0.227486
-0.0184303
0.191204
0.143436
-0.173172
0.168422
0.189049
0.0561407
-0.144786
-0.00930455
-0.252129
0.231959
-0.228341
0.244245
0.194117
0.0717088
-0.0081124
-0.0368279
-0.047692
0.166846
-0.0337102
-0.127349
-0.187423
0.196841
-0.154925
-0.130338
-0.0584436
-0.0891671
-0.177578
-0.0464632
-0.0377287
0.242862
-0.206198
0.122546
0.188879
-0.149813
0.220631
0.0470351
0.00391906
-0.202771
0.170885
0.0908296
0.0204948
0.322635
0.0529944
0.0338677
0.257366
0.124202
0.085111
-0.168558
-0.210541
0.205208
0.149767
0.234259
-0.05556
-0.0936121
0.240251
-0.0302465
-0.139855
-0.194161
0.149064
-0.284425
0.194234
-0.0772467
0.160148
-0.213536
-0.214127
0.256954
0.0710455
0.25619
-0.138719
0.0450257
-0.163662
0.22635
0.125153
0.214262
-0.205654
-0.194445
-0.115146
-0.249858
-0.184256
-0.21867
-0.165739
-0.0536015
-0.0532927
0.172084
-0.142325
0.242063
-0.104012
-0.128299
0.000833438
0.194371
-0.236169
0.0227291
0.161575
0.343551
-0.159231
-0.074882
-0.150471
-0.0204538
0.0457386
-0.0460151
-0.16453
0.0846618
-0.147269
0.297604
-0.0698716
-0.366855
-0.22381
0.144551
-0.212251
-0.132317
0.0498629
0.133761
-0.0975213
-0.10422
0.161063
0.21967
-0.175668
0.190953
-0.0416805
0.252774
0.254018
0.169224
0.120466
-0.217356
-0.254719
0.255513
0.195037
0.171951
-0.329875
0.0027653
0.197288
-0.031844
-0.112454
0.165557
0.193039
0.231361
0.0976909
0.129137
0.282167
0.202613
-0.0404246
0.0935436
-0.075208
0.129811
-0.145797
0.107963
-0.254173
0.149177
-0.060818
0.198203
-0.173977
0.111137
-0.120293
-0.239633
-0.0162375
0.172704
-0.116033
-0.131554
-0.108357
-0.0577678
-0.236391
-0.0167
-0.113897
0.225077
-0.198721
-0.246777
0.199215
-0.160998
0.0276194
0.0713088
-0.271257
-0.0389071
0.27118
-0.138955
0.00140954
-0.230783
0.179927
-0.0362568
0.162861
-0.228186
0.150473
-0.0933961
0.126108
-0.042746
-0.247024
0.185075
-0.189073
