0.00413499
0.116505
-0.0412016
-0.159943
-0.0527486
-0.0448942
0.0674043
-0.183985
0.113117
0.113885
-0.128856
0.0838664
0.102825
-0.0727457
0.0662672
-0.0746681
-0.0542574
0.168221
-0.118043
-0.0796378
0.0630625
-0.0684758
-0.160179
-0.124921
-0.109598
-0.171632
0.0580452
0.132824
-0.00310041
0.0840908
0.0462233
0.00909428
0.0148362
-0.0942879
0.122648
0.05208
-0.20727
0.0681
-0.0439415
-0.0904135
-0.0597055
0.173073
-0.029771
-0.0303376
-0.118114
0.14797
-0.138277
0.0240891
-0.119542
0.0918598
0.0960052
-0.0768129
-0.125496
0.110802
-0.0421617
0.0236202
0.169161
-0.134457
0.0759735
0.104224
0.112639
0.0646169
0.148151
0.0933997
-0.14628
0.151556
-0.15244
0.0823565
-0.104235
-0.210369
-0.0764883
-0.188093
-0.0728827
0.139866
-0.119041
-0.0249773
0.127627
-0.110455
0.0927442
0.179451
0.107198
-0.0741607
0.0583296
-0.0301388
-0.0513101
0.131751
-0.116774
-0.0505162
-0.0329968
0.00830583
-0.0181017
0.0733376
0.0156837
0.0335583
-0.163534
-0.0944862
0.164586
0.110943
-0.135419
-0.00608708
-0.0948597
-0.209254
0.0261723
0.194352
-0.10202
-0.0076865
-0.012696
-0.107888
-0.0101746
-0.0901304
0.153815
0.198491
0.198896
-0.0550048
0.128688
-0.00252224
0.111409
-0.0836223
-0.0142743
-0.143802
-0.0253093
-0.0469371
-0.0405668
-0.00567513
-0.0646658
0.0757524
0.097353
0.0239177
-0.0938673
-0.149634
0.0889435
-0.141647
-0.0299713
-0.0235528
-0.162196
-0.134911
0.0523916
0.0122345
0.0888001
-0.141748
-0.0554044
-0.179436
-0.112561
0.047921
0.0281623
0.0789238
0.0555604
0.0263793
-0.138171
-0.149714
-0.17116
-0.11805
-0.0407583
0.0697032
0.0331228
-0.158094
0.00361125
-0.148431
-0.0916708
-0.167823
-0.163393
0.116474
-0.013075
-0.0419675
-0.0736167
0.0469154
-0.162534
-0.0217272
-0.0199367
-0.0465582
0.0313475
-0.0570312
0.109827
0.107113
-0.120301
0.162142
0.0413258
-0.00624935
-0.00994345
-0.123421
0.155681
-0.132465
0.0144304
0.0854891
-0.0306093
-0.152223
-0.14688
-0.096194
0.0103277
-0.11881
-0.0227819
0.161485
0.15827
-0.126825
0.0473938
-0.184433
0.0738589
-0.115014
-0.126313
-0.0515258
-0.0662269
-0.154877
0.0017018
0.000129141
-0.15109
-0.1206
-0.127722
-0.0826754
-0.0680206
-0.00982036
-0.153831
-0.152292
-0.019485
-0.0297514
-0.11955
0.0522584
-0.0338417
0.153047
-0.052195
0.0686031
-0.0810062
0.140443
-0.0503672
0.176083
-0.145771
-0.14361
0.132664
-0.0376704
-0.163597
-0.136075
-0.169496
-0.0175546
-0.160392
-0.04917
-0.0513074
-0.14633
0.0487006
0.033598
0.0697443
-0.0548903
-0.0492213
-0.046545
-0.113169
0.143885
0.0314565
0.145259
0.0339061
-0.0856208
0.129646
-0.163782
-0.0114681
0.0178381
0.0513609
0.0484948
0.142096
0.110358
0.013216
-0.144458
-0.010754
-0.0345316
0.129428
-0.0443341
-0.00643034
-0.148114
-0.0647508
0.0680825
-0.106165
0.139264
-0.0486491
0.0228025
-0.10617
0.166556
0.123153
0.0409034
0.0498747
-0.0390115
0.0500595
-0.0768972
-0.0101626
0.143635
0.0608902
0.11584
-0.024544
-0.0273823
-0.119978
-0.0807659
-0.0109745
0.0403379
0.00165755
0.0362235
0.168137
-0.1239
-0.00107227
0.155619
0.117743
0.151251
0.0148091
-0.110251
-0.0688889
0.0639262
0.137301
-0.0994453
0.136924
0.0647043
-0.111703
-0.130336
-0.00386821
-0.000323954
0.132635
0.0874743
-0.0794721
0.170306
-0.125976
0.0198567
-0.100765
-0.122413
0.111453
-0.151425
-0.109601
0.145214
0.153664
0.044807
-0.161662
0.0934682
0.0621771
-0.167259
-0.102842
-0.132569
0.157994
-0.0425329
-0.056567
0.103368
-0.131664
-0.136119
-0.103212
0.0504089
-0.11894
0.0123889
-0.0229269
0.157232
-0.149859
0.0490213
0.0372206
0.0853181
0.147067
0.160541
0.0386023
-0.136376
-0.148088
0.0189292
-0.0363096
0.068523
-0.0243523
0.182765
-0.000853453
-0.0565498
0.00664319
0.0730757
0.0863113
-0.145348
-0.0974302
0.0221312
0.0760273
-0.101397
-0.101799
0.177843
0.0794305
0.132937
0.173354
0.14918
0.0735855
-0.171424
0.0433692
0.0907672
0.0863881
-0.0383673
0.151878
0.0883546
0.10664
0.0352424
-0.168022
-0.0550101
-0.136583
-0.0799722
0.0708285
0.129495
-0.040638
-0.15583
-0.140013
-0.0308938
-0.132067
-0.166373
-0.141525
0.0914911
-0.104682
-0.15519
-0.170457
0.103089
0.0464237
0.138789
-0.0924983
0.130125
0.129773
-0.0347647
-0.00194287
-0.129679
-0.172851
-0.143496
0.134154
0.172436
0.177237
-0.0342675
-0.0948698
0.0441557
0.0558737
0.00255826
-0.141565
-0.170659
-0.0315652
-0.0907883
-0.051914
-0.0197206
-0.158836
-0.130317
0.156914
-0.123526
0.00202112
0.0629935
-0.117494
-0.0198946
0.0803058
0.178525
0.158435
-0.159921
-0.0272006
-0.145993
-0.160658
-0.0135554
0.0673122
-0.0794527
0.105063
-0.0813592
0.0388342
-0.00427649
0.15733
0.0220098
-0.0692056
0.107197
0.0379445
0.178136
-0.0820618
0.111058
-0.0510449
-0.146061
0.120499
0.171334
-0.180867
-0.0293207
-0.133635
0.0268026
0.14391
-0.0534831
-0.0536788
-0.0721925
0.149789
0.0268352
-0.0879201
-0.0192979
0.0859493
0.13222
0.0899589
-0.0246925
-0.0940104
0.0629838
0.064757
-0.10849
-0.0775626
-0.107657
0.154184
-0.150829
0.147286
-0.140067
0.165661
0.10472
-0.0697337
-0.106781
-0.0246345
0.0185641
0.118032
-0.0733594
-0.00213775
0.0218412
-0.18905
-0.0175849
-0.00901175
0.0594877
-0.0437001
-0.0588164
0.114642
0.059037
-0.122935
-0.0203555
0.155535
0.119318
0.0738083
-0.117478
0.13469
-0.169507
0.117277
0.0986312
0.0131097
-0.0565515
0.01643
-0.0328647
0.0527734
-0.0244508
0.0724311
0.0650469
-0.0359905
0.122194
0.0554833
-0.0255824
-0.0272171
-0.129794
-0.136297
0.17158
0.13587
0.0409976
0.034502
-0.181462
-0.119142
-0.0263962
-0.0251489
0.0522117
0.118029
-0.150999
-0.00209349
-0.125487
0.0308618
0.0362711
-0.097121
-0.0379472
0.0993702
0.0274144
-0.0318421
0.108533
0.11851
-0.0448734
0.0357538
0.00568924
0.0199353
-0.0284494
0.189811
0.114335
-0.0899341
-0.104185
0.138735
0.101338
-0.0456086
-0.0321712
-0.0298526
0.0158718
-0.112081
0.147221
0.130903
-0.160248
0.192838
0.176207
-0.168263
0.0688383
0.103669
0.0861547
-0.157472
0.102645
0.0512375
0.00717866
-0.116685
-0.0697574
-0.218757
0.0445231
-0.118977
-0.0996271
0.104878
0.116294
0.0680486
-0.0857648
-0.104751
-0.0407955
-0.164141
-0.178117
0.0412252
-0.0868844
-0.101596
0.0462278
-0.0149892
-0.0933857
-0.170546
-0.00703343
0.0141848
-0.0329488
-0.0422361
0.165093
-0.119894
0.0630988
0.123406
0.137368
0.0214686
-0.0461881
-0.153914
0.097286
0.136091
0.166838
0.0166707
0.165639
-0.06586
-0.00102302
0.0654688
-0.162849
0.0206911
-0.04207
0.155234
-0.0986087
0.0407721
-0.144207
-0.0914342
-0.00183445
-0.159471
-0.0157351
-0.123173
-0.12604
0.0976059
0.0779431
-0.0682407
0.153337
-0.0705371
0.169273
0.144763
0.0760941
0.0682408
0.137549
-0.16941
0.138757
-0.151874
-0.166366
-0.109791
-0.0564486
0.0707436
0.0653963
-0.0144138
0.104352
-0.109603
0.137467
0.161901
0.0809882
-0.0441147
0.0793831
0.0358799
-0.166837
0.0134479
0.0219547
-0.0775072
-0.0338287
-0.152343
-0.148864
-0.0121982
0.049406
0.134569
-0.151319
0.0528293
-0.154252
0.0411451
-0.042523
0.139847
0.152422
0.144492
0.0451026
0.128045
0.10606
0.0106718
0.179775
0.0868919
0.0759319
-0.0663337
-0.0761035
0.0753335
-0.0157953
-0.0868425
-0.158968
-0.0098753
-0.0292239
0.120896
-0.0736518
0.134997
-0.121468
0.1541
-0.073257
-0.15634
0.0410543
-0.0780622
0.0901788
0.0288814
0.111367
-0.086283
-0.0577659
0.035377
-0.0837812
-0.020842
0.147875
-0.161944
-0.169014
0.0337998
0.115436
0.126057
-0.0243544
0.105898
-0.0108105
0.142135
0.00469802
-0.0401072
-0.0214014
0.0790426
-0.14046
-0.0556948
0.00788007
-0.113226
0.0194864
-0.104807
0.0880033
-0.0171583
0.0813757
0.142497
-0.0303392
0.146588
-0.134716
-0.150989
0.131972
0.0437992
0.15101
-0.0532555
-0.0328195
-0.0794186
0.00847343
0.0785319
-0.178881
-0.15111
0.140489
0.0424689
-0.0957862
0.00669605
-0.0241563
0.0308176
-0.143928
0.0562571
0.0204603
0.163713
0.0821529
0.158834
-0.079943
0.0033082
0.0576293
0.1679
0.179527
0.120426
-0.115374
0.0520959
0.0901861
-0.108384
-0.204269
-0.0787637
-0.0685359
0.013042
0.162576
0.158347
0.0849576
-0.0366655
-0.172893
-0.0398891
-0.00536295
0.0164571
-0.0739528
0.0627622
-0.0533929
-0.0154745
0.0696811
0.129394
0.0346289
-0.119107
0.0204517
-0.121594
-0.149412
-0.00633174
-0.0161117
-0.101695
0.0236319
0.161777
0.134146
-0.102498
0.0655403
-0.014479
-0.00398479
-0.0506261
-0.0585712
0.0665789
-0.0313317
0.172762
0.158764
-0.14547
0.166528
0.0475062
0.169546
-0.123257
0.0731319
0.0754013
0.0799994
0.0282172
-0.0194497
-0.0466189
0.0459786
0.00711703
0.113076
-0.0610547
-0.0710991
0.0978406
-0.0351831
0.0636631
-0.1388
0.156433
-0.129086
0.0359377
-0.0507463
0.0631184
-0.0292806
0.0369414
0.0358221
0.0928508
-0.131954
-0.144373
0.161098
0.0953733
-0.0204666
-0.0239908
0.068966
-0.0624316
0.0867688
-0.119478
-0.161069
-0.0934562
-0.1686
-0.0470365
-0.119616
0.0531067
-0.0116728
-0.0174293
-0.103889
0.0975895
-0.0611114
-0.161407
-0.160918
-0.0180546
0.0613677
0.167935
0.0667923
-0.148319
0.0917474
0.166207
-0.00478359
-0.051193
0.169488
-0.128169
-0.00294719
-0.112126
0.0858987
0.141904
-0.102828
0.141459
-0.0593389
0.0522778
0.04957
0.108474
-0.0478307
-0.110763
0.000637607
-0.0780017
0.00861705
-0.0638389
-0.0644784
-0.156271
-0.0129808
0.045536
0.175258
0.070352
0.104557
0.137412
-0.116588
0.172742
0.122195
-0.138366
-0.0389341
0.146599
0.11275
-0.0337993
0.164186
-0.165382
0.0874577
0.00643259
0.0537743
-0.145252
0.00863084
0.089016
-0.0289278
0.129771
0.0982637
0.0519521
-0.000231557
0.0876948
-0.0191659
0.0554544
0.168167
-0.00261529
-0.0656795
-0.0955765
0.161292
0.114179
-0.0329657
-0.173375
0.0214383
0.0153648
0.157415
0.192583
-0.0847252
-0.0218232
-0.0541004
0.207962
-0.149286
0.122323
0.145302
-0.0749755
0.072502
-0.0730392
0.106159
-0.0923957
-0.00352171
-0.0587057
-0.00490245
0.153648
0.128736
0.0656996
0.0546561
-0.142704
0.0720783
0.0893265
0.034971
-0.024476
0.144313
0.145631
-0.0839721
0.089878
-0.135762
-0.0944028
0.102939
-0.0963821
-0.084136
-0.100678
0.185739
-0.0348895
-0.211106
-0.0709989
0.152855
-0.112413
-0.13226
0.0570807
-0.150146
-0.141415
0.0400254
-0.0091451
-0.0183856
0.140682
-0.139297
-0.0506521
-0.170732
0.0341066
0.176776
0.0200062
0.0845014
-0.0841412
0.0205889
0.142999
0.0784286
0.122855
0.0382418
0.110221
0.1685
-0.0147362
-0.159651
0.088691
-0.129212
-0.0950234
-0.129373
0.158555
-0.0134337
0.0571124
-0.151845
0.0940654
0.0758024
0.170902
-0.0152207
0.0503945
-0.143123
0.179769
-0.170349
-0.0170214
0.0445244
0.0986763
0.0718962
0.0779719
0.147021
0.159834
0.157422
0.0217853
-0.0170523
-0.0374186
-0.137347
0.143706
0.049128
0.0594544
-0.0881267
0.190607
-0.027832
0.126796
-0.161444
-0.0653758
0.00319793
0.0629203
-0.0507958
-0.0140593
-0.16768
0.0567482
0.168941
-0.169924
-0.0132488
0.0931024
0.0495807
0.0917285
0.0796148
-0.0495705
-0.0678399
-0.00309662
0.147689
0.0234922
0.0608668
0.0523373
0.112984
-0.165822
-0.128542
0.0100411
0.0655419
-0.127817
0.0539725
0.0573143
-0.049375
0.16381
-0.119534
0.0160366
-0.0529215
0.0573571
-0.0551812
0.169534
0.0018692
0.0989853
0.0360033
0.0867765
0.0356597
-0.111092
0.0152147
-0.16863
0.0940434
-0.123174
-0.0910017
0.0889261
-0.0453067
-0.069006
-0.127699
0.078339
0.154664
-0.10383
-0.0675883
0.14085
-0.129183
0.143779
0.120649
0.152782
-0.17093
0.0354705
-0.00685055
-0.0922261
0.102277
0.122936
-0.0629233
0.145997
0.100875
-0.159823
0.135165
0.170518
0.0915748
0.0436693
-0.151461
0.0918107
0.0369911
-0.00416403
-0.0398973
0.0632004
0.0315263
0.0254095
-0.0868543
-0.0361801
-0.13143
0.0773155
-0.00219072
0.00996033
-0.105347
0.147262
0.0294605
-0.149924
0.158451
-0.145863
-0.118055
-0.0852926
0.131543
-0.0866362
0.140626
0.0409407
-0.0410794
-0.0034637
-0.0566721
-0.137434
0.0124123
-0.106646
-0.0519719
0.0636332
0.00349896
0.0465794
0.159724
0.053828
0.0480334
0.0196269
-0.158244
-0.0122756
-0.0596079
0.0360144
-0.105749
-0.0458109
0.0450286
0.133994
-0.0183002
-0.0101715
-0.108326
-0.163119
-0.0587758
-0.0836349
0.0748728
0.1326
0.0666474
-0.0184244
0.0183104
0.0717456
-0.118036
0.129946
0.12634
0.113685
-0.126639
0.0690601
0.171535
-0.0723809
-0.0599809
-0.00609139
-0.166221
-0.0585185
-0.101714
-0.145864
0.0505406
0.129732
-0.13628
0.0691281
-0.159648
-0.111852
-0.123504
0.137084
0.0734862
-0.00684532
0.0915848
0.00843669
0.127883
0.15277
-0.106359
0.132945
0.159895
0.0691947
0.0841172
-0.0901842
0.115028
-0.0119475
0.0398085
0.119074
0.0904236
-0.0082837
0.140845
-0.0859881
-0.0597702
-0.0740826
-0.00216587
0.120592
0.104642
0.0612705
0.0611189
-0.0863802
-0.0255606
-0.0118402
-0.0997999
0.179164
0.068216
0.0920235
0.127767
-0.000181097
0.0860834
0.0114553
0.0265948
-0.18221
0.174935
-0.000279863
0.0183796
-0.106492
0.0914312
-0.164354
-0.166241
0.113858
0.168296
0.16656
0.0848722
-0.0537095
0.0956824
0.0459405
0.0998058
-0.0910447
-0.150839
-0.0108587
-0.0171459
-0.0773256
0.0921165
-0.0991674
-0.16015
-0.0908462
-0.149573
-0.0122406
-0.00302516
0.0949799
-0.158928
0.0927674
0.0529756
0.164994
0.0657579
-0.0959582
0.0367649
-0.114711
-0.0339424
0.069117
0.0718996
0.0504943
0.086406
0.11472
-0.0102447
-0.059423
0.0551305
-1.29515e-05
0.0284731
-0.0765564
0.0539374
-0.0152789
0.0831071
0.0683034
0.0953657
0.121296
-0.0821209
0.0633495
-0.129217
0.166483
0.147229
-0.169511
0.0880819
-0.0265737
-0.0569247
0.0232181
-0.0866984
0.0376992
-0.0635077
-0.0320323
0.141739
0.165656
0.151516
-0.172395
-0.111427
-0.142223
0.0251878
-0.00453673
0.0977076
-0.15618
-0.124281
-0.0957951
0.000351962
0.0516245
-0.063386
-0.138061
0.0223556
0.00791514
-0.0378983
0.0225332
-0.15413
-0.0949553
-0.110372
0.0934606
0.0776663
0.0458727
0.133033
-0.0992214
0.0796545
-0.0502671
-0.100442
-0.0302838
-0.0817287
-0.0461476
0.158274
0.108956
-0.152931
0.142243
-0.0926135
-0.143087
0.00283825
-0.148928
-0.137766
0.0826385
0.164501
-0.0965994
-0.154142
0.121733
-0.0293822
-0.0456792
-0.144958
0.167999
-0.165659
0.155617
0.000256769
0.0149259
0.0246679
-0.0116924
-0.0442392
0.0198513
-0.0966186
-0.000256974
0.177702
-0.129247
0.123407
-0.0337544
-0.159511
-0.0344885
-0.124145
0.0802334
-0.00252758
0.0790112
-0.0197926
-0.117835
-0.0478511
0.146674
0.00641992
0.158976
-0.0119373
-0.00667386
0.050463
-0.119438
0.131797
0.119536
-0.0345619
0.154428
0.16361
-0.0877227
-0.0827118
-0.0318051
0.114342
-0.0359923
-0.141298
-0.00736271
-0.136446
0.126391
-0.0705292
-0.157851
0.0681205
-0.0295379
-0.0389562
0.115317
-0.0428021
0.0123719
0.200589
-0.0363449
0.159513
0.0655389
0.0126013
-0.143744
0.0571683
-0.0472178
-0.120547
0.0363226
-0.0658742
-0.0273327
0.0099495
-0.0896132
-0.127892
-0.176943
0.167314
-0.090697
0.132956
-0.0497562
-0.117372
-0.166676
-0.0812405
0.130406
-0.0902733
0.0816398
-0.126907
-0.15467
-0.0377283
0.0638738
-0.0496281
-0.0711393
-0.0344081
-0.137924
0.153276
-0.164405
0.066759
-0.130451
0.185602
-0.0382195
0.00879103
0.0816524
-0.0145856
-0.147124
0.022636
0.0601767
-0.0508118
-0.178945
0.153506
0.13865
0.104083
0.168411
0.0820849
0.0754712
-0.0263973
0.0610172
0.00109355
0.000207949
-0.166812
0.0644851
0.113279
0.0636884
-0.0352737
0.076657
-0.148704
0.103711
-0.123208
0.0964231
-0.137944
-0.0870584
-0.168892
0.0507567
-0.115265
0.106522
-0.0310999
-0.156326
-0.102269
0.149232
-0.0498611
-0.160149
0.0772371
0.187322
-0.144599
0.141809
0.16917
0.110289
0.185155
0.151776
0.105116
0.0829511
-0.106929
-0.147012
0.0607633
-0.0861103
0.161262
0.144154
-0.0620166
0.0893055
0.103369
0.124872
0.117229
-0.174124
-0.161959
-0.016566
-0.166527
0.0970725
-0.0593059
0.070274
-0.0921872
0.124859
0.174277
-0.0573376
-0.150103
-0.131604
0.0185722
0.158042
0.110431
0.127403
-0.0563648
-0.190609
-0.113416
-0.0655639
0.123926
0.062192
-0.0643688
-0.0527379
-0.0412123
-0.16099
0.204606
0.162776
-0.170884
-0.086761
0.136647
-0.033375
0.017759
0.0807451
0.0308208
0.00370489
0.0127136
-0.0709834
-0.0453915
0.0878121
0.0451334
0.000246879
0.0847293
0.134416
-0.142626
-0.201189
-0.126768
-0.0419054
-0.127907
0.0279638
-0.100251
-0.0380204
0.00745
-0.136755
0.105343
0.0782735
-0.162023
-0.104341
0.170298
0.15959
-0.0140287
-0.0767963
0.161293
0.0368296
-0.0513608
-0.0559497
-0.0460494
-0.0562354
0.108455
0.089495
-0.0245875
-0.0612762
0.151299
0.0405263
0.0210541
-0.0222743
-0.0437225
-0.0478311
0.136746
-0.0335988
0.169781
0.00809405
-0.087828
0.0658106
0.0379728
0.019288
-0.163975
-0.0331916
0.049252
0.0569687
0.00857404
-0.0597291
-0.139049
-0.1108
0.0944751
-0.0556921
-0.156666
-0.0414336
-0.0331731
-0.0704707
0.135316
0.107576
0.0501577
0.0874871
0.0739728
0.146714
-0.0134547
-0.133974
-0.0779818
0.0562336
0.104844
0.00960908
0.0253843
-0.030835
0.000115888
0.0622946
0.0268007
0.125635
0.051282
-0.117363
0.112955
0.163575
0.181604
0.152495
0.134473
0.0382193
0.0769791
-0.0104904
-0.0344273
0.149822
0.0809507
0.0446443
-0.123093
0.153276
0.0388468
0.0629442
0.155496
-0.0706615
0.129247
0.0773494
-0.120647
0.157797
-0.160607
-0.139341
0.16354
0.0360157
-0.0217851
0.123599
0.160991
-0.105024
-0.0462303
-0.00570084
-0.0324204
-0.037207
0.0587787
-0.101264
0.0846901
-0.146662
-0.135427
0.03786
0.155733
-0.0915327
-0.0727566
-0.0772698
0.0683173
0.017199
-0.133491
0.0245779
0.191723
-0.0381544
0.15465
0.136259
0.125073
0.14009
-0.021535
0.175203
0.12058
0.0810115
0.0704437
-0.14146
0.00675053
-0.0377903
-0.154865
0.0935036
-0.0332029
-0.111237
0.0351393
-0.174764
-0.153063
0.0201399
0.0391729
-0.13827
0.0473184
0.0209947
-0.0112273
-0.130381
0.0994777
0.125557
0.083799
-0.156725
0.16317
-0.0298994
0.0193486
-0.00564386
-0.0487743
-0.139934
0.104114
-0.0795831
-0.0132165
-0.105081
-0.0999806
0.0171705
0.0719202
0.0899862
0.0494392
-0.153598
0.160182
0.113615
-0.0748081
0.0657317
0.00212251
0.139167
-0.100752
0.170814
0.170686
0.0837027
0.14721
-0.0770305
0.0152292
0.0381373
-0.0784829
-0.073218
0.182717
0.0086189
0.01718
0.120056
-0.0774668
-0.00850481
-0.155343
-0.065631
0.0273054
-0.0530567
0.0939555
0.101662
0.139532
-0.139801
0.120234
-0.103638
-0.0335422
-0.103817
0.138231
0.0579553
-0.10696
0.17186
-0.0771505
-0.00568164
0.128642
0.117744
-0.174327
0.125753
-0.102414
0.130755
0.180963
-0.0194308
-0.114625
0.149694
-0.0500848
-0.0208161
-0.158115
-0.122014
0.01471
0.0856806
0.145641
0.166187
0.167786
-0.115394
0.173867
0.170539
0.03438
-0.10818
-0.0575273
0.0609819
-0.0416332
0.166829
-0.0496462
-0.0886274
0.0952223
0.12799
-0.0535804
-0.106929
-0.0461551
0.106347
-0.0424185
0.0541898
0.171325
-0.0436971
0.0587158
0.0395771
-0.128312
-0.032586
0.0810467
-0.0844956
-0.0828245
-0.124127
-0.15096
-0.129453
0.140308
-0.154613
-0.130153
-0.177628
0.0910313
0.10359
0.0822553
0.112908
-0.121511
0.0172315
-0.10115
0.097808
-0.0526766
0.0560232
-0.223962
0.026506
-0.135357
-0.202509
-0.127797
0.0110038
0.135241
-0.121947
0.116016
-0.0967047
0.162384
-0.0685941
-0.0316517
-0.0604075
-0.0732438
-0.174875
-0.122266
0.0233385
-0.163993
0.0982748
-0.15412
-0.0729245
-0.151978
-0.18137
0.0580701
0.0536841
-0.129127
-0.122883
-0.0914924
0.0174053
0.0108283
0.0682772
0.0204692
0.107115
0.0695436
-0.0624113
-0.0695824
-0.0716181
0.106929
0.0322566
0.108457
-0.0717817
-0.105793
0.0250714
0.129393
0.0187526
0.0338369
0.120769
-0.134563
0.159948
-0.0658986
0.0919816
-0.0214167
0.0905848
0.0211755
0.0967171
-0.134609
-0.153313
0.130419
0.0557033
-0.0384496
0.150542
0.0615251
0.0718617
0.0468473
-0.12617
0.051803
0.110184
-0.0101184
0.0219241
0.143897
0.0775701
-0.0219661
0.0230751
0.124884
-0.160075
0.0897358
0.181856
-0.115901
-0.0236891
-0.187287
0.036595
-0.0565096
0.078562
0.00981241
-0.133342
-0.0630491
0.0640705
-0.121345
0.0650086
0.030624
-0.0599095
-0.116457
-0.121308
0.147624
-0.136799
0.0121829
-0.219289
-0.101297
-0.0591736
0.0339119
-0.00123012
0.0548016
0.104272
0.119426
0.232208
-0.0322531
0.0771787
0.180895
0.152826
0.00257754
-0.0929975
0.0789628
0.10852
0.0534133
-0.152657
-0.0565463
0.0732249
0.132791
0.149205
0.0508216
0.133929
-0.110062
0.0370832
-0.0411424
0.166252
0.0909552
-0.0623446
0.100466
-0.0570437
0.0174489
-0.0963865
-0.167156
-0.0939225
-0.0718963
-0.108179
-0.0964548
0.0190919
0.00447397
0.0561436
0.0493063
-0.0534135
-0.0828022
0.111714
-0.0627612
-0.0102804
-0.0339458
0.060295
0.108281
0.0510199
-0.127108
-0.154833
-0.0781177
0.0757521
0.166794
0.109729
-0.155664
-0.0262664
-0.0929864
-0.030704
-0.0786711
0.0225471
0.169996
0.0404985
0.112453
0.00523925
0.0867073
-0.000954922
0.169073
-0.0591722
0.14256
0.0853189
0.0680435
-0.0676515
-0.162613
-0.0235128
0.134744
0.0282759
0.150798
0.00362042
0.0214514
0.181425
0.113504
0.144209
-0.0679804
0.13687
0.00527862
0.0222912
-0.0570951
0.0191661
-0.179921
-0.0689696
0.0737439
0.0332599
0.0983847
-0.00964704
0.0412472
-0.00859915
0.112095
0.0229949
0.135093
0.118222
-0.117828
-0.127232
0.0459291
0.172054
0.125441
0.0377551
0.0627282
0.054154
0.13635
0.165082
0.0539985
-0.0907198
0.142345
0.119771
0.158153
-0.106264
0.129895
0.134227
0.0733981
0.0764025
-0.0805565
0.0138918
0.0836165
-0.105297
0.02588
0.0766583
-0.0630283
-0.111242
-0.102346
-0.151084
-0.00779995
-0.065821
-0.00346339
0.0234354
0.00382752
0.159286
-0.0103615
0.0158631
-0.0133227
-0.117028
-0.0798949
0.0911426
0.0971119
0.0140964
0.15352
-0.0476443
0.0866577
-0.10776
0.057043
0.0065869
0.00766446
0.157766
-0.0706746
0.014054
0.0716466
-0.137721
0.121076
-0.0264748
-0.108485
0.12615
-0.0771315
-0.016014
0.164397
0.0730558
0.0998658
-0.160359
-0.144095
-0.0254586
0.055523
-0.1891
0.059303
0.143664
0.088873
0.129279
-0.193117
0.00536983
0.0112561
0.100885
0.120788
-0.00900253
0.0900901
-0.0731598
0.170435
-0.169259
0.16253
0.130875
0.0110444
-0.032404
-0.115458
0.12913
0.128588
-0.131268
-0.14008
0.141482
-0.1108
-0.149259
0.094255
-0.10716
-0.000911621
0.0237811
0.0578997
0.166989
-0.153133
0.0966045
0.131356
-0.110445
-0.0100145
-0.0542337
0.163503
-0.0614688
-0.0245086
-0.0853904
0.00239933
0.133743
-0.114919
0.0233579
0.071637
0.0821299
0.125439
-0.121903
0.0752795
-0.14948
0.116705
-0.067986
0.179809
-0.0500891
-0.0650621
-0.00275359
0.0585824
0.168519
-0.00675188
-0.00346321
-0.0996489
-0.161691
0.130273
-0.0273492
-0.0818093
0.0394042
0.0115721
0.00988923
0.0515644
-0.0810283
-0.0109277
-0.140528
0.0493022
-0.0121538
-0.00665399
0.00820365
-0.0019898
0.0888724
-0.14722
-0.120794
-0.00680785
0.098874
-0.0412584
-0.0648595
-0.033049
-0.124334
0.124219
0.137437
-0.0465202
0.14782
-0.139523
0.123644
-0.141568
0.00900134
-0.0560428
-0.0138408
0.0190429
0.118214
0.0993719
-0.0149473
-0.086704
-0.144211
-0.146192
0.154594
0.0863496
-0.0496998
0.127049
0.0166744
-0.0892587
-0.09361
-0.0814551
0.114566
-0.00500946
-0.0863298
0.0681278
0.1027
0.200011
0.186387
0.114493
-0.111697
-0.103188
-0.127225
0.129107
-0.158725
0.134801
-0.133809
0.0300208
0.0683505
-0.198925
0.050474
0.0471074
-0.0227345
0.16461
-0.0376152
-0.0594063
0.114399
-0.111508
0.121143
-0.0294941
-0.0490239
0.0109523
-0.157914
0.185973
-0.0432233
0.129048
-0.161
-0.0649081
0.0763056
-0.0195074
0.0510612
-0.0870124
-0.143315
-0.0861776
0.132415
-0.0371838
0.0247895
0.108852
-0.0119401
0.0712487
0.0531717
0.128375
0.0241802
0.0389161
-0.0703169
0.0166982
-0.0307625
0.0430331
0.0947397
-0.112699
0.0721435
0.130717
-0.158153
0.10587
0.0573677
0.13282
0.0498148
0.0730957
0.120555
-0.12483
-0.0647124
-0.0944719
-0.136726
-0.0119115
-0.0926578
-0.133778
-0.0428975
-0.114097
-0.0761252
0.0353197
-0.0907491
0.167184
-0.00905727
0.113558
0.154471
-0.0185236
-0.108381
-0.103744
0.0285482
-0.00345699
0.0315962
0.0916632
0.166619
0.122872
-0.160809
-0.00033205
-0.094867
0.104969
-0.0560856
0.0928927
0.141943
-0.0338479
0.0987042
-0.153556
0.0528513
-0.0106556
0.0602775
0.126116
0.130619
0.0212164
-0.0369555
-0.0687814
0.0125773
-0.128041
0.0344273
-0.0329463
0.11251
0.135039
-0.0982943
0.130546
-0.0867912
-0.00396755
0.150875
-0.12344
-0.00230635
0.159678
-0.117301
0.147004
0.0313054
0.128444
0.0578511
0.0707956
-0.148842
0.0931322
0.188179
-0.154154
-0.147135
-0.0287818
-0.00291177
0.0788509
-0.100205
-0.0828221
0.0790016
0.108873
-0.0405305
0.127096
0.0619732
-0.118655
0.147547
-0.0462964
-0.135582
0.00608308
0.117713
0.135062
0.0482642
-0.153395
0.0650414
0.147436
0.123064
0.176998
-0.0635367
-0.0677336
-0.168498
0.0726116
-0.0183492
0.0973446
-0.10686
0.0262527
-0.0969558
-0.00587741
-0.160146
-0.134337
-0.0523036
0.0544174
-0.00877241
-0.069661
-0.00361886
0.039897
0.182238
0.0538425
0.00614973
0.0758039
-0.153591
-0.103891
-0.124505
0.0153875
-0.130182
-0.0579163
0.115198
-0.0575853
-0.00538377
0.161843
-0.0721491
0.151367
0.138688
0.0082083
-0.175858
-0.113552
0.0482406
-0.138052
-0.0762537
-0.144069
-0.0961007
-0.101728
-0.0462236
0.13109
-0.0990421
0.0326367
-0.0314148
-0.145116
-0.0984819
0.0395314
-0.0170656
0.0268609
0.0838336
-0.20271
0.0902257
0.0592441
0.181192
0.20263
-0.0339513
0.155165
0.145986
0.148553
-0.163273
-0.0200083
-0.0602922
0.0688918
0.102522
0.0621932
0.0398825
-0.16735
0.095811
-0.121246
-0.0358744
-0.102096
0.153173
-0.0970349
-0.155852
-0.0376024
0.0874393
0.0386437
0.10002
0.0698546
-0.103154
0.119718
-0.0973234
0.114741
-0.0301094
-0.156451
0.0652261
-0.0609488
-0.111902
0.0348695
0.086951
-0.106532
0.0305996
0.00393728
-0.165603
0.1501
0.139579
-0.14302
0.0824034
0.137956
-0.0366344
0.126852
0.0312896
0.103142
0.0630096
-0.117057
-0.120317
-0.147797
-0.174545
0.107971
0.0670358
-0.0600816
0.165597
0.0199938
-0.183093
-0.0305549
0.101514
-0.130712
0.052389
-0.00626987
-0.0529404
0.081392
-0.0136267
-0.126326
0.13964
-0.137487
-0.0631895
-0.103117
-0.1189
0.0156683
0.102081
0.127278
0.11135
0.167796
0.170163
-0.151924
-0.156421
-0.0955891
-0.0231116
0.153367
0.0436621
-0.125573
0.167187
0.149316
0.0114725
0.0140771
0.00492922
0.141407
0.109057
-0.136871
0.023954
-0.0672667
-0.0734583
0.00908836
-0.0839405
-0.034982
-0.11716
-0.00672151
-0.0984895
0.0692655
-0.142944
0.017878
-0.00515374
-0.0559161
-0.0275402
0.061829
0.0632876
-0.0101532
-0.10573
0.153651
0.179307
-0.0478785
-0.119474
-0.0889889
-0.10559
0.151673
0.147054
0.0438639
-0.149651
0.0255016
0.0257049
-0.122191
-0.0273441
-0.036952
0.00808865
0.0174856
-0.00628824
0.0367934
-0.168837
-0.0665834
-0.208783
0.0379981
-0.129595
0.158016
-0.144635
0.00711116
0.080528
0.0532003
0.0122041
0.00355808
0.0597717
-0.0963364
0.00889973
-0.0190092
0.118033
0.0179085
0.152115
0.0431469
-0.14754
-0.10826
-0.0759819
-0.0416043
-0.117822
-0.0727936
-0.0142178
-0.0118096
0.0195229
0.214595
0.00260286
-0.138635
-0.0592937
-0.00998418
0.018714
0.113115
0.0501876
-0.104021
0.0576834
-0.154122
0.0201647
-0.0549529
-0.0551628
-0.0873042
-0.107258
0.010244
-0.109658
-0.125772
0.158988
0.108042
0.0624538
0.0410963
0.035509
-0.0904038
0.129701
-0.012563
0.0118514
-0.0862444
0.101293
-0.0177703
-0.0786973
0.0236846
-0.0509431
0.0399271
0.0351898
-0.00507105
0.158946
0.0354446
0.0207742
-0.0544924
-0.0766912
0.0689083
0.0689232
0.0159922
0.144737
0.0730477
0.16569
0.0302384
0.00341027
-0.00357052
0.14574
-0.0601413
-0.120998
-0.0568676
-0.144183
0.127803
0.0194975
-0.0949506
-0.00564588
-0.151926
-0.15585
0.0702834
-0.0710612
-0.0349818
-0.168396
0.147735
-0.0299057
0.0656613
0.00845266
-0.128632
-0.130656
-0.0838045
-0.0928087
-0.109552
0.0370268
-0.0780925
0.192643
0.113688
-0.0444727
0.159392
0.0391548
0.108995
0.0522696
0.0221522
0.140839
-0.0659253
-0.170672
0.093506
0.0954343
0.092848
0.0579106
0.0568664
0.01391
0.0461005
0.0214933
-0.113202
0.127679
-0.142938
-0.0221604
0.112306
0.136684
-0.104786
0.0228185
-0.122311
0.0581129
0.00870217
0.142306
-0.134307
0.0387114
-0.0243173
-0.0814621
0.148046
0.0509199
0.110817
0.00326082
-0.146758
0.110643
0.152532
0.121806
-0.096747
-0.175113
0.161821
-0.129192
0.11805
0.175111
0.133286
-0.13033
-0.157112
0.0723982
-0.182714
-0.0181322
-0.0562386
0.108096
-0.0193894
-0.0230332
-0.131714
0.0501169
0.0726539
-0.00742622
0.0448965
-0.0759378
0.12861
-0.150288
-0.0317304
0.0299096
0.0393099
-0.161721
-0.1082
-0.0690888
-0.0653075
-0.0823533
-0.155391
-0.164384
0.033549
0.07795
0.0687789
0.133108
0.131345
-0.141461
0.0876133
-0.144759
0.104538
-0.115909
-0.011164
0.0714219
-0.0816136
-0.0606263
-0.114405
-0.167831
0.0930505
0.0306364
-0.0320692
-0.100221
-0.150294
0.0450994
0.152426
-0.0577055
0.148014
0.0578416
-0.157261
0.0992267
0.0457322
-0.141749
-0.0316483
-0.116387
-0.122079
0.170708
0.0847552
-0.052533
0.162105
0.0224174
-0.0366828
-0.0405051
0.129845
-0.0950571
-0.0490243
0.0427318
-0.155525
-0.0868364
-0.166807
0.0546699
0.151157
-0.147653
0.0302317
-0.011334
-0.0156389
0.0703232
-0.0325703
0.111263
-0.141605
0.159652
0.0155306
0.14495
0.168753
-0.0980998
0.108682
0.0888698
0.0867998
0.00228875
-0.0233163
0.136142
-0.123582
-0.0250586
0.0182866
0.0239165
-0.168367
0.0758647
-0.0233686
0.0827729
-0.117885
-0.0931293
-0.0637956
0.0832857
-0.00542696
-0.111604
-0.0115603
-0.0272872
-0.154936
-0.132416
-0.0231667
-0.148618
0.00722598
0.167914
-0.138692
0.0318023
-0.071717
-0.0858199
-0.156341
-0.0868968
0.0476866
0.0466398
0.175508
-0.0246595
0.0946747
0.00615044
-0.0515053
-0.168385
0.137612
-0.0782015
-0.0792722
0.0773824
0.14823
0.0773103
-0.0132109
0.137817
0.0545762
-0.136184
-0.0257313
0.123912
-0.128919
-0.0512625
-0.143062
0.0731675
0.167537
0.0341182
-0.037324
-0.135783
0.100326
-0.0244941
0.166237
0.0284081
0.15116
0.109321
-0.0839447
0.0694757
0.110157
-0.0597439
0.0692367
-0.0878574
0.0399828
-0.111171
-0.0876292
0.108057
-0.117935
0.0138829
-0.137459
-0.11397
-0.0638007
-0.0397475
0.0405845
-0.134853
-0.0595839
0.0217344
-0.055992
0.0286737
0.00478202
0.167732
0.109473
0.0674442
-0.00621072
-0.13233
-0.0205709
-0.0928082
0.049368
0.162493
0.0305718
-0.0332536
0.16558
0.102958
0.00597708
0.165236
-0.0889645
0.0681322
0.143888
-0.0888778
-0.0945657
-0.125477
-0.0803604
0.0309145
-0.126562
0.138471
0.170417
0.00958291
0.115376
0.0808211
0.0424329
0.0163492
0.0844663
0.156213
-0.0754515
-0.0864184
-0.16716
0.123675
0.0536231
0.00223533
-0.103227
0.192424
-0.065071
0.101784
0.122128
-0.0160368
0.155195
-0.0512906
0.0494681
0.0184826
-0.0244118
0.0680579
-0.0328941
0.0405313
0.168533
0.0546607
0.0690671
-0.0117305
-0.00103519
-0.140168
0.069763
0.0162387
-0.02973
-0.151391
-0.105347
0.0815283
-0.128178
0.0934726
-0.158942
0.0397844
0.0986776
0.0323434
0.113833
-0.0568976
0.0579917
-0.095322
-0.101065
0.0477216
-0.0154136
0.026722
0.0321107
-0.108199
0.098788
-0.112152
0.165673
-0.0914665
-0.13851
0.00132498
-0.118216
0.156349
-0.112127
0.0576156
-0.0487583
0.0159607
0.0184976
-0.0703248
-0.13153
-0.12775
-0.0043542
-0.140143
0.133028
-0.0690324
0.110905
0.0785694
0.0087413
-0.136755
0.093619
0.111973
0.0189105
0.0473076
0.0336507
0.169144
0.0359503
0.0190851
0.166672
0.0121226
0.0406944
-0.00273272
0.0415071
-0.144975
0.082546
0.0493771
0.0898341
0.204511
0.0421958
-0.0749208
0.109251
0.0385411
-0.0225238
-0.0920439
-0.096809
0.0659797
-0.0611583
0.073742
0.16357
0.0150421
0.16424
0.0767438
0.0806258
0.13037
0.153262
-0.155779
0.0378894
0.111214
-0.161558
-0.0831261
-0.0321716
-0.115012
-0.131348
-0.063198
-0.0519668
-0.160691
0.0480422
-0.0102995
-0.102981
-0.128045
0.191445
0.169074
-0.112058
-0.0299239
-0.104387
-0.102018
0.114515
-0.0205621
0.134822
0.179487
-0.0648631
0.082512
-0.167265
0.150653
-0.0335021
0.122539
0.102117
0.159654
0.0841832
-0.15144
0.0301747
-0.0246306
0.154245
-0.0231176
0.138598
-0.0533988
-0.0257754
0.0397231
-0.106668
0.149522
-0.0776506
0.140374
0.031166
-0.00129288
0.151616
-0.137221
0.00163896
0.0284776
-0.127586
0.00308737
0.0971744
0.13402
0.00117091
-0.0729106
0.0116781
0.0356321
0.0977914
-0.123129
-0.168613
-0.130256
-0.155959
0.184636
0.108882
-0.16641
-0.133598
-0.169141
0.113046
-0.0544369
-0.138008
0.107317
0.105713
-0.00902462
-0.117739
-0.00296651
0.0715098
0.0210752
0.087997
-0.111177
0.00662221
-0.0627573
-0.138206
-0.199297
0.051567
0.0528525
-0.12739
0.134078
0.0864429
-0.103265
0.155551
-0.143382
-0.136357
-0.16178
0.0389681
0.160505
-0.0190827
-0.0895078
-0.190655
0.0777748
-0.109905
0.104579
-0.0751984
0.0319186
-0.0498623
-0.165913
0.157598
-0.0979754
0.10229
0.00663274
-0.107013
-0.154782
-0.0490525
-0.091729
-0.139946
-0.140327
0.111756
-0.158343
0.00874898
0.0457919
0.0996584
-0.13135
-0.0661151
-0.0985106
0.023767
0.0169298
-0.0879291
-0.0634151
-0.00274509
-0.150942
-0.117554
0.0707895
-0.139042
0.130598
-0.0204258
-0.0362601
0.0578827
-0.148458
0.0489823
0.118123
0.0113938
0.0280035
0.147906
0.0569229
-0.0184411
0.0226427
0.00192019
0.0552484
0.100725
-0.0868323
0.1322
0.019025
-0.0350593
0.0942547
-0.0429662
-0.0728046
0.0613275
0.00751976
-0.171152
-0.0304518
0.114825
0.117037
-0.0266829
0.0503262
-0.113292
0.0886289
-0.000798726
-0.00637267
0.141314
-0.0175179
-0.142114
0.156583
0.0213071
0.00019626
0.0313125
0.0206053
-0.0843455
0.0967935
0.128543
0.0704429
0.0773527
-0.0023108
0.12774
-0.0475697
0.102465
-0.0970009
0.0886278
0.0397958
0.152493
-0.079644
-0.021344
0.134008
-0.131477
-0.16515
-0.0466494
0.0748166
0.0104823
-0.157587
-0.0630212
-0.0928748
0.00656815
0.0700965
0.105796
-0.16806
0.103265
0.0307832
-0.114546
0.130337
0.143192
-0.0826773
-0.124634
0.0441074
-0.00456195
0.046708
0.100725
-0.158609
0.00762046
-0.15013
0.115509
0.125782
0.163233
0.0700531
-0.00923284
0.0865667
0.0649544
0.0848365
-0.106915
-0.148255
-0.0808248
0.0159385
0.129762
-0.0722834
0.0528691
0.126454
-0.11189
0.151998
-0.0251349
-0.0135532
-0.14324
-0.0884137
-0.0934728
0.0512076
0.0688595
-0.0148748
0.131193
-0.15176
-0.0562266
0.0780432
0.0278471
0.131336
-0.120309
-0.108624
0.00226265
0.021891
0.0738538
-0.115254
0.0159581
-0.0311675
0.118101
-0.0998214
-0.0652388
0.0395482
-0.128201
0.121366
0.1248
0.116537
0.186105
-0.0834329
0.0654813
0.152494
-0.0349213
0.0110969
0.0034122
0.167342
0.203267
0.00646639
0.106415
0.0454186
0.140035
0.15281
-0.0640663
-0.0861288
0.0386185
-0.124567
0.177161
0.0452688
0.133421
0.0693245
0.0047746
0.0591088
-0.0639203
0.121136
0.0240727
-0.0906059
-0.148392
-0.00176083
0.193652
-0.0529006
0.0944801
0.0572566
0.102712
0.054187
-0.0697224
-0.105596
-0.117377
0.0570576
0.0776115
-0.0787064
-0.0783361
-0.107878
0.0533363
-0.0534753
-0.0530068
-0.0160316
0.145992
0.111011
-0.154543
0.0618719
-0.120842
-0.103736
-0.0868823
-0.00330677
0.0380754
-0.0647877
0.16463
0.0135468
-0.0299405
-0.132507
-0.0734586
-0.0720995
-0.0923145
0.177085
0.0596157
0.0479425
-0.0870498
0.177176
0.143685
0.162032
-0.0777559
0.0985577
0.175513
-0.0965229
0.0407881
-0.168046
-0.142812
0.0552362
-0.053601
0.12387
0.134609
0.103073
-0.0759207
-0.0319296
0.169705
0.0226666
-0.117428
-0.029034
-0.14453
-0.094736
0.073881
-0.138859
0.0109929
0.121088
-0.0134031
-0.0829514
0.0730141
-0.160713
-0.157257
-0.0848643
0.118726
-0.0156559
0.0813705
0.108782
-0.170558
0.145726
-0.047324
0.038392
-0.0709801
0.0338765
0.0828034
-0.017462
-0.11114
-0.0450336
-0.0869841
-0.116613
0.0566598
0.0442258
-0.119135
0.147477
0.0593118
0.0375933
0.00815847
-0.103583
-0.129926
-0.0317388
0.14593
-0.147944
0.00226395
-0.035065
-0.165027
0.122912
0.103821
-0.0197047
0.0033579
0.0909441
0.0470704
-0.131058
0.0739051
-0.0295402
0.107591
0.0540307
0.130729
0.0547405
0.0755404
0.204853
-0.1611
-0.0269267
-0.120018
-0.122787
0.0946544
0.17943
-0.191832
-0.0787171
-0.0576968
-0.101253
0.142832
-0.0159037
-0.125764
-0.0229474
0.0772455
0.0437802
0.0103336
-0.0522047
-0.167264
-0.0453995
0.114453
0.036434
-0.0266433
0.154418
-0.0337327
-0.0219359
0.0620192
0.193114
-0.150212
0.146103
-0.0574327
0.149706
0.0590996
0.116955
0.0402957
-0.103059
-0.172692
-0.06808
0.0308023
-0.0405912
-0.0015169
0.0323628
0.179728
-0.0608844
-0.15997
-0.0788162
-0.0618261
0.110338
0.0897229
0.192265
-0.13423
0.0641024
-0.152334
-0.0108386
-0.1377
0.0390509
0.00431482
0.0548592
-0.0605423
-0.0791076
0.149053
-0.166545
-0.0978396
-0.131021
-0.058941
0.0306216
-0.00692888
-0.0724073
-0.00381024
-0.144841
-0.0588143
0.00816331
-0.0193329
-0.168647
0.0488634
-0.0219856
-0.0947829
-0.141735
-0.149828
-0.0371293
-0.0827955
-0.13487
0.013056
0.103912
-0.140128
0.070206
-0.062991
-0.147097
-0.0248157
-0.171297
0.125985
-0.132743
0.128571
-0.0779134
0.128533
0.132367
-0.107092
0.133021
-0.120666
0.0363154
-0.0535262
0.0564271
-0.123813
-0.0471533
0.102587
0.0613592
0.0412062
-0.0407889
-0.0114418
-0.0413985
0.117268
-0.0600103
0.0647815
0.149698
-0.171332
0.12643
-0.0606261
-0.110831
0.0634476
-0.0129383
0.110049
0.090012
-0.0201541
0.101713
0.0691612
-0.165915
0.144818
-0.213434
-0.0247522
-0.114717
-0.000943712
-0.0964731
-0.08922
-0.132442
0.149749
0.0539207
-0.0186845
0.12537
0.128495
0.123905
0.119685
0.0358532
0.0460706
-0.00431713
-0.151508
-0.107567
-0.00686799
0.0672724
-0.0226078
-0.0638457
0.00286301
-0.0438728
-0.0261092
0.105668
0.0992824
0.0268386
0.0542872
0.0563915
-0.137136
-0.136979
-0.010373
0.0594862
0.0420059
0.0586945
-0.0182383
0.0286458
0.0128212
0.0932267
0.0802156
0.113667
0.158341
0.0345135
-0.119605
0.0616236
-0.159542
-0.0144868
-0.1266
0.0346604
-0.0463688
0.0775553
-0.0314197
0.0654687
-0.038228
0.148835
-0.111024
-0.0502679
0.163738
0.0419197
-0.0294715
0.011183
0.0424646
0.0563281
-0.143321
-0.0976726
0.148477
-0.0443313
-0.136875
-0.129066
-0.153191
0.00264781
-0.15788
-0.0252563
0.00821509
0.0864387
-0.0849959
-0.000232425
0.0733332
0.079606
0.118586
-0.104544
0.10074
-0.0383218
-0.0735449
-0.0514012
0.142421
-0.13304
0.00283128
-0.163747
-0.126145
-0.114462
-0.106546
0.150888
-0.137463
0.0927693
0.0470145
0.0696112
0.159086
-0.149769
0.109886
0.113166
0.145768
0.00792903
-0.145418
-0.0582236
-0.0297133
0.0117111
-0.0594107
0.126937
-0.0783236
0.0383473
-0.0540631
-0.022044
0.185646
0.0174555
0.00869792
0.0826971
-0.0704224
-0.146232
-0.0715649
-0.114121
-0.0629743
0.0926773
0.118582
-0.0509126
0.00577946
0.0489089
-0.0945908
-0.0668072
-0.0848699
-0.123284
-0.103627
0.0991207
-0.0602482
0.0563438
0.029369
0.154835
0.00270109
-0.132676
-0.0551446
0.124328
0.115505
0.0158624
0.139065
0.109913
0.0684827
-0.0908424
0.0456637
0.0842884
-0.16506
-0.0521494
-0.15438
-0.0581651
-0.0224154
0.0737946
0.0257445
0.125444
0.0264197
-0.124889
0.170748
0.12551
0.0240591
0.0852842
-0.132215
-0.145413
-0.0888375
0.0607936
0.0161789
0.127819
0.121468
-0.117487
-0.0573686
0.114388
0.146875
0.0364933
-0.0979057
0.117937
-0.109642
-0.102577
-0.14044
-0.106708
0.0470125
-0.119526
0.0354116
0.0644316
0.0269255
0.0955412
-0.103042
-0.0920478
-0.105839
-0.0196934
-0.165438
0.103206
0.168998
-0.0361743
-0.0104868
-0.00561927
0.121776
0.0683467
-0.0717149
-0.0903039
0.114779
-0.0758984
-0.090785
0.0207555
-0.0258058
-0.0871376
-0.0502394
-0.110625
-0.0994363
-0.0764265
0.151806
-0.137016
0.156764
0.0266207
0.0458453
-0.00406324
-0.172187
-0.15083
0.0418702
0.0708301
-0.0019678
-0.159009
0.121974
0.153147
-0.115168
-0.107663
0.0847495
-0.163135
-0.01461
0.0259047
0.0621243
0.135854
-0.156224
-0.151032
0.148669
0.170834
0.0465212
-0.147343
0.131516
0.102392
-0.0308163
-0.106667
0.116485
-0.0266205
-0.0727948
-0.126198
-0.00100949
0.0901842
0.0611532
0.0822077
-0.125854
0.11126
0.103408
-0.144517
0.0262121
-0.0836644
0.156673
-0.16971
0.0793011
0.0637594
0.0296397
0.109571
0.136577
0.0207536
-0.0118867
-0.105012
0.0240664
-0.0945178
0.139904
-0.0335675
-0.0601855
0.025057
-0.0831753
0.164456
0.0277683
-0.121565
-0.00027365
-0.162569
0.114306
0.158392
0.0408289
-0.0264133
0.0683466
0.0480414
-0.0597014
-0.149755
0.0905606
0.073489
-0.137306
0.000714664
-0.0613445
-0.0668192
0.115451
-0.166949
0.0284246
-0.0708683
-0.111225
0.0803151
-0.129285
-0.0243928
0.0438913
0.067282
-0.10801
0.10181
-0.167377
-0.092894
-0.144774
0.103245
0.0922549
0.187503
0.026435
0.0116528
-0.157865
0.032689
0.0119474
-0.0551445
-0.0684162
-0.123019
0.0179367
0.100108
-0.0193258
0.0145576
-0.01999
0.0690982
-0.212924
-0.00454225
-0.00426872
0.164401
0.0924381
-0.133533
-0.103359
-0.0782167
0.195148
0.0793462
0.0795445
0.158136
0.0355505
-0.0248048
-0.146816
0.00728136
0.0283705
0.0744465
0.0974279
-0.0919067
0.0689026
-0.0341326
0.141098
-0.170633
-0.0431528
0.125246
-0.024953
-0.124886
-0.0507312
0.14186
0.139924
0.0986286
0.00393826
-0.0857285
0.00956282
0.127855
-0.0120193
-0.122254
-0.0958539
-0.0711029
0.0251977
0.133591
-0.17569
-0.0763821
0.105078
0.0818859
-0.0435018
-0.0654038
0.12797
0.0284313
0.205296
-0.0846208
0.150486
-0.00133599
0.108288
0.15382
-0.157017
0.106196
-0.0483958
-0.0563034
0.097095
0.139206
-0.153912
-0.161407
-0.142279
-0.0748963
0.0378947
-0.0450998
-0.0981544
0.0798712
0.157195
0.0274845
0.144855
0.0787098
0.00860644
0.147971
-0.1626
0.0543111
-0.00863839
0.100742
0.128908
0.0235931
0.159445
0.166865
-0.0565361
-0.128823
-0.111922
-0.0501418
0.139275
-0.0982038
-0.0519548
-0.177343
-0.0145303
-0.0375501
0.0980981
-0.154123
-0.06694
0.10533
0.00501001
-0.116186
0.102835
0.142249
0.109836
-0.149603
-0.0291175
0.0627491
0.00389389
-0.1639
-0.0879588
-0.130222
0.115303
-0.0858948
0.0627299
-0.0199696
0.162387
-0.0674194
-0.0756457
-0.155121
0.159051
0.0580198
0.0178975
-0.127414
0.0996944
0.136046
-0.0828774
0.146279
0.17702
0.0068419
0.123658
-0.129649
-0.12664
0.146952
0.157047
0.17511
0.132224
0.0355315
0.119654
0.121386
0.0879787
0.0810286
0.104443
0.0200833
0.0419207
-0.0673865
0.122156
0.0494398
0.199115
0.171157
-0.0080335
0.0942951
0.0146667
0.162567
0.165745
0.0961214
-0.141869
-0.0180988
-0.050028
0.104189
-0.024438
0.00319107
0.144125
0.165942
0.136571
-0.00315544
0.142207
-0.0630227
0.0267237
0.121768
-0.108562
0.129391
-0.0244802
0.133844
-0.062638
-0.0252653
0.0898298
-0.141288
-0.00374722
0.0166741
-0.0495938
-0.126288
0.102657
-0.147704
-0.169954
0.115892
0.124944
-0.0386734
0.143622
0.135158
-0.0116356
-0.140416
0.111528
-0.0611546
-0.0395597
-0.039037
-0.11252
0.0341726
-0.100796
-0.0408815
0.134254
0.0889537
0.0531173
-0.0428085
-0.119432
0.126156
-0.0863949
0.19874
0.100338
-0.156502
0.123485
0.0718951
0.105095
0.0917207
-0.107165
-0.147905
0.0998594
0.153722
-0.0591302
-0.0778107
0.104429
-0.140033
-0.0502287
0.0576047
-0.0541246
0.119806
-0.0171448
0.0559849
-0.0810469
-0.0975434
0.125806
0.123308
0.169863
0.0822043
0.108548
-0.151884
0.111374
-0.0783312
0.160277
0.0905749
0.129184
-0.0479093
-0.116135
0.0831615
-0.11132
-0.122067
0.0604993
0.152615
-0.081548
0.0529737
-0.0763696
-0.155889
-0.175072
0.0981309
-0.030567
-0.13464
-0.0236463
-0.0634481
-0.131946
-0.0957433
-0.112785
0.0004141
0.0567826
-0.104953
-0.0752974
-0.147426
0.0384383
-0.00328941
0.0904329
-0.0814251
0.132239
-0.0925276
-0.0648504
0.09671
-0.0255466
0.0801924
-0.111735
-0.0819982
0.0363861
0.118598
0.0111018
0.149728
0.0619657
-0.0521864
0.173408
-0.0252075
-0.0630069
-0.145727
-0.00156252
-0.187248
0.0937643
0.090927
-0.102944
-0.0885824
0.0965473
-0.145416
-0.143616
0.0371033
0.0824163
-0.0382448
-0.0872039
0.110207
0.0376768
-0.109604
0.00958653
0.134727
-0.0964653
0.0932853
0.135729
0.0653166
-0.0711601
-0.134656
0.0780621
-0.0269813
-0.0720511
-0.0631078
0.0903225
0.0377093
-0.0827101
-0.0768551
0.044775
-0.186568
-0.108779
-0.0297214
0.0337793
-0.0883469
-0.0332911
-0.0855992
0.153645
0.152369
-0.0526549
0.00167748
-0.0538488
0.126527
0.134536
-0.06727
0.0629633
0.119683
-0.0772189
-0.068133
0.152124
-0.0702354
-0.0306559
-0.106821
-0.142159
-0.11901
0.017144
0.063668
0.0510005
-0.130741
-0.141164
0.08197
0.163524
0.0324135
0.177568
0.119433
0.0252601
-0.141223
0.143391
0.137453
-0.0451188
-0.0451021
-0.122155
-0.130798
0.0393254
-0.0580822
0.196093
0.02454
0.140945
0.0834634
-0.146164
-0.114231
0.14914
-0.0666779
-0.068979
-0.085329
0.106687
0.0739157
-0.0189993
-0.130105
0.122331
0.0213798
0.0597638
-0.141557
-0.0747954
-0.107577
0.125279
0.120691
-0.0832202
0.0239727
0.0691255
-0.111309
0.124541
0.164364
0.00934894
0.052293
0.0326024
-0.123776
0.164856
-0.103119
0.102757
0.0612556
-0.137682
-0.0481507
0.0428292
-0.106296
0.0782143
0.00273769
-0.142082
-0.0130306
0.0127744
-0.132253
-0.10043
-0.0335768
-0.0361932
0.113233
-0.0985107
-0.120625
-0.109184
0.0172596
-0.0679415
-0.0927527
0.05373
0.166414
-0.0209311
0.113866
-0.14657
-0.144395
0.0199364
0.0319383
0.165128
0.00965338
0.112304
-0.061449
0.0465611
0.109434
-0.159411
-0.0351748
0.0586412
0.147248
-0.0202224
0.172518
0.0763729
0.0183563
-0.0489877
0.0823685
-0.109371
0.118194
-0.118681
-0.0685867
0.0986563
0.1241
-0.0604996
0.0751786
-0.0498814
-0.0291521
0.0490615
0.0980353
-0.133723
-0.106855
-0.127204
0.0544904
0.0856366
0.124635
-0.119401
-0.160593
-0.06781
-0.0177929
-0.0200804
0.0749968
0.0962639
-0.0492168
0.135742
-0.138219
0.115215
-0.16453
-0.0943292
0.115601
-0.165304
-0.120543
-0.00997106
0.104781
0.169081
-0.0207734
0.0169252
-0.0370827
-0.169751
0.0646916
-0.148852
-0.0906482
0.106985
0.0346581
-0.0580218
0.0236368
-0.118027
-0.0576024
-0.0294366
-0.168014
0.0640044
-0.150294
-0.0611593
0.0858998
0.0749964
-0.105622
-0.0758552
-0.00686404
0.0202094
0.0423221
-0.0941728
-0.108953
0.140871
-0.025705
0.0367467
-0.0820766
-0.145075
0.0480092
-0.122156
0.134861
-0.00709935
0.0374301
0.0426318
-0.0119266
0.0428607
-0.0342425
-0.119862
-0.0502026
0.0678252
0.0173053
0.0974869
0.098366
0.0897606
0.130944
-0.150546
-0.143305
0.0138769
-0.0261979
0.0891429
0.0927915
0.0364395
-0.00164768
0.115299
-0.0588656
0.01207
-0.0357262
-0.169623
0.181455
-0.143826
0.035137
0.141496
-0.0531762
0.0349048
0.167225
-0.105556
-0.0390433
0.147666
0.15512
0.119569
0.141623
-0.0343674
-0.119461
-0.0448756
0.092109
0.0685081
-0.101347
0.0992442
-0.135066
0.128974
-0.102146
-0.169067
-0.01083
0.0948105
-0.16041
-0.041356
-0.103893
0.0589097
-0.187504
0.0617278
-0.153829
0.0453485
0.0214449
0.162364
-0.163977
-0.0143969
0.000473784
-0.234652
0.0844051
0.144343
0.114168
0.163461
-0.0215036
-0.139302
0.167105
-0.132196
-0.0503601
-0.0920153
0.146393
0.12237
0.0830677
0.0279823
0.134459
0.0263692
0.0158197
-0.0281906
0.0684152
0.142154
-0.124564
-0.127288
-0.0256717
-0.0869071
-0.00285296
0.0816094
-0.0171512
0.0101061
0.074466
-0.0434461
0.0311694
-0.0132396
-0.132141
0.14801
0.0704985
-0.191066
-0.163486
-0.108355
-0.101903
-0.091946
-0.245908
-0.116999
0.112835
0.0494369
-0.0363853
-0.133101
0.0692686
0.15595
-0.128378
0.0228107
-0.158769
-0.0513173
0.120697
0.0128446
-0.177928
0.0058665
-0.156885
0.0962063
-0.0798226
0.0176665
0.05556
-0.12145
0.0446915
-0.114798
-0.0953757
0.129768
0.0783384
0.234091
0.1321
-0.0663959
-0.0487082
-0.0533106
0.0953937
0.0663438
-0.0296393
0.0750507
-0.180166
0.128346
-0.0524419
-0.0262261
0.00844196
-0.119542
-0.0132877
0.108813
-0.0809012
-0.111697
-0.207029
-0.154362
-0.125145
-0.103532
-0.139084
0.0560664
0.110075
0.138919
-0.186551
-0.0792564
-0.131978
0.168345
-0.195248
-0.0323654
-0.0875007
-0.0129338
-0.035134
-0.205434
0.108654
0.0834854
0.0573046
-0.0604636
0.078404
0.141482
-0.119152
0.124423
-0.0877677
0.0344473
-0.117403
0.0622961
0.0943704
0.142307
-0.155283
-0.115194
0.0924377
-0.0893389
-0.0861533
0.0487327
0.0990705
-0.000518345
-0.132049
-0.0577776
-0.00886886
-0.163959
-0.0999316
0.00494261
-0.105226
0.145253
0.170892
0.0305297
0.0439502
-0.181027
-0.060257
0.101408
0.0499577
0.0246657
0.0310278
0.111805
-0.0609429
0.114109
0.0672719
0.0495429
-0.119135
-0.0348923
-0.0725162
-0.0816099
-0.0203396
-0.0966695
-0.165175
-0.163298
0.138773
-0.157935
-0.00300695
0.0117383
0.155034
0.132505
0.101012
-0.158461
0.132204
0.036335
-0.0894101
-0.164377
-0.095297
-0.120109
-0.130701
0.0883583
0.143128
0.0385447
-0.00395308
-0.150137
-0.0846549
0.0478411
-0.147415
0.149678
0.0649365
0.215362
0.14894
-0.143492
-0.108178
-0.0346597
-0.00845313
0.152603
0.167582
0.0874841
0.0658316
-0.159254
0.0487835
-0.0571696
-0.101871
-0.0905621
0.0598535
-0.118975
0.00718408
0.0810583
-0.157066
-0.109644
-0.0113147
-0.133039
-0.13394
0.0532725
-0.13833
0.0462733
0.0274569
0.0391265
0.165696
-0.103176
-0.0511337
0.0934641
-0.106545
-0.129153
0.00309816
0.12756
-0.132115
0.130067
0.0931964
-0.0778969
-0.014749
-0.0172065
-0.00503574
0.0130256
0.0448456
-0.0466334
-0.0591435
-0.125026
0.155529
-0.0877327
-0.00925805
0.178076
-0.163042
0.220502
0.1043
0.0862769
0.164329
-0.0130315
0.022311
0.0706904
0.039614
0.102494
-0.113622
-0.0326251
-0.122505
-0.136363
-0.0392278
0.0636738
0.0232605
-0.130716
-0.182265
0.100209
0.0506489
-0.058785
-0.0907558
0.115373
-0.111424
-0.138441
0.0770133
0.149475
0.159796
-0.0443666
0.0851109
-0.079901
-0.0306035
-0.0863339
0.00890193
-0.152051
-0.0672632
0.0203192
-0.0511042
0.11681
-0.159815
0.0627444
-0.00696115
0.0139485
0.235261
-0.140883
-0.124881
0.144807
0.152286
0.0863131
-0.084592
-0.0656606
-0.0776743
-0.0386099
-0.137963
-0.0155491
0.0336456
0.106157
0.0370775
-0.0620219
0.0396478
-0.131383
-0.0406294
0.0831476
0.060706
0.150083
-0.10259
-0.139499
0.131876
0.121776
0.0795605
0.0291683
0.00629816
0.120693
0.045489
-0.0347925
-0.147867
0.0109852
0.11449
-0.160976
0.0151878
0.0189136
-0.163867
-0.035813
0.0279755
0.00443506
-0.0722392
-0.108975
-0.0507464
-0.118419
0.0458221
-0.0824674
-0.167632
-0.166703
0.153817
0.160922
0.0304102
-0.13929
-0.0214218
0.0499975
0.0380076
-0.0241311
0.0633052
-0.0774812
0.0448418
-0.100874
-0.167034
-0.129956
-0.0870462
-0.165152
-0.0186322
-0.018904
-0.0217847
-0.00189333
0.174841
-0.126607
0.181424
0.0869177
-0.143928
0.0487769
-0.0753789
-0.0357511
0.131887
0.0811981
-0.136909
-0.12521
-0.175458
-0.199757
0.118056
0.0010272
-0.14537
0.155905
-0.156914
-0.0580319
-0.0866108
-0.0639335
-0.044474
-0.124229
-0.12533
0.117719
-0.0926618
0.162157
0.068752
-0.152755
-0.0754182
0.0613787
0.143632
0.110719
6.54552e-06
-0.0660766
0.0821258
-0.107973
-0.0258985
0.162796
0.0691327
-0.10954
0.0899186
0.0935412
0.0715737
-0.116791
0.0995157
0.0345435
-0.0503281
-0.0732825
0.0632346
-0.155813
-0.121038
0.0302313
-0.0993447
-0.182741
0.00945687
-0.129968
-0.0614354
0.00631398
-0.0273968
-0.146823
0.0051668
0.0952923
0.0360406
-0.1211
0.154708
-0.000361825
0.0271851
-0.0245905
-0.128497
0.10121
0.142391
0.126932
0.118216
0.0235969
0.00822632
-0.112572
0.132775
0.067696
-0.142093
-0.0157251
0.124654
0.166664
-0.16186
-0.0352721
-0.142424
-0.155207
-0.130896
-0.11552
-0.00216934
0.137385
-0.164879
0.141499
-0.159992
-0.0673597
-0.0779799
0.163724
-0.0419152
-0.00680633
-0.0703046
-0.00737198
-0.0254565
0.114288
-0.0599096
-0.0488884
-0.0647283
0.20459
0.0336367
0.0695849
0.0699457
0.149559
0.0139559
0.102665
0.0632462
-0.13753
-0.029927
0.0290463
0.108815
-0.10949
0.0552874
-0.0506272
0.134887
0.0605755
0.0534032
0.0963621
-0.0226817
0.0732594
0.194558
-0.0478641
-0.0929855
-0.0396278
0.0361663
0.14918
-0.133305
0.014424
-0.0469466
-0.135929
-0.132366
-0.178554
-0.16876
0.14121
-0.0895437
0.12185
0.089609
-0.0251229
-0.0837044
0.0165807
-0.107309
-0.113562
-0.144721
0.126847
-0.0470188
-0.16267
-0.170949
-0.0357867
0.0384909
-0.103655
-0.0779366
-0.15211
0.169968
0.0584976
0.0435226
-0.0366823
-0.0730819
-0.00970373
0.0430323
-0.169247
-0.0799759
0.0182726
0.0432292
0.146475
0.0613871
-0.112256
-0.0192886
0.145481
0.0157772
0.0977662
-0.0134279
0.145264
-0.076635
-0.0664081
0.0511872
-0.0243711
0.0212695
-0.118125
0.0215793
-0.166519
0.0253312
-0.10426
-0.157315
0.00248393
0.0777884
0.0216607
-0.024218
0.146948
0.113678
-0.043092
-0.163968
0.16364
0.0156398
0.146083
-0.125139
0.0854183
-0.113648
-0.107325
0.00585435
0.0147997
-0.0693607
0.0215088
-0.0125352
-0.179088
-0.100962
0.149177
0.16586
-0.0926631
0.119371
-0.146756
-0.0472174
-0.124082
-0.0210825
-0.157282
-0.0164931
0.00762951
0.0890066
-0.0393626
0.0145544
-0.08875
-0.00548914
-0.0340163
0.163068
0.16067
-0.0795574
0.107606
-0.0450699
0.0848299
0.192542
-0.0175725
-0.0992176
-0.117336
-0.199053
-0.00493478
0.128227
-0.0214872
0.158015
-0.000343012
-0.185314
-0.111388
-0.122697
-0.0137932
-0.00759153
-0.146694
-0.117021
0.171976
-0.0485872
0.0966993
-0.121583
0.139525
-0.0389872
-0.0744388
0.159133
-0.124995
0.0263879
0.0324737
0.136849
0.0471243
-0.0395171
0.108726
0.149643
0.102121
-0.126542
0.00293494
0.0563866
0.0554499
0.0671027
-0.0137695
0.0457553
-0.0429946
-0.0031673
0.229534
-0.0042712
0.13169
-0.0797619
-0.150003
-0.178191
-0.0896315
0.095322
0.0984204
-0.0790592
-0.158962
-0.0392383
-0.0459296
-0.0580765
0.163995
-0.0335881
0.148011
0.0971504
-0.0602179
0.136879
0.024356
-0.0567954
0.00992077
0.0115938
-0.047134
-0.0204328
0.109425
0.15321
-0.0880695
-0.00176965
0.159765
0.1052
-0.143216
0.0607116
0.131237
0.176525
0.0917375
-0.16037
-0.115765
-0.078129
-0.117667
0.0973518
-0.123648
-0.0639255
-0.152625
0.0982592
0.0436774
-0.048114
-0.158812
0.0166431
0.0923574
-0.0349387
-0.13579
-0.0579391
-0.0223743
0.144183
0.0622963
-0.0376813
0.0411936
-0.103867
0.0869869
-0.156099
0.0372466
0.181153
0.074582
0.0591084
-0.143366
-0.130365
0.138013
0.0886349
0.0941263
0.0331958
0.171614
0.110249
0.0676545
0.170711
-0.079099
-0.116004
-0.051656
0.1506
-0.0263556
0.126212
-0.112002
0.0144534
0.114497
-0.010977
0.1133
0.166848
0.0610948
-0.0579571
0.0652879
0.0239211
-0.0162534
-0.157557
0.0315156
0.0544533
0.0529284
0.151623
0.0378076
-0.00975878
0.0129388
-0.133518
-0.149409
-0.0476395
0.0589443
-0.0986606
-0.0884206
-0.0602588
0.0452909
-0.141975
-0.148012
0.0432138
0.129473
0.0523396
0.12773
0.15785
0.0658492
-0.043787
-0.147891
-0.0444805
-0.0618483
-0.104574
0.111833
0.0393237
0.143188
-0.0694775
0.147383
-0.106486
0.164117
0.0145084
-0.0210485
0.145247
-0.118166
-0.142858
-0.106913
0.149501
0.191441
0.074576
-0.103339
-0.098783
-0.0678879
0.16445
0.0311702
-0.118283
0.16528
-0.0121215
-0.00169481
0.0623928
0.0386478
0.0261764
-0.116754
-0.0446585
-0.0794607
0.00144289
-0.126715
0.0425158
-0.0934539
-0.0397614
0.160436
0.0641581
-0.148173
0.14957
0.0418633
-0.15365
-0.0320683
0.0772683
-0.0732253
0.00642526
-0.0814299
0.0326777
-0.0499732
0.14454
0.0324462
0.17233
0.152905
-0.105206
0.0945066
0.00675182
-0.076597
0.174149
0.0177174
-0.0757068
0.0367277
-0.0500805
-0.0931348
-0.15617
-0.16683
-0.146529
-0.0813971
0.179507
0.0928292
0.0207299
0.118234
-0.129997
-0.169024
-0.0912781
-0.0807577
-0.0175099
-0.124408
-0.0205293
-0.148862
-0.136474
-0.0140116
-0.0678811
-0.00490667
0.119204
-0.0941387
0.0786237
-0.150987
-0.1523
-0.0177553
0.143049
-0.167515
-0.0199784
0.139719
-0.10738
0.0438052
0.147411
0.0767989
0.160986
0.052481
0.117655
-0.132731
0.0918376
0.115779
-0.0711987
0.0869442
-0.146218
0.107532
-0.0753011
-0.0973528
-0.147336
-0.112567
-0.116672
-0.0406875
-0.0653233
0.162358
-0.149914
0.15711
-0.0628117
0.111873
-0.0406223
0.00247464
-0.0367619
0.0815501
0.141828
0.0808607
0.00145294
0.0955486
-0.0621556
-0.0266382
0.125756
0.157524
-0.155449
0.0298787
0.0658977
-0.130584
-0.0072947
0.152338
0.0929256
0.0847483
0.0403884
0.081147
-0.0638709
0.0334479
0.116759
0.020661
-0.0637005
-0.00808537
-0.0418857
0.110717
0.12977
0.105923
0.0116184
-0.0543588
-0.137972
0.155038
-0.103441
0.142881
-0.0257404
0.0615769
-0.0580722
-0.127375
-0.133691
-0.053743
-0.0779843
0.0535148
-0.0351225
0.0153177
0.145554
-0.151305
-0.0509293
0.0993113
-0.0964175
0.0910801
-0.019721
0.154291
-0.0882829
-0.106077
0.0990184
0.0946814
0.0233138
-0.146283
0.0396686
0.138264
-0.0852312
-0.195534
0.00949339
0.0651902
-0.0220433
0.112583
-0.111732
-0.0829854
0.0739584
0.159395
0.104199
-0.138943
0.0546556
-0.0915163
0.103396
0.0149707
0.0195843
-0.0399148
0.138971
-0.0257751
-0.128868
-0.0224848
0.0315124
-0.190209
-0.00206787
0.101546
-0.171406
0.00761874
-0.117904
0.144798
0.176994
0.0491209
0.0810736
0.088319
-0.116835
-0.226714
-0.00174505
0.139147
0.11442
-0.174153
0.0983453
0.0950862
0.156415
0.162284
0.111182
-0.00160602
0.120626
-0.0498854
-0.0333497
0.131596
-0.0204057
0.0142138
-0.215844
-0.0794497
-0.0936012
0.18216
0.0830669
0.177434
-0.13686
-0.0128406
-0.186044
-0.125277
0.0689563
0.1187
0.0224893
0.16946
-0.13662
-0.0161106
-0.145061
-0.0399331
-0.0559277
0.0889459
0.146689
0.115627
0.00156593
-0.144167
0.0878366
-0.0498685
0.0916333
-0.0755254
-0.181188
-0.136945
-0.0577539
0.0553783
0.0526627
-0.0889974
0.169936
0.0514765
-0.133255
0.125026
0.0765694
-0.0911087
-0.0327467
0.151366
-0.0969734
-0.00230708
-0.0616871
0.129543
0.0447726
-0.0115662
0.089062
0.0113919
-0.0643701
-0.127416
-0.0851781
-0.120696
-0.0867359
0.0984167
0.11268
0.106329
0.0861859
-0.159934
0.127024
-0.082687
-0.0705974
-0.0651821
0.0662502
0.152642
-0.133123
-0.185264
-0.0180966
0.0471122
-0.155555
-0.127132
-0.138169
-0.03439
-0.131032
0.0093756
0.145663
0.110029
0.159842
0.0314327
-0.0254783
0.105264
-0.0573857
0.161272
-0.150863
0.07007
0.0113832
0.090663
0.0845931
0.141553
-0.0458489
0.00404949
0.15086
-0.110435
-0.0678884
0.0431966
-0.136404
-0.111883
-0.100695
-0.0685821
-0.0655508
-0.0637297
0.161794
-0.0562358
-0.031953
0.12022
0.0403506
-0.160195
0.0555169
-0.0615935
0.0365466
0.0911145
-0.0194604
-0.0872626
-0.135542
0.0904582
0.0129455
0.0721899
0.0153128
-0.10721
0.0232366
-0.142633
-0.0863272
0.0559313
-0.0307801
0.13728
-0.0142197
-0.0658503
0.109402
-0.157569
-0.0209953
0.00981981
-0.0776251
-0.12777
0.026315
0.0848028
-0.159933
0.0947594
-0.0568717
-0.0602325
0.112151
-0.0180706
-0.167082
-0.120314
-0.0012081
-0.163681
0.100377
-0.0699199
0.0885466
-0.038232
-0.00885814
-0.0455087
0.0425715
-0.069895
-0.0828449
0.110416
-0.00633316
-0.075781
-0.0513376
0.0277725
-0.0832295
0.0538667
0.21338
-0.0190895
0.103127
0.124519
0.161616
-0.11522
0.0203802
-0.129108
-0.000648657
0.00740923
0.159817
-0.0131666
-0.0291922
-0.0229684
-0.0260737
-0.0244734
0.121644
-0.0205251
-0.105498
0.120779
-0.0751075
0.0756702
-0.0847746
-0.104465
-0.128325
0.150963
-0.13509
0.116992
0.0425706
-0.139722
-0.190078
0.135882
-0.113866
0.0146527
-0.135201
0.13184
0.199859
-0.0435294
-0.0363137
-0.0491992
0.103255
0.0453176
0.0978048
-0.0456072
0.0753201
-0.0329751
0.0391199
-0.0876476
-0.151431
0.110782
0.139478
-0.137704
0.0982308
-0.151143
0.0508138
-0.0605413
0.166586
0.163448
0.11034
-0.0516172
0.000203621
-0.071921
-0.151412
0.0626319
-0.0898746
-0.108441
0.0992579
-0.0595094
-0.154693
0.0265662
-0.123587
-0.112881
0.163039
-0.10318
0.102205
-0.0524539
0.136877
0.125707
-0.0897105
-0.0871145
0.00662663
-0.0415911
0.141494
-0.129713
0.0927102
0.110765
-0.129571
0.128329
0.134703
0.166644
0.0240757
0.0629837
0.129671
-0.115706
-0.0770568
0.149374
0.112258
0.0474114
-0.0603762
0.142224
0.165079
0.160966
-0.0819365
-0.0982198
0.132001
0.099856
-0.150439
-0.104212
0.0662859
0.0293994
-0.12201
-0.0024289
0.0324566
-0.0376346
0.10582
0.0773685
0.197689
0.0830943
0.149843
0.16089
0.00935523
-0.0983628
0.00572946
-0.000709652
-0.00709005
-0.108308
-0.0592388
0.0230207
0.00791437
0.0501171
-0.153168
0.0184494
0.0895476
0.135499
-0.166848
0.0751533
0.0918926
0.0541736
-0.13291
0.129897
0.108173
0.164845
-0.0180892
0.153432
0.0263738
-0.136043
-0.177959
0.160001
-0.108817
0.0640738
0.117884
-0.140445
-0.0070011
0.135908
0.0365782
0.101861
5.67842e-05
0.00386471
-0.0792937
0.127345
-0.082026
0.0565541
-0.143191
-0.0740805
0.0953352
0.105691
-0.025443
-0.124448
-0.058835
-0.121315
-0.0790331
-0.0748431
-0.0882247
0.00450268
0.211196
0.0981354
0.0826507
0.168004
-0.0190925
-0.141954
0.037619
0.0505585
0.0323961
-0.018095
-0.111518
-0.035052
-0.0461315
-0.0844275
0.153027
0.196164
0.0886981
-0.0688319
0.0867608
-0.107466
0.0493691
0.03348
-0.0551214
-0.00249011
0.103233
0.12609
0.209765
-0.076441
0.0664071
0.135572
0.0927314
0.187017
-0.146151
0.0332776
-0.00384947
-0.139002
-0.14024
-0.0156169
-0.106881
-0.110388
0.136023
-0.0656848
0.0507687
-0.0411343
0.0352093
0.012903
0.167179
0.198604
-0.0198555
-0.139305
-0.0806624
-0.0128021
-0.0398943
-0.0408614
0.106358
-0.0822096
0.154417
-0.0088996
-0.160877
0.0976836
0.0335319
-0.136744
-0.076128
0.150898
-0.0914628
0.0145371
0.0136506
0.0207211
0.0157236
-0.134981
0.14111
-0.156765
0.0908178
-0.0596431
0.185011
0.132829
0.0565994
-0.166443
0.0621905
0.0722018
0.0957384
0.174843
0.0979906
0.0991668
-0.111967
-0.0860936
-0.123159
0.142269
-0.0950038
-0.154771
0.143016
-0.0190776
-0.125862
0.150556
-0.10723
0.0160889
-0.0989431
0.12065
0.0375017
0.0886295
-0.0322866
0.143477
0.00886405
-0.00075635
0.00293859
-0.128995
0.0638516
-0.0636623
-0.0884583
-0.0887184
-0.180115
0.0688521
-0.0938313
0.0327549
0.103877
0.119186
-0.0922578
0.197158
-0.109203
-0.107091
0.0674642
0.103668
0.125505
-0.0158658
-0.100595
-0.0126556
0.0131206
0.114935
-0.208558
0.0544368
-0.0866589
0.227034
0.100682
-0.171005
0.122844
0.0913393
-0.028844
0.143427
0.088292
0.114629
0.120992
-0.113659
-0.0796432
-0.122672
-0.122391
-0.0112467
-0.131984
0.0858591
0.12525
0.0888272
0.0391539
-0.0849935
-0.109506
-0.0923156
-0.010098
0.0748913
0.182202
0.0260829
-0.0169065
0.0683018
-0.060687
0.156476
-0.204499
-0.15695
-0.0445136
-0.075061
0.0108756
0.0498146
-0.0757912
-0.0747469
-0.128173
0.0976561
-0.17689
0.117817
0.0545575
0.0853545
-0.0222157
-0.132734
0.0975724
0.0816619
0.0267687
0.0966816
-0.159986
0.0507436
0.16063
0.064613
0.0638411
0.0250447
0.0812793
0.168191
0.0850289
0.0870198
0.0640525
0.136106
0.110531
-0.00201661
0.0221624
-0.0950164
0.0510928
0.0111651
0.0534362
-0.0400484
-0.0418982
0.0329351
-0.0280996
0.0535536
-0.115032
-0.127115
-0.109794
0.0996011
0.0699192
-0.162368
-0.0701876
0.0590326
0.144187
-0.14448
-0.0599133
0.158738
0.141363
-0.0633927
-0.0345964
0.082815
-0.144006
0.0466855
0.134826
-0.045374
-0.00576584
-0.0187781
0.0717691
0.0203685
0.0989355
0.135627
0.0923691
0.113575
0.0529085
-0.0238224
0.0486397
0.0549088
-0.134114
0.00501747
-0.126107
-0.00831241
-0.147616
-0.100103
0.0556201
0.0244609
-0.0823294
-0.00792011
-0.0897057
-0.0722595
-0.170981
0.0742552
0.0951402
0.0233409
0.136866
0.13994
0.0255542
0.0439593
-0.168021
-0.142016
-0.08421
-0.00088848
0.170919
-0.136514
-2.13478e-05
0.128826
-0.010941
-0.0762734
0.00770936
-0.066464
0.103965
-0.0017704
0.139078
-0.0527486
0.120381
-0.0933456
0.102364
0.110907
0.103153
0.00537799
0.0760067
0.166678
-0.0788921
0.111955
0.129478
-0.0571246
-0.0766301
0.0225817
-0.125048
0.123655
-0.136978
-0.0862774
0.0447923
0.0916676
-0.0518561
0.0847127
0.129746
0.0741157
0.101319
0.189735
0.0806689
-0.00925853
-0.0891642
-0.133392
0.0827308
0.113262
0.0970748
0.0670478
-0.00402824
-0.164507
0.126055
0.0466212
-0.01856
0.0165155
-0.00959982
-0.0312181
0.0306454
-0.130461
0.12305
0.0988333
0.0673765
-0.0125599
0.112628
0.159075
-0.0993841
0.0961913
0.148926
0.167716
-0.147479
-0.0790783
-0.138568
-0.0171432
0.167032
-0.0307643
0.111948
0.122597
0.161384
-0.017768
0.137299
-0.0878227
0.0110061
0.0240609
0.0314203
0.164913
-0.109664
-0.123683
-0.0454021
-0.12249
-0.0170826
0.117879
0.0397997
-0.0942737
0.127614
-0.0409401
0.0967721
0.0807534
0.174686
0.165147
0.067747
0.0510867
0.107118
0.0532769
0.0585165
-0.0714746
0.0317938
0.0258002
0.150084
0.13012
-0.0980757
0.135925
0.0140685
-0.152688
0.0190554
0.124669
0.0298657
-0.0948604
-0.120424
-0.00562448
0.0566146
0.16691
0.137368
-0.0775167
0.0576164
0.08507
-0.011043
0.0485782
-0.0178356
-0.137557
-0.0321934
0.0181753
-0.0053217
-0.115043
-0.00805999
0.0963061
0.113459
0.104396
-0.12812
-0.0369092
0.185631
0.0827101
0.067284
0.0494909
0.107185
-0.182262
-0.0504994
0.0163052
0.13499
0.0383653
0.194773
0.00189684
-0.0711765
0.0227704
0.113118
-0.106283
-0.146687
0.145703
-0.0213182
-0.0448447
0.0434703
0.166768
-0.114753
-0.0254455
0.0749665
-0.134896
-0.0849075
0.0706171
-0.0743582
-0.0733267
0.0907617
0.0879874
-0.0766384
-0.0975021
0.0104128
-0.114355
0.0389256
0.0765357
-0.0723579
-0.119387
-0.147088
0.0649272
0.0876224
-0.128074
-0.143693
-0.0976247
-0.0575081
0.0982885
-0.0139329
0.157553
-0.0931607
-0.16822
0.0902275
-0.0449557
0.0745435
-0.137876
0.17434
-0.0172671
-0.0146197
-0.179538
0.158394
0.0145355
-0.103888
-0.066332
0.116734
-0.0681841
0.0358954
-0.159739
-0.0029723
0.0663337
-0.167792
-0.0807807
-0.103142
-0.115944
0.0376025
0.0491739
-0.143642
0.0941231
-0.202665
0.147993
-0.0769366
0.0994
0.0677188
-0.113941
0.0852459
0.0170943
0.0297408
0.150223
-0.0488262
0.187629
-0.00675398
0.0761227
-0.0187366
0.100012
-0.12064
0.1621
-0.112931
0.0358974
0.0852061
-0.142544
0.121243
0.00848946
0.0718907
-0.153724
-0.128605
0.0857413
0.0957583
0.0893648
0.158099
-0.00101841
0.167063
0.0766638
-0.140558
0.134382
-0.0648506
0.0851326
-0.0116618
-0.162844
-0.0249782
-0.0134392
-0.006086
0.162654
-0.078929
0.0955804
-0.0528538
0.0437119
0.0648777
-0.0904142
0.159395
-0.160829
0.0082623
0.0413159
0.00466605
0.0119414
-0.0740369
0.151848
-0.116652
0.0815004
-0.148419
-0.0938619
0.0260282
0.165277
-0.0751926
-0.00356715
-0.0324311
-0.113184
0.162212
-0.142823
-0.11307
-0.0996725
-0.0610634
-0.0847561
0.0966188
0.0904868
0.151072
-0.0768365
-0.136284
-0.0452609
-0.10895
0.00590807
-0.117384
0.160188
-0.0926189
0.180149
0.167515
-0.134568
0.065026
0.172245
0.130915
0.107616
0.109558
-0.161949
-0.171567
-0.0159782
-0.128541
0.0796707
0.0010466
-0.0756641
0.0438459
-0.0427181
0.146472
0.0830594
-0.14266
-0.0236178
-0.131016
-0.068344
0.119885
-0.0719201
-0.0578137
0.120019
-0.118066
0.0125141
-0.0898591
0.0981798
0.0810812
-0.107893
0.125381
-0.108269
-0.135583
0.0182857
-0.133089
-0.013999
0.199859
-0.114613
0.010313
0.0861127
-0.0120732
0.00838938
0.149949
0.134698
0.140601
0.128319
-0.0528115
0.0791687
-0.160857
-0.0561333
-0.0679686
-0.0304758
0.11764
0.0783021
-0.0440344
-0.0487126
-0.0746579
-0.0685543
0.137228
0.112524
0.00534187
0.130001
-0.113733
-0.138503
-0.0543617
-0.0366219
0.0395794
-0.0375107
-0.026546
0.151969
0.041813
-0.158454
0.100783
0.175
0.0819715
0.0779646
-0.0950121
-0.0183651
-0.138867
0.121672
0.155998
-0.120088
-0.0695552
-0.0265163
-0.00428346
-0.0282116
-0.0135161
-0.00454659
0.0130825
0.0548594
-0.0189607
-0.0461585
0.0405839
0.0933995
-0.12814
0.0454572
0.0701182
-0.106113
-0.0251791
0.141149
-0.11513
0.150746
0.0737997
0.0709755
0.16555
-0.0158588
0.0656295
-0.0426433
-0.00720297
-0.151551
0.175689
-0.181927
-0.00702238
-0.127222
0.14592
0.0743601
-0.125395
0.21829
0.10315
-0.0752684
-0.0766857
-0.00558179
-0.0159483
0.157852
-0.165835
-0.0887602
0.0993247
-0.12793
-0.0612009
0.121984
-0.137842
-0.0668608
0.0139136
0.0301327
0.0345191
-0.143948
-0.143319
0.0471479
-0.0903185
0.00780543
-0.111446
-0.0179533
-0.176857
0.0200446
0.0260587
0.0880871
0.0377126
0.237976
-0.0851332
0.203219
0.0674456
0.0711451
-0.0137238
-0.0399707
0.0809445
-0.106281
-0.16436
0.0126937
-0.174634
-0.242681
-0.151284
0.117334
0.0531435
-0.0932675
-0.151392
-0.193338
0.153401
-0.0260233
-0.0399524
0.000674883
-0.0376471
-0.00210598
0.0263234
0.169714
0.135038
-0.108864
0.0773971
0.0281955
0.0154178
0.0550308
0.0355275
0.0978761
-0.179128
-0.121519
0.111888
0.0706677
0.0332672
-0.00175875
-0.116392
0.178506
0.143358
-0.152791
-0.0303397
-0.0856398
-0.0834636
0.0183717
0.0911811
-0.0770266
0.146878
0.0924067
0.104939
0.0254734
-0.0460363
0.0348491
0.127084
-0.0665255
-0.185121
0.0878691
0.0422415
0.159072
0.0741313
-0.164878
0.0385167
0.0337649
0.120358
0.0600016
-0.18289
-0.0329341
0.042834
-0.13053
-0.150942
-0.0564071
-0.0923506
0.0224648
0.151448
-0.0203971
-0.0930418
-0.105754
0.152041
-0.144663
0.0659585
0.0293481
-0.133446
0.166816
-0.158005
0.14937
0.16574
-0.143324
0.0376656
0.0432466
0.0455527
-0.0570905
0.137929
-0.101151
-0.15414
-0.0764963
-0.143676
-0.0891286
-0.0129505
0.137215
-0.0138408
-0.120503
0.0395124
-0.167378
0.0790333
-0.12249
-0.110367
0.0262784
-0.114425
-0.00428417
0.0982727
0.126879
0.0828253
-0.0688657
0.0567026
-0.093347
-0.0674532
-0.121089
-0.054293
-0.0893173
0.0427854
-0.0623685
-0.115077
0.183403
0.0678502
0.0463296
-0.134088
0.109137
-0.156479
0.127694
-0.0280008
-0.0908036
-0.151916
-0.0960485
0.062969
-0.143637
0.101909
0.0182458
0.10394
-0.10395
-0.145132
-0.129479
-0.164697
-0.118866
-0.106007
0.123525
-0.0575333
-0.187664
0.0598078
0.0981247
0.0992776
-0.0288932
-0.0162174
0.0851513
-0.160047
0.0597171
0.130992
0.0294916
-0.101163
-0.0376771
0.0953188
0.0905335
0.141896
0.0982627
-0.00669323
0.0384402
0.163321
-0.164739
0.140534
-0.151999
0.126766
0.00225573
0.0656672
-0.051409
-0.0885982
1.16889e-05
-0.0943824
0.233611
0.0575143
-0.0323335
0.146237
0.142347
0.122535
0.0428413
-0.048026
0.0321496
0.105577
0.0236004
-0.166138
-0.168153
0.0252133
-0.00607157
0.12398
-0.134935
-0.0813806
-0.0600056
0.124727
-0.180249
-0.135671
0.0236131
-0.142831
0.101854
0.0829499
0.039603
0.0106697
0.177609
0.114735
-0.000358404
0.100694
-0.112347
0.0918273
-0.148104
-0.126262
0.105701
-0.104026
-0.153863
-0.140032
0.191632
0.120787
0.0959803
0.143442
0.0830176
-0.0289369
0.037829
-0.157107
0.0727092
-0.182223
-0.0619015
-0.0460651
0.183017
0.0633391
0.0838839
-0.0821918
-0.129188
-0.0970171
0.170612
0.221872
0.151674
0.121755
0.0535446
0.172088
0.178604
0.0843202
-0.0294999
-0.0222792
0.154576
0.000400408
0.0875762
0.10712
0.0816053
-0.00337829
-0.185844
-0.178075
-0.104292
0.0453876
-0.153112
-0.15073
-0.0849305
0.10117
0.10285
0.022911
-0.040824
0.122894
-0.076981
-0.0128011
-0.049898
0.165112
0.115541
-0.0612451
0.0416385
0.0400393
-0.00207671
-0.0157739
-0.130856
-0.00954783
0.0193506
-0.122341
0.168994
-0.181033
-0.0299501
-0.037927
0.0438623
-0.0503658
0.0287417
-0.116974
0.0910923
-0.164017
-0.0230214
-0.00366554
-0.140599
0.0508642
0.0440783
-0.137551
-0.110475
-0.144696
-0.0726066
0.0481705
-0.104158
-0.0172859
-0.0709647
-0.135124
-0.16618
0.115789
0.0171633
-0.172715
0.107147
0.0978825
0.142974
0.167975
-0.026378
-0.0642537
0.0876423
-0.0798694
-0.0907357
0.112186
0.0301714
-0.107024
0.149186
0.120587
0.0750818
-0.162755
0.0712876
-0.176461
-0.0254217
0.137405
0.172661
-0.0784334
0.129216
-0.137786
0.0566344
-0.02761
0.077196
-0.151774
0.0102433
0.028001
-0.0252719
0.144581
0.113362
0.0635028
-0.103787
0.00720258
-0.0515148
-0.0239412
-0.103497
0.0310713
-0.12219
-0.0420889
0.0375126
-0.0301677
-0.120843
-0.00955531
0.103722
-0.0411953
0.135005
0.0742717
-0.00830576
-0.107651
-0.132829
0.0362937
-0.0136555
0.132703
0.0640481
-0.0780901
-0.0929906
-0.0896338
0.0339445
-0.0224078
-0.128762
0.13346
-0.146214
-0.0297964
-0.0935699
0.104079
-0.0988904
-0.0204731
-0.142313
-0.135343
0.0500575
0.0122479
0.0344396
0.0823904
0.108278
0.160339
0.173307
0.169137
-0.0512361
0.15075
-0.131576
-0.0969517
0.0967012
0.166493
-0.0322224
0.158749
0.0640856
-0.0804174
-0.0751436
-0.166918
0.00691189
-0.0840942
-0.0244448
0.0878043
0.0996713
-0.11394
0.141286
0.03679
-0.0564342
0.124954
-0.169097
0.0641743
-0.0554819
0.00713428
0.12609
-0.042567
-0.0284891
-0.13343
0.0364715
0.0715967
0.0407351
0.0499195
-0.137701
-0.000992717
-0.0999703
0.143261
0.092251
0.0961888
0.0295101
-0.165077
0.0187487
-0.092881
-0.00803295
0.0399349
0.0819558
0.139339
-0.1215
-0.0630314
-0.17207
0.0665419
-0.118764
-0.0362367
-0.0479128
0.0248173
0.156902
0.0539826
-0.131871
0.108296
-0.13023
-0.130807
-0.106407
-0.131253
-0.0142919
-0.0168677
0.0212134
-0.0996839
0.034868
0.0939664
0.0785819
0.0801835
0.0743517
-0.00508889
-0.151921
0.016689
0.0503566
0.0398896
0.0932085
-0.154327
-0.122545
0.00283292
0.0653342
0.0376541
0.158213
-0.0799137
-0.0488791
-0.00877831
-0.143208
0.164341
-0.00946449
0.0106941
-0.139201
-0.126813
-0.100198
0.0808968
-0.164818
-0.0960421
-0.181909
0.00501469
0.0825514
-0.138945
-0.122256
-0.0784959
-0.155564
0.0773845
0.0726206
0.000867559
0.0106783
-0.0238108
0.106819
-0.0745002
-0.0400087
0.139717
-0.0613192
-0.00598395
0.0978603
-0.136948
-0.0177589
0.156043
-0.123882
-0.111624
0.0602542
-0.0992474
0.0328676
0.0909675
-0.0844102
0.11995
-0.0334619
0.0089958
0.0292952
0.0850245
0.053882
0.19261
0.112036
-0.179527
0.127942
0.157813
-0.00800898
-0.148013
0.009428
-0.113018
-0.160687
-0.0212753
0.0517966
0.0577127
-0.0420513
-0.0527142
0.0489015
-0.174476
0.124319
0.160734
0.158596
-0.100866
-0.163081
0.0996881
0.112421
-0.163239
-0.132795
-0.160687
-0.124568
0.170374
0.0788789
0.0415006
0.0767643
-0.0012856
0.0903305
-0.0836108
0.106627
-0.0100206
-0.184135
-0.136336
0.0692524
0.0885662
0.0335811
0.00682693
-0.0371151
-0.0156867
-0.163572
0.0975592
-0.128565
-0.108138
-0.0328247
0.0121399
-0.12773
-0.0265458
0.055239
0.0104532
0.0647833
0.119252
-0.0665638
0.105888
0.018538
-0.156773
-0.0406732
0.0197633
-0.0102011
-0.123567
0.0218176
-0.13405
0.10996
0.169409
-0.0830821
0.138652
-0.00761222
-0.109079
-0.0904135
0.182177
0.0797381
-0.000190482
0.010902
0.0567188
-0.122386
0.0445167
0.0723162
0.170764
-0.112304
0.0616512
-0.116266
-0.134463
0.117224
-0.117543
-0.0871915
-0.146964
0.160614
-0.134339
0.145827
0.0729986
0.0840241
-0.119036
-0.115995
0.129366
0.0856519
0.0619393
-0.0358758
0.145287
-0.159196
-0.00679992
0.00587969
0.148211
0.144658
0.124373
-0.171357
0.00622597
0.0409741
-0.0836498
-0.0467044
0.106505
0.142725
-0.0847998
-0.102034
0.0598188
-0.0417965
-0.0462302
-0.140987
0.0732961
0.0943156
-0.0585185
0.0487051
0.017489
-0.103132
0.141058
0.0378254
-0.112255
-0.00858422
-0.141828
0.0545143
-0.113136
-0.141027
0.16981
0.0150785
-0.150753
-0.0605199
-0.0228986
0.0209381
0.165979
0.114484
-0.00230739
-0.0382746
0.167922
0.14502
0.00235376
0.12011
0.0122095
-0.0160389
-0.0234354
-0.147409
0.100249
-0.0827482
-0.157373
0.0395476
-0.140101
0.0142046
0.0414927
0.0506617
-0.139502
0.157014
0.0263354
0.00523905
0.164345
-0.0704716
-0.156631
0.111805
-0.0490478
-0.136775
0.029514
-0.148742
0.156166
-0.114483
0.0418781
-0.170863
-0.148355
-0.124061
-0.0828166
0.0431655
0.123753
-0.0952391
-0.0436106
0.00119346
0.155211
0.0819037
0.0231443
0.0679679
-0.181955
-0.0386202
0.048737
-0.139192
-0.125419
-0.0232286
0.136649
0.147721
-0.00536997
0.0115325
0.156917
0.123285
-0.14918
0.0779067
0.139607
-0.0527814
-0.121549
0.025115
0.158638
0.121573
-0.0881683
0.119861
0.0898329
-0.0868916
-0.0983139
-0.13559
0.0197555
-0.200308
0.0738489
0.0513091
-0.101445
-0.0868464
0.00160423
-0.0423985
0.0313431
0.136565
-0.0193384
0.0849364
0.0961513
-0.0364579
-0.00497034
-0.0248802
-0.0248433
-0.151975
0.170308
0.116052
0.0485397
-0.16112
-0.195838
-0.0148916
0.0466004
0.185085
-0.150135
0.082336
-0.0232658
-0.0868549
0.0693191
-0.0568933
-0.16132
0.00693621
-0.126473
0.00604469
-0.0830799
-0.0790811
-0.0529914
-0.14068
0.151604
-0.158947
-0.129757
-0.123462
0.147014
0.0748011
-0.0969203
-0.074399
0.0152334
0.0295323
0.0033573
-0.108957
-0.00827829
-0.077379
-0.170651
-0.147436
0.0146256
-0.0411421
0.0791133
0.0120699
-0.145769
-0.0147927
-0.0559794
-0.0158005
0.104538
0.0177781
-0.161986
0.0152602
-0.0581243
-0.162632
0.170156
-0.135901
0.132887
0.132519
-0.115501
0.147699
-0.0633947
-0.0377146
-0.154724
-0.125129
-0.0352327
-0.142165
-0.0836976
-0.0232708
-0.0451798
-0.032305
0.156139
0.0949964
0.0932039
0.11721
-0.140008
-0.0214505
0.146358
-0.081066
0.164766
-0.130371
0.076634
-0.0572718
-0.0401534
0.0299301
-0.0666859
0.12524
0.0403053
0.11205
0.106673
0.00762179
-0.154799
0.0978723
-0.147284
0.134912
0.0731095
0.0767904
-0.0150589
-0.154718
0.161876
0.0201258
0.0718094
0.0348093
0.0254938
-0.13989
-0.0450854
-0.123983
-0.0548371
0.0927504
-0.0911919
-0.0713101
0.135569
-0.13792
0.129407
0.0733544
0.0709785
-0.0718924
-0.109251
-0.170481
0.112223
-0.0716777
-0.0767764
0.156571
0.00399283
0.0721314
-0.0856238
0.119227
-0.178943
0.0846162
-0.119002
0.0262032
0.0764373
-0.156116
-0.0860949
-0.0631353
-0.164822
0.155155
0.0277859
0.0343822
-0.144028
0.141154
-0.104991
0.0585672
-0.0894367
-0.137673
-0.00482139
0.0974576
0.157493
0.0517894
0.111691
0.158418
-0.0143643
0.10161
-0.0227747
0.135059
0.0606532
0.0850415
-0.0583431
0.129923
0.131905
-0.102879
-0.0586355
-0.05619
-0.0276077
-0.152574
0.0192385
-0.106179
0.0939342
0.169227
-0.1423
0.126309
0.0734067
0.148287
-0.077823
-0.151331
0.0690281
0.0685903
-0.051224
0.00898052
-0.0789141
0.00561419
-0.128108
0.000439456
0.136044
-0.00121322
0.0092056
0.181777
-0.109879
0.170898
-0.0107612
-0.100935
0.0235263
-0.116404
-0.179007
-0.103542
-0.0317953
0.114919
-0.0123742
-0.109983
-0.109348
0.0768701
-0.0383361
0.0551702
-0.143663
-0.0137469
0.194815
-0.156732
0.151261
0.116294
0.120114
0.0303772
0.161982
-0.0699637
-0.132486
0.179475
0.0980413
0.0320978
0.0518627
-0.168365
0.0954347
-0.018169
0.166377
0.0499767
-0.068843
-0.0848629
-0.115582
0.0831923
-0.187891
-0.00836121
-0.0149491
0.133248
0.0645525
0.140618
0.0903931
-0.109887
-0.137736
-0.0751391
-0.0955233
-0.118444
0.0655541
0.0549142
0.0473968
0.0205225
-0.0605663
-0.127979
0.116978
0.141842
-0.0299233
0.0441175
0.167374
-0.131778
-0.0868166
-0.142682
0.170164
0.126376
-0.0365799
0.034736
-0.054059
-0.0342716
0.0553773
0.0039025
-0.128831
0.1061
-0.132608
0.034423
0.123136
0.162179
0.133147
-0.0744152
-0.0132029
-0.00266486
0.0656577
-0.0211498
-0.147099
0.10869
-0.107162
-0.0884314
-0.0312932
0.0524082
-0.133961
0.168031
0.161802
-0.163693
0.0834463
-0.166819
-0.0108014
0.0248814
-0.150166
-0.113224
-0.0541617
0.0633973
-0.0815626
-0.161977
0.0115744
0.216706
-0.154939
-0.0108689
-0.0283207
-0.122995
0.119585
0.0640059
0.00286921
0.0246501
-0.0683256
0.0332368
-0.159639
-0.162239
-0.109478
-0.00660697
0.1382
0.00334849
0.0506653
-0.11149
-0.165957
-0.000314537
0.0129226
-0.0844074
0.164822
-0.0766313
-0.0665231
0.00961236
0.0101578
0.00188996
-0.111408
0.0873126
0.0958862
-0.0300729
0.0473916
0.140895
0.00795874
-0.158817
-0.0992248
0.167174
0.00902498
-0.19489
0.130905
0.141188
0.105668
0.147449
-0.14413
0.0317551
0.0263837
0.172882
0.0526873
0.113413
-0.0463315
-0.122366
-0.0484504
0.141608
-0.0511719
0.0538875
-0.168377
0.119485
-0.129193
-0.077621
0.0926135
-0.0124925
-0.089606
0.165769
-0.117815
-0.130932
0.0824433
0.0612961
0.046771
0.106424
0.0324211
0.0737147
0.13542
-0.0144128
-0.104596
0.109339
-0.123197
0.10387
-0.101117
-0.00549144
-0.119829
-0.130072
0.112417
0.198825
-0.027042
-0.0906787
0.0295991
0.0476182
-0.186821
0.169095
0.0386236
0.159688
-0.135675
-0.154819
-0.149384
-0.057909
-0.101913
-0.0127062
-0.133159
-0.117467
-0.112962
0.154629
0.128334
0.17814
-0.140808
-0.038356
-0.115873
-0.00917718
0.0541782
0.128097
-0.0158937
-0.0946098
0.10707
-0.00377673
-0.00540863
-0.123732
-0.040438
0.105326
0.0555377
0.104691
0.0323523
-0.0545983
0.0310152
-0.0603244
-0.0134376
-0.158623
-0.126683
-0.0803149
0.152015
0.144495
0.0419597
-0.123123
-0.0366342
0.00617195
-0.0932809
0.00919247
-0.108867
-0.112818
0.0233257
0.0981035
0.047851
-0.141205
-0.0156853
0.044587
0.0520442
-0.0919343
-0.157026
0.103425
-0.102734
-0.15906
-0.10377
-0.0533191
-0.168315
0.157739
-0.121056
0.0423972
0.0206542
-0.169891
0.135065
0.00686632
0.149776
0.038393
-0.0838696
0.0746073
0.00957542
0.120349
0.00860359
0.156647
0.171227
-0.0835098
-0.141156
-0.156891
-0.0662283
-0.0389627
0.00492429
0.0247043
0.00885126
0.160805
0.0884532
0.00488905
0.0712117
-0.151684
0.00545495
0.0957586
-0.154879
0.120771
-0.0515882
-0.0903328
-0.00192728
0.131427
-0.164033
-0.144591
-0.0901313
0.0578396
-0.053099
0.142737
-0.0154779
0.00548625
0.198308
-0.0830415
-0.0991923
0.0340067
-0.0295605
-0.0279766
0.052768
0.16109
-0.0930714
-0.103882
-0.113429
-0.134055
-0.0136873
-0.0598922
-0.00777109
0.0498301
-0.119649
-0.0410082
0.144855
0.0797437
-0.0385591
-0.00959157
-0.0581643
0.160383
-0.135095
0.041081
-0.0165265
-0.0399635
0.0530248
-0.0617623
-0.103441
-0.011586
0.116869
0.168674
-0.0506265
0.156649
0.1335
0.091352
0.0332447
0.0317457
0.158717
-0.10845
-0.163679
-0.12298
-0.152322
0.0229172
0.0942846
-0.130649
0.18578
-0.0713053
0.0129418
0.004523
0.0718933
-0.125904
0.17788
0.170087
0.0713068
0.166533
-0.0640118
-0.0704838
0.133052
0.152889
-0.0155243
0.117817
-0.0214977
-0.106202
0.0377838
0.0602649
0.0229035
0.00158417
0.0195327
0.169278
0.0741113
-0.00653763
-0.0517208
0.171917
-0.148113
-0.0180541
-0.142623
-0.0823617
-0.150187
-0.0713741
-0.093041
0.0782952
-0.123905
0.0223517
0.025976
-0.0139645
-0.0858091
0.0981255
-0.065456
0.167099
-0.0461092
0.00266985
-0.0668286
0.00802285
-0.0754884
0.0647149
0.132586
0.0149091
0.0659277
0.0731819
-0.102958
-0.123877
-0.0332133
-0.00448386
0.148097
0.137319
0.107613
-0.0585923
0.153535
-0.0473062
-0.125965
-0.1597
0.0623337
0.0680883
0.120894
-0.0803525
0.0369575
-0.168593
-0.0730516
-0.120494
0.00333159
-0.0821111
0.0269579
-0.00324605
-0.141946
0.177019
-0.00390759
0.0743567
-0.108371
0.0327894
-0.0873158
0.0546782
0.0244571
-0.0869871
-0.135278
-0.0404363
0.0658139
0.135384
-0.0921421
-0.0715315
-0.0801184
-0.109462
0.174994
0.065312
-0.157074
-0.145949
0.0311925
0.13816
0.150747
-0.0806594
-0.060872
0.0763099
-0.0402891
0.0279586
0.139488
-0.127449
0.178573
-0.0779838
-0.00904467
0.0874926
-0.0589926
-0.0655904
0.150688
0.0224047
-0.0544781
-0.0542148
0.0908538
-0.0647296
0.117748
-0.109334
0.132838
0.137353
0.202364
0.0739952
0.00091771
-0.0722874
-0.099441
0.172297
0.00733142
-0.0535991
0.154691
0.100923
-0.187137
-0.0875926
0.145693
0.0182558
0.0788646
0.0176206
-0.152655
0.0251877
0.00113981
-0.147089
-0.082961
-0.101581
-0.103055
-0.15004
-0.104163
-0.0499028
0.0919015
0.108784
0.15861
-0.145308
-0.130917
0.0720762
-0.0248778
0.0465426
-0.115791
-0.0539175
0.0422716
0.0432062
-0.107114
0.000163327
0.174413
0.0120514
-0.132942
0.0637535
-0.107087
-0.0279195
-0.18185
0.136134
0.168461
-0.0545723
0.132701
-0.114409
-0.0892857
-0.0231837
-0.150394
-0.0918694
0.00750948
-0.132393
0.00803514
0.0557355
0.0538369
0.147257
0.0473252
0.167095
0.136892
0.109524
0.170242
-0.119847
-0.0268438
-0.002759
-0.00786201
-0.155938
-0.143301
0.0402853
-0.159597
0.135567
-0.104542
-0.00510657
-0.183143
-0.17918
0.187613
0.0116702
-0.0719992
-0.19243
0.0194787
-0.133243
0.164719
0.0613502
-0.0925515
0.0421751
-0.126997
-0.102513
-0.0476929
-0.0435315
0.113189
0.0264608
-0.130694
-0.0263608
-0.0202973
-0.0125916
-0.135889
-0.00379015
0.0721664
0.0576001
0.0652602
-0.0139405
-0.127674
-0.187459
0.0820007
-0.0910622
-0.136159
-0.164847
-0.106039
-0.0679132
-0.070163
-0.0524002
-0.0992788
-0.0336879
0.0485358
0.0613239
0.118079
0.0995062
0.147084
-0.100644
0.0908073
0.17958
0.0221066
0.0101574
-0.137223
-0.140074
0.0429124
0.0410015
0.0845553
0.125874
0.0987751
0.157223
0.0164948
0.0869561
0.127598
-0.117031
-0.0841807
-0.124192
0.062225
0.0739634
0.149791
0.0171758
0.123057
-0.151232
-0.131596
-0.13049
-0.184646
0.0715239
-0.145975
-0.0201114
0.0724758
0.0221029
0.0566619
-0.0243313
-0.0513238
0.0507492
-0.122169
0.0423616
0.0810541
-0.161723
0.0198396
0.162558
0.131139
0.117471
-0.0373283
-0.126545
-0.12748
0.123494
-0.0360835
-0.0143891
-0.0960844
0.03303
0.0346878
-0.109535
-0.102829
-0.0601492
0.136309
-0.155394
-0.0351077
-0.14977
-0.123204
0.0340118
-0.0114584
-0.00557087
0.191117
0.0681451
0.161698
0.0111131
0.14778
0.0970022
-0.125295
-0.0811837
0.128275
-0.159529
0.108065
-0.120483
0.121095
-0.0803229
-0.174728
-0.11097
-0.0718625
0.0445724
0.105077
-0.158866
-0.193953
-0.0601847
0.0100263
0.0319459
-0.182419
-0.0339694
-0.184248
0.14944
0.0396647
-0.142981
0.0087176
-0.0806516
0.150491
0.0426534
0.208051
-0.0524999
-0.112861
-0.113911
-0.0336481
-0.00258327
0.108973
-0.062424
-0.169126
0.0905091
0.156284
-0.0704342
-0.0151883
-0.0879866
0.115917
0.0928682
-0.0891252
-0.0467095
-0.16183
0.0743757
0.125016
0.151862
-0.0849026
-0.126303
-0.0162894
-0.0993511
0.0959136
-0.0411847
-0.0372896
-0.0764142
0.112633
-0.181279
0.0483742
0.00557314
0.131477
-0.115145
0.00940441
-0.0800743
0.148048
0.151405
-0.0523406
0.0309071
-0.0184721
-0.119853
-0.0949323
0.103696
-0.159678
-0.156242
0.0480971
0.123135
0.161414
-0.0353752
0.11142
0.0980705
0.120282
0.126271
-0.158448
-0.0381226
-0.049803
0.131854
-0.16561
0.167997
0.0293109
0.0044281
-0.0760959
-0.104651
0.142524
0.0883432
0.142675
0.0519325
-0.0468523
-0.0956839
-0.0894078
-0.16049
-0.154015
0.0200532
0.148066
-0.0442811
-0.198666
0.0717997
0.0746012
-0.103327
-0.070418
-0.18874
0.0195963
-0.0946465
0.124953
0.019404
0.040024
0.108501
-0.0245357
0.14653
-0.0785815
-0.0818475
0.103117
-0.141776
-0.00190848
0.092297
-0.157378
0.062208
-0.00627227
-0.0595654
-0.00400045
-0.0382114
-0.102989
0.0522422
0.0600537
0.120742
0.10401
0.0348997
0.0140146
0.147397
0.0960807
0.130029
0.149654
-0.113503
-0.138211
-0.00193668
0.151277
0.173334
0.061387
-0.0072182
0.165532
-0.0949309
0.109303
-0.126317
-0.0384051
0.0691524
-0.119276
0.00923537
0.0626433
-0.0480951
-0.00359111
-0.157194
0.012248
-0.129571
-0.0545083
-0.0827613
0.101383
-0.144056
-0.157443
0.147506
-0.0493883
-0.0361211
-0.142715
-0.169832
0.156081
0.175411
-0.110525
-0.0841032
0.0731998
-0.0819455
0.00165136
0.135361
0.174605
-0.0581419
0.0926587
0.096608
-0.139731
-0.048387
-0.064104
-0.0235459
-0.166622
-0.10669
0.122123
-0.140673
0.0174808
0.0736815
0.0534406
-0.0394662
0.083178
-0.0996682
-0.192051
0.154352
-0.109036
-0.182625
0.183298
-0.130033
-0.163056
-0.0260216
0.113144
-0.0966439
0.191961
-0.0277396
0.111275
-0.0865225
0.127461
0.0181391
-0.014267
0.0355738
0.0814952
-0.0600658
-0.0160233
-0.0235517
0.0913143
-0.128687
-0.108993
-0.120032
-0.061872
-0.0126309
0.174788
-0.0300595
0.0822737
0.165929
0.139837
0.0861995
-0.0433728
-0.0286562
0.162816
-0.194389
-0.00717371
-0.123794
-0.0112826
-0.0627318
0.0543296
0.0451123
-0.105445
0.0587673
-0.00607377
0.0780314
0.181347
-0.0394503
0.0107615
-0.0913782
0.112156
-0.057883
-0.0496296
-0.0199757
-0.164085
-0.136778
-0.0687297
0.153377
-0.038756
-0.153223
0.0526777
-0.145785
-0.00391735
-0.0481636
0.0939747
0.140101
-0.0151149
0.0187213
0.149594
-0.0311516
-0.0681808
-0.0669194
-0.0593136
0.117626
0.0377796
-0.0410015
-0.1436
-0.0425588
0.0872272
-0.0694689
0.0319849
0.0860371
-0.0784878
-0.108108
0.0681799
0.0173639
-0.150601
-0.107615
0.132178
0.0219151
0.0856352
0.141446
-0.042005
0.148102
0.0190318
0.0661685
-0.148579
-0.0391056
-0.0393184
-0.0763236
0.0372095
-0.0712608
-0.133111
0.186607
0.0101545
-0.136169
-0.168192
0.0250298
0.0310362
-0.0699638
-0.116541
-0.0433337
0.0297773
0.0740126
0.127474
0.0232802
0.131911
-0.0552454
-0.0491421
0.075575
0.033755
-0.00746849
-0.10963
0.071178
0.118081
-0.123686
0.118908
-0.0334972
-0.0662881
0.147285
0.157483
0.0906833
0.134273
-0.103753
-0.17533
-0.119599
-0.0788667
-0.0428268
-0.0382391
-0.165031
0.120611
0.0736473
0.110897
-0.0980384
-0.0768434
-0.0472355
0.0326143
0.17078
-0.0333637
-0.152368
-0.0783462
0.133806
0.120017
0.0811356
-0.139184
0.00949251
0.00470767
-0.0798579
-0.149683
-0.0687636
0.0646138
-0.187303
0.0949754
0.116292
-0.0180176
-0.0966967
0.217609
0.075978
-0.120571
-0.04621
-0.0734648
0.0640564
0.0879826
0.0844163
0.18259
0.169675
-0.12194
0.140974
0.0885734
0.0997302
0.0492155
0.039814
0.14189
-0.00772717
0.108694
0.113359
-0.0296358
-0.0184017
-0.0124088
0.0498933
0.0401352
0.0989978
-0.0999382
-0.0310518
0.195562
0.0623485
0.199511
-0.0286718
-0.118578
0.155209
0.0765108
0.171167
-0.0450303
-0.131342
-0.0723737
-0.167996
0.151256
-0.107623
0.0785867
-0.0521365
-0.137683
-0.123291
-0.00810445
0.0782867
-0.0620892
-0.00238869
-0.106859
0.151934
-0.168363
-0.00679058
-0.00815282
-0.0895539
-0.130301
-0.158457
-0.143077
-0.115895
-0.0456078
0.0786596
0.107671
-0.10373
-0.145818
0.166555
-0.169248
0.153661
0.0117998
-0.00355701
-0.145032
0.0494814
0.0252562
0.0225684
0.00320996
0.0223381
-0.12974
-0.146581
0.0498753
0.164605
-0.0795029
0.0740101
0.165139
0.140433
0.160805
-0.066718
0.123933
-0.021507
0.0311814
-0.0659247
0.162933
0.0926654
-0.0355749
-0.10678
0.0684231
0.0825535
-0.125424
0.030944
-0.0994592
0.0203885
-0.168376
-0.166294
0.147945
-0.152134
0.00862445
-0.0713014
0.138761
0.14216
-0.0759036
0.037184
0.0833523
-0.138885
-0.0224757
0.102651
-0.0301923
0.15195
-0.0161982
-0.080863
0.110882
0.136768
0.100596
-0.0890107
-0.0555656
-0.0572672
-0.10226
0.121024
-0.0338136
0.159771
-0.169649
0.0235503
0.110825
0.0427779
0.0600184
-0.15993
0.113087
0.134485
-0.0839863
-0.0803257
-0.0575966
0.13763
0.073518
0.0818407
-0.135649
0.150838
0.073794
0.167504
0.136041
-0.0658204
0.0756891
0.00843082
-0.103057
-0.0441376
-0.0386062
0.141403
-0.0845577
0.146067
-0.0181299
0.0538981
-0.170436
-0.123354
-0.159246
-0.0436246
0.0703254
0.0260102
-0.0752148
-0.154034
-0.0258118
-0.161723
0.108603
0.122891
0.140961
0.0297817
0.00123874
0.0901806
0.0356113
-0.150967
0.066027
0.162625
0.0408782
0.019919
-0.0862502
-0.0539783
0.12946
-0.030417
0.133159
0.0620046
0.117504
0.177742
0.0250851
0.0913343
0.127753
-0.0838173
-0.00307068
0.167448
0.146368
-0.10738
0.118446
-0.0516138
-0.0399651
0.00609646
-0.121656
-0.110733
0.0357164
-0.135937
-0.0517879
0.0745816
0.00354216
-0.0548801
-0.164401
0.0527152
0.054175
-0.15104
0.0431444
0.145309
0.10403
-0.0891754
-0.0766683
0.121441
-0.123742
-0.0174953
-0.121043
-0.0681186
-0.0416661
-0.171198
-0.166277
0.118525
0.158398
-0.0138712
-0.0724032
0.12823
0.0549985
2.58592e-05
-0.0137045
-0.154719
-0.136448
0.000766254
-0.0212146
0.106229
-0.0649041
0.0290928
-0.155137
0.0380853
-0.0727419
-0.0141978
0.0689322
0.00793901
-0.164621
0.1286
-0.163044
0.1103
-0.0373598
0.0795991
0.0742064
-0.186953
-0.107237
-0.140235
0.0769565
-0.101929
0.114532
-0.0234968
0.0199184
-0.120077
0.0785495
-0.119827
0.0872112
-0.172011
0.0952364
0.0844568
0.150932
-0.135636
0.095468
-0.0564741
-0.00865522
-0.0896331
-0.0904321
-0.143864
-0.092731
0.161078
-0.0503274
-0.167073
0.148116
-0.0960533
0.0304189
-0.103404
-0.0609154
-0.0890247
-0.108197
-0.0608403
-0.0810462
-0.0879037
0.0800121
-0.0791916
-0.165847
-0.0467318
0.00388014
-0.0401272
0.0444146
0.0734948
0.0884574
0.140408
0.0280883
0.0872513
-0.117597
-0.0247674
0.00773192
0.115528
-0.0800552
-0.182216
0.00163088
0.146404
0.120834
0.12283
0.0857321
0.0286382
0.0837838
-0.0112727
-0.159341
-0.11554
0.0408832
-0.0404366
-0.170136
-0.167449
0.00471043
-0.0544199
-0.0610599
-0.155766
-0.128812
-0.158028
-0.107528
0.168409
0.09976
0.116848
-0.0222299
-0.0562369
-0.00855135
0.0830981
0.0906769
0.128664
-0.15117
0.108814
-0.107201
0.0779732
-0.0503149
0.0818024
0.0194282
0.0257182
0.0932487
-0.088893
0.0425736
0.0877579
-0.118438
0.103265
0.176782
-0.0275958
0.0924508
-0.0874825
0.14899
-0.104271
0.00332943
0.0113829
-0.0730547
-0.100606
0.160429
0.0713593
-0.104771
-0.0186524
-0.102268
0.0346664
0.0124323
0.12926
-0.0455487
-0.00726155
-0.0409553
0.0656234
-0.00319915
0.0509919
-0.0594233
0.116952
-0.0238902
0.135821
-0.107216
-0.147689
0.156737
0.0569015
-0.0699989
0.0159258
-0.0661711
-0.0974145
-0.0349303
0.0344774
0.0861298
0.120805
-0.0850581
0.176092
0.0103463
0.139609
0.148741
0.031955
-0.0610917
0.11529
0.164488
-0.0951489
-0.0839797
-0.101386
0.0382865
0.00707111
-0.111854
-0.013557
0.0886698
0.0952079
-0.167135
-0.0697818
0.135852
-0.149451
-0.0072192
-0.0395728
-0.0769419
-0.0990926
0.157053
-0.143212
0.0857217
-0.0770813
0.0242154
0.03966
0.100309
-0.08636
0.114866
0.0112619
0.15092
-0.071275
-0.110944
-0.150544
0.133925
0.0197071
0.117196
0.065615
0.162124
0.0762549
-0.140158
0.0705916
0.0755834
0.15977
0.0487481
-0.169914
0.0399393
-0.0954352
0.0668806
-0.0141482
0.124337
-0.0114308
0.0408773
0.019533
0.0543841
0.014092
0.0840819
0.106632
-0.00853609
-0.00201215
-0.00421611
0.00746464
-0.150062
-0.0471991
-0.0612834
-0.0393736
0.139348
0.11292
0.0514208
0.156176
0.0142002
-0.0662075
-0.174337
0.172202
0.0351514
-0.0097503
0.151089
-0.0816799
-0.0292912
-0.0308035
0.0612287
-0.0836852
-0.0438795
0.126611
0.0813775
-0.120979
-0.0579274
0.0704121
0.120291
0.119536
0.059405
0.066472
-0.068806
-0.0929215
0.115654
0.147538
-0.0481374
-0.0157614
0.153267
-0.056776
-0.174123
-0.0782257
-0.0217496
-0.0331702
0.164078
-0.068503
-0.181181
-0.12307
0.149121
0.0589724
0.148942
0.0873061
-0.0404271
0.0546972
0.11336
0.076734
-0.0606001
0.140882
-0.0852641
0.167197
0.0156638
0.0927159
-0.10462
0.0483287
0.0987513
0.0636816
-0.136033
0.0198458
-0.112306
-0.0421527
0.144658
-0.0294381
-0.0219864
0.166244
0.00892584
0.138068
0.0905176
-0.162511
0.108102
-0.0344117
-0.149852
0.134291
0.0190739
-0.0689123
0.017636
0.0392915
-0.0155112
0.100399
0.227818
-0.0626582
0.0933277
0.0271382
0.0183284
-0.0640712
-0.00864535
0.0712257
0.118545
-0.095953
-0.129314
0.0310012
0.158677
-0.0460044
-0.0280728
0.0306464
-0.176576
0.118896
-0.154226
-0.0603755
0.00167947
0.158614
-0.0267703
-0.0104385
-0.125077
-0.0955759
0.130945
0.111461
0.171177
-0.204767
-0.101034
0.212428
0.0018505
-0.0838572
-0.0360243
0.0955036
-0.0957691
-0.0322575
0.160943
0.0163164
0.0879742
-0.0173696
0.0744712
0.0865961
0.15809
-0.149968
0.0873875
-0.0975469
0.0773805
0.0411086
-0.180838
0.0363113
0.080302
0.161195
0.111407
0.00705211
-0.0652358
0.00892981
0.13578
0.127477
0.146059
0.0238252
0.0980151
-0.0252552
-0.0142849
0.100505
0.141359
-0.0110702
-0.0997928
-0.0656249
-0.158436
0.0631678
-0.151576
-0.148115
0.146858
-0.0863924
-0.014055
-0.10797
0.0619592
0.147526
-0.0969122
0.0984657
-0.0320162
-0.0340839
-0.170597
-0.162419
-0.0824696
-0.0532722
0.00174272
0.0414068
-0.0943855
0.133911
-0.137551
-0.093863
-0.00879691
-0.113137
-0.141073
-0.146203
-0.157342
-0.085946
0.0399695
0.165528
0.0495291
0.0813668
0.084912
0.121314
0.106236
0.127292
-0.0753396
-0.139518
0.111065
0.0922181
-0.0125853
0.116364
0.0327144
-0.179074
-0.0244144
-0.156598
-0.18277
-0.0660385
-0.0688919
0.169206
-0.0494373
-0.119376
0.123951
0.0991137
0.00416624
-0.106299
-0.111396
0.158908
0.0410784
-0.0562756
0.0398905
0.157047
0.11375
0.0188906
-0.126072
-0.17019
-0.128666
0.111033
0.101431
-0.0660833
0.0739238
-0.113253
-0.0993247
0.0423904
0.115631
0.0855377
0.177049
0.0680651
0.127351
0.143966
-0.0334337
-0.00359604
-0.0871543
0.155401
-0.198892
0.0607636
0.0280821
-0.03888
0.0786418
0.111348
-0.166483
0.0831945
0.0592254
0.127118
0.0755171
0.118458
0.0197852
-0.0361485
0.0295392
0.151254
0.0684947
0.126204
0.0876822
0.141202
-0.123925
0.0525013
-0.0537078
-0.0504235
-0.137961
-0.0837461
-0.0569524
0.1913
-0.10585
0.00161796
-0.070018
0.0313617
0.0426218
-0.0151661
0.153331
-0.05931
-0.0733648
-0.128751
-0.0422192
-0.103052
0.0520616
0.103426
-0.15712
-0.149393
0.151699
-0.0723473
-0.00735589
0.0394215
0.041652
0.173277
0.0125476
0.0557681
0.0195166
0.161096
0.0742253
-0.0326739
0.0387845
0.132262
0.0560445
-0.114923
0.0549781
-0.0141697
-0.0217662
0.0359575
0.0431999
0.104356
0.0327623
0.123152
0.0839571
-0.0512073
-0.176476
-0.014565
0.0296417
-0.047402
-0.0901717
-0.14
0.160646
-0.149262
-0.040316
0.120473
0.164637
0.0957878
0.107601
-0.077389
0.107132
0.0909641
-0.0310306
0.171248
0.0157687
-0.125736
0.095101
-0.0362129
-0.0618861
-0.0919634
0.123232
-0.14455
-0.0216877
-0.168781
0.0825747
0.110173
-0.11675
0.111103
0.0441754
-0.0103564
-0.0116044
0.0715739
0.0564044
0.0746096
-0.153427
0.00035092
-0.0728603
0.0436026
-0.0504769
0.116824
-0.0280532
0.0186232
0.111932
-0.103246
0.157746
-0.0814334
-0.0143489
0.136177
0.0806751
0.0512268
-0.0309082
-0.0607141
0.115461
-0.0561906
-0.140173
-0.11259
-0.111548
0.0316441
0.0362733
-0.0819975
-0.134901
0.0316991
0.128655
0.139769
0.123447
0.0562228
-0.144164
0.0841634
-0.106854
-0.0676795
0.0814804
0.000626448
-0.02391
-0.0122996
0.124415
-0.140535
0.12028
-0.0126479
-0.0877187
0.170392
-0.145609
-0.135488
-0.14632
-0.0454738
-0.0501058
0.00902072
-0.132974
0.146587
-0.0683973
0.0188216
-0.122265
-0.00401292
0.0430114
-0.158469
-0.0496844
0.0446074
0.0773569
-0.012681
0.150145
-0.132398
0.109799
-0.045126
-0.0516109
0.0743334
-0.0289794
-0.0945781
-0.153984
0.0782221
-0.140976
-0.120646
-0.0239479
0.0772229
-0.00371029
-0.157479
0.109133
-0.0878723
0.137283
-0.0657686
-0.0858196
0.0857486
-0.0666649
-0.121481
-0.0035213
0.143243
-0.118717
-0.0244579
-0.137915
-0.0984076
0.0948434
-0.142393
-0.135115
-0.113214
-0.00562123
0.0386092
-0.130164
0.171824
0.056982
-0.0115009
0.168118
0.111015
-0.0381176
0.0431647
0.0125156
0.0318695
-0.0011695
0.0835439
-0.158798
0.0583572
-0.0478973
-0.0978006
-0.0337689
0.159326
-0.0703646
-0.0120352
-0.0249642
-0.168036
0.0433166
-0.0945732
-0.148276
-0.115958
0.116399
0.00955074
-0.103359
0.0475073
-0.0919578
-0.00484659
0.00514626
-0.138051
0.0384055
0.0878204
-0.170697
0.00807987
0.077125
-0.113952
-0.151692
-0.135561
0.0270599
0.119422
0.146074
0.0670323
0.0879117
0.00418233
-0.056873
0.0538383
0.13509
0.010902
0.0350649
-0.0207105
0.121839
-0.0934967
-0.158811
-0.154237
0.0718563
-0.0179616
0.034002
0.000218525
0.0219432
0.161162
0.0504925
0.145096
0.0311781
0.0905378
-0.0975467
0.127414
-0.112695
0.130203
0.0209334
0.00649557
0.137224
-0.116131
0.00206376
-0.0394527
-0.099971
0.0509994
-0.0457769
-0.123761
0.102506
-0.0955226
-0.163231
-0.00899828
-0.160314
0.039735
-0.155675
0.066386
-0.0753367
-0.165865
-0.131331
-0.139105
0.0664406
-0.0319333
0.0795006
0.024151
0.162442
0.0887044
-0.147282
0.0409167
-0.0948564
-0.0814683
0.0020372
0.162077
-0.0477794
0.170903
0.176617
-0.0677233
0.0597989
0.00347167
0.00279443
0.115749
-0.00872779
-0.0427432
-0.0695731
0.108234
-0.0600998
0.223849
0.138371
-0.055079
0.0250966
0.0853914
0.113559
0.117903
0.0161343
-4.53562e-05
0.0764256
0.162731
0.0118651
-0.0918648
-0.0926731
0.0692644
0.0332353
0.0530705
0.0214027
-0.146093
0.0793631
-0.03644
0.016053
-0.125332
-0.100364
0.132333
0.0463195
0.0536946
-0.0888435
0.0921955
0.0562379
-0.0182128
0.0794907
-0.0956766
-0.168352
-0.035311
-0.0107654
-0.0880878
0.0173267
-0.0441983
-0.0206968
0.134395
0.155778
-0.107053
0.0980095
-0.121798
0.175432
0.122784
-0.00940242
-0.0515187
0.136502
-0.0535385
0.123103
0.103797
-0.103439
-0.155317
-0.0159183
0.0546878
-0.102917
-0.0603649
0.0984267
-0.0413438
-0.110099
0.0762777
-0.0759899
0.0230333
0.0811766
0.157143
-0.128062
-0.0684122
-0.141908
-0.111761
-0.118374
0.0875019
0.142788
-0.0390992
-0.0293297
0.0475321
0.140541
0.141527
0.137685
0.033719
-0.163528
-0.176496
0.165939
0.118025
-0.103752
0.00478544
0.0451869
0.182899
0.212415
0.0870529
-0.0611208
0.182808
-0.0431893
0.0336999
-0.0672524
0.170394
0.148254
-0.126077
0.0060621
0.184135
0.124539
0.148539
0.0529386
-0.0856628
-0.033008
0.0914603
-0.0271992
-0.118356
0.149088
0.0134415
0.145557
0.101026
0.175029
-0.0402154
-0.0702178
0.0380201
-0.0475026
-0.0708471
0.0677741
0.0150262
-0.134134
0.116122
-0.0860012
-0.00209656
0.0640008
-0.144565
-0.148175
-0.148641
0.12707
0.103304
-0.0821107
-0.173939
0.0346189
0.069795
-0.00526953
-0.0848018
0.0811593
0.125583
0.118434
-0.0862427
0.17939
0.198649
-0.0442462
-0.0218127
-0.13566
-0.134282
-0.0349058
0.0110507
0.0792593
0.0777338
-0.116202
0.158877
-0.0364989
0.0668296
0.0778341
0.107774
0.0217442
0.156577
0.120718
0.132438
0.0667567
0.0894891
-0.111216
-0.0878665
-0.0255858
-0.147471
-0.0172734
0.15685
0.138098
-0.138723
-0.127642
0.129609
0.0161575
0.0105303
-0.0138032
0.212269
0.102089
-0.115007
0.128246
0.0752404
-0.032409
0.0829084
0.0405579
0.0227587
0.149889
0.11609
0.0127147
-0.104618
0.0576198
0.144759
-0.0939345
0.12325
0.13176
0.0151946
-0.00942583
0.130773
0.135536
0.112901
-0.123578
-0.059682
0.0918274
0.073964
-0.16145
-0.00405552
0.0734674
0.0387581
0.155088
-0.0620152
-0.0150383
0.0627726
-0.110364
-0.117533
0.102058
-0.126251
-0.104388
-0.138907
-0.0165404
0.103977
0.162564
-0.0503232
0.0116251
0.163055
-0.12445
0.0747379
0.0362864
0.0921261
-0.0681417
-0.0715871
0.188098
-0.0254834
0.0294338
-0.1617
-0.0528708
-0.0663657
0.0298996
-0.140678
-0.0450729
0.124895
-0.029524
0.162625
-0.0503755
-0.00813513
0.156307
-0.114371
-0.0588214
-0.137907
0.0940855
-0.136201
0.0416477
-0.0417784
-0.112449
0.0961806
0.116839
0.150921
-0.129553
0.0785592
-0.0823968
0.124741
0.170058
-0.0913807
0.0767542
-0.010849
-0.0933075
0.099054
0.141816
0.0117409
0.0300713
-0.0448967
0.083345
0.102475
0.168661
0.159239
0.133344
0.0887385
-0.172046
0.0330262
-0.156521
0.0616355
0.0568753
0.0725325
-0.129534
0.0110367
-0.139011
0.153198
0.154825
0.0415503
-0.0823023
-0.0554057
-0.104298
-0.148722
0.155447
-0.150346
-0.14929
-0.0157161
-0.147431
-0.080316
0.145954
0.108473
-0.106058
-0.0414531
-0.0458844
0.039104
-0.0957444
-0.01115
-0.07669
-0.157777
-0.167186
0.0962599
0.0844554
-0.167
0.0923936
0.07983
0.151755
-0.0609989
-0.0683412
0.071987
0.00474486
-0.0642052
0.0112992
-0.15437
-0.024187
-0.0269743
0.0652057
-0.139998
0.0980757
-0.0782662
-0.0625511
0.0277468
-0.0489371
-0.0830155
0.154565
0.0476604
-0.0703445
-0.154722
0.128521
0.075763
0.102853
0.156988
0.0313336
0.0639856
0.145749
0.132279
0.0173372
-0.0463319
0.169494
0.172306
0.181038
-0.0244641
-0.0904396
0.00515456
-0.0589883
0.194863
0.0624687
0.102178
0.0261565
-0.0896448
0.171288
0.160525
0.0627136
0.101631
-0.104144
-0.0349117
0.0275931
-0.0460663
0.170243
0.0881706
-0.174972
0.13501
-0.0656216
0.13861
-0.0934341
0.0109086
-0.117342
0.0339724
-0.0889936
0.0972072
-0.00404978
0.052254
0.0724401
-0.10467
0.01232
0.143867
0.0495283
0.061549
0.143933
-0.0231213
-0.138939
-0.090634
0.156616
-0.143683
0.127661
-0.150751
-0.104565
0.0158312
-0.166594
-0.181525
0.115581
-0.0840451
-0.0656838
0.0671356
-0.00101051
0.0143855
0.141047
0.0393109
-0.12822
-0.0911103
-0.0104195
0.0816738
-0.0884314
0.00920097
-0.0629181
0.103626
0.140764
-0.106939
-0.123644
0.131451
0.165432
0.0132604
-0.0838146
-0.0906014
0.14344
0.0797286
0.112958
0.0870133
0.152204
-0.141373
0.150847
-0.100787
0.0975344
0.0870524
-0.0203977
-0.0117039
0.0804666
0.0654289
0.0792293
-0.0920668
-0.150424
-0.0355504
-0.0108223
-0.0192911
-0.164994
-0.132827
0.0559005
0.077455
0.130835
0.144209
0.0200754
-0.106582
-0.00682931
0.201779
0.110972
-0.109517
0.0605555
0.123767
0.138439
-0.000282888
0.084121
-0.209064
-0.0538254
0.111079
-0.0618378
0.178617
