-0.123602
0.029553
0.0997556
0.0771051
0.0340262
0.022858
0.0503946
-0.0783078
0.141501
-0.0128914
-0.059311
-0.0391559
0.0880934
-0.0141721
0.158075
0.147644
0.0254777
-0.143843
-0.141772
0.165893
0.140101
0.0582853
0.199582
-0.00241906
-0.0144708
-0.0822757
-0.121197
0.117353
-0.125625
-0.0738154
0.126017
-0.128049
-0.13233
0.0564723
0.0698707
0.0735531
0.0790817
-0.0521696
-0.0947062
-0.115714
0.0958384
0.116966
-0.0898548
0.0927636
0.0711545
0.163122
0.118972
0.0800626
0.161305
0.103043
0.134425
-0.0842188
-0.127874
-0.000655798
0.166551
-0.0866777
0.0438531
0.147317
-0.13297
0.0914013
0.148414
-0.0561347
0.0520192
-0.136748
0.183401
0.19388
-0.063654
-0.155612
0.0552557
0.0974496
0.127357
0.03556
-0.0127756
-0.126747
-0.00655339
-0.036234
-0.0231262
0.185626
0.0180886
0.065323
-0.0640735
-0.126349
-0.0285944
0.0986522
-0.0484319
0.142968
-0.113786
-0.0501181
-0.01063
0.000203319
-0.183969
0.0852128
-0.169361
-0.0892366
0.108888
-0.0129868
-0.144916
-0.116598
0.135551
0.159288
0.0468127
-0.0156818
-0.0718893
0.154783
-0.0332917
-0.0965626
0.113293
-0.0670637
0.149612
0.0380435
0.116409
-0.0392455
-0.0648166
0.0546456
0.0621688
-0.161883
-0.15913
-0.0322559
-0.0949975
0.0370816
-0.163868
-0.00507117
0.074359
0.135847
0.0810589
0.170781
0.0557432
0.109068
-0.11339
0.148582
0.066224
0.122238
-0.0641492
-0.0788461
0.149539
0.126287
-0.061681
-0.1532
-0.120652
0.0219111
0.0561378
0.15316
0.05072
-0.122353
0.111204
-0.107947
0.147601
0.0375719
0.0501898
0.0944622
0.0853094
-0.157404
0.00847272
-0.03648
-0.158364
0.00808483
-0.0196921
0.00882127
0.0469397
0.0474785
-0.0927413
0.164149
-0.0171191
-0.0427654
0.0136628
-0.167395
-0.103278
-0.0393503
-0.190501
0.171991
-0.00219074
-0.073845
-0.110881
0.0355909
-0.0478231
0.165749
0.109352
-0.129938
-0.147154
0.0326091
-0.0188333
0.049028
-0.116199
-0.019356
-0.0865246
0.0232622
-0.127729
-0.0338661
-0.08366
-0.114436
0.141144
-0.176941
0.163545
0.00964708
0.16306
0.0919931
-0.0904532
0.0508657
-0.142406
-0.0437876
0.108456
0.00690456
0.157291
0.0319346
0.0849351
0.0161797
0.0568855
-0.0142287
0.116328
0.037202
-0.100083
-0.0195803
0.107036
-0.0872115
0.0405334
-0.00231177
0.21609
-0.0350456
-0.114896
-0.0257162
-0.0062995
-0.165479
0.0922478
0.0452119
0.124764
-0.122727
0.142193
0.100652
-0.169709
0.123072
-0.17043
0.0696446
-0.129675
-0.102355
0.114022
0.0216998
-0.120015
0.0391057
0.00623081
0.133359
-0.0721529
0.130815
0.00200783
-0.133168
-0.122886
-0.144169
-0.00495739
-0.0158962
-0.0851667
0.163031
0.110378
-0.0439674
-0.144472
-0.161165
-0.047739
-0.0707977
-0.105911
-0.107308
-0.120752
-0.12541
0.0226496
0.0973664
0.0726045
0.156281
0.0142043
0.0736414
-0.109008
0.0083781
-0.107196
-0.0147929
0.0148858
0.00139012
0.136669
-0.0509745
0.0852176
-0.0159643
-0.133333
0.0654643
0.139898
-0.134433
0.0284942
-0.130242
0.132641
-0.0673791
0.128868
0.164587
0.0853055
-0.119147
-0.156087
-0.0579721
0.109277
-0.108322
-0.166407
0.169523
-0.0193793
-0.0555985
0.00943712
0.0741974
0.144235
0.147128
0.10873
0.0971458
-0.0749102
-0.0829359
-0.16099
-0.149411
-0.147143
-0.110621
0.102833
0.0228114
0.0714699
-0.0199551
-0.0782695
0.0972509
0.00938402
-0.114468
-0.0458268
0.0378179
0.0169475
0.122917
0.021295
-0.0887635
0.0589958
0.0557378
-0.0969512
0.070688
0.12353
0.000726411
-0.0519639
-0.0511409
0.138096
-0.149004
-0.0317024
-0.0994309
0.0161803
-0.146616
-0.0726593
-0.0213954
-0.114956
0.0794754
-0.0839639
-0.144526
-0.00356033
0.0498844
-0.16697
0.0397681
0.0989227
0.140559
-0.00960746
0.127457
0.032067
-0.0307156
0.013792
-0.160744
-0.167676
0.0285548
0.0159904
0.131156
0.00177012
0.0311129
0.0506913
-0.0563334
0.127805
-0.0378479
-0.129202
0.110412
-0.0354324
0.0449157
-0.0449961
-0.00855499
0.132461
0.0267903
-0.150379
-0.106592
0.05904
-0.0698612
0.0258267
0.16337
0.0902854
0.117356
0.151568
0.0476164
-0.122922
0.15355
0.0249169
-0.136706
0.072935
-0.0261202
-0.00812952
-0.0872091
-0.12427
0.16317
0.0599812
-0.11209
-0.101301
0.0982131
-0.0624045
-0.0639073
-0.0219844
0.146037
-0.0889584
0.0866995
-0.0879328
0.0666017
0.161688
0.00410026
-0.102485
0.0940515
0.0570752
0.0408409
0.0993758
-0.160914
-0.0389149
-0.143389
-0.0940756
0.0692953
-0.0991881
-0.0569001
-0.0773227
0.0685448
-0.02497
0.0806333
-0.0795475
-0.0652623
-0.167686
0.170365
-0.14523
0.0290567
0.0235221
0.104334
-0.163796
0.0701918
-0.0298966
0.155909
0.00601578
0.0762432
0.155233
-0.143541
-0.115296
0.153188
0.0188226
0.0664058
0.164612
0.0994365
0.105908
0.0282652
0.160635
-0.0775847
0.180386
0.0468968
0.0012132
0.182754
0.0986376
0.070824
-0.102062
-0.113361
-0.122226
-0.132893
-0.0741471
0.142289
-0.0751462
0.0268656
0.168127
-0.0937744
0.0864426
0.0754359
-0.065738
0.0999764
0.152877
0.0548539
-0.0607245
-0.145642
-0.0996795
0.100159
-0.0126058
-0.035263
0.118882
0.117816
-0.13413
0.124572
0.0285009
0.152306
0.0658939
0.177891
-0.10934
-0.179683
-0.141706
0.0736052
-0.040618
0.0742135
-0.00785047
-0.145181
-0.119179
0.0828306
-0.07661
-0.0771005
-0.0162815
-0.0504886
0.0281884
-0.130166
0.0135249
0.141125
0.0785036
0.0877653
0.144832
-0.0867731
0.038616
0.0598271
0.0143099
0.0858245
-0.0125901
-0.011322
-0.160623
0.0329338
0.0919289
0.0570404
0.148559
-0.0181423
0.058558
0.10358
0.00263201
0.0945852
0.156995
0.00348446
-0.00970473
-0.00332023
0.0580431
0.0402577
0.0521219
-0.146033
-0.117797
-0.121876
-0.0195808
0.00466837
-0.0792396
0.0280356
-0.0821246
-0.110374
0.16108
0.0680931
0.00577741
-0.00170295
0.00302587
-0.166344
-0.0429902
0.00569349
-0.119722
0.152946
0.0938583
-0.135067
-0.0951133
0.0984963
-0.0666398
-0.0405368
0.0294061
0.115747
0.134417
0.0491237
0.10956
0.0112516
-0.140869
-0.0627915
0.158384
0.072346
-0.0298669
-0.0673648
-0.133182
-0.149658
-0.060367
0.210434
-0.0590109
-0.0604032
0.0327612
-0.163691
0.133862
0.0818695
0.00522458
0.0190109
0.050752
-0.129313
0.111956
0.0382317
-0.0634989
-0.0912286
-0.165768
0.0739339
-0.120195
-0.0512749
0.0582202
-0.0475926
-0.0557477
-0.148177
0.144115
-0.143772
0.19013
-0.00625774
-0.0464398
0.243732
0.158541
-0.169981
-0.0127626
-0.121079
-0.00863135
0.155294
-0.0630742
-0.0761493
-0.0738385
0.175609
-0.0946206
-0.0377465
-0.0312954
0.0324443
0.147299
-0.0810345
-0.156549
-0.100964
0.165574
0.0585402
0.00950476
-0.0885575
0.0744218
0.170659
-0.116677
-0.126024
0.12273
0.147957
0.111379
-0.127725
-0.0548412
-0.0953
-0.0872079
0.111796
0.13258
-0.00162237
-0.0644311
-0.120712
-0.0888472
-0.134307
-0.161286
-0.131543
0.109925
0.113745
-0.164968
-0.154686
-0.164153
0.034551
-0.0133723
-0.0332102
-0.0690232
0.155005
0.158315
0.00289019
0.0250818
-0.171737
-0.00651359
0.109114
-0.00206755
-0.1269
-0.101996
-0.0818289
0.116267
0.157914
0.00922372
0.091697
0.0465104
0.113291
0.122071
-0.0609411
0.159174
0.0655395
0.0715957
0.0545151
0.0921086
0.097652
-0.0967842
-0.12387
-0.0162717
0.0758147
0.19577
-0.155929
0.143437
0.0600937
0.0087482
-0.0777582
-0.0847807
-0.15819
0.0196186
-0.0503861
-0.127895
0.0122855
0.110532
-0.121851
-0.165163
-0.0168414
-0.0868566
0.161427
-0.0383272
-0.0139917
-0.14258
-0.0250257
0.0195343
0.144107
-0.112372
-0.0110828
0.00782926
-0.161547
0.00906022
-0.0677085
-0.161005
0.0191267
0.109126
0.0920428
0.14396
-0.156098
-0.0351154
0.127754
0.0483059
-0.0577803
-0.120889
-0.110538
-0.0174814
-0.0403869
0.053975
0.146971
-0.112188
-0.0199252
-0.164259
-0.0333751
0.184689
-0.0204349
0.0496459
0.0581615
-0.109697
-0.0759667
0.00878733
0.153805
0.0754057
-0.0139779
0.0571802
0.0417344
0.112447
0.0421164
-0.074775
0.105264
-0.0249506
0.130224
0.142957
0.00943202
-0.0258351
-0.0824622
-0.153078
-0.0758397
-0.134368
0.0306305
0.173846
0.0524581
-0.0671925
0.0828683
0.00213473
-0.0740682
0.132273
0.116204
-0.103343
-0.0621855
0.00536506
-0.119423
-0.0739199
-0.171718
-0.0228746
-0.0439385
0.101335
-0.134324
0.0722391
0.0946838
0.164853
0.160003
0.145162
-0.0556291
-0.0534829
-0.129733
-0.00137864
-0.103238
-0.0399241
-0.023003
0.117252
0.137817
-0.128608
-0.109907
-0.160861
0.161372
0.142524
-0.0225109
-0.017306
0.0780139
-0.035717
0.156509
0.0892356
-0.167752
0.0695817
0.139029
0.149821
0.104272
-0.124725
-0.0635975
0.0665569
-0.114975
-0.0933092
-0.164609
-0.0387472
-0.131557
-0.0458143
-0.0795633
-0.0578119
0.0334477
0.0479423
0.0931096
0.163034
-0.165092
-0.0926706
0.14642
-0.0397706
0.0376797
-0.0777207
0.00234012
-0.138019
0.0970869
0.144301
0.137397
-0.155439
-0.0649781
0.138786
0.0608351
-0.11411
-0.0810036
-0.123424
0.122193
-0.112631
-0.0113653
0.209159
-0.0920942
-0.0475759
0.013637
-0.0947721
-0.0618159
0.0404937
-0.0512204
-0.0590299
0.0681893
0.152848
0.125823
-0.070018
-0.0547185
0.0523023
0.000873014
-0.0578198
-0.118493
0.161113
0.0581727
-0.0938655
-0.0446807
0.0408052
-0.12349
0.0838639
-0.161483
0.0144259
-0.145835
0.12401
-0.0106285
0.0155883
-0.0192473
-0.132853
0.00686067
-0.00966393
-0.156776
-0.0110286
-0.0034624
-0.058895
-0.0946227
0.121202
-0.0126897
-0.0155498
-0.0915358
0.0662786
0.188024
-0.127197
0.114666
-0.109872
-0.0100845
-0.147525
0.158532
-0.114712
-0.0878249
-0.166098
0.0833672
-0.0979071
-0.0149152
-0.121315
-0.049816
0.10215
-0.162238
-0.00591951
-0.0095727
0.134426
0.0424603
0.112069
-0.11079
-0.120713
0.0103729
-0.11945
-0.0371477
0.135612
0.179315
0.144557
0.144675
0.0291754
-0.0338484
-0.10158
0.168166
0.0258282
-0.19246
0.150208
-0.132408
0.125134
-0.0446255
-0.0986529
-0.0757354
-0.134652
0.120737
0.15203
0.0973324
-0.145886
-0.0160868
-0.0409012
0.0554498
0.0238691
-0.138669
0.0903838
-0.0133805
0.138669
-0.0189116
0.136596
0.153856
-0.15207
0.103151
0.108859
-0.00131168
-0.135354
0.018307
-0.0920172
0.0638919
0.0282827
-0.0447563
0.0249773
-0.135717
0.103216
0.0831328
0.0601288
0.0247382
-0.0180476
-0.0932815
0.0930701
-0.162754
-0.141152
-0.00958784
-0.0322754
-0.131631
0.0928152
-0.000163826
0.156371
0.00226279
-0.118587
-0.0629968
-0.0214057
0.0497762
-0.127993
0.00850922
-0.1144
-0.0254297
-0.163924
-0.0386739
-0.132089
-0.0100389
-0.121647
-0.0616949
-0.0106576
-0.111997
-0.0520177
-0.0413322
0.160039
-0.0888085
0.140472
-0.0941244
-0.0914872
-0.0851978
-0.0217292
0.200237
0.0351436
-0.0977359
-0.0749983
-0.0117633
0.123774
0.0556828
0.177203
-0.0593121
-0.070921
0.139732
0.0480277
-0.00636135
0.135846
0.0439015
0.063097
-0.096172
-0.0164711
-0.0220722
0.14772
-0.0659849
-0.204927
-0.145341
0.0744763
0.158074
0.163121
-0.156907
0.0661871
-0.0921924
-0.00121827
0.152438
0.111767
-0.124883
0.0732417
-0.0653038
-0.0810589
-0.17598
0.0268297
0.0434099
0.0310278
-0.046278
0.0609878
-0.0503264
0.0614187
-0.192827
-0.0358232
0.0464442
-0.0482543
-0.175742
0.149827
0.0714724
-0.0817742
-0.0764854
-0.107924
-0.0466095
0.0205252
0.0368475
-0.0402578
-0.157784
-0.0804033
-0.0106578
-0.0253887
0.146604
-0.0715659
0.104176
-0.0263512
-0.00711955
0.0814937
-0.0810297
0.0737655
-0.0779597
-0.13396
-0.00717381
0.149783
-0.011128
0.109985
-0.10348
-0.0949396
-0.111969
-0.15854
0.0531819
0.0140149
0.0276428
0.148687
0.0788515
0.0683093
-0.034809
0.13315
0.164246
-0.042402
0.00669205
-0.0671096
-0.0836348
-0.0264466
0.130806
-0.109851
-0.0293155
0.106563
-0.113684
0.028158
0.165138
-0.031799
-0.137885
-0.00094664
0.134545
-0.172124
-0.0259236
-0.031051
-0.140555
-0.0989887
-0.0529619
0.0892802
0.0681191
0.106646
-0.0446507
0.000660903
0.10706
-0.0310925
-0.063949
0.0721821
-0.157423
0.0349451
0.0380881
-0.0493984
0.107013
0.0693104
-0.0859562
0.0470118
0.181552
0.168035
-0.130491
0.0922864
-0.190812
-0.133844
0.047775
-0.172478
0.120529
0.101596
0.156735
-0.00426285
0.105852
-0.093011
0.0324511
0.150154
0.152577
-0.0913313
0.0609122
-0.161565
0.0836228
0.136746
0.1045
-0.103786
-0.0549933
0.16419
-0.132166
0.0438469
0.0395656
-0.0683846
0.0264389
-0.06081
0.184817
0.151175
-0.157867
0.111907
0.00248692
0.0601145
0.164675
-0.0323296
0.0616244
-0.106137
0.0332218
0.121535
-0.128145
0.130469
0.142187
-0.140336
0.0600743
-0.00744226
-0.0505961
-0.140725
0.149263
0.0590325
-0.00318011
0.129151
-0.097849
-0.0575871
0.0178111
-0.0686207
0.0462501
0.0886929
0.0686139
-0.144278
-0.154533
0.106317
0.130886
-0.105378
0.132308
0.16142
-0.0755052
-0.00703799
0.0425517
0.15153
-0.126033
0.123824
-0.0444258
0.14088
0.0949882
-0.081794
0.15322
-0.121507
-0.196923
-0.115906
-0.144409
-0.0913675
0.132948
0.00701495
-0.105746
-0.0674309
0.118158
0.052656
-0.158568
-0.106103
0.129897
-0.0238063
0.178175
-0.0121525
-0.00396285
0.0185796
-0.0348278
0.126238
0.016148
0.15401
0.144367
0.0268968
0.110495
0.135487
0.00748071
-0.0864552
0.0785289
0.0473036
-0.120275
-0.0240939
-0.045066
0.164778
0.0916174
-0.093942
0.108448
-0.0342444
0.134766
0.143203
-0.0996288
0.111069
0.166179
0.0240796
-0.113423
-0.0374462
-0.071276
-0.0387931
0.144151
-0.112929
0.14918
0.0237525
-0.0493472
0.0625028
-0.054738
0.00978931
0.054658
0.0101455
-0.154602
-0.0416959
-0.0406582
0.00175035
-0.0616021
0.155357
-0.0744914
0.11902
0.00906717
-0.101704
-0.0788573
0.118689
-0.0776284
0.0269752
0.0645376
0.00609567
-0.115316
-0.138305
0.189268
-0.153456
0.124137
0.0770571
-0.0899903
-0.0873488
0.0342463
0.105849
-0.142516
-0.065914
0.0107822
-0.11127
-0.0477975
0.0319614
-0.197281
-0.0382853
0.0096026
-0.103313
-0.161204
0.0486179
-0.00809735
0.00795214
-0.00595528
-0.0780227
-0.00868884
0.159149
-0.160546
-0.0596699
0.0509196
-0.0744703
-0.126291
-0.110975
-0.0783696
0.0414214
-0.0103451
0.0840895
-0.0181811
0.149777
0.0395113
-0.0187894
-0.150438
-0.112232
0.0040891
0.0430434
0.147742
0.0243077
0.0175997
0.0880866
-0.0850278
0.174204
-0.0485011
-0.0696383
0.166936
-0.115326
-0.0829696
-0.13545
0.141246
0.0836792
-0.0958239
-0.0609578
0.116426
0.00293494
-0.0606713
0.122362
0.0349023
-0.11036
-0.146353
-0.116985
-0.0375313
0.146221
-0.183896
-0.152501
0.108529
0.120531
0.0792855
-0.140198
-0.0251629
0.0902553
0.114336
0.145374
0.174004
0.148177
0.0409524
0.157294
-0.146295
0.0178445
-0.0736555
0.0392966
-0.130681
0.115435
0.090531
-0.0311404
-0.0690221
-0.12923
-0.0780532
0.16331
-0.0386823
0.066093
-0.10638
-0.0958132
-0.025529
-0.0106122
0.124753
0.0559641
-0.0407696
-0.0709946
0.0627666
0.129836
-0.0257538
0.151022
0.0834741
-0.137649
-0.0961881
-0.0291729
0.0515106
-0.178601
-0.0519816
-0.161981
-0.128596
0.0937557
0.0529408
-0.130431
0.0533622
0.0203628
-0.0890896
0.155576
0.102824
0.0451991
0.0867285
-0.1343
0.107536
-0.069691
-0.0910436
0.173067
0.0595033
-0.0663017
-0.0868898
-0.0425776
0.102299
-0.0245562
-0.0117134
0.0335241
0.115853
-0.0126933
-0.00434966
0.224661
-0.010789
-0.02988
-0.158063
-0.000101425
-0.138937
-0.0160351
0.134814
-0.102646
0.136473
-0.131076
-0.00855321
-0.158885
0.0618257
0.0562393
0.0169707
-0.0471819
-0.0294805
0.125212
-0.0802465
-0.0258584
-0.0742047
0.0171835
-0.0843423
-0.100642
-0.0067187
0.106732
0.0322909
-0.0405476
-0.166313
-0.134557
-0.158696
-0.112573
-0.0162418
0.165853
-0.0469203
-0.0797647
0.164419
-0.154762
0.0253361
0.154167
0.171058
-0.0465355
-0.125493
0.0191869
-0.0294515
0.00870586
0.00974818
-0.161464
0.0757874
0.163667
-0.125744
0.105705
0.0253085
0.0716623
-0.0664255
0.0489853
0.0640871
0.0517141
-0.0930421
-0.171438
-0.0836836
-0.0146759
0.0723847
0.0501024
0.157582
-0.164084
-0.147222
-0.167615
-0.0184658
0.0999224
0.0614647
0.0600135
-0.166157
-0.0763351
0.00442831
-0.013604
0.0131143
-0.11364
0.0286118
0.0214131
-0.157267
-0.0430897
0.0118882
-0.000766407
0.0597095
0.165188
0.087889
-0.0343687
-0.114136
-0.157085
-0.126065
0.0718292
0.0889262
0.00675371
0.0194267
-0.152527
-0.0369766
0.0803125
-0.102648
-0.152666
0.0910259
-0.0962508
0.139543
-0.159818
0.112314
0.0794448
-0.0536598
-0.11069
0.0382612
0.0174779
-0.127848
-0.0316699
-0.080573
-0.0220345
-0.0743514
-0.131155
-0.0336944
-0.07179
-0.0812418
-0.109669
-0.173656
0.137309
-0.000470032
0.134236
-0.111162
-0.0973913
0.0923799
-0.140795
0.0491875
0.140082
0.0246457
0.149494
-0.1656
-0.149043
-0.114749
0.157606
0.151727
0.0791163
0.149633
0.0724681
-0.131765
0.0504373
0.0477601
-0.0456375
0.154505
-0.0914762
0.060204
-0.0255454
0.0323656
-0.107698
-0.203309
0.132427
0.148651
-0.119585
-0.0673687
0.0840745
0.0773348
-0.149783
-0.106969
-0.12526
0.032306
-0.136741
0.135684
0.0968817
-0.140857
-0.127294
-0.112197
0.116015
-0.10399
-0.161881
0.0237346
-0.129795
-0.0941709
-0.0553681
-0.0230864
0.119671
0.0875645
-0.179268
0.113658
0.134469
0.127996
0.00676031
0.00617546
0.0288965
0.167238
-0.100906
-0.0951739
0.144653
0.0927791
0.0343954
0.135391
0.102117
-0.0563629
-0.109285
-0.0447956
-0.00250942
-0.0249197
-0.0956946
0.0819057
-0.00107211
-0.0786314
-0.0454863
0.164507
0.116667
-0.121929
0.0410817
-0.147102
-0.0023867
0.0116761
0.0403159
-0.119669
-0.144344
0.0715469
0.0536782
0.0352408
0.0284987
0.103601
-0.0716424
-0.128282
0.0347781
-0.134045
0.149806
0.123378
0.0499048
0.066778
0.00361432
-0.0311196
0.117412
-0.140595
-0.0710728
-0.0526678
-0.14851
0.118006
-0.0453777
-0.0159841
0.102
0.0728892
-0.127822
-0.13566
-0.0145307
-0.164209
-0.0535369
-0.140747
0.0841957
-0.0982374
-0.0968913
0.00796184
0.160595
0.1261
-0.00357469
0.0931155
-0.111039
0.155253
0.0804158
0.00827429
-0.0464315
-0.036111
-0.0907115
0.0311377
-0.0698434
-0.127065
0.00935233
0.0147452
-0.0973832
0.122932
0.0921936
-0.0417525
0.104376
-0.132881
0.117594
-0.155477
-0.039839
0.136724
0.0663599
0.155494
0.0533861
0.0176306
0.111741
0.158017
-0.164554
0.143853
-0.0860779
0.138262
-0.131148
0.158002
0.0223995
0.154685
0.0124035
0.0313426
0.135444
0.0672747
-0.0933195
-0.0244519
0.151193
0.0902023
0.0456895
0.145873
0.0650118
0.0277343
0.0918282
-0.0484661
-0.169908
0.0613947
-0.105004
0.0248304
-0.0538532
0.160388
-0.134309
-0.0835838
0.0870026
-0.0274751
-0.0223456
0.0215455
0.00200495
0.139789
0.119722
-0.121616
0.0826766
-0.0208242
-0.16818
0.0788228
-0.110716
-0.0732686
0.102424
-0.156638
-0.117204
0.0890606
0.14967
-0.0271789
-0.0797824
0.121741
-0.112433
-0.133197
-0.0208076
0.0494209
0.0356459
-0.0219312
0.0471898
0.0246571
0.037973
-0.102259
-0.143424
0.101294
0.0553304
0.205557
0.106043
0.124891
0.155768
0.0973256
0.12239
-0.0015377
0.155394
0.052683
0.00650273
-0.0830642
0.13881
-0.0435571
-0.0821922
-0.0546083
0.0708356
-0.0481973
-0.160572
-0.138823
0.142414
-0.131959
0.148533
-0.0309327
0.0369418
-0.0270405
0.137675
0.13153
-0.126636
-0.149054
0.0855811
0.00523213
0.117021
-0.124946
-0.141664
-0.00054735
0.00555725
0.138524
0.0249912
0.141327
-0.162761
-0.16084
0.119052
-0.151973
-0.0186792
0.17234
0.0705741
-0.119984
0.0665331
-0.0515396
-0.163931
0.157693
0.0997251
0.0776815
-0.0136799
0.0221682
-0.0696628
0.0401711
0.156196
0.0398013
-0.122218
-0.0522289
0.114762
-0.0154543
-0.070225
-0.0631335
0.0105104
0.061454
0.164482
-0.0150299
0.0194878
-0.132257
-0.127083
-0.0455805
0.0145097
0.0879493
-0.113619
-0.141148
0.0678037
-0.14519
-0.0373504
-0.137241
-0.0928615
0.180567
-0.00524026
0.12809
0.0574647
0.173846
-0.072336
0.0447294
-0.00964917
-0.0740067
0.091503
-0.088751
-0.114122
-0.150449
0.0767368
0.0502717
-0.0910315
0.151855
0.116755
-0.0291714
-0.0255011
-0.0755673
-0.104795
-0.0314288
-0.0274632
0.161345
-0.0875251
0.12712
0.0722128
-0.0652518
-0.0976852
-0.085679
0.0614268
0.0339512
0.140173
-0.0820825
0.00532422
0.10167
0.161621
0.0516554
-0.101923
0.0225528
-0.0753006
0.130973
0.0855265
-0.000316429
-0.122474
0.0549616
-1.0493e-05
0.130247
-0.132279
-0.155903
-0.0148268
-0.0479853
0.147329
0.13864
0.0408052
-0.0289986
0.132204
0.117818
-0.0162983
0.00374295
-0.100734
-0.126964
0.177648
-0.0690125
0.109932
-0.0698877
-0.179856
0.105213
0.164085
0.0393932
-0.156155
-0.091686
-0.0550623
0.0646267
-0.107096
-0.118262
-0.0586494
-0.0456331
-0.0519719
-0.0700358
0.0769766
0.0864398
0.0180327
-0.134302
0.0393218
0.0501051
0.111957
-0.153253
-0.048292
0.170252
0.0387477
0.0146383
0.00260744
0.112289
0.0593643
-0.035395
0.0259546
-0.00260651
0.0481097
0.106958
-0.114138
-0.00724948
0.148236
-0.000669487
0.162523
-5.14927e-05
-0.122185
0.112124
-0.0670741
0.0775929
0.0769424
-0.119176
-0.0440378
-0.0244146
0.183093
-0.123172
-0.0369872
0.084178
-0.103922
-0.156698
-0.117164
0.000720487
-0.0380547
0.07851
-0.100137
0.139432
0.0598793
-0.102469
-0.127901
0.0589752
-0.109423
0.0383949
-0.0277804
0.0357049
-0.168701
-0.10711
-0.00422934
-0.140562
-0.00870312
-0.139566
-0.0465468
-0.0345056
0.154205
0.0308209
-0.127806
0.0170191
0.0885771
-0.152252
-0.15999
-0.0991291
-0.0664911
0.0403033
-0.0176053
0.0882082
-0.0779085
0.0324851
-0.135985
-0.163249
0.0515479
0.00152041
0.0489259
-0.0294284
0.128353
-0.147469
-0.0441812
0.0015483
-0.14955
0.0852443
-0.135487
-0.0500352
0.167676
0.112347
-0.0740009
-0.136113
0.117474
-0.0243445
0.0854584
-0.01031
-0.0687279
0.0859909
-0.104648
0.168165
0.0443119
-0.168047
-0.133869
0.0781003
-0.153808
0.0484896
0.127968
0.0990766
0.00273084
-0.0935439
-0.127191
-0.163034
0.0559921
0.0714408
-0.0208299
-0.0637701
0.0809882
0.15644
0.00551189
-0.084897
-0.10139
-0.0774378
0.0590821
-0.131475
-0.19724
0.0612982
0.0907471
0.109087
-0.0484581
-0.209942
-0.034969
0.0569816
0.026163
-0.0676589
0.0521241
-0.135998
-0.0422004
-0.151258
0.0533255
0.130691
0.118274
-0.156001
-0.0678491
-0.142994
0.169888
0.0544883
0.158718
-0.149085
-0.024211
0.151419
0.0776933
0.105732
0.137738
0.0185268
0.0322283
-0.146601
-0.016211
0.194102
-0.0292548
0.0796136
0.131978
0.0278709
-0.0732881
0.0635047
-0.145496
0.140747
-0.106186
-0.166405
0.0562513
-0.0680978
0.112482
0.022601
-0.0677781
-0.0251495
0.0469538
-0.0419181
-0.0138918
0.101545
-0.0620549
-0.0341934
-0.0283806
0.046664
0.157019
-0.151806
0.00694728
0.182189
-0.0410755
0.160116
0.058967
0.158476
-0.00324254
0.0972796
-0.0147934
0.171767
-0.0498725
-0.147247
0.153239
0.0152977
0.0452194
-0.170827
0.0298836
-0.152529
0.163335
-0.128333
-0.0517688
-0.032976
-0.106468
-0.124868
0.12071
0.0388905
0.130314
0.0263849
0.130671
0.215917
0.0367903
0.123166
0.178106
0.112898
0.111599
0.0327833
-0.155249
0.140728
0.144638
-0.0481736
-0.0431963
-0.121501
0.0217869
0.107509
0.148734
0.0552474
0.0213958
0.0297127
-0.113691
0.174665
-0.119887
-0.121978
0.019771
-0.143187
-0.0141925
0.113125
-0.0531555
0.220665
-0.0461232
0.0022843
-0.0475566
-0.0981059
-0.113666
-0.111822
0.0479161
0.000536453
0.117714
-0.0112868
-0.137135
0.109345
0.059427
-0.0547829
0.0779092
0.0186179
-0.0645636
0.158907
0.102934
-0.083221
-0.119002
0.0336695
-0.115781
0.136773
0.032873
0.0609222
0.0997832
-0.168369
-0.0516002
0.154339
-0.0355016
0.108904
0.016495
0.108982
0.12055
0.0712383
-0.00538744
0.0360774
0.067924
-0.0143624
-0.000647679
-0.0935214
-0.161353
-0.126003
0.0655366
-0.117628
-0.068356
0.1317
0.0869154
0.103756
0.0781251
0.168694
-0.148255
0.0595172
-0.0975471
-0.130662
0.0791834
0.14138
-0.186098
0.0106008
0.0346523
-0.148181
-0.126863
0.165451
-0.0196433
-0.0223842
-0.0849509
0.160295
-0.168863
0.0881353
0.0229604
0.0967537
0.00602308
0.0756378
0.0718715
-0.10802
-0.117222
-0.0613164
0.105499
-0.0224475
0.140214
-0.0844089
0.010076
0.0347028
-0.138958
-0.0889394
-0.0818134
-0.0630338
0.167658
-0.0415163
0.178129
-0.11668
0.0551823
0.161849
0.109206
0.0732346
0.128172
0.098704
-0.10163
0.0161233
-0.125179
0.0533176
-0.0990139
-0.123856
-0.084156
-0.162813
0.0561189
-0.165742
0.161004
-0.149
-0.0144441
-0.0978467
-0.110569
-0.145581
-0.171054
0.0948479
-0.109646
0.106501
-0.0889774
0.151883
0.116445
-0.153932
-0.0024085
0.0401285
0.154281
0.0677307
-0.00939864
0.0483047
-0.0321737
0.0047313
-0.108915
-0.0209624
-0.125368
0.139424
-0.0789
0.0226784
-0.0053893
-0.0723899
0.150375
-0.10209
0.0789677
-0.00650958
0.122072
-0.0471815
0.0715367
-0.120315
0.0786769
0.141462
-0.111163
-0.00991211
-0.0841964
-0.149145
-0.0208008
-0.130825
0.0523487
0.116605
-0.144325
-0.0258789
-0.0572745
-0.0019262
0.153848
0.0646193
0.0951845
0.142024
0.0719502
-0.150767
0.0457729
0.0107444
-0.0658532
0.016372
-0.14824
-0.111862
0.0999519
0.0460802
-0.114452
0.13063
-0.142783
-0.165911
-0.139491
-0.112097
-0.123251
0.0891397
0.0294835
0.153214
-0.170644
-0.167636
0.0539596
0.12966
0.0855569
-0.0238211
0.0782903
0.0973943
0.0053428
-0.0341253
0.170907
0.0327263
0.0423245
-0.0508441
-0.165508
-0.0671106
-0.0154484
0.112302
0.0735696
0.154879
-0.0376656
-0.0443798
0.0786628
0.0405679
-0.0359655
-0.0457821
0.00768673
0.083639
-0.111894
0.085149
0.0371034
-0.0395075
-0.120444
0.0631608
-0.143877
-0.107773
-0.00753205
-0.171476
-0.0126426
0.0554289
-0.0975334
0.00711296
0.0497741
-0.0453135
-0.033195
-0.0594412
0.0713115
-0.144721
0.164406
-0.0845206
0.166066
0.0400244
0.0811545
0.108639
-0.0809215
-0.10289
-0.160594
0.0537253
-0.0614303
0.165553
-0.00324637
0.0685778
-0.093848
-0.0847356
-0.140896
0.130513
0.0293061
0.13961
-0.132148
0.035757
0.127331
-0.0447296
0.159862
-0.119435
-0.0462893
-0.037936
0.0576063
0.0910009
-0.127065
-0.150125
-0.161004
-0.0462675
0.0570214
-0.124013
0.0358714
0.00766092
-0.137221
0.0519344
-0.0797874
0.00151612
-0.143888
0.141932
0.0532384
-0.0915025
-0.134697
0.1115
0.0164557
-0.0122306
0.145495
0.118329
-0.0969431
0.207547
-0.176195
-0.0438071
0.139929
0.129331
-0.188779
-0.0385869
0.014789
-0.162762
-0.026694
0.0642002
0.0603134
0.108947
0.00226163
-0.0742623
-0.0128397
0.126206
-0.0818607
-0.00709147
-0.0249467
-0.0228363
-0.0525119
-0.0211031
0.0478729
-0.13892
-0.141925
-0.101765
0.0370448
-0.0341392
0.0342613
-0.0667294
-0.0447609
0.0773744
0.041214
0.0420079
-0.0326934
-0.128841
0.126144
-0.0400563
-0.0164642
0.0771515
-0.0960513
0.0201475
0.0330119
-0.0630135
0.0360418
-0.00376275
0.109646
-0.159653
0.070635
-0.0359573
-0.00934053
-0.140271
-0.000340924
-0.0683208
-0.109106
-0.0962294
-0.166856
-0.147021
-0.105553
-0.0598563
-0.0776589
0.0323646
0.0184216
-0.0275429
0.090974
0.0490573
0.16546
0.161137
-0.126025
0.054062
-0.0576606
0.0510185
0.080841
0.0359794
-0.0682686
-0.11314
0.12237
-0.0662653
0.00559368
0.0184802
-0.0605094
-0.0918451
0.161609
-0.0921122
-0.160638
0.139363
-0.0891518
-0.000879424
0.0522678
0.0813148
-0.126752
0.149612
-0.156032
-0.086553
0.151618
-0.122067
0.0163217
-0.0813818
0.00858893
-0.0494912
0.128693
-0.0400372
0.117479
0.00294813
0.0547267
0.0344608
0.0370931
-0.130499
0.0107277
-0.0682233
-0.0453764
0.02935
-0.00400535
0.0587457
0.110695
-0.148295
0.0677147
0.0418085
-0.0156619
-0.107546
0.127401
-0.0880958
0.10362
-0.139868
-0.200435
-0.0376785
0.0759389
-0.122935
-0.149671
-0.0972017
-0.0313027
-0.0980854
-0.0417772
0.0161122
-0.0478385
-0.0491099
0.0356967
0.0754211
-0.146452
-0.07025
-0.0723449
0.178715
0.0717809
-0.0558612
0.01574
0.124174
-0.0561248
0.0287445
-0.140106
-0.042867
0.108521
-0.107469
0.0659822
0.178332
0.198969
3.77344e-05
0.0202414
0.0335257
-0.156406
0.0343853
0.114825
-0.0954504
0.152059
0.064433
0.0590278
0.0364038
0.183261
-0.0319991
0.0664063
-0.0971515
-0.0178288
-0.12354
-0.110944
0.107392
0.136973
0.131983
0.16375
0.0524338
-0.126245
0.0406325
-0.139689
0.118811
-0.147868
0.00429518
-0.00830591
-0.0516466
0.107189
0.108558
-0.0171359
0.194907
-0.0209466
0.118856
-0.0459603
-0.158845
0.0322969
0.161128
-0.116329
-0.144435
-0.147639
0.130728
0.0952467
-0.102632
0.100011
0.179048
-0.0236
-0.00813532
-0.0886461
0.106151
0.181643
0.00695277
-0.158092
-0.0367011
-0.00339742
-0.0797112
0.0608832
0.0709224
0.197968
0.0929777
-0.00858564
0.100494
-0.116971
0.167851
-0.084229
-0.176224
-0.0625621
0.0784907
0.00531745
-0.0205348
0.0172989
0.131026
0.0192683
0.00334217
-0.10359
-0.000271901
-0.175598
-0.0676152
-0.0533769
-0.0634072
-0.0692841
0.127534
0.113572
0.011906
-0.201468
0.161375
-0.0961415
0.104461
0.112864
0.0992799
-0.163657
-0.117921
-0.0208308
0.0898445
-0.0620062
-0.0137699
-0.150921
-0.0343758
-0.0929913
0.137796
0.0468722
-0.0873925
-0.0994418
0.0170504
0.131383
0.0791821
-0.0973516
-0.128732
-0.146395
-0.000650048
0.0264457
-0.0555967
0.0481137
0.199247
-0.105932
-0.000226594
0.0844783
-0.160038
0.226878
0.205904
-0.0241817
-0.0742528
-0.0178392
-0.0877468
0.071587
0.107808
0.0506533
0.144227
-0.0215433
-0.174644
0.0414613
0.0164429
0.0217061
0.102823
0.00611177
-0.00489368
-0.0781305
-0.0764637
-0.039556
0.142076
0.0092177
0.148295
0.16046
-0.10499
0.0262552
0.137122
0.15891
-0.138177
-0.0155576
-0.0506569
0.165101
-0.0764765
-0.100241
-0.158349
0.0397747
-0.159312
0.078174
-0.148403
0.127425
-0.143101
-0.138755
-0.0383108
0.159326
0.0733157
0.0297349
0.135901
-0.0329861
-0.124788
-0.155625
-0.100694
0.0497979
0.164669
-0.143327
0.0989966
-0.0800519
-0.142914
0.109225
0.0982418
-0.125455
0.0702984
0.0251058
0.0439724
0.00971351
-0.0762277
0.110708
-0.0335197
0.102158
0.0300637
-0.0849399
-0.133177
0.105425
0.0439946
0.172732
0.0465792
0.124039
-0.147012
0.0629424
0.0215047
0.118031
-0.0592258
-0.0151037
0.106376
0.115649
-0.012224
0.0585796
-0.179844
0.0780919
0.0465172
0.116607
0.0733998
0.00994185
-0.148325
-0.123392
-0.0704374
-0.0587696
-0.067638
0.0569304
-0.0344353
-0.122258
-0.047409
0.0955739
-0.0903103
-0.11015
0.103192
-0.0125647
-0.0748175
0.167629
-0.0501503
0.108281
-0.184347
-0.00506176
-0.109841
-0.149795
-0.117481
-0.133709
0.00518409
-0.0234225
0.0865836
0.117052
-0.107109
0.0609974
0.0873965
-0.0960095
-0.0944938
-0.104312
-0.16918
0.127921
-0.0396729
-0.0564492
0.0126396
0.066168
0.0439067
-0.141682
0.0666775
0.0277616
-0.115463
0.0169551
0.154488
-0.0575847
0.145286
0.0571605
0.0617823
-0.161581
0.0513602
0.0858168
0.0801037
0.136575
0.111093
0.0777862
-0.0196405
0.140496
-0.0156082
-0.158335
-0.106336
0.0324342
-0.0345012
-0.172276
-0.0180453
-0.158157
0.0518873
0.152464
0.042366
0.132308
0.0999009
0.125608
0.0216709
0.0776014
0.105481
-0.0165925
-0.124154
0.123983
-0.123838
0.0596376
0.146773
0.0547266
-0.00634168
0.0847347
0.163677
0.109741
0.0469378
-0.0224766
-0.0978533
-0.02355
0.134524
0.0999745
0.151345
-0.168557
-0.00879293
-0.0254162
0.165311
-0.122654
-0.087965
-0.0288194
0.00650762
0.091574
-0.0122763
-0.0351984
-0.0756404
0.0846495
0.116528
-0.0812586
0.156191
-0.110637
-0.0897226
0.0956382
0.0794961
-0.0631934
0.00864431
-0.111241
0.117785
0.0646714
-0.0455222
-0.0626947
-0.0995049
0.0861132
-0.141109
-0.120487
-0.106231
0.0653943
-0.0934938
0.00480322
-0.066518
0.1247
-0.0743618
-0.114138
-0.0202504
0.0445418
0.0391539
0.015985
-0.00870066
-0.045658
-0.138636
-0.0113368
0.0353011
0.0219981
-0.0314449
0.134137
0.0215589
-0.0112546
-0.161011
0.116745
0.0140192
-0.0361459
0.0662465
-0.177077
-0.0843265
-0.0108602
0.104548
0.143252
0.0294868
0.0698798
-0.133918
-0.163636
-0.066105
-0.0970786
0.162114
0.16076
0.0372653
-0.0598319
0.00054656
0.128911
-0.00778605
0.0914187
0.0359071
-0.065368
0.0997066
0.13618
-0.202574
0.00487575
-0.0406998
-0.137199
-0.00767614
0.145773
-0.0692796
-0.0352931
0.00876641
-0.121169
0.0892112
0.155992
0.111221
0.0804168
-0.00454335
-0.166134
-0.103052
-0.139383
0.032434
-0.0703497
-0.140021
-0.103176
0.149235
0.0453838
0.00099203
-0.0598757
-0.109944
-0.15606
0.0268444
-0.046067
-0.102745
-0.0515045
-0.145959
-0.158049
-0.0195261
0.0472883
0.0629356
-0.00298048
-0.161299
0.0382912
0.0928921
-0.0755664
-0.0501176
0.0885484
0.0576387
-0.165939
-0.159638
0.0238223
0.0368944
0.176474
0.160453
0.00342104
0.0825095
0.0163439
0.0511515
0.0558863
-0.00426587
-0.0405468
-0.163822
-0.0173276
-0.14305
-0.117975
0.171242
0.144597
0.154444
0.0991446
-0.053654
0.0608328
-0.13226
-0.0986899
-0.170524
-0.017348
0.159398
0.131152
0.103819
0.200872
0.0775971
0.0465506
0.0755615
-0.106286
0.156969
0.0096827
0.0210968
-0.147835
-0.154129
-0.0626914
0.117014
0.111215
0.0658487
0.110135
-0.0385858
0.0646448
-0.186175
-0.0604645
0.0338534
-0.0689005
0.174999
-0.000598684
0.0530218
-0.0459297
-0.0326199
0.150272
0.1166
0.0588741
0.114434
0.196414
-0.00527539
0.0484242
-0.167539
0.111311
0.0398275
-0.12882
0.153733
0.00420137
-0.105567
0.0847598
-0.11728
-0.0454337
-0.0422829
-0.144466
-0.141671
0.0403281
-0.0537464
0.121593
-0.133604
-0.0969573
-0.000848012
-0.153245
-0.119665
-0.0686024
-0.105406
-0.142839
0.108338
-0.14276
0.104956
0.066327
-0.00789726
0.134971
0.0793297
0.094307
0.16649
0.0742716
0.0939493
-0.178515
0.030997
-0.0601794
0.0149
0.106891
-0.0254746
0.0622929
0.0901728
-0.0464268
-0.022563
0.0378026
0.0527723
-0.0068832
-0.105493
0.165756
-0.183159
-0.158338
-0.0970716
-0.148942
-0.0742257
-0.0967211
-0.155528
0.140101
0.0247211
-0.0433856
0.10536
-0.0776748
-0.0880288
0.0824605
0.0108939
-0.0105203
-0.134194
0.0185366
0.0203529
0.00989464
0.0714414
0.108587
0.0159019
-0.0279361
0.100536
0.131166
0.0671454
-0.0233482
-0.000471744
0.119752
0.183586
0.0847877
0.149274
-0.0788518
0.140314
0.0269136
-0.00864884
-0.100948
-0.143593
-0.113037
-0.00693776
0.169394
0.132474
0.165251
-0.0504706
0.153123
-0.118196
-0.021321
-0.167167
0.142375
0.105831
-0.184477
-0.0063969
-0.133206
-0.0558931
0.0956116
0.0109985
-0.12065
-0.096935
-0.0219756
-0.0246624
0.0275824
0.0421194
0.00940526
-0.105378
0.14766
-0.0862127
0.130839
-0.143777
0.152039
0.0492384
-0.0267246
0.114572
-0.00672367
-0.0729327
-0.0324203
-0.104017
0.00259891
0.206247
-0.004307
0.0951884
-0.0417432
0.151489
-0.0635046
-0.0590733
0.141358
-0.100158
0.183498
0.0626924
-0.0658427
0.0739196
-0.196245
0.118573
0.132522
-0.112339
0.107304
-0.116291
-0.129671
0.0521794
-0.0962803
-0.147734
0.0421578
0.12862
-0.0285324
-0.178934
0.0845846
0.00132361
-0.0597696
-0.0743295
0.11001
0.0297263
-0.0816602
-0.0970123
-0.158348
0.141898
-0.0879863
0.143757
-0.0219916
0.108462
-0.0546447
-0.0888551
0.0519051
-0.141195
0.104659
0.0889574
0.0261764
-0.150043
-0.0778181
-0.134199
-0.10935
0.051859
0.0391482
0.120163
-0.137943
-0.123072
0.0497803
-0.0644591
0.0658407
-0.0833626
0.0564405
0.08677
0.0556326
-0.0756292
-0.0183826
0.147739
0.144726
-0.117544
-0.0424102
-0.0302313
0.062349
-0.117246
-0.0534281
-0.0875808
-0.0355254
-0.0348736
-0.100348
0.0407289
0.0469862
-0.0380494
0.092022
-0.0603304
-0.079207
0.0129382
0.157439
0.170699
-0.122531
-0.0877993
-0.110192
0.0994684
-0.0411374
-0.158471
-0.128702
0.198686
-0.0356988
-0.0251001
0.144987
0.0353576
0.065342
0.00752903
-0.00668314
-0.123496
-0.0370807
-0.00053455
-0.0379051
-0.119397
0.0570777
-0.122493
-0.0152411
-0.0527593
0.0933249
0.0845672
0.0771377
0.0500149
-0.123115
-0.153262
-0.00616153
-0.016136
0.0838379
-0.0501886
0.06186
0.145018
0.166824
0.120293
0.0192206
0.0470815
0.112441
-0.0282396
-0.0768267
0.0809097
-0.0688762
-0.124166
-0.0176968
0.00859974
-0.133224
-0.112523
0.138315
0.139002
-0.0417994
-0.138932
-0.140649
-0.137297
-0.116572
-0.160504
0.0819945
0.0176617
-0.178387
-0.0486323
0.167592
0.121717
-0.0130277
-0.147605
0.104944
0.0423548
-0.151598
0.0774008
-0.0146422
0.079667
0.0791278
-0.0701869
-0.168945
-0.0107655
0.148968
-0.145034
-0.153365
0.0588689
0.14336
-0.12304
0.014709
-0.0804422
0.132394
0.118049
-0.136461
0.029577
0.10729
0.0431571
-0.0162947
0.107087
0.108437
0.113443
0.0561506
0.0214967
0.140882
-0.0609916
-0.0110284
-0.0643048
0.000273913
0.017004
0.129756
0.0683658
0.0283423
0.104392
-0.0379812
-0.020753
-0.0318391
0.0919314
-0.12169
0.168624
-0.0165743
0.0691715
-0.0406197
0.0480692
0.0460672
-0.0678844
0.0757522
-0.0597648
0.170853
-0.107519
0.10124
-0.155266
-0.0604442
-0.109911
-0.129344
0.0217759
0.0593122
0.0508728
-0.116336
0.123236
0.0405095
-0.109357
-0.187614
-0.144796
-0.0705968
0.0417345
0.0972986
-0.114335
0.0936971
-0.154498
-0.115477
0.0973641
0.138443
0.147671
0.09598
0.0300045
0.137047
0.124285
-0.140871
0.00745328
-0.0586708
-0.106185
-0.120983
-0.0731227
-0.00541178
-0.071392
0.0844339
-0.0444101
-0.0654005
0.0600263
-0.0862874
0.00132826
-0.122153
0.0933158
-0.0804977
0.0672259
-0.0796785
0.114746
-0.11932
0.0765435
0.0316112
-0.0791825
-0.0571612
-0.0413579
-0.0212458
-0.115893
0.120301
0.124024
0.113887
0.109976
0.122795
0.0229189
0.0868144
0.181774
0.00106297
-0.0589436
-0.0744616
-0.0353831
-0.128499
-0.021844
-0.208318
0.135277
-0.116178
0.0774977
-0.0531711
-0.0877397
0.156763
0.0770693
-0.130231
-0.207425
-0.146992
-0.0784816
0.074899
-0.00837404
-0.0585964
-0.148993
0.0365979
0.0599462
-0.127584
-0.158098
0.144904
-0.0247146
0.142679
-0.125462
-0.111606
0.187443
-0.0467107
0.0836811
0.152916
-0.0528574
-0.110049
-0.0938281
-0.0141752
0.016677
-0.0552022
-0.118878
-0.0719199
-0.0848572
-0.0137837
0.0171784
-0.0911186
0.0334815
0.0259434
0.0790781
-0.11051
0.0517464
0.0216507
0.0897976
0.0155869
0.00567031
0.160416
-0.100371
0.11484
-0.157643
-0.139591
-0.0781664
0.00208011
0.0536931
0.0868665
0.0904515
0.130442
0.0704545
0.0859879
-0.0524565
0.0889694
0.040348
-0.0507102
0.159017
0.0848679
-0.00891269
0.127508
-0.0343139
0.122204
0.0687941
0.0799688
0.0345664
-0.117367
-0.125177
-0.172817
0.0904613
0.0949154
0.0895097
0.0127804
-0.0105571
-0.0474659
0.0305697
-0.0580824
-0.081198
0.0143227
-0.0211368
-0.0855632
0.10764
0.000763702
-0.110834
0.166086
-0.0593551
-0.0399812
0.0597422
-0.0492148
0.128025
0.0690989
0.0077311
-0.0890831
0.0658358
0.0964385
-0.0773977
-0.0235823
-0.105384
0.148012
-0.023927
-0.0842586
0.0553513
-0.137276
0.0707639
-0.122431
0.15308
0.0639795
-0.0616614
-0.129497
0.15867
0.020711
-0.109715
0.034381
0.0588207
-0.00381845
-0.156009
-0.0818506
-0.174208
-0.116805
-0.16817
-0.0541355
-0.121604
0.135637
0.121122
0.0104697
0.110481
0.0860087
-0.0758475
-0.0423751
0.0225526
0.094965
0.0656222
0.110924
-0.105076
-0.166635
-0.0218362
0.134914
0.15695
0.063352
0.0795446
0.0885865
-0.0829797
-0.0269565
-0.0812772
0.0208153
0.0020731
0.131524
-0.0895869
0.143569
0.134554
-0.159877
0.0491012
-0.0255751
-0.0565594
0.0478946
0.0736171
0.127737
-0.122514
-0.133186
-0.14629
-0.076459
-0.149751
0.16762
0.145744
-0.111238
0.156741
-0.00650223
0.0858497
-0.0542247
-0.00639696
-0.0601233
0.162775
-0.06632
0.00852995
-0.0979612
-0.00951404
0.0593552
0.000632896
0.0277937
0.0736444
-0.149111
-0.115118
0.0282037
0.0623753
0.0039744
-0.0458964
-0.000734244
-0.0911957
0.0693489
-0.0325717
0.00317038
-0.0784675
-0.0399557
0.126931
-0.101195
-0.00734619
-0.0128527
0.0965039
0.0171214
-0.142035
0.146794
0.0928886
0.081713
-0.0135161
0.15851
0.0286238
0.0362887
-0.058234
0.110027
-0.0956277
-0.0558206
0.141368
-0.0510707
0.118533
-0.095848
0.0715242
-0.0924676
0.146282
0.125984
0.137037
-0.11587
-0.0875028
-0.16322
0.137571
0.0667033
-0.118438
0.0627634
-0.0310683
-0.154251
-0.0879687
0.0997532
0.128587
-0.0481862
-0.120056
-0.0233243
0.0375936
0.111508
0.121831
0.072017
0.0270751
-0.093509
-0.156035
0.0692736
-0.101453
-0.0979311
-0.0615342
-0.0259425
0.029965
0.072056
-0.0315837
0.180962
0.0339441
0.0824139
0.0191651
0.114182
-0.0647839
0.101935
-0.149122
-0.0116886
-0.0505002
0.093306
-0.0121643
0.141563
-0.168646
0.10659
-0.093451
0.156412
0.143725
0.106369
0.0371993
0.0331305
0.194837
0.0952064
0.0358478
-0.0169928
-0.147152
-0.117784
0.127904
0.0323725
0.102883
0.114314
0.0286779
-0.164412
0.104358
0.0687987
0.0341027
-0.0347374
0.0791692
0.161037
-0.00380152
0.0367255
0.0767729
-0.148228
-0.168617
-0.11461
0.00901288
0.0503223
-0.0131783
0.11296
-0.0701524
0.0824621
0.0267377
0.108643
0.0321507
-0.137646
0.0154406
0.0665456
0.150581
0.0978899
0.0962664
0.113261
-0.143824
-0.164462
0.172803
0.134826
-0.16415
-0.149556
0.160227
-0.0489635
0.106029
0.0138401
-0.0432281
-0.0125575
0.0458297
-0.0785304
-0.137821
0.106014
0.0323989
-0.0564411
0.14994
0.0605048
0.0385883
-0.147517
-0.148537
-0.158421
0.0562611
0.170767
0.136478
0.0758615
0.0966613
-0.0796577
0.0379982
-0.112401
0.146762
0.121744
0.0555435
-0.00545087
-0.0530567
-0.00159282
0.12404
-0.124024
-0.125836
-0.189816
-0.1141
0.146081
-0.139642
0.0601335
0.020863
-0.122801
0.143625
-0.0275318
-0.150681
-0.112039
0.160262
-0.0152478
-0.1146
0.0348841
-0.179403
0.1301
0.133924
-0.0625061
-0.109299
-0.0404922
-0.124146
0.0847778
-0.0998942
0.0360724
-0.0694013
0.0207596
0.118002
0.119282
0.0261634
0.0562465
0.165117
0.0518515
-0.173601
-0.00972869
0.0840375
-0.0340581
-0.104638
0.0628126
0.00375135
0.00923134
0.00678693
-0.0937411
-0.0232153
-0.110747
0.121182
-0.083233
-0.167804
-0.0649535
-0.07126
0.0152625
0.049488
0.182665
0.0129147
0.0350433
0.147566
0.0192471
-0.0509529
-0.026592
0.00177499
0.123189
0.0416777
-0.0442344
0.167482
0.119067
-0.124977
-0.197575
0.170183
0.14559
-0.0815835
0.0184045
0.0275244
0.0399531
-0.139667
0.159499
-0.00694522
-0.0443469
0.0753649
0.0095276
0.0839837
0.0335986
-0.142343
0.0122925
-0.110882
-0.011012
0.0111838
-0.0493422
0.0505071
-0.0255216
0.124393
0.131983
0.158693
-0.0719295
-0.122454
-0.0335939
-0.163701
0.158823
0.150489
0.0915946
0.144729
-0.0818897
0.0956717
0.025566
0.05945
-0.0758416
0.0884885
-0.148468
-0.113055
-0.00805684
-0.151814
-0.0549267
-0.115877
-0.0139137
0.138587
0.0910488
-0.0836553
-0.139745
0.161266
0.17038
-0.139019
-0.162585
0.0423463
-0.0464796
-0.0505039
-0.0106834
-0.0818954
0.167338
0.0455174
-0.0433826
0.0269519
0.0161576
0.00313468
-0.0683198
-0.046529
-0.0567311
0.0438732
0.086385
-0.141805
-0.0894713
-0.0498085
0.0464249
-0.107153
0.153594
0.0841166
-0.107765
0.0874787
-0.141989
-0.0976361
0.112841
-0.0677581
-0.105732
0.0209647
0.0291106
0.0200426
-0.15484
-0.132558
0.023728
0.0391675
0.163183
0.127868
-0.0589617
0.0795384
0.107857
0.010616
-0.0967678
0.0496116
-0.0010043
0.168086
-0.0446981
-0.024782
0.160059
0.00915894
-0.135654
0.0517993
0.175121
0.146796
-0.125426
0.0356352
-0.0423395
0.0707408
-0.138604
0.0951188
0.054902
-0.0581326
0.12644
0.133151
0.0800715
0.0564638
0.073779
0.120181
-0.134328
-0.0585281
0.0517607
-0.0594833
-0.124393
0.00117553
0.0430218
0.0258179
-0.066794
0.118911
-0.0536977
-0.0482526
0.0200462
-0.124811
-0.0745175
-0.0230143
0.18079
0.0901454
0.0461704
0.0540007
-0.0579289
0.154792
-0.0379691
0.196768
-0.0677237
-0.0593707
0.0493735
-0.126328
-0.088467
-0.0839067
-0.177811
0.142238
-0.152307
-0.173033
0.103978
-0.122146
0.0156147
0.117254
-0.0896066
-0.0698514
-0.0106491
0.135142
-0.00454551
-0.0396711
-0.0732743
0.0700197
-0.171684
0.0781893
-0.163241
-0.0471396
0.0407824
0.167483
-0.0858775
-0.0095516
-0.00317331
0.0635127
0.128537
0.0478898
0.0547326
-0.0232901
-0.0860875
0.0699343
-0.0107919
0.120353
-0.106451
-0.146886
-0.135097
0.0232452
0.100768
-0.103986
0.0108398
0.104989
-0.0970528
-0.0275068
-0.0997476
-0.0625582
0.00377632
-0.160909
0.148843
-0.11471
0.0422791
-0.015509
0.129595
-0.0864759
0.0597394
-0.0895574
-0.106055
0.0837666
0.12065
-0.114121
-0.0201509
0.0862
-0.0142445
-0.16909
0.0261755
-0.0793411
0.0786188
0.0458167
0.144607
-0.0479226
-0.16975
-0.0615355
0.135222
0.0647202
0.178803
0.0523905
0.0271223
0.103542
0.105055
0.175649
0.149225
0.160487
-0.144233
-0.149384
0.0989184
0.0273188
0.014501
-0.119626
0.00300301
-0.0697084
-0.000649031
0.00698628
-0.02353
0.115425
0.0969048
0.0394455
0.128456
0.0459657
0.102032
-0.146855
0.15276
0.148518
-0.122152
0.170333
0.0661921
0.121366
-0.0786768
-0.0568872
-0.0405858
-0.11053
0.115372
0.0786561
-0.142858
0.0739024
0.171852
0.0260606
0.0219097
-0.117824
0.0781731
0.153227
0.162917
0.14463
-0.163536
0.137675
0.0731234
0.00523647
-0.100185
-0.0166815
-0.0839547
0.0925161
-0.0653337
0.0712839
-0.0655986
0.0596316
-0.0775714
-0.0262586
-0.0141854
0.0342185
-0.121746
0.0587351
-0.138415
0.0639736
-0.157574
-0.134809
-0.0772537
0.0352543
0.0843717
0.0215644
-0.07756
-0.104333
-0.00467159
0.0290614
-0.162195
-0.143013
-0.125367
-0.0840834
-0.112528
0.00136693
0.0749634
-0.130035
-0.00678716
0.11068
-0.129013
0.0692617
-0.151062
0.129143
0.0448607
-0.120194
-0.0629061
-0.0337701
-0.0529545
0.0402715
-0.167744
0.0991003
0.0861849
0.115622
0.00746541
0.0294046
-0.0739143
0.130604
0.0827688
0.0902517
0.110136
0.0435575
0.0541451
-0.0354911
-0.124699
0.0595848
-0.0805027
-0.0852762
0.145239
-0.129674
-0.0149759
0.0635713
-0.00531216
0.0083475
0.130785
-0.0225396
0.0364864
-0.127004
-0.0994184
-0.0881445
0.153723
-0.0566121
0.0774888
-0.108249
0.142575
0.14999
0.0249436
-0.0057886
0.15583
-0.12899
0.00449307
-0.0399489
-0.165756
-0.152182
0.156351
-0.151793
-0.00896904
-0.141178
-0.0658844
0.164005
-0.0329825
0.0770935
-0.0855677
-0.0847124
-0.107446
-0.0359189
0.113167
0.0387437
0.0282486
-0.143415
-0.0824893
-0.0857951
0.074045
0.104999
-0.0140083
0.0336754
-0.155236
-0.0733766
0.0950086
0.147226
-0.16851
0.0144116
-0.0130493
0.0506948
0.108502
-0.0768996
-0.0505725
0.0798908
0.108236
-0.0860744
0.0730748
-0.124482
0.0883464
-0.0563793
-0.0214087
-0.0852915
-0.0591027
-0.0180619
-0.124153
0.00670406
-0.0376868
-0.125298
-0.129551
-0.143771
-0.0921862
-0.129465
0.0551042
0.021487
0.0475859
0.144311
0.0538816
0.10319
0.0246681
0.00393395
-0.045863
0.0760668
-0.0252813
-0.0728038
-0.086095
-0.00738609
0.0399453
-0.0591366
0.0209318
0.00197998
-0.0290922
-0.127885
-0.134912
-0.00799521
0.023011
-0.0179332
-0.0100743
-0.141198
0.0618985
-0.0600912
-0.173681
-0.144853
0.0420496
-0.0269622
0.137138
0.0337601
0.0114051
-0.0398371
0.0577287
0.0724008
0.0971634
-0.164814
0.11314
-0.141767
0.115524
0.0508811
-0.046336
-0.13725
-0.036239
0.155936
-0.0919769
-0.0662869
0.00902249
-0.101685
0.0278924
-0.0756536
-0.0798637
-0.0417206
0.0976823
0.0728876
-0.0496708
0.152005
0.1858
0.142849
-0.0416476
0.0957462
-0.16904
-0.120907
-0.0786043
0.146894
-0.0374052
-0.133396
0.0179565
0.0403099
0.114734
0.096628
0.0197891
0.0345638
-0.0957681
0.142161
0.0426384
-0.113662
-0.0656682
0.16658
-0.0828837
0.0737109
-0.159296
-0.0578162
-0.0977903
0.0842202
0.0107288
-0.0764533
0.0323392
0.189219
0.0494108
0.0610459
-0.0843545
-0.158198
-0.0635795
0.0955253
0.149052
-0.140577
-0.106161
0.114327
0.157325
-0.0530818
-0.162483
0.0217521
0.000787955
0.127611
0.0379113
0.017027
-0.0441297
-0.158743
-0.0572416
-0.0279499
0.102287
0.0498511
-0.0216304
-0.0484376
0.0359777
0.0955022
-0.156686
-0.16137
-0.125235
-0.118844
-0.0184241
-0.0595851
0.10267
-9.24125e-05
-0.0582456
0.101402
-0.122275
0.0161455
0.12794
0.146476
0.0418084
0.115577
-0.0575199
-0.0672498
-0.157045
-0.0141851
-0.055548
-0.121345
0.141552
-0.0806861
0.15923
-0.0325092
-0.0263204
0.190296
-0.146652
-0.0594624
-0.125993
-0.00798482
-0.0578323
-0.0953201
-0.0107014
0.0168023
-0.118701
-0.151024
0.0523374
0.047855
0.155476
0.0381098
-0.153071
0.0884766
0.0358225
-0.0975478
-0.055333
0.042294
0.00667952
-0.0526611
-0.0895454
-0.134771
0.0646342
0.0284135
-0.0775095
-0.132242
-0.1188
-0.0852726
-0.0929055
-0.0107346
0.0308583
-0.0255042
0.00149003
0.000469733
0.0884828
0.0523662
-0.112575
0.0740715
-0.145916
0.156606
-0.112663
0.144268
-0.0456427
-0.139206
-0.118662
-0.0114218
0.0483988
-0.0995746
-0.15269
0.149646
0.146979
-0.13597
-0.10483
0.09104
-0.134349
0.0919938
0.0322484
0.127602
0.139642
-0.0907171
-0.00613037
0.0879774
-0.0388814
0.020143
0.102073
0.0533768
-0.0290434
0.146562
-0.0534277
0.0386261
-0.0424053
-0.0160529
-0.155166
0.0364362
0.0643272
0.0732767
0.00234093
0.00642383
-0.147837
-0.13042
0.0861475
-0.0694318
-0.0432294
0.118689
0.0671773
0.0874254
0.172234
-0.168749
-0.151548
-0.0481759
-0.0471948
0.139939
0.159366
-0.0696983
0.0285882
-0.115328
0.0941668
0.11797
0.170743
0.117225
0.0377431
0.0660453
0.0230479
0.0966262
-0.0106336
-0.0513609
0.080715
0.118873
0.157094
-0.0350779
0.0079411
-0.0780294
0.140215
0.151154
-0.0105401
-0.00664699
-0.169324
-0.165634
0.125288
0.12562
0.0557631
0.0638874
0.106535
-0.0525571
0.145149
0.155947
-0.0597964
-0.00466482
-0.0601627
0.144352
0.126454
0.117022
-0.05191
-0.138223
-0.101424
-0.00532082
-0.12612
-0.00874769
0.0168833
-0.0454987
0.0798072
-0.0919453
-0.0380472
0.00703853
0.176108
0.108703
-0.0880465
-0.120992
0.072043
0.0538408
-0.07263
-0.211802
-0.125492
-0.0132127
0.185596
-0.0490909
0.178732
0.0838716
-0.0635422
-0.00734561
0.0139979
-0.102322
0.00191921
-0.0760654
0.149125
0.09399
0.170181
-0.112339
-0.105996
0.030531
-0.0826252
0.160656
-0.0673986
-0.135923
-0.047383
-0.0323695
-0.176583
-0.144962
-0.14069
-0.147374
0.164722
0.0669494
0.0784364
-0.0578819
0.0109195
-0.0955873
-0.00436978
-0.164551
-0.0273368
0.0904482
-0.0613918
0.073519
0.00878437
0.0868084
0.149409
0.146824
0.125421
-0.162701
0.118327
-0.0972666
-0.127094
-0.0035825
-0.0222027
-0.128734
-0.0650734
-0.0147088
0.0732405
0.0361281
-0.126755
0.138416
-0.0711306
-0.0901639
0.0551281
-0.155947
-0.0245265
-0.0532209
0.0135189
-0.103833
-0.145287
-0.112549
0.00428957
0.0462345
-0.155415
0.193321
-0.0150643
0.173173
-0.130997
-0.162807
0.121557
-0.054775
-0.053317
-0.0753321
0.117031
0.0259307
-0.0358631
0.0614379
-0.0571869
-0.110779
-0.0168164
-0.0704531
-0.119619
-0.102467
-0.0397639
-0.145971
-0.140948
-0.0375302
0.150123
-0.000616502
0.115499
-0.0776819
0.129413
0.168326
0.143031
0.0739014
0.0145856
0.0593743
-0.0271642
0.0172966
0.0208617
-0.0537347
-0.0406719
0.165192
-0.051144
-0.124612
0.00280146
-0.016596
-0.0261341
-0.180461
0.101032
-0.135782
0.0854736
-0.109166
-0.0420465
-0.147209
-0.113689
0.141729
-0.0253854
0.158861
-0.170043
0.00447357
-0.139589
-0.166483
0.182344
0.0182923
-0.161067
0.132026
-0.191044
-0.0914281
0.086989
-0.0378081
-0.0140691
-0.164681
-0.0791609
-0.0166148
-0.0022956
-0.167105
0.107982
-0.0812405
0.0153283
0.150411
-0.115135
-0.00447838
-0.0229296
-0.0487739
0.101064
-0.153077
-0.0968579
-0.178311
0.113699
-0.163355
-0.0758259
-0.0432673
-0.0279472
0.0861408
0.101988
0.0436905
0.158607
-0.0705024
0.0446542
0.128676
0.121788
-0.131618
-0.104052
-0.067519
-0.154016
0.0804944
0.0222898
0.0387748
-0.0876647
-0.1279
-0.00353789
0.00680835
-0.0849515
0.153502
-0.0419265
-0.164436
-0.0479847
-0.191725
-0.00666224
0.103768
-0.1004
-0.0840507
-0.0804558
0.176411
0.152163
0.0362634
-0.067177
0.108024
0.0957172
0.0676401
0.0607099
0.0954537
0.0891298
0.0512411
0.0516657
-0.00634103
-0.144002
0.168437
-0.110234
0.154559
-0.137516
-0.023515
-0.0137924
-0.134044
-0.100419
-0.0475215
-0.0142409
0.124577
-0.149718
0.0457731
-0.034003
0.146039
0.0994301
-0.00608004
0.00154587
-0.00446324
0.0786715
-0.0616075
0.0568082
0.131578
-0.127712
-0.168162
-0.0261715
0.107115
-0.114314
-0.109552
-0.112255
0.0646798
0.152342
0.166326
0.0217876
0.0167369
-0.0458403
-0.119613
0.0775366
0.0792548
0.138722
-0.0169461
-0.0947471
-0.0429571
0.205628
0.0631957
-0.0142281
0.0815691
0.00651238
0.13431
-0.0748337
0.0896874
-0.187048
-0.0934949
0.0351794
-0.0904612
-0.132318
0.0231484
0.00977194
-0.0467589
-0.0205062
0.0141305
0.0685071
0.0164194
-0.161023
-0.0889234
-0.0757886
-0.0244248
-0.165497
-0.119398
0.0961066
-0.07564
-0.147626
0.16801
-0.109733
0.147686
-0.15557
0.13046
0.0425692
-0.0914688
0.0421257
0.180488
0.0235368
0.0340771
-0.136761
0.0202928
-0.0163708
-0.126773
-0.143733
0.0593169
-0.102866
-0.113232
-0.111084
0.0404159
-0.0541557
-0.1694
0.101531
0.0887982
0.061029
-0.0939614
0.163091
0.108076
0.180996
0.145565
0.0618805
0.0266616
0.0984062
0.117544
-0.167359
-0.171539
0.110668
-0.00431277
0.0909939
0.0260495
0.162464
0.0362047
-0.0216565
0.17968
0.0244463
0.128633
0.000636404
0.00577315
0.0736699
-0.167927
-0.111396
0.0310465
-0.15125
-0.0461358
-0.132344
0.172215
-0.0695203
-0.183352
0.181551
0.0956163
0.14716
0.0560025
-0.0471239
0.13458
0.14932
-0.0269427
-0.0894243
-0.125621
0.0229392
0.0945993
-0.0330518
-0.126126
0.0455439
0.0697223
0.14841
-0.0628586
-0.0271332
0.0086766
0.116798
0.116323
0.0480564
-0.107073
0.116698
0.0637186
-0.164755
-0.128788
-0.15218
0.0797702
0.0666774
0.122227
0.0615033
-0.0397874
0.164963
0.127127
-0.0396402
-0.125758
-0.167251
-0.150055
0.010118
0.00761436
0.0913197
-0.0971178
0.0063253
0.0169517
-0.0684035
-0.109032
0.0667936
-0.104495
-0.15669
0.0614673
-0.121095
-0.0774716
0.0105075
0.0338939
-0.163656
-0.0858198
-0.0523973
-0.0913135
0.0680301
-0.0569709
0.0394373
0.184411
0.0749981
0.147872
-0.0203186
0.127941
-0.131283
-0.125435
0.0441262
-0.09906
-0.138937
0.0280311
0.169251
-0.151136
0.0584934
-0.0515505
0.106176
-0.0449292
0.0479282
0.158586
0.167585
0.142456
-0.107947
-0.171245
-0.164274
-0.0370546
0.0344736
0.051267
0.0553459
0.0640781
0.00901013
0.0217618
-0.103029
0.202102
0.155073
0.121935
0.0083806
0.0195291
0.0306428
-0.148489
0.103495
0.119073
0.0126782
0.146761
0.144259
0.0982618
0.0556192
-0.125581
-0.108902
-0.0836482
0.00473144
-0.0599904
-0.0608109
-0.101396
-0.0270671
0.147564
-0.104172
0.07189
-0.0480519
-0.161188
0.135884
0.161731
-0.0215566
0.0830306
-0.126546
0.169097
-0.175429
0.121973
-0.106218
-0.173741
0.00993706
-0.0731751
-0.0642869
0.00820142
-0.0161352
0.00784689
-0.0874032
0.0972807
0.0912124
0.174905
0.0664444
-0.154782
-0.0465662
0.0466378
0.126936
-0.030032
-0.0162299
-0.178651
-0.0263316
0.118195
0.0151071
0.059057
0.114322
0.132371
-0.125321
0.00767261
0.124393
0.14398
-0.146006
-0.0986225
0.0578287
-0.0216026
0.14189
-0.183962
-0.0481911
-0.0469546
0.100631
-0.0114249
0.0408696
-0.119899
-0.0630963
0.141563
0.0820339
0.125347
-0.0752972
0.0667416
-0.000109158
0.156803
-0.101308
-0.117252
-1.63103e-05
0.0742957
0.131856
0.126384
-0.0200958
-0.0604737
0.102573
-0.0629893
-0.110547
0.0850335
0.176767
-0.167336
-0.138719
-0.0858847
0.088895
0.177727
-0.0208215
-0.0435359
0.0316282
-0.140042
0.00631036
0.150964
0.135382
0.221725
0.161006
0.207463
0.0190361
0.132539
-0.134522
0.102694
0.0209444
0.00182365
0.0226396
0.0461716
-0.0995785
-0.136891
-0.14253
-0.0619651
-0.0682751
0.130809
0.00141454
0.123555
0.0543521
-0.154987
0.101372
0.0571958
0.0107255
0.146362
-0.00161259
0.147129
0.0388442
0.00925737
0.107212
0.0801855
0.165529
-0.00750185
0.0593087
-0.110435
-0.0870751
-0.0921969
-0.122071
0.0780591
0.158567
-0.104621
0.175807
-0.0460977
0.0108386
-0.0214184
-0.0188078
-0.0278053
0.0464245
0.196613
-2.58588e-06
0.0507841
-0.085369
0.152614
-0.0831624
-0.109317
-0.15129
-0.175251
0.118509
-0.170859
-0.0530142
-0.0167104
-0.013726
-0.0917964
-0.182998
0.0564466
-0.0728125
-0.127364
-0.0204101
0.0772086
-0.141243
-0.138427
-0.194648
-0.151245
-0.077844
0.142801
0.113958
0.142394
0.0322423
0.128503
0.0376934
-0.0227175
0.0681442
0.0996961
0.0492863
-0.124426
0.134699
-0.150643
0.0191751
0.0649171
-0.14362
0.0824217
-0.165644
-0.0137372
0.107548
0.155019
-0.118579
0.08165
-0.138775
0.050167
-0.0420883
0.00502173
-0.150149
-0.158002
0.0777229
-0.0792868
-0.163105
-0.107987
0.0208011
0.12441
-0.0868531
0.121385
0.146509
0.0757637
-0.10289
-0.0500679
-0.0884307
0.0781954
-0.0337131
-0.0621785
0.100624
-0.0108239
0.0884093
-0.154759
-0.148527
0.0558381
-0.059724
-0.0956354
-0.0486454
-0.0193605
-0.0849894
0.101053
0.0450981
0.0579503
-0.166704
-0.00724772
-0.162791
-0.0390045
-0.129788
-0.0969991
0.137486
0.168802
0.142785
0.0120994
-0.10483
-0.130292
0.0750234
-0.0665452
-0.0194769
-0.164458
-0.0348508
0.0166528
-0.0424296
-0.0584638
0.031781
0.151582
0.104915
-0.118627
-0.041563
-0.038528
0.153517
-0.107018
0.141324
0.153299
-0.0473321
0.00015554
-0.16805
0.146191
-0.172679
0.0902797
0.139533
0.0110341
0.0487196
-0.124374
0.110561
0.119763
0.0795854
0.0689982
0.1357
-0.100562
-0.134572
0.0827595
-0.00680286
-0.0432283
0.108085
0.0106788
-0.113963
0.145858
-0.00993207
-0.0490792
-0.0945959
-0.134371
-0.149592
0.0353978
0.129601
-0.00369228
-0.161358
0.0978382
-0.00285479
-0.0770543
0.0757211
0.0760854
-0.0281554
-0.0335019
0.0773939
-0.00570771
-0.0300116
0.161072
0.0427845
-0.063499
-0.0709278
-0.0772013
0.141567
0.0619272
0.0440596
0.13159
0.0701883
-0.105848
-0.141546
0.00553462
-0.107072
0.16101
0.0905733
0.134729
0.115247
-0.0354332
0.00372454
0.0824784
0.0850119
-0.162792
0.111464
-0.162358
0.119843
0.115864
0.0445245
0.105929
0.14148
-0.0450731
-0.181892
0.0452537
-0.137017
-0.0536064
0.0390537
0.15695
0.0219954
-0.158095
0.103489
-0.0055448
0.0847053
-0.0105064
-0.0174565
-0.00513898
-0.131824
-0.154477
-0.0501605
0.134283
0.154324
-0.144446
-0.0417847
-0.0360969
-0.0551171
0.104563
-0.0363302
-0.105212
0.0811701
-0.0514436
0.00119477
0.0922015
0.154863
-0.142965
0.120799
0.130054
-0.100061
0.117596
0.0076357
0.0585391
0.0308882
-0.155829
-0.0793856
0.00250954
-0.10838
-0.0670131
-0.0975559
-0.105163
-0.121486
-0.0251017
0.163225
-0.109257
-0.0745471
-0.130333
0.113732
0.051264
-0.0738241
0.0982466
0.0917963
-0.146959
-0.0305541
-0.00938931
0.0853893
-0.155297
-0.16867
-0.043555
0.107072
-0.0639144
0.00118374
-0.0542215
0.0333388
0.141263
0.166713
0.162837
0.115087
0.0545818
-0.129085
0.0374552
-0.16983
-0.142708
0.154223
-0.0370651
0.14628
-0.0696988
-0.0785427
-0.0789915
0.111884
0.0915833
0.079164
0.0856513
0.142848
0.0952015
-0.095205
0.089575
-0.05793
0.135406
-0.165335
0.157277
0.126126
0.118598
0.0409076
-0.158941
0.150642
-0.129945
0.0311673
-0.1004
-0.122148
0.0942965
-0.0692905
-0.0089987
-0.0794462
0.0983734
-0.00048378
-0.189845
0.00176052
0.0258799
-0.0846562
-0.0362155
-0.122751
0.118429
0.123468
0.131087
0.151165
-0.168246
0.166747
0.0819913
-0.00639442
-0.17469
-0.0850741
0.0602475
0.172273
0.103716
-0.0568575
0.095961
0.16197
-0.17479
-0.171603
0.162808
-0.0538635
-0.0290139
0.0301877
-0.0420103
0.123959
-0.0747396
0.150191
0.115376
0.0404754
0.0197916
0.100456
-0.101787
-0.150784
-0.121736
-0.0163755
0.0414444
-0.0687032
-0.0436856
-0.0812554
-0.182929
0.0251655
-0.0915263
0.0402106
-0.0168583
0.0356128
0.061441
-0.182929
0.128783
0.0795646
-0.0317696
0.0898848
0.196179
-0.000620901
0.02262
-0.0759302
0.0591555
0.0427369
-0.0429229
0.116908
0.135941
-0.106205
-0.0464789
-0.188328
-0.141565
0.09132
-0.0307658
0.0537856
0.130097
-0.0131322
-0.0224371
0.00920894
0.110243
0.00703531
-0.0990735
0.070649
-0.0369203
-0.0766931
-0.17484
-0.0805031
-0.145483
-0.077147
-0.157096
-0.0299934
-0.0458529
0.0303733
-0.148141
-0.083373
-0.112444
-0.0508552
-0.136119
-0.0283452
-0.107218
0.0196596
-0.0872482
-0.0294837
-0.111877
-0.0847794
0.00668074
-0.165198
-0.160467
0.092149
0.127553
0.21163
-0.130007
-0.0670213
-0.0978608
0.16817
-0.0517034
0.112583
0.0380278
0.0483738
-0.112756
0.0365205
0.145716
0.13191
-0.146577
-0.0841323
0.209444
0.00498357
0.15345
0.138563
-0.0841608
-0.0875693
0.0811369
-0.0342458
-0.0778522
0.099898
0.0437067
-0.124888
0.0932383
0.109483
0.150381
-0.195181
-0.0386968
0.168487
-0.0639546
-0.0243384
-0.022067
-0.0875157
0.0939816
0.130166
0.00616764
0.125814
-0.0344756
-0.174492
0.0149511
0.158539
0.0710465
-0.1697
-0.0503555
-0.123097
-0.129886
-0.169686
-0.0815186
-0.137408
0.127117
-0.118277
-0.0286992
0.123315
0.12121
-0.0405118
0.0698797
-0.107486
0.0249909
0.155089
-0.138399
-0.165244
0.0162541
-0.067938
0.0164139
0.133176
0.0234983
0.0916719
0.104861
0.156948
0.131399
0.115144
0.0983683
0.108423
-0.11032
0.0599501
0.104769
0.0207384
0.0381955
-0.00831237
0.165365
0.111305
-0.00922043
0.0541446
0.0855737
0.14595
0.0480693
-0.00871462
0.104077
-0.0473135
-0.172189
-0.0193421
-0.109352
0.0151098
0.122132
-0.120255
-0.0519026
-0.165392
-0.067868
-0.100099
0.0102115
-0.0217382
-0.016483
0.00721395
0.0483118
-0.116598
0.0804312
-0.123323
0.115553
-0.159582
-0.037459
-0.159497
-0.141252
0.121153
-0.0763116
0.16972
0.00673119
-0.119042
0.0428252
0.0648861
0.0675379
0.194694
-0.101906
0.128092
-0.102819
-0.247371
-0.0349496
-0.0952173
-0.150361
0.0807695
-0.114782
-0.130954
-0.0432459
-0.138827
0.0853186
0.00570916
0.10607
-0.100953
0.0546931
0.164262
0.00121896
-0.142989
-0.0940575
-0.152408
-0.0686781
-0.0090335
-0.00305126
-0.0145447
-0.0320633
0.146649
0.121933
0.0658861
-0.168337
-0.0618449
0.0308558
0.166867
0.0816523
0.118787
0.0234938
0.179022
-0.00487373
0.105446
0.121577
0.0959531
-0.153695
-0.0893188
0.140162
-0.023917
-0.12715
0.0549854
0.140686
0.158757
0.123907
-0.158692
-0.0427872
0.0784425
0.137006
0.0611803
0.0336234
-0.17113
-0.113544
0.161499
0.153887
0.0181132
0.174679
0.0430533
0.129414
-0.0259468
0.149267
0.135389
-0.0457207
-0.161781
0.105431
0.132568
-0.0729779
0.148115
-0.0149634
0.0861654
0.151842
0.018833
0.0502153
-0.119021
0.142277
0.115488
0.0726425
0.0159587
-0.0823653
0.0862341
0.0720924
-0.111541
0.105041
-0.0611132
0.00466693
-0.0802423
0.102346
0.0433022
-0.031145
0.125148
-0.0822329
0.0456341
0.0486617
-0.126773
-0.0644814
-0.0567483
-0.0487907
0.0320576
0.0131947
0.0748327
0.148844
-0.0379187
-0.0567625
0.125067
-0.0437943
0.0553958
0.0775758
-0.00142389
-0.00494959
0.12201
-0.15388
0.0703216
-0.0486282
0.0656898
-0.101321
0.138869
-0.0317374
-0.170272
-0.0783697
-0.159406
0.0726583
0.178268
0.157633
0.1297
-0.123977
-0.00673496
0.00118686
0.022073
0.0395733
0.152551
0.107838
-0.0758948
-0.169187
0.105552
0.0679485
-0.111374
-0.118137
-0.0761015
-0.0298465
-0.124311
-0.100622
0.162915
0.0531932
-0.1412
0.156362
-0.0401084
-0.0847323
0.0436241
-0.0884393
0.0360853
-0.058156
-0.120275
-0.141267
0.0478528
0.041346
-0.0240394
0.177859
0.0247391
-0.0212655
0.0439704
-0.0419954
-0.0913132
0.094844
-0.0275952
-0.0494563
-0.118463
0.0245857
0.0493732
-0.127479
-0.0770332
0.117159
-0.0629064
0.0591884
0.1176
-0.0802553
0.0197051
-0.157183
-0.0275863
-0.0192799
-0.0407022
0.0885489
0.0167093
-0.139888
0.160937
-0.0811113
0.159
-0.0768004
0.0482617
-0.0749483
-0.0913596
0.0611318
-0.166521
0.123062
0.122211
0.0569335
-0.106922
-0.135538
0.182584
0.0573669
-0.12447
0.0854442
0.0896427
0.119414
0.125403
-0.162588
0.114569
0.13394
0.0803445
-0.124718
0.0358094
-0.120739
0.0760606
-0.136103
-0.0780257
-0.174905
-0.0163193
-0.0413776
0.0304497
-0.0543848
0.188411
-0.00804464
0.126112
-0.0718624
0.00521605
-0.194454
-0.149301
-0.0542141
0.118005
0.0260413
0.0449533
-0.109417
-0.103122
0.143122
0.0726437
0.00383714
-0.0762336
-0.167195
-0.136532
0.0329459
0.0894336
-0.115645
-0.00582297
0.109928
-0.127827
-0.0335555
0.0109096
-0.0578334
0.158066
0.0913781
-0.110042
0.0914015
-0.130493
0.0377275
-0.0794651
0.00817804
0.0201558
0.106717
-0.0784323
0.00123427
0.223073
0.193443
0.126706
0.0864134
0.0872
-0.0343153
0.15606
0.149289
-0.0383382
-0.0597156
0.0436533
0.041487
0.03956
-0.150327
-0.128472
0.00105962
0.123637
0.0180672
0.137475
-0.150231
-0.100887
-0.140208
-0.168307
-0.0262157
0.0118124
-0.038296
-0.129221
0.0418837
-0.20394
0.072253
-0.167025
0.141126
0.00198075
-0.0982433
-0.0785433
0.159614
0.0842041
-0.00835498
0.161797
-0.153895
0.0106255
-0.0876851
0.0412293
0.133971
-0.13299
-0.0598292
0.0189688
0.0457557
0.0485433
-0.108465
0.0459604
0.162039
0.0665706
-0.138029
0.015266
-0.0024513
0.141564
0.0622792
-0.0507549
0.00591922
0.0421082
-0.0872632
-0.124747
-0.139768
0.0262065
0.160726
0.169906
-0.14663
0.0156388
0.00673207
0.143118
-0.0530771
-0.0539946
-0.134239
0.156509
-0.064615
-0.110893
-0.149036
0.13636
-0.0240082
0.0831983
-0.142391
-0.125788
-0.0593811
0.0269468
-0.12039
-0.00560534
0.0442308
-0.111316
0.0252917
-0.00384338
-0.0839398
-0.0668126
0.00454169
-0.000745578
0.0622717
0.0153511
-0.129313
-0.0327962
-0.0599454
0.0643197
0.109816
0.168367
0.0870943
-0.0113657
-0.0436442
0.116253
-0.0665918
0.0963702
0.0671475
-0.137261
0.131735
0.0422551
-0.0770256
-0.0275671
-0.0705984
0.153047
-0.0388587
0.0815713
0.156084
-0.081354
0.14477
0.10324
-0.0708827
-0.0758569
0.0615796
0.172203
0.0140426
0.0403349
-0.124458
-0.104317
-0.124183
0.0233513
-0.0846728
0.164553
0.0863995
0.085131
0.025317
-0.0432637
0.0518504
-0.137885
0.17792
-0.118744
-0.0857269
0.017219
0.0160995
0.154898
-0.132987
0.0848869
0.0301529
-0.124873
0.141147
-0.117282
-0.0607057
-0.0913066
-0.162303
-0.149279
0.0241127
-0.0954059
0.0785072
0.0766218
-0.115959
0.152541
-0.0720928
0.000433779
-0.158419
-0.0895443
0.113936
0.0174433
0.0482119
-0.0650144
-0.00308526
-0.034394
-0.157224
0.139344
-0.045939
0.15999
-0.0600697
-0.0973562
-0.0754208
-0.162744
0.120782
-0.149349
-0.0117509
0.0886729
-0.0622001
0.114768
0.0719585
-0.0328258
-0.120563
-0.151795
-0.153078
0.0169216
-0.0819546
0.0554118
0.00477309
-0.0548702
-0.0456564
-0.000187439
-0.0482324
-0.0975497
0.148039
0.000689343
0.0189999
-0.078024
0.0798042
-0.160645
-0.00267099
-0.0621329
-0.147707
-0.0761506
0.0842392
-0.0411114
0.139869
-0.0933742
0.0616125
0.131464
0.161484
-0.131919
0.100196
0.151819
0.117717
0.102521
-0.147611
0.170298
0.0741345
0.0702711
-0.0911098
0.157977
-0.118222
-0.0343771
-0.135637
0.0187857
0.0902199
-0.156627
-0.0574025
-0.0940268
0.126018
0.169147
-0.0541681
-0.0296118
-0.0829737
-0.103775
-0.107407
-0.121281
-0.0189892
-0.0467202
0.0402611
-0.124291
-0.073962
-0.0504515
0.00185341
0.150462
-0.0595709
-0.0934187
-0.0858389
-0.107646
-0.0716538
-0.158965
0.154228
0.0138598
0.168173
0.0394166
0.084526
-0.00279546
-0.0578062
0.125192
-0.0515984
-0.128396
0.0800867
0.137325
0.0900766
-0.0156045
0.0942535
0.04854
-0.092707
0.189032
0.132039
-0.0762584
-0.0684932
-0.166595
-0.0240486
0.0611036
-0.0201273
-0.0122275
0.0676022
-0.00328559
0.144515
-0.127295
0.0404563
0.162703
-0.117379
-0.118354
-0.0807339
-0.108408
-0.0456653
0.0718525
-0.1559
0.124576
-0.104993
-0.0828915
0.00854892
0.170523
-0.0637127
-0.14511
-0.0811688
-0.123574
-0.13336
0.0278219
0.0562175
-0.019305
0.0825883
0.146467
0.0497265
-0.124644
0.025015
-0.00915972
0.032438
-0.0686389
-0.00175049
-0.0243231
-0.0510594
-0.115566
-0.17036
-0.00130973
0.0853134
0.0973381
-0.136407
-0.141922
0.0210179
0.023857
0.151495
0.0701244
-0.169112
-0.0757905
0.161508
-0.0100199
-0.0840999
0.0307798
-0.0875755
0.128126
-0.152699
-0.0864305
0.0969047
0.0998768
-0.142238
-0.136718
-0.0567208
-0.170601
-0.0170617
0.0722701
0.136873
-0.158749
0.0382047
-0.188471
-0.0569246
-0.17178
0.0848394
-0.0542915
0.0327474
0.0432506
0.142423
0.117652
-0.136866
0.0113613
0.0930221
0.0943809
0.0572486
0.206136
-0.0724111
-0.100363
-0.152975
0.0509281
0.00442063
0.013396
0.168534
0.00361314
-0.158161
-0.0283895
-0.188992
0.038559
-0.056896
0.101893
0.0439892
0.12261
-0.105793
0.0902654
0.0487535
0.168209
-0.178954
-0.131223
-0.0879796
-0.153294
-0.112288
0.00441449
0.0993903
0.122986
0.0105462
-0.118285
-0.0907836
0.0319383
0.0475652
-0.0789643
-0.0323514
0.00639995
-0.105512
-0.160808
-0.0400683
0.146292
0.126083
-0.0459802
0.144282
-0.118713
0.1616
0.0536022
-0.0108423
0.0546799
0.0834644
-0.0524867
-0.0309284
-0.136573
0.0154222
-0.015729
-0.0394111
0.103823
-0.137251
-0.0551252
-0.0377148
0.123615
0.0318026
0.0801372
0.0282096
0.103259
-0.148172
-0.0144015
-0.143785
-0.111601
0.053222
0.023529
-0.0294957
0.0227814
0.16795
-0.0989566
0.0692834
-0.167201
-0.0853937
-0.149505
0.0584267
-0.179917
-0.0914886
0.193509
0.161441
-0.0128918
-0.0704415
-0.0857588
0.0679052
-0.0708821
-0.0692905
-0.1457
-0.0379948
-0.0676915
-0.0326363
0.149172
-0.12538
0.143486
-0.0868949
-0.0705475
-0.0147246
0.0292698
-0.0219077
-0.0129692
0.129891
-0.060961
-0.166124
-0.00759804
0.0326148
0.0795669
-0.151496
-0.0958523
0.165644
-0.118908
0.0926278
0.0192389
0.085447
-0.104711
0.103905
-0.00856644
0.025727
0.0211301
0.144598
-0.0883687
0.133535
-0.0674912
0.0967989
-0.129936
-0.108988
-0.129872
-0.144246
0.076181
0.15884
0.0768041
-0.0619785
0.0993295
0.120077
0.105115
0.0306895
-0.155273
0.085306
0.150371
0.0204341
0.0661147
-0.0431181
0.0257123
0.168584
-0.00554282
0.00962603
0.14361
-0.161752
-0.0585057
-0.0153574
0.0465872
-0.0307101
-0.16265
0.0984092
0.127741
0.0591615
-0.172099
0.128213
-0.0142663
-0.171983
0.0435377
-0.145941
-0.085023
0.0725857
-0.111038
-0.020306
0.164309
-0.119211
-0.0719065
0.012691
-0.00279678
-0.0266993
-0.0525549
0.00512279
0.0183067
-0.158243
-0.0692542
0.143087
-0.126489
0.0646068
0.149033
-0.0933297
0.118821
-0.166008
0.145832
-0.153828
-0.0928861
-0.00527122
-0.163306
0.019891
0.016898
-0.142017
0.12084
0.0550945
0.186648
0.157958
-0.0538969
0.0670202
-0.0954971
-0.0240716
-0.137003
0.151228
0.110206
0.034668
0.128455
0.00873919
-0.110804
-0.148675
0.0667694
-0.00858045
-0.0210015
-0.128405
0.117093
0.103666
-0.0820625
-0.0584624
-0.135283
0.154107
-0.0636561
-0.0255465
0.103705
0.0823729
-0.0153602
0.11106
-0.0542976
0.0598413
0.0204959
0.0952369
0.1557
-0.0927505
-0.109666
-0.0639779
-0.114899
-0.0794065
0.0807918
-0.165571
0.161996
0.127309
-0.0168569
-0.140974
0.138651
-0.0511387
0.0224358
-0.153548
-0.128632
0.135386
0.0744394
-0.0252195
0.0670693
-0.122783
-0.0363787
0.00944112
-0.0579215
0.0206664
0.0616919
-0.0872396
0.185785
0.182437
-0.0742758
-0.12747
0.0930886
-0.0638542
0.125986
-0.0684094
0.15907
0.0665091
-0.100915
0.0223366
0.165207
0.0954289
0.150733
0.103072
0.148053
0.0799464
-0.139287
-0.154818
0.174491
-0.0410995
0.107877
0.104401
0.115283
0.0717049
0.0161789
-0.0833722
-0.0518486
0.059139
-0.0243449
-0.011723
0.114125
-0.0757546
0.0995012
-0.044981
0.00804423
0.00616083
0.145072
-0.114861
0.11739
-0.0265331
0.052596
0.125709
-0.156647
-0.0173885
0.0706172
-0.106202
-0.168391
0.0341071
0.116862
0.150898
-0.0211203
0.134662
0.105187
0.0850977
-0.163153
0.0680226
-0.0942703
0.142507
-0.0287779
0.148304
-0.132858
-0.0504974
0.110482
-0.116217
0.0678919
0.0456201
-0.0755797
-0.0115917
0.144356
-0.0887982
0.00896759
-0.15615
-0.0730697
0.0383036
-0.063
-0.138966
-0.116289
0.129277
-0.0933296
-0.0292177
-0.0417933
0.0211426
-0.176911
0.106931
0.0337871
0.0669386
0.120721
0.037895
-0.106282
0.0423879
-0.1508
0.0620788
-0.119146
0.000382433
-0.112474
-0.0259054
-0.13377
0.095119
0.165166
0.122539
-0.134154
0.0272609
-0.0898483
-0.0373682
0.155523
-0.100429
0.0709641
-0.0885552
-0.120984
-0.157845
-0.063491
0.0522091
-0.0140379
0.0957122
8.37231e-05
-0.053868
-0.0166772
-0.0834117
-0.0183208
-0.133573
0.0147882
0.0221642
-0.0139197
-0.0851156
0.0843997
-0.0713478
-0.169869
0.0431058
-0.0767564
-0.0278382
-0.166691
-0.0415444
-0.156923
-0.145625
0.0764943
-0.118756
0.148962
0.195748
0.0898037
0.0476243
-0.0788282
-0.0344995
0.0900458
0.0717004
-0.0493067
-0.0611527
0.170981
0.11473
0.155564
-0.0382472
0.0519653
0.175593
0.206841
0.0420768
-0.065146
-0.0894253
-0.108489
-0.108237
0.0471839
0.0133004
0.168827
0.0932868
-0.137157
-0.0319443
-0.115104
-0.183112
0.0580697
-0.127136
-0.0174608
0.101087
0.0619869
-0.140102
0.0477231
0.0431938
0.139728
-0.0455789
0.0618272
-0.14943
0.0994487
-0.0877538
-0.0585075
0.00392948
-0.149763
-0.115138
0.167305
0.0798957
0.111572
0.128229
0.171381
0.0209231
0.10171
-0.0554293
0.112434
-0.00275874
0.0968473
0.135522
-0.00857732
0.124835
0.11678
0.0862551
-0.131167
-0.135681
0.114654
-0.134295
0.0354677
0.0251688
-0.137916
-0.043061
0.0988892
0.0166463
0.0456097
0.0344284
-0.0855032
0.120441
0.0314216
0.129987
-0.0112487
-0.0631574
0.075364
-0.0472254
-0.0834418
-0.0962318
-0.157632
-0.0948766
0.0314755
0.0428958
-0.0167843
0.168142
0.0964228
-0.0935145
-0.0734439
-0.131716
0.00822664
-0.149432
-0.0247003
0.136954
-0.144961
-0.129692
0.102305
-0.130069
0.0245438
0.0928246
-0.114532
-0.0396879
0.120088
-0.144037
-0.072642
-0.0907691
-0.156939
-0.0730639
-0.0315946
0.0562089
-0.000633511
-0.0546946
0.0207391
-0.00877466
-0.0429296
-0.114094
0.0895914
-0.00785166
-0.0691164
0.13493
-0.155077
-0.0617277
0.0205921
0.176708
-0.0338045
-0.141894
-0.125942
0.0080042
0.0226652
-0.00337753
0.189002
-0.150484
0.164836
-0.155188
0.174623
-0.0450221
-0.0204264
-0.0468243
0.133552
0.148341
-0.177446
-0.161701
-0.0204468
-0.159356
0.142339
0.127225
0.0519857
-0.107135
-0.031813
-0.151586
-0.0281479
-0.0104762
-0.0524093
0.128374
-0.00586053
-0.0154085
0.0837309
0.143702
-0.059388
0.0468511
0.132916
0.094147
-0.00715993
-0.0150628
0.101617
-0.0597478
-0.0127172
0.0921533
0.0372586
0.136129
0.0104717
-0.0398099
-0.00737232
0.143691
-0.00124262
0.0594754
0.111861
-0.167153
-0.0245703
-0.0897558
0.114236
0.148262
-0.0806695
-0.0993498
0.0440459
-0.163804
0.00442512
-0.0402467
0.03687
-0.0589961
0.0430961
0.132203
-0.12346
-0.0404143
-0.0522403
-0.0639949
-0.059083
0.15667
0.121882
-0.139624
0.134048
0.161565
0.104271
-0.167931
-0.0304563
-0.11892
-0.107093
0.148799
0.0137556
0.149926
-0.0983422
0.108254
0.0406001
-0.0635243
0.14141
-0.169054
0.0378562
0.156014
-0.0176881
-0.146902
0.110103
0.105743
0.086735
0.0454887
0.00241775
0.162292
-0.0578558
-0.126118
0.16622
0.163937
0.165942
-0.129446
0.00498982
-0.137878
-0.161439
0.0377516
0.0847127
0.0788831
-0.12136
-0.0906249
0.0180598
-0.142629
0.0400198
-0.128784
0.0784758
0.0992433
-0.0457736
-0.0151584
0.106168
0.198803
0.0528237
0.144509
-0.0138489
-0.117284
-0.056608
0.146592
0.136153
-0.0585208
0.00111864
0.187584
-0.0716287
-0.00782658
0.134473
-0.170142
-0.0942801
0.00714218
0.155332
-0.128508
0.163031
-0.137277
-0.132905
-0.0253212
-0.00406301
-0.105076
-0.166496
0.187346
0.083586
0.109535
0.0326308
0.215923
-0.180379
0.150892
-0.0292247
0.0995085
0.0995741
0.00805333
0.119192
0.0954745
0.0120199
0.00357696
0.167884
-0.134755
-0.0962375
0.040894
-0.102741
0.10914
-0.0386962
-0.0598189
-0.0303573
0.116834
-0.0388519
0.175529
-0.0387704
-0.048639
-0.0591607
-0.110288
0.0996492
0.0669143
0.0802069
0.0622735
-0.134643
0.137047
0.130055
0.0942048
0.0334075
-0.156109
0.163323
-0.136813
-0.0781264
-0.0155848
0.0731413
-0.151546
0.0306135
-0.0924936
-0.0913767
-0.158638
-0.0701271
-0.154002
0.144394
-0.119816
-0.00811563
0.0591957
0.0876074
0.141379
-0.151146
0.00353131
0.091271
0.0830118
0.129281
-0.0116698
-0.0573867
0.0377693
0.0214886
-0.0656229
-0.0156331
0.121744
0.0236224
-0.125763
0.0364955
-0.0896871
0.0983413
-0.0917974
-0.144004
-0.0381199
-0.013033
-0.0228856
-0.165772
0.0952461
0.0661029
0.0013397
0.00234581
-0.0453492
-0.117909
0.0461574
-0.10685
-0.141535
-0.122346
0.0335619
-0.0201119
0.0437517
-0.141499
-0.178586
0.00191185
-0.124786
0.084373
-0.00276697
-0.00423216
-0.123198
-0.0977816
-0.0789953
0.206835
-0.0840939
-0.0116146
0.117578
0.0664435
-0.0282484
-0.100798
-0.0328085
-0.170174
0.0561848
-0.0798965
0.00895787
0.0757042
-0.0184986
0.0356217
0.0942163
0.0164745
0.0372198
-0.126871
-0.0818317
0.0637335
0.158497
-0.0195641
-0.112774
-0.0250755
0.0173328
0.0419627
-0.157627
-0.126947
-0.062897
-0.0669279
0.134115
-0.0131119
-0.0087852
0.0864103
0.0679577
-0.146181
-0.0979804
-0.0139085
-0.122942
0.141275
0.0622545
0.0330264
0.169289
-0.0236719
-0.167768
-0.121998
0.0931327
0.0716293
0.0845104
-0.159175
-0.0733764
0.0155659
-0.158252
0.0113987
0.16259
-0.0890641
-0.0205262
0.154252
-0.0416906
-0.0926361
0.0759772
-0.183154
0.156496
0.0364608
-0.0973868
-0.163235
0.170079
0.166117
-0.124914
0.156847
-0.017926
0.0542777
-0.155159
-0.106362
0.0510105
0.144539
-0.19303
-0.0609174
-0.0465188
-0.0894117
0.0696028
-0.148372
-0.123964
0.159985
0.140435
-0.113244
0.113154
0.175122
-0.144283
-0.129263
-0.0404958
-0.219179
-0.0432082
-0.01514
-0.151397
-0.177308
0.0515669
0.0487408
-0.107956
-0.141944
0.114074
-0.161763
-0.157982
-0.161449
-0.0197995
-0.0782245
-0.0572872
-0.0318819
0.145537
0.0954929
-0.050442
0.0228521
-0.102383
-0.166989
-0.0466295
-0.103742
0.17937
0.0385829
-0.124148
-0.0591367
0.0739227
0.0518977
0.0600888
-0.0486394
0.167211
0.108358
-0.0866097
-0.00547249
0.0605972
0.0951193
0.0409924
-0.127137
-0.0616288
0.01908
0.140012
-0.136416
-0.1605
0.00473122
-0.0356271
-0.0474195
-0.116788
0.182434
-0.127121
-0.165087
-0.00401974
0.100929
0.131359
0.113464
-0.0406819
0.0253458
-0.0529748
-0.00259779
-0.136567
0.117774
0.0937329
-0.00743463
-0.0966861
-0.0827324
0.00621903
-0.0564921
0.0395291
-0.0487879
0.126258
0.0277117
-0.0642752
-0.151503
0.039032
0.0805256
0.153364
0.089501
-0.0380483
-0.0275814
-0.0711199
-0.170015
-0.0343934
0.103712
-0.160881
0.0765841
0.0940215
-0.0869044
-0.0504917
0.146937
-0.132856
0.0518425
-0.128016
0.130277
-0.0195964
-0.141935
-0.0153126
-0.092719
-0.0128574
0.0155445
-0.0648508
0.143787
0.0719831
-0.143957
-0.154968
-0.0946058
-0.0259681
0.0196149
-0.172621
0.00604718
0.125107
0.00686282
0.12805
0.106336
-0.15819
-0.029442
-0.0504954
-0.067133
-0.142633
-0.0633816
-0.089756
-0.078789
0.0170916
0.0668318
0.0735044
0.15923
0.0671658
-0.0386234
0.0581125
0.144849
0.108451
0.169194
0.0627402
0.0942794
-0.0300081
0.0726448
0.147357
0.0483306
-0.102977
0.0182727
0.147328
0.00452957
0.192525
0.0244764
-0.0286552
-0.0146642
0.0850227
-0.0377884
0.065628
-0.063948
-0.0725539
0.146963
-0.154485
0.0189334
-0.125616
-0.141418
-0.133868
-0.0775224
0.122615
0.0696943
-0.00392503
-0.0400106
-0.115554
0.150139
-0.0241527
-0.0313447
-0.118765
-0.0131389
0.127637
-0.0438915
-0.057373
-0.131267
-0.0928511
0.0983789
-0.020754
-0.023314
0.137711
-0.083886
0.0859974
0.024337
-0.00776108
0.0150676
-0.160226
0.149541
0.194519
0.0589911
0.0922761
-0.0672243
0.127465
0.135796
0.103488
0.184066
0.137317
0.134725
-0.0907286
-0.139975
-0.170629
-0.129622
-0.0371474
0.0328853
0.130348
0.159284
0.0443944
0.0946704
0.112388
0.0914703
-0.144946
-0.154555
0.00950892
-0.0116395
-0.0752446
-0.146807
-0.146905
-0.00385612
-0.0915347
0.129564
-0.00602482
-0.118702
0.144845
-0.137003
-0.159187
0.073778
0.0942912
-0.00738127
0.12115
-0.0156351
0.0056133
-0.00938467
0.11488
-0.134705
-0.159508
-0.0813677
-0.103784
0.0806451
0.1289
0.140324
-0.168231
-0.0433386
-0.141777
-0.036549
0.07919
0.0257947
0.0546936
0.107982
-0.0660998
-0.0282213
0.135161
-0.096729
0.109596
0.0711946
-0.00263015
-0.0769469
0.0674196
0.0663813
0.132839
-0.0842755
-0.0809799
0.138211
-0.124103
-0.135591
-0.102395
-0.172637
-0.0170063
0.153253
0.154556
0.0794555
0.0888065
-0.125474
-0.0356884
0.14641
0.0736519
-0.152054
-0.137479
0.0475861
0.00222161
-0.0791516
-0.0104464
0.0790901
-0.00404504
-0.0913192
-0.0322671
-0.138387
0.17362
-0.115822
0.0422999
0.180558
-0.0918724
0.221057
0.149006
-0.157297
0.0888698
0.0374649
0.06577
0.156983
-0.0165936
0.154245
-0.00764521
-0.00097494
0.159214
-0.11841
0.0553961
0.141065
-0.0417779
-0.0759805
-0.156639
0.127814
-0.035584
0.139884
0.164191
-0.151749
0.0861072
0.124928
0.041726
0.0637884
-0.0741861
-0.033007
-0.150511
0.0520782
0.111879
-0.0306782
0.0562251
0.0379053
-0.0147756
-0.167808
0.178047
0.118094
-0.156716
0.145321
-0.168358
-0.139491
0.166637
0.0920664
-0.166025
0.0293264
0.189109
-0.141908
-0.0556358
-0.0514767
-0.0252406
-0.0326907
0.117556
0.0446054
-0.0470051
0.00301928
0.0990082
0.0720789
0.121958
0.159791
-0.132336
0.132854
0.135251
-0.174245
-0.148798
0.150037
0.124526
-0.127748
-0.0612623
0.119178
-0.0477557
-0.0555858
0.00993975
0.10359
0.150407
0.114785
0.144596
-0.164064
0.0407136
0.0946604
0.0759547
-0.159979
-0.149372
0.0911032
-0.00368044
0.153557
0.107802
0.0977703
0.168913
0.115423
0.0675928
0.17622
-0.139455
-0.0325113
0.0558239
0.0234939
-0.0548666
0.111619
0.132934
0.112223
-0.0628641
0.0527803
-0.00792619
0.0677067
-0.070771
-0.037579
-0.00777365
-0.108303
0.11632
-0.157616
0.164436
-0.0690719
0.0642153
-0.163067
-0.0701164
0.164256
-0.0388953
-0.167463
-0.0052238
0.120601
0.0598975
0.105378
0.198017
0.0999421
-0.0666519
0.0836383
-0.0418811
0.00917497
-0.0273175
-0.148399
0.144322
-0.0809788
-0.0819416
0.0842322
-0.0918429
-0.0255016
-0.148375
0.0651416
-0.0623449
0.0747002
0.14452
-0.0574662
0.120174
0.176439
-0.0950237
0.0867756
-0.204979
-0.19883
-0.123488
-0.0565308
0.0135231
0.125399
0.0931748
0.0171109
-0.162709
0.162761
-0.102179
-0.155371
0.0874017
-0.0291522
-0.0636533
0.0641006
-0.00357312
-0.0676975
-0.086421
-0.133775
0.00688972
0.0343932
0.101718
-0.0672953
0.123881
-0.178282
0.109452
0.142832
-0.0511906
0.0538051
-0.145489
-0.0748631
0.178024
-0.153901
-0.0553113
0.0429376
-0.0938159
-0.0151572
-0.0297965
0.152635
0.130672
-0.120349
-0.0565223
0.0801409
0.079069
-0.0912699
-0.178418
-0.0428676
0.126981
-0.00178999
-0.0997851
-0.035801
0.0293378
-0.00127324
-0.0838089
0.135688
0.0060922
-0.0338811
0.0626829
0.0108493
0.169785
-0.0823294
-0.170618
-0.0906669
-0.0266221
-0.143287
0.00998462
-0.0457231
-0.0894999
-0.114498
0.0955372
0.17167
0.150221
0.0381268
-0.0632957
0.000523848
-0.0194934
-0.159122
-0.0510398
0.135393
0.10969
-0.0272505
-0.000945507
0.0223643
0.156795
0.149559
0.0433169
-0.14437
-0.0515623
0.0568633
0.124205
0.139592
-0.170065
0.0357606
0.134728
0.0621306
0.0928391
-0.117548
0.0520035
-0.120419
-0.131285
-0.151388
0.0597037
0.016016
-0.0233335
0.124601
0.0651088
0.0297073
0.0744788
0.12482
0.0168487
-0.162556
0.157849
0.169966
-0.114394
-0.0481746
0.030782
0.0991953
-0.133077
-0.0264569
0.0281029
0.162765
-0.0883763
-0.169131
0.180925
-0.0336079
-0.0742261
-0.102104
0.00209167
-0.115347
-0.0864302
0.115908
-0.0212139
-0.0186385
0.0988723
-0.123518
-0.135975
0.0114446
-0.0703022
-0.0752908
-0.0335193
-0.0462159
0.0919743
-0.0335796
-0.0959569
0.0658659
-0.114304
0.1158
0.0890951
-0.11032
-0.0111552
-0.0670809
-0.0149323
-0.159826
-0.163529
-0.0831966
0.099414
-0.115584
0.151757
-0.0735308
-0.0144856
0.115671
0.0607922
0.0493408
0.129209
-0.144715
0.0940835
0.0105175
0.118852
0.137952
-0.109595
0.0332101
-0.129445
-0.110336
-0.0985151
0.161458
-0.129085
-0.0928251
-0.0510318
0.0834179
0.113237
-0.107592
0.162985
-0.0519954
0.12692
0.119933
-0.106293
-0.114015
-0.0871651
0.169758
-0.15528
-0.126628
0.0695809
-0.136127
0.118958
-0.0303655
-0.0444073
-0.0975801
0.157935
-0.0925433
-0.0174603
0.0397437
-0.0740975
0.0358657
-0.0473858
0.0570039
-0.061029
-0.127621
0.0735178
-0.131347
-0.0851118
0.0530784
-0.157935
0.113365
0.0488738
0.000872556
-0.0885203
0.0903179
-0.137982
-0.146516
0.0366286
-0.0323026
0.0598821
0.167008
-0.029124
0.0355409
0.108686
-0.159786
-0.0379252
0.026936
0.0182444
0.0975326
0.0396402
-0.0432406
0.0515216
0.158133
-0.0450754
0.166463
-0.0464245
0.171789
0.137318
0.0526221
0.0128149
-0.100238
0.165264
0.0140367
-0.0221995
0.1511
0.111748
0.168808
0.133561
-0.11838
-0.0866364
0.156841
-0.0913229
-0.0181802
-0.0770495
-0.082567
0.0978419
-0.0938402
-0.0918315
0.0266409
0.0334404
0.0978386
0.0960365
-0.063273
-0.0114544
-0.00846136
-0.143317
0.0735841
0.132685
0.0965235
-0.170286
-0.0839978
0.150131
0.0615812
-0.0716313
0.185526
0.0373448
-0.115863
-0.00118655
0.0435358
-0.0938817
0.0717099
-0.0968219
0.0119904
-0.109864
0.0285201
-0.0433422
0.0685988
-0.106732
-0.0419035
0.0538551
0.0445476
0.168979
-0.0258028
-0.152337
0.087849
0.172699
0.198225
-0.0970722
-0.130131
0.135271
0.108044
0.145949
0.219663
-0.166945
0.0259444
-0.132604
0.0591949
-0.137539
-0.114341
0.194679
0.0833718
0.0755884
-0.0500578
-0.0477936
0.11976
0.181423
-0.204911
-0.0270002
0.0938057
0.138963
0.159619
-0.15321
0.0375217
0.0291189
-0.0143708
-0.0136646
0.0683854
-0.118373
0.136573
0.103322
-0.0211296
0.0381001
-0.109166
0.0393444
0.0827896
0.165744
0.137251
-0.0388697
-0.121802
0.11946
-0.051935
0.146869
0.132151
-0.0988835
-0.0910342
-0.0807903
-0.0463571
-0.115101
-0.103053
0.16822
0.136213
-0.0756908
-0.10968
-0.000990245
-0.0376444
-0.0112098
-0.136757
-0.162407
-0.0322429
0.0824219
0.164758
-0.135904
-0.0798519
-0.078009
-0.0217719
0.139042
-0.0331283
0.155266
-0.148489
0.0309071
0.0794109
0.111072
-0.0673612
-0.0142731
0.071898
-0.119079
-0.0507967
0.0197957
-0.0768044
0.0235865
0.146324
0.129917
-0.136582
-0.11411
0.02356
0.00374999
-0.0327597
-0.00729924
-0.152957
-0.101759
0.0361463
-0.103445
-0.120361
-0.110608
0.165441
-0.169137
0.232692
0.0887166
-0.103529
0.131535
-0.133547
0.0200842
0.0970042
0.0198202
-0.134287
0.0789383
-0.038077
-0.0168327
0.142921
-0.0728979
-0.0476021
-0.0523119
0.0356127
-0.129735
-0.0999554
0.0803489
-0.000538022
0.0146303
-0.0144365
-0.0755152
0.154667
0.145037
-0.0255963
-0.0595797
-0.0927184
-0.0751409
-0.0789646
0.00601003
0.0936814
0.0797538
0.145602
0.00778912
-0.0995597
0.140502
0.164244
0.110563
-0.118184
-0.146845
-0.0954201
-0.0143567
-0.0341472
-0.176467
-0.0214264
0.156115
0.0966974
0.0323126
0.157895
0.0231907
-0.110141
-0.139377
-0.0510229
0.140877
0.12938
-0.129999
-0.0522125
-0.043324
0.0106848
-0.0453894
-0.0279597
0.033371
0.0179304
0.139769
-0.0108039
0.118796
-0.204108
-0.0412022
-0.12443
-0.0502712
0.051386
-0.000188318
0.152181
-0.168264
0.0633876
-0.0196381
0.148163
0.178672
-0.164528
-0.0419089
0.0722352
-0.127295
0.127523
-0.1106
-0.0488758
0.0782231
0.0431697
0.142578
0.102404
0.0485567
0.204483
-0.00609825
0.0593147
0.0153567
0.117962
0.0326524
0.0639858
-0.161011
0.0499698
-0.174708
-0.111761
0.105847
-0.0512234
-0.122814
-0.140475
-0.115294
-0.0411816
0.151381
-0.0108156
-0.0726546
-0.0226515
-0.151413
0.15916
-0.0402029
-0.109529
0.0651714
-0.1062
0.0556001
0.00717605
-0.145462
0.034887
-0.0202062
0.12311
-0.0176042
0.0587468
-0.140514
-0.106441
0.15003
0.0393255
-0.0985431
-0.128581
-0.0529673
-0.113349
-0.111256
-0.0198665
0.165637
0.0820011
-0.00259995
0.0378605
0.0167085
0.0880925
-0.133919
0.0545344
-0.106579
0.0232153
0.192202
0.162018
-0.0683329
0.12602
0.0140724
0.0467353
-0.085763
-0.0972789
-0.0445295
-0.041832
0.109887
-0.0808671
0.0248807
0.155071
0.157548
0.14697
0.186547
0.124477
0.140553
-0.140615
-0.136312
-0.113956
0.11785
0.163108
0.0712838
0.117493
0.162067
0.0108918
0.0682396
-0.087885
0.122074
-0.0489109
0.136179
-0.136505
0.144424
0.0153756
-0.0290983
0.018602
-0.148974
0.0560772
0.192276
-0.111656
0.21466
0.176168
-0.019258
-0.0662239
0.0491666
-0.0384955
-0.138617
-0.107932
-0.105497
-0.141287
0.167844
0.114218
-0.00139057
0.00278184
0.067672
-0.157071
0.113276
0.108321
-0.101022
0.104332
-0.144987
0.0977881
0.0467813
-0.0594486
-0.116748
-0.0459528
-0.120835
0.0919856
0.0280456
-0.116531
-0.058482
-0.0549026
-0.156381
-0.135105
0.0593344
0.0718325
-0.121255
0.144214
-0.168818
0.0898161
0.12926
-0.137978
0.102113
-0.115994
0.0848476
-0.117
0.0587231
0.00981033
-0.0775003
-0.160684
0.107709
0.121618
0.00210147
-0.0285378
0.0427974
-0.118727
0.105719
-0.0459619
-0.0446055
-0.053521
-0.103953
0.0631107
0.0943956
-0.137592
-0.011405
0.0453939
0.132437
-0.00600259
0.132744
-0.0384999
-0.15265
0.0304758
-0.0614574
0.093376
0.152288
-0.00198192
-0.157525
0.000481679
0.120953
0.167106
-0.105155
-0.158222
-0.0148282
0.0695153
-0.0331395
-0.0732194
-0.0781097
0.168067
-0.119575
0.118567
0.0375479
-0.0602222
-0.147057
0.0420754
0.0591136
0.0571595
0.140562
-0.12602
0.00751383
0.0427825
-0.0687156
-0.165227
-0.00638799
0.0488141
0.156767
0.112536
0.0138721
-0.150726
-0.073606
-0.0704092
0.0459687
0.0645699
0.114134
0.0762759
-0.0527074
-0.03726
0.0784348
0.0769126
0.0668347
-0.0686254
0.172999
0.07067
-0.101505
-0.160003
0.131641
0.0100976
0.0163007
-0.118911
0.035396
-0.0682354
-0.00808397
0.0152842
-0.00905322
0.0979651
-0.0653105
0.0502965
-0.128002
-0.140324
0.106275
0.14694
-0.0923725
0.010056
-0.133634
0.0148105
0.0368918
-0.00554575
-0.0145747
0.102855
0.137871
-0.106797
0.131987
0.0956499
-0.103408
-0.182875
0.0334403
0.0818601
-0.135442
0.0499146
0.084424
-0.144729
-0.0757422
-0.129677
0.010867
0.110497
-0.0211568
0.060317
-0.175328
0.168576
0.021211
0.145068
-0.0970279
-0.0405478
0.126919
0.152653
0.0494396
0.0774473
-0.0944937
0.100244
0.139592
0.0167227
-0.111654
-0.12491
-0.135204
0.0725142
0.156063
-0.12348
-0.130519
0.0352856
-0.0420389
0.142635
0.109887
0.121572
-0.0527703
0.0354555
0.0598331
0.147997
-0.0123203
0.0492926
-0.145205
0.0109668
0.0447099
0.169074
-0.0714597
0.0302609
-0.14797
0.0369849
-0.00344681
-0.0540675
-0.125529
0.0187717
0.0638628
0.154519
-0.160272
0.0372506
0.0447843
0.145618
-0.0701694
-0.0567263
-0.0149876
0.037942
0.0725016
-0.157283
0.0430057
-0.0910981
-0.148542
0.0509162
0.0198287
0.100037
-0.0698437
-0.135527
-0.107413
0.0876723
0.178098
-0.0591628
-0.0637574
0.142239
0.0329208
0.141204
0.139729
-0.0278958
-0.0823145
0.0792609
-0.0289966
0.146772
0.0428693
-0.00320184
0.0201248
-0.13415
-0.0930369
0.110711
0.117372
-0.0411732
0.15784
0.0365819
-0.142921
-0.0574962
-0.0285613
-0.0646859
-0.0138035
-0.159534
0.105343
0.0509476
-0.101644
-0.101022
0.149243
-0.0231168
-0.0571343
-0.14082
-0.0856923
0.168
-0.0693282
-0.130377
-0.0853312
0.128478
0.0903084
0.124707
-0.169482
0.0442566
0.102679
-0.0861406
-0.0834248
0.10444
0.0990108
-0.0224559
-0.141178
0.106595
-0.135968
0.0134354
0.114107
0.165105
0.0897822
0.0647597
-0.0101454
-0.0817039
-0.00703736
0.112689
0.117135
0.0671064
0.00604788
-0.0229498
-0.158837
-0.135229
-0.0854536
-0.0532404
0.0634172
0.189973
-0.0985828
-0.0367482
-0.145658
-0.105945
0.0850184
-0.0770474
-0.0541024
-0.155453
0.0968049
-0.111609
-0.0922982
0.137401
-0.05167
-0.166439
-0.158127
0.0784312
0.109003
0.130139
-0.0969405
0.00220497
0.061921
-0.161171
-0.169935
0.0100799
-0.0775598
0.0286948
-0.0543879
-0.0282184
0.159525
-0.0685429
-0.0624608
-0.0225098
-0.0137731
-0.188974
-0.114729
0.0655275
0.0284996
-0.0166122
0.183223
0.0354017
0.125098
-0.0188042
0.00638163
-0.13953
0.0470337
-0.0220845
-0.162392
0.0624229
0.0883525
-0.0689203
-0.0775078
0.150016
-0.179073
-0.0271064
0.174176
0.0376878
-0.013378
0.130929
0.140091
-0.00738071
-0.0520135
0.0611859
0.0615491
0.0977427
-0.0134247
-0.0803163
0.120146
-0.146759
-0.0856513
-0.150077
-0.0828747
0.098218
0.0247264
-0.00936314
-0.169908
0.117356
0.0733315
0.0873524
-0.023797
0.109997
-0.144614
-0.0867943
0.101992
0.188646
0.109367
-0.01057
-0.0256543
0.0189195
-0.110987
0.0620753
-0.022455
0.0739658
0.0382818
0.120945
-0.131281
0.0677355
-0.0695423
0.0327733
0.0396462
-0.0978743
-0.0515553
0.174807
0.0999079
-0.0499301
0.0259557
-0.11698
-0.157874
0.111012
-0.0411126
-0.0411968
-0.0298039
-0.1094
0.050524
-0.0166056
-0.133771
-0.00774809
-0.0539988
0.0678191
0.16969
0.154942
-0.163349
-0.0126761
-0.0223334
0.128002
-0.0924792
-0.156341
-0.113538
0.121722
0.0128687
0.002473
-0.167489
0.0390252
-0.120686
-0.179261
-0.108528
0.0826104
-0.162252
-0.0739794
0.119946
0.121709
0.050741
0.104221
-0.0105211
0.179401
0.0494181
-0.0435479
-0.122116
0.09133
0.0781444
-0.0880167
0.0534048
0.127786
0.161882
0.14117
-0.121304
-0.0621252
0.0155158
-0.046052
0.0224267
0.0142467
-0.126486
0.122474
0.066216
-0.0544977
0.0927628
-0.116027
0.0940403
-0.0780934
-0.0990425
0.0933731
0.0096915
0.0730864
0.0106071
0.00988465
-0.140325
-0.119587
0.00265501
0.154549
0.107441
-0.0384209
-0.0983868
-0.142202
-0.108505
-0.036859
0.0329047
-0.00864043
-0.0254776
0.0536169
0.174123
-0.000592431
0.00551833
0.143583
0.0676229
-0.146671
0.0185073
0.135521
-0.121765
0.114024
0.159675
-0.0550736
0.142844
-0.111999
0.0129386
-0.0812532
-0.00832069
-0.127346
-0.153675
0.0117373
0.0374657
0.178012
0.0403944
-0.118644
-0.0688298
0.0867322
-0.0994926
-0.0912924
0.0161357
-0.135794
-0.107336
-0.100128
0.0527411
-0.110527
0.0370327
0.182483
0.0505973
-0.175439
0.0123607
0.0302401
0.0152585
-0.0824415
0.101458
-0.0200536
-0.11866
-0.127953
-0.122515
-0.00669523
-0.000399932
0.0886846
-0.11412
0.000601505
-0.148238
0.0956922
0.0975719
-0.0227009
-0.0751437
0.0287411
-0.0597878
-0.102459
0.113714
-0.169063
-0.0712321
-0.0711054
0.0389121
-0.0661837
-0.163811
0.132671
0.0988431
-0.0317258
-0.0781722
0.116331
0.11296
-0.134168
-0.136398
0.0141981
0.0429057
-0.13443
0.161756
0.073597
0.129117
0.0560303
-0.0216833
-0.162055
-0.193654
-0.0159175
0.00172225
-0.0466819
-0.011031
0.102206
0.15745
-0.124765
0.181978
0.110799
0.154445
0.151957
0.0692655
0.0444223
0.149876
-0.0932413
-0.030665
-0.00653416
-0.101566
-0.037024
-0.114103
0.0862362
0.0484127
0.0183342
-0.030247
0.0591112
-0.125912
0.134313
-0.0427708
-0.0896612
0.117146
0.0970271
-0.132232
-0.16198
-0.0140115
0.172404
0.135485
0.0920091
0.0174992
-0.0268337
0.0826701
-0.121495
0.0477892
0.149402
-0.0196569
0.0559802
-0.0623215
0.167981
0.0897168
0.0162057
-0.0696161
0.0661363
0.10782
0.126779
-0.080994
0.117591
-0.124237
0.103788
0.0426152
0.123668
-0.00633904
-0.110896
0.168271
-0.0665532
-0.181985
0.0210907
-0.0637152
-0.102397
0.0759755
-0.129426
0.144817
0.00796845
-0.0419755
0.151054
0.0288073
0.0899221
0.146822
0.150892
-0.15781
-0.071245
0.0890118
-0.0302712
0.116982
0.0522029
0.0144227
-0.0036384
-0.0387713
-0.0159016
-0.14004
-0.172503
0.110479
-0.111408
-0.147966
-0.122422
-0.0657063
0.146795
-0.0556942
0.0238159
-0.192932
-0.172465
0.00972901
0.144015
0.00435025
-0.0342737
0.163489
-0.0168592
0.0308603
-0.00627355
-0.055627
0.0143268
0.160807
0.158344
-0.0561928
0.0259353
0.0132276
0.123525
0.0378344
0.147068
0.13313
-0.118114
0.019018
-0.0117885
0.000722971
-0.0343975
0.0297496
0.147235
0.0790197
0.0102184
-0.0339895
-0.130991
-0.0835217
0.0557054
-0.151889
-0.186432
0.148592
-0.0509959
-0.0603319
0.140279
-0.10489
-0.142342
-0.105464
-0.188677
-0.0680279
0.0263073
-0.0123629
-0.115547
-0.0898674
-0.0546775
0.0420631
-0.127237
0.138098
0.0982811
-0.104818
0.0973651
-0.160616
-0.0153623
-0.107095
-0.0291886
-0.057223
0.165617
0.102414
-0.0177032
-0.119976
-0.0424264
-0.0666115
0.0849107
-0.0218592
-0.101932
0.155205
0.142249
0.028329
0.168306
0.0546018
-0.0221762
-0.0670847
0.054587
0.153278
0.0392057
0.109927
-0.096146
0.0338938
0.0797653
0.137281
-0.164335
-0.0997273
0.0996302
-0.0107855
0.155655
-0.0280791
-0.161075
0.158185
0.0586436
-0.127504
-0.163075
-0.117321
0.115389
-0.0316694
0.00507659
0.098995
-0.0393157
0.106515
0.094498
-0.159088
0.0617511
0.113852
0.0484577
0.0239776
0.164064
-0.113208
-0.174483
-0.141905
0.0043098
-0.158254
-0.0330601
-0.156914
-0.0447803
-0.165521
-0.107428
0.011728
0.0393581
-0.0757421
-0.114169
0.0309364
0.122092
0.120103
0.0801505
0.105578
0.179225
0.0260961
0.0278866
0.0734941
-0.0322436
0.0746158
0.105782
-0.114216
-0.123368
0.191264
0.171246
-0.0349155
-0.0418728
0.0147544
0.0112245
0.0149506
-0.0636271
-0.143776
-0.00280103
-0.0560744
0.11712
0.0320599
0.153459
0.14609
-0.1067
0.0168524
-0.0199585
-0.111461
-0.124813
0.0140121
0.0514061
-0.161409
-0.0299004
0.104671
-0.134338
0.0852679
0.0457378
-0.124852
-0.113108
-0.0323006
-0.155742
0.00379836
0.151382
0.0885034
0.126488
-0.110111
0.0337609
0.00515064
0.113742
-0.0646167
-0.0628585
0.0789196
-0.0186958
0.00594296
0.159754
0.0633559
0.0796551
-0.0108034
-0.141992
-0.129059
-0.0672785
0.00477845
0.112987
-0.00479216
-0.107848
-0.0474635
0.165376
-0.000634238
0.0501876
0.0198452
0.0824344
-0.00396946
0.148329
-0.146028
0.0667632
-0.0684031
0.0788029
-0.0629458
-0.03757
0.0812437
-0.0679986
0.0558632
-0.134998
-0.00336595
0.0664942
0.159295
-0.0197683
-0.111247
-0.12308
0.117395
-0.102522
0.0101959
-0.145387
0.061939
0.00131315
0.0624152
-0.0902659
0.0738822
0.000594674
0.150214
-0.0945036
-0.176993
0.090715
0.138947
0.0721933
-0.131597
0.0484309
-0.0974252
0.0224451
0.0734979
0.105819
-0.0948601
-0.0358684
0.0698056
-0.110225
0.0107219
-0.0344801
0.105837
-0.145499
0.0264523
0.0214785
0.076719
-0.114243
-0.121818
0.0152357
0.0213512
0.170165
0.0798785
-0.163798
0.0140518
0.109698
0.136528
0.168582
-0.00129758
0.026978
0.00103632
0.014726
-0.132372
-0.0636674
-0.0338873
-0.151952
-0.00587353
-0.139487
0.0675095
0.063905
-0.144285
0.114438
0.171243
0.0347528
0.110099
0.0661376
0.0196968
0.110041
0.068596
-0.162254
0.144013
-0.139977
-0.0209934
-0.103554
0.00722872
0.0292271
-0.126811
-0.103334
-0.115959
-0.0154937
0.0475982
-0.102587
-0.10268
0.00345561
-0.128235
-0.0377656
0.108434
0.106367
0.0917758
-0.134372
0.0989039
0.0453917
0.0094573
-0.111586
0.100901
0.0737222
-0.0967803
0.12068
-0.0544594
-0.0202209
-0.145835
-0.0990648
0.0972052
-0.163659
0.165857
0.141239
-0.0697356
0.121457
0.166903
0.144393
-0.0172239
-0.055926
-0.0141573
-0.0270077
0.0437872
0.173115
0.125248
0.0687467
-0.102981
-0.15255
0.172671
-0.0853222
0.0788213
-0.0827436
-0.127636
-0.073091
0.117057
-0.10722
-0.135022
0.188195
0.104989
0.0589505
0.106927
-0.133657
0.143762
-0.129973
-0.0822857
0.020047
-0.0199918
0.0440366
-0.0776249
-0.0484487
0.0257046
0.0778868
-0.0455005
-0.0417343
-0.0639948
-0.103133
-0.1744
0.134999
-0.0522075
-0.0386344
-0.166605
-0.117149
-0.170099
0.163559
-0.0805748
0.0590019
0.152705
-0.114024
0.111542
0.0248345
-0.14236
0.106798
0.107808
0.0192513
0.00704242
-0.138987
0.116608
-0.0428148
0.0519809
-0.104889
0.0293588
0.0829809
-0.0337798
-0.118413
-0.0559271
-0.00875375
-0.00368347
0.0836411
0.00130605
-0.0493803
-0.0565489
-0.116179
0.146093
-0.113097
0.0611769
-0.0180132
0.0192872
0.0598711
0.055195
0.156426
0.07955
-0.0991348
-0.0932928
0.0831241
-0.0968706
-0.0142368
-0.0884516
0.167256
-0.117671
-0.155935
0.180257
0.0509551
-0.0941663
0.0396734
0.16134
-0.042566
0.107528
-0.017267
-0.0827294
-0.0574752
-0.0575709
-0.15813
-0.160512
-0.0770987
-0.0408269
0.127543
-0.0238337
-0.0672094
-0.0737957
0.168635
-0.103707
0.0395709
0.0183847
0.142085
0.132032
-0.178744
0.0878951
0.0620125
-0.050885
-0.14284
0.0640269
0.0204552
-0.018491
0.00376642
0.0450784
-0.0677176
-0.00956389
0.00707329
0.0549553
-0.0946473
0.133927
-0.050504
0.158795
-0.0876358
-0.107706
-0.101829
0.133381
-0.00121224
0.149242
-0.155487
0.146023
-0.135865
0.0594862
0.0145173
-0.117596
0.125075
0.0382206
0.128007
-0.0493385
0.115499
0.109854
-0.20139
-0.0923554
0.0251449
-0.102878
-0.0571745
-0.107216
-0.0175793
0.0297129
-0.0101503
0.107237
0.192834
0.165936
0.0579305
-0.0640134
-0.0850052
0.124112
-0.125117
-0.12148
-0.0390271
-0.0277081
0.0332268
0.00976791
0.0961861
-0.17041
-0.0916952
0.167277
0.0523884
-0.19163
-0.032033
-0.015427
0.0753074
0.0927939
0.102453
0.125855
0.00137924
-0.153881
0.0660969
0.00654191
0.0480822
-0.0753108
-0.118902
0.012158
-0.106796
0.101116
-0.168491
-0.163156
-0.0482961
0.0290991
0.125879
0.133164
0.0785925
-0.0803027
-0.114812
-0.0677653
-0.0208048
-0.127372
0.0731752
-0.146267
-0.112908
-0.167056
0.0492103
0.164668
0.129428
0.158158
0.153538
-0.0136603
-0.0207403
0.0237986
0.149595
-0.0367694
-0.0544161
-0.0467883
-0.0215676
-0.034399
0.030799
-0.141054
-0.0219716
0.157517
0.0718705
-0.000214291
0.0368586
0.187926
-0.023962
0.180123
-0.0576262
-0.109388
-0.0968227
0.0228482
0.00279132
0.12825
-0.0121488
-0.170166
-0.167811
-0.0621724
0.0102217
0.0478681
-0.165488
0.0225164
0.173733
0.0307308
-0.109451
-0.138394
0.0401693
0.117658
0.0148398
-0.0669232
0.0368937
0.0674035
-0.093605
-0.0078229
-0.0422185
-0.162456
-0.112771
-0.168208
-0.118905
-0.104644
-0.00558446
0.00973528
0.155262
0.042882
-0.0187806
-0.0759227
-0.152594
-0.0754877
-0.0518202
0.0295374
-0.0942164
0.147746
0.117912
0.169524
0.0723761
-0.111742
-0.0539199
-0.165071
0.156622
0.0903872
-0.16848
-0.0144393
-0.0817929
-0.0987602
-0.0809618
0.0212279
-0.115912
0.132661
-0.152636
0.117654
-0.0934592
0.175901
0.0894589
-0.172381
0.0185587
0.129589
0.0956647
-0.130999
0.120239
0.0390803
-0.0324878
0.111089
-0.0823253
-0.0954559
0.0817787
-0.054121
0.161625
-0.079155
-0.0900599
0.0473268
-0.125683
-0.0606511
0.0133031
0.0697815
-0.0229509
-0.131109
0.0308683
-0.0798141
-0.148259
-0.0287031
-0.127866
-0.00865572
-0.00773227
0.0268955
-0.135457
0.165532
0.0975676
0.0053122
-0.000664649
0.0166141
0.0435997
-0.070018
-0.0680234
-0.0402417
-0.127693
0.0182826
-0.0258838
0.136888
0.154694
-0.017099
0.148819
0.122963
0.0413772
0.123229
0.0102598
0.0329496
-0.147807
-0.099772
-0.131222
0.023809
0.0908609
0.00415684
-0.0890996
-0.173198
-0.159752
-0.110414
0.0818386
-0.0513577
0.122085
0.184557
-0.021341
0.0243814
0.154598
-0.168111
0.0635641
0.110583
0.200524
-0.0987741
-0.117145
-0.149144
-0.167666
0.143142
-0.104076
-0.051762
0.0155816
0.106875
0.0705994
0.0691653
-0.143072
-0.118309
0.0704396
0.0631494
0.169862
0.05571
0.0123417
-0.0528086
0.113836
-0.140155
0.106231
0.0905202
-0.160644
0.00580596
-0.0278863
0.146652
-0.0271146
-0.0446143
0.00320092
-0.146878
0.0890688
0.127985
-0.124641
0.114711
-0.146922
0.0147019
-0.0566449
-0.0217812
0.169933
0.169925
0.0765293
0.0498917
0.0885301
0.158827
0.0723595
-0.0668048
-0.14126
-0.0528423
-0.164791
-0.113849
0.165208
-0.102005
0.0730256
0.0515791
0.138308
0.122384
-0.111139
-0.00658421
0.0997954
-0.144604
0.0265179
-0.019497
-0.108687
0.00915405
-0.129545
0.104883
0.000193787
0.00126089
0.0682495
-0.0725166
0.125675
-0.0904443
-0.0733208
-0.0221589
-0.115628
0.0341501
-0.0381632
-0.142959
0.122167
-0.119911
-0.0110925
-0.113772
-0.132409
0.076772
-0.0984358
0.148239
0.162306
-0.112472
-0.109699
-0.120729
0.0028032
-0.131988
0.12368
0.0753183
-0.123652
0.0264388
-0.125102
-0.0171083
-0.0680753
0.126871
-0.0517887
-0.128938
0.083296
0.0392827
-0.176982
0.139142
0.103923
0.167119
0.161397
-0.0442208
0.0410443
0.107489
0.055875
-0.126462
0.0980351
0.101195
0.0762921
-0.0749304
-0.137111
-0.0376972
-0.0643475
-0.12953
0.0992886
-0.0658807
0.0159848
0.0451424
0.115127
-0.0857165
-0.0499919
-0.0489116
-0.0983586
0.0117155
0.195901
-0.0648954
0.165686
0.15717
-0.0358371
0.169537
-0.131431
-0.0211997
-0.0196408
0.0428578
-0.0848822
-0.0206634
-0.0467952
-0.166669
0.144956
-0.100762
0.0222152
-0.061116
0.0117008
0.0474927
0.0470511
-0.125004
-0.14829
-0.150179
-0.0216318
-0.106221
0.122154
0.185561
-0.0340038
-0.0620658
-0.0373146
0.0454726
-0.142117
0.0803082
0.0489701
0.168865
-0.123245
-0.0155678
-0.123026
-0.00299224
0.17499
-0.125798
0.169836
-0.00772351
-0.0788736
0.0351914
-0.164497
-0.131278
0.0957264
0.0746702
0.17131
-0.0590328
-0.00264827
0.0144688
0.0672669
0.119374
0.00593199
-0.161865
-0.0641197
0.0201629
0.0577718
0.0112269
0.000231219
0.037594
-0.1505
0.105777
-0.0749864
0.0268628
-0.0671435
-0.169489
0.0450315
0.0280468
-0.0593799
0.126752
0.140341
-0.102095
0.14086
0.113655
-0.167117
-0.114362
-0.119243
0.145686
-0.0381671
-0.147181
0.0478141
-0.0444049
0.0838623
-0.0569075
0.00655961
-0.0600673
-0.0629967
0.057021
-0.0738973
-0.0558419
-0.0833381
-0.0246239
0.107003
-0.142987
-0.00595973
0.00416537
-0.0103721
-0.130494
-0.0927511
0.0739664
0.137786
-0.186618
0.0217076
0.00335546
0.10285
-0.145512
-0.0331092
-0.140426
-0.0376296
0.188502
0.104977
-0.079613
-0.0717057
0.141062
-0.094419
-0.0441526
0.151146
-0.0703696
-0.0623908
-0.034226
-0.118136
0.151769
0.134455
-0.0332423
-0.0343768
-0.0780067
