HDF5 "./output/Output_Keras/lenet_weights.hdf5" {
GROUP "/" {
   ATTRIBUTE "backend" {
      DATATYPE  H5T_STRING {
         STRSIZE H5T_VARIABLE;
         STRPAD H5T_STR_NULLTERM;
         CSET H5T_CSET_ASCII;
         CTYPE H5T_C_S1;
      }
      DATASPACE  SCALAR
      DATA {
      (0): "tensorflow"
      }
   }
   ATTRIBUTE "keras_version" {
      DATATYPE  H5T_STRING {
         STRSIZE H5T_VARIABLE;
         STRPAD H5T_STR_NULLTERM;
         CSET H5T_CSET_ASCII;
         CTYPE H5T_C_S1;
      }
      DATASPACE  SCALAR
      DATA {
      (0): "2.2.4"
      }
   }
   ATTRIBUTE "layer_names" {
      DATATYPE  H5T_STRING {
         STRSIZE 16;
         STRPAD H5T_STR_NULLPAD;
         CSET H5T_CSET_ASCII;
         CTYPE H5T_C_S1;
      }
      DATASPACE  SIMPLE { ( 14 ) / ( 14 ) }
      DATA {
      (0): "zero_padding2d_1", "conv2d_1\000\000\000\000\000\000\000\000",
      (2): "activation_1\000\000\000\000", "max_pooling2d_1\000",
      (4): "conv2d_2\000\000\000\000\000\000\000\000",
      (5): "activation_2\000\000\000\000", "max_pooling2d_2\000",
      (7): "flatten_1\000\000\000\000\000\000\000",
      (8): "dense_1\000\000\000\000\000\000\000\000\000",
      (9): "activation_3\000\000\000\000",
      (10): "dense_2\000\000\000\000\000\000\000\000\000",
      (11): "activation_4\000\000\000\000",
      (12): "dense_3\000\000\000\000\000\000\000\000\000",
      (13): "activation_5\000\000\000\000"
      }
   }
   GROUP "activation_1" {
      ATTRIBUTE "weight_names" {
         DATATYPE  H5T_IEEE_F64LE
         DATASPACE  SIMPLE { ( 0 ) / ( 0 ) }
         DATA {
         }
      }
   }
   GROUP "activation_2" {
      ATTRIBUTE "weight_names" {
         DATATYPE  H5T_IEEE_F64LE
         DATASPACE  SIMPLE { ( 0 ) / ( 0 ) }
         DATA {
         }
      }
   }
   GROUP "activation_3" {
      ATTRIBUTE "weight_names" {
         DATATYPE  H5T_IEEE_F64LE
         DATASPACE  SIMPLE { ( 0 ) / ( 0 ) }
         DATA {
         }
      }
   }
   GROUP "activation_4" {
      ATTRIBUTE "weight_names" {
         DATATYPE  H5T_IEEE_F64LE
         DATASPACE  SIMPLE { ( 0 ) / ( 0 ) }
         DATA {
         }
      }
   }
   GROUP "activation_5" {
      ATTRIBUTE "weight_names" {
         DATATYPE  H5T_IEEE_F64LE
         DATASPACE  SIMPLE { ( 0 ) / ( 0 ) }
         DATA {
         }
      }
   }
   GROUP "conv2d_1" {
      ATTRIBUTE "weight_names" {
         DATATYPE  H5T_STRING {
            STRSIZE 17;
            STRPAD H5T_STR_NULLPAD;
            CSET H5T_CSET_ASCII;
            CTYPE H5T_C_S1;
         }
         DATASPACE  SIMPLE { ( 2 ) / ( 2 ) }
         DATA {
         (0): "conv2d_1/kernel:0", "conv2d_1/bias:0\000\000"
         }
      }
      GROUP "conv2d_1" {
         DATASET "bias:0" {
            DATATYPE  H5T_IEEE_F32LE
            DATASPACE  SIMPLE { ( 6 ) / ( 6 ) }
            DATA {
            (0): 0.00898796, 0.0761198, -0.0147848, -0.0201447, 0.0349664,
            (5): 0.0786912
            }
         }
         DATASET "kernel:0" {
            DATATYPE  H5T_IEEE_F32LE
            DATASPACE  SIMPLE { ( 5, 5, 1, 6 ) / ( 5, 5, 1, 6 ) }
            DATA {
            (0,0,0,0): 0.240354, -0.0972524, 0.121727, 0.227085, 0.347672,
            (0,0,0,5): 0.211541,
            (0,1,0,0): 0.470921, -0.16434, 0.23555, 0.155185, 0.296026,
            (0,1,0,5): 0.238882,
            (0,2,0,0): 0.39975, -0.258915, 0.15842, 0.0301356, -0.101065,
            (0,2,0,5): 0.601303,
            (0,3,0,0): 0.314567, 0.063656, -0.176915, -0.19331, 0.138169,
            (0,3,0,5): 0.569121,
            (0,4,0,0): -0.0295088, 0.0768589, -0.0678602, -0.166016,
            (0,4,0,4): 0.220044, 0.443903,
            (1,0,0,0): 0.521348, 0.0627109, 0.226785, 0.0761666, 0.179389,
            (1,0,0,5): 0.484893,
            (1,1,0,0): 0.489534, -0.15633, 0.019403, 0.331007, -0.00428793,
            (1,1,0,5): 0.469147,
            (1,2,0,0): 0.389761, -0.278879, -0.085806, 0.0252637, -0.0948982,
            (1,2,0,5): 0.688172,
            (1,3,0,0): 0.154778, -0.00268214, -0.156129, -0.160823, 0.16257,
            (1,3,0,5): 0.774281,
            (1,4,0,0): 0.107363, -0.159729, -0.00421795, -0.19888, 0.197879,
            (1,4,0,5): 0.529589,
            (2,0,0,0): 0.366311, 0.0482924, 0.13719, 0.342959, -0.0323427,
            (2,0,0,5): 0.115506,
            (2,1,0,0): 0.352792, 0.140278, 0.0715239, 0.287028, 0.14174,
            (2,1,0,5): 0.39977,
            (2,2,0,0): 0.438229, 0.179803, -0.168308, -0.0859452, -0.145042,
            (2,2,0,5): 0.478685,
            (2,3,0,0): 0.1325, -0.0907567, 0.00103133, -0.115683, 0.232313,
            (2,3,0,5): 0.260692,
            (2,4,0,0): 0.0458013, 0.121622, -0.235533, -0.183771, 0.228644,
            (2,4,0,5): 0.143158,
            (3,0,0,0): 0.0361362, 0.118365, 0.220651, 0.137361, 0.100752,
            (3,0,0,5): -0.0542304,
            (3,1,0,0): 0.247245, 0.196892, 0.289108, 0.226408, -0.0983959,
            (3,1,0,5): 0.0411344,
            (3,2,0,0): 0.0838767, 0.0471945, -0.153647, -0.1492, 0.00999925,
            (3,2,0,5): 0.07604,
            (3,3,0,0): 0.207335, -0.0627027, -0.0763184, -0.0781296,
            (3,3,0,4): -0.193876, -0.125451,
            (3,4,0,0): 0.191784, 0.128199, -0.227149, -0.0611973, -0.0734773,
            (3,4,0,5): 0.198422,
            (4,0,0,0): -0.10778, 0.0547132, 0.229561, 0.137359, 0.0331539,
            (4,0,0,5): -0.256601,
            (4,1,0,0): 0.155324, 0.277328, 0.176069, 0.0803458, 0.154013,
            (4,1,0,5): -0.320342,
            (4,2,0,0): -0.118847, 0.316975, 0.0505996, -0.117855, -0.224508,
            (4,2,0,5): -0.00434145,
            (4,3,0,0): -0.152651, -0.0648673, -0.0681691, -0.120136,
            (4,3,0,4): -0.137227, -0.199462,
            (4,4,0,0): -0.0247357, 0.0170933, 0.0970656, -0.038006,
            (4,4,0,4): -0.0293465, -0.149479
            }
         }
      }
   }
   GROUP "conv2d_2" {
      ATTRIBUTE "weight_names" {
         DATATYPE  H5T_STRING {
            STRSIZE 17;
            STRPAD H5T_STR_NULLPAD;
            CSET H5T_CSET_ASCII;
            CTYPE H5T_C_S1;
         }
         DATASPACE  SIMPLE { ( 2 ) / ( 2 ) }
         DATA {
         (0): "conv2d_2/kernel:0", "conv2d_2/bias:0\000\000"
         }
      }
      GROUP "conv2d_2" {
         DATASET "bias:0" {
            DATATYPE  H5T_IEEE_F32LE
            DATASPACE  SIMPLE { ( 16 ) / ( 16 ) }
            DATA {
            (0): 0.00473564, -0.000151541, 0.045757, 0.0108148, -0.0332738,
            (5): 0.0800577, -0.0125601, 0.0429264, 0.00579609, 0.00834937,
            (10): 0.00356025, 0.0425244, 0.0227917, 0.0264721, -0.0143068,
            (15): 0.00427361
            }
         }
         DATASET "kernel:0" {
            DATATYPE  H5T_IEEE_F32LE
            DATASPACE  SIMPLE { ( 5, 5, 6, 16 ) / ( 5, 5, 6, 16 ) }
            DATA {
            (0,0,0,0): -0.107294, 0.0629189, 0.0479259, -0.0808759,
            (0,0,0,4): -0.00884734, -0.0919508, 0.0805886, 0.0221324,
            (0,0,0,8): -0.062558, 0.00795721, -0.0493066, -0.00525316,
            (0,0,0,12): -0.0568583, -0.0109713, 0.143759, 0.0680877,
            (0,0,1,0): 0.0065531, 0.0280962, 0.0570743, -0.104464,
            (0,0,1,4): -0.000236615, 0.078546, 0.109414, 0.074899, 0.0518171,
            (0,0,1,9): 0.0771286, -0.039648, 0.0240392, 0.108526, -0.0309911,
            (0,0,1,14): 0.027695, -0.094288,
            (0,0,2,0): -0.0878206, 0.0716946, 0.0701795, -0.0686428,
            (0,0,2,4): -0.116936, -0.0600468, 0.0884268, -0.115519, 0.140226,
            (0,0,2,9): 0.0656554, 0.019635, 0.0566961, 0.0927148, -0.095488,
            (0,0,2,14): -0.0167839, -0.0489859,
            (0,0,3,0): -0.109364, 0.0976064, -0.0687722, 0.065033, -0.114729,
            (0,0,3,5): -0.0997111, 0.0993024, -0.0594401, -0.0987511,
            (0,0,3,9): 0.0801976, -0.0717755, -0.0325063, -0.0647645,
            (0,0,3,13): -0.001568, -0.0132999, -0.0530724,
            (0,0,4,0): -0.061038, -0.0412372, 0.0505841, -0.0227283,
            (0,0,4,4): 0.0728167, 0.00335334, 0.107157, 0.0663282,
            (0,0,4,8): -0.0449614, 0.0487071, -0.0176279, -0.0708038,
            (0,0,4,12): -0.00646905, 0.0131525, -0.0990244, 0.0629441,
            (0,0,5,0): -0.0624818, -0.0315895, 0.0969418, 0.0772461,
            (0,0,5,4): -0.0262097, -0.0541849, -0.0449733, 0.107806,
            (0,0,5,8): -0.128786, -0.043835, 0.0288376, -0.0867078, 0.117631,
            (0,0,5,13): -0.18979, 0.165395, 0.103652,
            (0,1,0,0): 0.00627096, -0.105488, 0.0531136, -0.0104743,
            (0,1,0,4): 0.0414876, 0.122339, -0.00158508, 0.118628, -0.197881,
            (0,1,0,9): 0.106792, -0.0180849, -0.0524891, -0.109766,
            (0,1,0,13): -0.0367673, 0.054776, -0.00179176,
            (0,1,1,0): -0.0338932, 0.0597529, 0.0738923, -0.0405771,
            (0,1,1,4): 0.00858272, 0.0759638, -0.0330415, -0.00571768,
            (0,1,1,8): -0.0602427, -0.0348637, 0.0988113, -0.0579749,
            (0,1,1,12): 0.0511349, 0.0511746, 0.0278491, -0.0810055,
            (0,1,2,0): -0.0145715, -0.0177872, -0.0808238, 0.00928286,
            (0,1,2,4): -0.0225312, 0.0579317, 0.0326667, 0.0251493,
            (0,1,2,8): 0.00931651, -0.0831577, 0.0113538, 0.0489779,
            (0,1,2,12): 0.0976754, -0.126465, -0.0350194, 0.0297018,
            (0,1,3,0): 0.0640274, -0.0925106, -0.0596097, 0.0810624,
            (0,1,3,4): 0.0495285, -0.0250557, -0.0314631, 0.0871881,
            (0,1,3,8): 0.0567194, -0.078897, -0.0880189, -0.0139922,
            (0,1,3,12): 0.0709586, -0.0396667, 0.0473768, 0.0230306,
            (0,1,4,0): 0.0735779, -0.0959431, 0.127976, 0.0200108,
            (0,1,4,4): -0.0248575, -0.0209226, -0.0341819, 0.0800076,
            (0,1,4,8): 0.0387783, 0.0482939, 0.111914, 0.0540366, -0.0725392,
            (0,1,4,13): -0.0420512, 0.0107598, -0.0305798,
            (0,1,5,0): -0.0155155, 0.0476023, 0.190464, 0.00637166, 0.062345,
            (0,1,5,5): 0.0820252, -0.0784732, 0.0586924, -0.0932636,
            (0,1,5,9): -0.0221704, -0.0435064, 0.0395303, 0.0593816,
            (0,1,5,13): -0.153577, 0.0428093, 0.000356185,
            (0,2,0,0): 0.0671266, 0.041774, 0.0264848, -0.106786, -0.0324447,
            (0,2,0,5): 0.0892273, 0.0123713, 0.183117, -0.0733766,
            (0,2,0,9): -0.0212148, 0.085571, -0.0965781, -0.0355893,
            (0,2,0,13): 0.131492, 0.000669364, 0.0175192,
            (0,2,1,0): 0.0729549, -0.116223, 0.0348874, 0.0670827,
            (0,2,1,4): -0.0278364, 0.0162835, -0.103312, -0.0561202,
            (0,2,1,8): 0.0836014, 0.083623, 0.138313, 0.0450558, -0.106542,
            (0,2,1,13): -0.0438896, 0.101692, -0.0481933,
            (0,2,2,0): -0.0102331, 0.0524991, -0.0673127, -0.00922483,
            (0,2,2,4): 0.0144927, -0.0574098, -0.0310793, 0.0743807,
            (0,2,2,8): 0.0238097, 0.0280381, -0.0525339, -0.0319542,
            (0,2,2,12): 0.0637779, 0.0867834, 0.0434464, 0.101418,
            (0,2,3,0): -0.0470255, -0.0783915, 0.052313, -0.0310918,
            (0,2,3,4): -0.0184404, -0.0327521, 0.052386, 0.139845,
            (0,2,3,8): -0.0992838, 0.145801, -0.102047, 0.0229737, -0.101177,
            (0,2,3,13): 0.10146, -0.0372282, -0.0666824,
            (0,2,4,0): -0.0288953, 0.0544024, 0.104254, 0.0292816, 0.0316045,
            (0,2,4,5): 0.0619099, 0.0139394, 0.0752427, 0.0654503,
            (0,2,4,9): -0.00102562, 0.0169322, 0.00700467, -0.0510703,
            (0,2,4,13): 0.0778695, -0.0678039, 0.0899862,
            (0,2,5,0): 0.0411416, -0.0532289, 0.167279, 0.00611063,
            (0,2,5,4): 0.0813955, 0.0176745, 0.0211132, 0.126378, 0.0410422,
            (0,2,5,9): -0.0803113, 0.0216973, -0.104168, 0.03894, 0.068962,
            (0,2,5,14): 0.0720552, 0.0252366,
            (0,3,0,0): 0.0560608, 0.102999, 0.137246, -0.0219788, -0.108895,
            (0,3,0,5): 0.0569158, 0.0239798, 0.0284828, 0.0174324, 0.0438556,
            (0,3,0,10): 0.0491933, -0.079839, -0.0339683, 0.144699,
            (0,3,0,14): 0.0819842, 0.0195399,
            (0,3,1,0): -0.102292, -0.118049, 0.0580077, -0.0635258,
            (0,3,1,4): -0.0233967, -0.0179933, 0.061461, 0.0380995,
            (0,3,1,8): -0.0235989, 0.120743, 0.11068, 0.0121418, -0.095067,
            (0,3,1,13): 0.0806632, 0.0898322, 0.0315076,
            (0,3,2,0): -0.0527521, -0.0566679, 0.0277067, 0.0165953,
            (0,3,2,4): -0.00887705, -0.0267649, 0.0387031, 0.132833,
            (0,3,2,8): -0.104113, 0.116761, 0.110535, -0.0293271, -0.0582476,
            (0,3,2,13): 0.189602, 0.0883117, -0.0460461,
            (0,3,3,0): -0.074976, -0.0988413, -0.000598074, -0.103774,
            (0,3,3,4): -0.16249, 0.0109824, -0.120353, 0.0917067,
            (0,3,3,8): -0.00249807, 0.0592026, -0.0778728, 0.0456788,
            (0,3,3,12): 0.0697882, 0.222926, 0.0416758, -0.00283719,
            (0,3,4,0): -0.0588141, 0.0799741, 0.06706, -0.0676232, -0.040016,
            (0,3,4,5): -0.0776662, 0.0643923, 0.0708286, -0.0204747,
            (0,3,4,9): 0.0378506, -0.0187742, 0.0740467, 0.049172, 0.036926,
            (0,3,4,14): -0.00591829, 0.104759,
            (0,3,5,0): 0.0663722, -0.0209675, 0.128104, -0.0249138,
            (0,3,5,4): 0.0621566, -0.0285815, 0.0714977, -0.0229617,
            (0,3,5,8): 0.131881, -0.129888, 0.0600675, -0.0983807,
            (0,3,5,12): -0.00392734, 0.207006, 0.0523226, 0.0531656,
            (0,4,0,0): 0.0276159, 0.0751152, 0.0421486, 0.0567021,
            (0,4,0,4): -0.00159055, -0.108196, -0.0184149, -0.0849394,
            (0,4,0,8): 0.147418, 0.0264525, 0.109267, -0.0144231, 0.0651075,
            (0,4,0,13): 0.0959275, -0.0565914, -0.0677069,
            (0,4,1,0): -0.0505187, -0.00357853, -0.0402206, -0.0172406,
            (0,4,1,4): 0.024705, 0.0878553, 0.00828484, -0.054226,
            (0,4,1,8): 0.00549976, 0.0149468, 0.134333, 0.0602647, 0.0820836,
            (0,4,1,13): -0.123622, 0.100948, -0.0249457,
            (0,4,2,0): -0.0578242, -0.100175, 0.0725138, 0.0481493,
            (0,4,2,4): -0.0510745, 0.112927, -0.0666721, -0.0377922,
            (0,4,2,8): -0.0108174, -0.0261436, 0.00746503, -0.0580044,
            (0,4,2,12): -0.0335341, 0.131837, 0.0452231, -0.0318649,
            (0,4,3,0): 0.0126167, -0.011612, -0.0856427, 0.0454863,
            (0,4,3,4): -0.0173049, 0.0234572, -0.0269546, -0.0735404,
            (0,4,3,8): -0.00801192, -0.0664164, -0.0127708, -0.0642613,
            (0,4,3,12): -0.0480044, 0.156028, 0.111864, 0.00257093,
            (0,4,4,0): -0.0949855, 0.0600677, -0.0381899, 0.0697971,
            (0,4,4,4): 0.0230684, 0.0879427, -0.0839739, 0.109594,
            (0,4,4,8): -0.0469696, 0.0346517, 0.106311, 0.062638, -0.106037,
            (0,4,4,13): -0.0382733, -0.00206886, -0.00462834,
            (0,4,5,0): 0.0194702, -0.0769889, 0.0875396, -0.120698,
            (0,4,5,4): -0.0177625, 0.0202424, -0.0780278, 0.0447107,
            (0,4,5,8): 0.228812, 0.00779097, -0.073906, -0.0780049,
            (0,4,5,12): -0.111048, 0.0645303, 0.0840466, -0.108443,
            (1,0,0,0): 0.0640706, 0.0231998, -0.0931754, 0.000778969,
            (1,0,0,4): -0.0229809, 0.00337972, -0.0180701, -0.0678268,
            (1,0,0,8): 0.143207, 0.0875627, 0.0315753, 0.0832932, -0.061168,
            (1,0,0,13): -0.0497871, 0.090523, -0.117251,
            (1,0,1,0): -0.0653513, -0.104545, 0.102788, -0.117707,
            (1,0,1,4): -0.0161225, 0.0864515, 0.0388949, -0.0276849,
            (1,0,1,8): 0.0828979, 0.018251, 0.0417344, -0.0971467,
            (1,0,1,12): -0.0242039, 0.0257855, -0.051409, 0.0370596,
            (1,0,2,0): 0.0460409, 0.053944, 0.0349016, 0.0183007, 0.0253278,
            (1,0,2,5): -0.116616, 0.0789855, 0.0803621, -0.0341697,
            (1,0,2,9): 0.0425798, -0.121725, -0.0274334, 0.126772,
            (1,0,2,13): 0.00262303, 0.102121, 0.107774,
            (1,0,3,0): -0.0685291, -0.0916383, 0.0707991, 0.0771273,
            (1,0,3,4): 0.0035872, 0.0388553, -0.0284074, 0.0814751,
            (1,0,3,8): -0.0417177, 0.0409342, -0.117863, -0.092623,
            (1,0,3,12): -0.0592482, 0.0875678, -0.0404808, 0.116017,
            (1,0,4,0): -0.0129856, -0.0549913, 0.0169604, -0.0859624,
            (1,0,4,4): 0.0154255, 0.0961381, -0.0616353, -0.0018946,
            (1,0,4,8): -0.0416185, -0.058229, -0.0754744, 0.00561069,
            (1,0,4,12): 0.0813584, -0.0313404, 0.0302011, 0.0928585,
            (1,0,5,0): 0.13328, -0.0952758, -0.11535, -0.0294804, 0.00196395,
            (1,0,5,5): 0.0708029, -0.104691, 0.00636673, 0.084397,
            (1,0,5,9): -0.0856933, 0.144803, 0.0738749, -0.0414451,
            (1,0,5,13): -0.308202, 0.22003, -0.0282464,
            (1,1,0,0): 0.127343, -0.141333, -0.0876306, 0.0222279, -0.129707,
            (1,1,0,5): 0.159554, -0.0105335, 0.0577518, 0.0353116,
            (1,1,0,9): -0.0718566, 0.0107257, -0.0184184, 0.0341697,
            (1,1,0,13): -0.0922311, 0.151432, 0.0306833,
            (1,1,1,0): -0.0564656, -0.0195917, 0.0292841, -0.0497213,
            (1,1,1,4): -0.00304048, 0.0330768, -0.0071852, -0.0252779,
            (1,1,1,8): -0.0162505, -0.0685007, 0.0476988, 0.0404484,
            (1,1,1,12): 0.0273119, 0.0555654, -0.111737, 0.0747813,
            (1,1,2,0): 0.098824, -0.102343, -0.000769275, -0.0450032,
            (1,1,2,4): -0.0287848, -0.0164173, -0.0164641, 0.0719128,
            (1,1,2,8): -0.0498114, -0.0902818, -0.00756423, 0.0436719,
            (1,1,2,12): 0.0107144, 0.0198226, 0.0662118, 0.00700008,
            (1,1,3,0): 0.0829733, -0.0197326, -0.0475422, -0.0777195,
            (1,1,3,4): 0.0340464, -0.0403097, 0.0179036, 0.00772728,
            (1,1,3,8): -0.0145478, -0.0686337, 0.0665839, -0.047747,
            (1,1,3,12): 0.063436, 0.0325959, -0.0752761, -0.0792457,
            (1,1,4,0): -0.0393615, 0.000678565, -0.062531, -0.016532,
            (1,1,4,4): -0.000675253, 0.133258, 0.0455096, 0.0531738,
            (1,1,4,8): 0.0941913, -0.006896, 0.0934211, -0.0294801,
            (1,1,4,12): -0.000468301, -0.122202, 0.0765668, 0.0499017,
            (1,1,5,0): 0.0258829, -0.0909999, -0.0554785, -0.0462564,
            (1,1,5,4): -0.227765, 0.159492, -0.076151, 0.193708, -0.0190982,
            (1,1,5,9): 0.0260141, 0.024008, 0.0983718, -0.0562373,
            (1,1,5,13): -0.0929532, 0.161269, 0.0375229,
            (1,2,0,0): 0.0606117, -0.0329431, 0.0295166, 0.0772445,
            (1,2,0,4): -0.205478, 0.206719, -0.110431, 0.135837, -0.14953,
            (1,2,0,9): 0.1207, -0.0365353, 0.0791956, -0.0136418, 0.170397,
            (1,2,0,14): 0.081781, -0.02658,
            (1,2,1,0): 0.054302, 0.0724694, -0.00489309, -0.0246741,
            (1,2,1,4): 0.111623, 0.00726147, -0.0283886, 0.0359184, 0.121634,
            (1,2,1,9): 0.102883, 0.0945569, -0.0580705, 0.0182701, 0.0176839,
            (1,2,1,14): -0.0424865, 0.0389261,
            (1,2,2,0): -0.0680525, 0.0712668, -0.0916743, 0.0191149,
            (1,2,2,4): -0.0800591, -0.0846888, -0.0281956, 0.127442,
            (1,2,2,8): 0.0276664, 0.0132638, 0.0588218, -0.0521905,
            (1,2,2,12): 0.0284001, -0.00862406, 0.0306471, 0.0726341,
            (1,2,3,0): -0.091335, -0.106447, -0.0783787, 0.0393685,
            (1,2,3,4): -0.0235653, 0.0472462, -0.0868175, 0.0678236,
            (1,2,3,8): 0.0490514, -0.0101861, 0.100406, -0.000692415,
            (1,2,3,12): -0.00640044, 0.0885819, -0.102365, 0.0202925,
            (1,2,4,0): 0.0735644, -0.0510366, -0.0717698, 0.00231365,
            (1,2,4,4): -0.0448762, 0.162903, 0.050455, 0.13313, -0.116856,
            (1,2,4,9): -0.0177106, 0.127378, -0.0650582, 0.00795777,
            (1,2,4,13): 0.0567358, 0.0437876, 0.0827823,
            (1,2,5,0): -0.0503049, -0.181603, -0.0288415, 0.0781976,
            (1,2,5,4): -0.256123, 0.285714, -0.0162425, 0.144516, -0.0576846,
            (1,2,5,9): -0.00552858, 0.159054, 0.0372242, -0.0107524, 0.19246,
            (1,2,5,14): 0.111628, 0.0856917,
            (1,3,0,0): -0.096376, -0.130045, 0.0549243, -0.099936, -0.144632,
            (1,3,0,5): 0.0701708, -0.0685453, 0.0952187, 0.0433754,
            (1,3,0,9): 0.00897324, 0.163531, 0.121304, 0.0746328, 0.241744,
            (1,3,0,14): 0.0413819, 0.0251141,
            (1,3,1,0): 0.0818068, -0.0119772, 0.0273534, 0.0387427, 0.129594,
            (1,3,1,5): -0.0023217, 0.0668055, -0.0100443, -0.0653418,
            (1,3,1,9): 0.0171014, -0.0185428, 0.0947849, 0.0387134,
            (1,3,1,13): -0.0946004, 0.0347013, -0.0168271,
            (1,3,2,0): -0.0563432, -0.076495, -0.003867, -0.0329116,
            (1,3,2,4): -0.0531229, -0.0148065, -0.0924021, 0.119433,
            (1,3,2,8): 0.0960781, 0.0312907, 0.110261, 0.0425518, -0.0785492,
            (1,3,2,13): 0.109432, 0.113489, -0.0256602,
            (1,3,3,0): -0.0560777, 0.0356166, -0.00648288, -0.0928493,
            (1,3,3,4): -0.145288, -0.0478467, 0.0533217, 0.134301, -0.117524,
            (1,3,3,9): 0.0592848, 0.117328, 0.094639, -0.049933, 0.179893,
            (1,3,3,14): 0.00654959, 0.0696829,
            (1,3,4,0): -0.0742597, -0.0188361, 0.0826053, 0.0291876,
            (1,3,4,4): 0.0151182, 0.00646771, -0.0970427, 0.0861814,
            (1,3,4,8): -0.0576068, 0.0173383, -0.0120435, -0.0352115,
            (1,3,4,12): -0.0181017, 0.00398652, 0.106487, 0.015572,
            (1,3,5,0): 0.0739321, -0.141211, 0.201239, -0.0282926, -0.102121,
            (1,3,5,5): 0.224768, -0.178332, -0.02836, -0.0399403, -0.0673493,
            (1,3,5,10): 0.0361662, -0.050517, -0.020184, -0.0731169,
            (1,3,5,14): -0.0341974, 0.000177149,
            (1,4,0,0): -0.121537, 0.0654907, 0.139159, -0.0707199, -0.116154,
            (1,4,0,5): 0.222551, -0.0796068, -0.00968805, -0.109123,
            (1,4,0,9): -0.045563, 0.0287816, -0.0468194, 0.0695856,
            (1,4,0,13): 0.0151579, -0.0848727, -0.109801,
            (1,4,1,0): -0.0644366, 0.029511, 0.0472179, 0.0817057,
            (1,4,1,4): -0.0166202, 0.0238531, 0.00354209, -0.0601675,
            (1,4,1,8): 0.030096, -0.0959929, 0.0604838, 0.0152941, 0.017814,
            (1,4,1,13): -0.0953742, 0.0615593, -0.0422173,
            (1,4,2,0): -0.116654, 0.027859, 0.0488543, -0.00234899,
            (1,4,2,4): -0.0323689, -0.0171387, 0.00981364, 0.0399146,
            (1,4,2,8): -0.0937571, 0.076697, 0.137453, 0.0347995, 0.0214477,
            (1,4,2,13): 0.120865, -0.0726242, -0.0352257,
            (1,4,3,0): 0.0201437, 0.0822031, 0.0290422, 0.0370909, -0.135721,
            (1,4,3,5): 0.0158265, 0.0392531, 0.0429667, 0.0453739, 0.0221471,
            (1,4,3,10): 0.087765, 0.0591851, 0.0125154, -0.0641412,
            (1,4,3,14): 0.0400943, -0.12367,
            (1,4,4,0): -0.0356176, -0.0806496, -0.0183673, -0.000513662,
            (1,4,4,4): -0.0442405, 0.10955, 0.027554, 0.0207797, 0.0460781,
            (1,4,4,9): -0.037266, 0.119942, -0.0434314, -0.012277,
            (1,4,4,13): -0.0224288, -0.0448039, -0.0535703,
            (1,4,5,0): -0.064597, 0.00567703, 0.183374, -0.0054549,
            (1,4,5,4): -0.0561736, 0.319534, -0.035544, -0.0567037,
            (1,4,5,8): -0.0734857, 0.00538242, -0.0169201, -0.0989084,
            (1,4,5,12): -0.0550269, -0.196174, -0.0972667, -0.100113,
            (2,0,0,0): 0.0275149, -0.0711019, -0.0431748, -0.0377471,
            (2,0,0,4): 0.113569, 0.0192001, 0.096259, 0.0230123, 0.00342518,
            (2,0,0,9): -0.0293714, 0.0630881, 0.0879968, 0.0893939,
            (2,0,0,13): -0.198889, 0.117254, -0.0837696,
            (2,0,1,0): 0.00653162, 0.0543957, -0.0663022, -0.0111751,
            (2,0,1,4): -0.0249005, -0.0943266, 0.0551308, -0.0243407,
            (2,0,1,8): -0.0888629, 0.00219352, 0.076476, -0.0351438,
            (2,0,1,12): -0.00573875, 0.0494081, 0.00901672, 0.00456984,
            (2,0,2,0): -0.00912816, 0.0607188, 0.0295048, -0.038477,
            (2,0,2,4): -0.0267434, 0.0609651, 0.0404709, 0.049585,
            (2,0,2,8): -0.0872823, -0.0836598, -0.0626744, -0.0640437,
            (2,0,2,12): 0.0198965, -0.109531, 0.0847168, 0.0111111,
            (2,0,3,0): 0.0317149, -0.0321582, 0.0902651, -0.0337628,
            (2,0,3,4): 0.0290696, 0.080956, 0.083267, -0.0354127, -0.0043654,
            (2,0,3,9): -0.0956092, 0.0496497, -0.0543497, 0.0419015,
            (2,0,3,13): 0.0251466, 0.058859, 0.0794732,
            (2,0,4,0): 0.088962, -0.0709168, 0.00938488, -0.0799035,
            (2,0,4,4): 0.0377247, -0.0677989, -0.00688751, -0.0510445,
            (2,0,4,8): 0.122514, -0.0851366, 0.011024, 0.0188717, -0.0269504,
            (2,0,4,13): 0.0526812, -0.0200537, -0.0177747,
            (2,0,5,0): 0.165983, 0.023751, -0.0420398, -0.136572, -0.0400156,
            (2,0,5,5): 0.185952, -0.0171478, -0.0525154, 0.18548,
            (2,0,5,9): -0.00744085, 0.113873, 0.0198867, 0.199627, -0.19944,
            (2,0,5,14): 0.0286738, -0.132795,
            (2,1,0,0): 0.158805, -0.0981374, -0.144911, -0.130129, 0.134972,
            (2,1,0,5): 0.104657, 0.111412, 0.134371, 0.028836, -0.0254159,
            (2,1,0,10): -0.0446548, -0.068705, 0.122617, 0.0580237, 0.115012,
            (2,1,0,15): -0.0612217,
            (2,1,1,0): -0.0595537, -0.00912909, -0.0811463, 0.0601985,
            (2,1,1,4): 0.0529396, -0.0351965, -0.0247618, 0.0209175,
            (2,1,1,8): -0.0215314, -0.0995579, 0.0900014, -0.0252857,
            (2,1,1,12): -0.0357972, -0.0221676, 0.00897375, -0.0512952,
            (2,1,2,0): -0.0852307, -0.113215, 0.062972, -0.02413, 0.0562955,
            (2,1,2,5): 0.0976406, 0.0588656, 0.0555448, -0.0914393,
            (2,1,2,9): -0.0262452, -0.00628017, 0.00171305, 0.016302,
            (2,1,2,13): -0.0926232, 0.0296659, 0.00652295,
            (2,1,3,0): 0.0614061, -0.0208577, 0.0837552, 0.0772596,
            (2,1,3,4): -0.0629552, 0.0326064, 0.0930514, -0.0648053,
            (2,1,3,8): -0.0860256, 0.0331702, -0.0110801, -0.0258219,
            (2,1,3,12): -0.00793297, -0.0456825, 0.121364, 0.0922777,
            (2,1,4,0): -0.0321332, -0.099534, 0.0285877, -0.110557,
            (2,1,4,4): 0.0360336, 0.119099, 0.0202595, 0.0731227, 0.0322467,
            (2,1,4,9): -0.0605548, 0.12019, -0.0225378, 0.0912223, -0.073638,
            (2,1,4,14): 0.0632627, 0.0998355,
            (2,1,5,0): -0.0595951, -0.0743725, -0.189966, -0.00718198,
            (2,1,5,4): 0.0937606, 0.187715, 0.126241, 0.00750343, 0.0895129,
            (2,1,5,9): 0.00906652, -0.0116528, 0.0828771, 0.196968,
            (2,1,5,13): 0.0902301, 0.0575828, 0.00800427,
            (2,2,0,0): 0.0709673, -0.0391654, -0.0250216, -0.0542082,
            (2,2,0,4): 0.0274077, 0.0315919, 0.0841808, 0.0829923, 0.0690685,
            (2,2,0,9): 0.150185, -0.0895411, 0.0501077, 0.0853377, 0.149976,
            (2,2,0,14): -0.0396905, -0.0574547,
            (2,2,1,0): -0.056472, -0.0316272, -0.0885615, 0.0747871, 0.16675,
            (2,2,1,5): 0.0202418, -0.0371207, 0.0961228, -0.0306025,
            (2,2,1,9): -0.00633058, 0.0323629, -0.113597, 0.0519314,
            (2,2,1,13): -0.026179, 0.0929169, 0.00865188,
            (2,2,2,0): 0.115128, -0.0503615, -0.00760535, -0.0563892,
            (2,2,2,4): -0.0786917, 0.00908304, -0.0108506, 0.115215,
            (2,2,2,8): -0.00731549, 0.136465, -0.10648, 0.0984563, -0.113757,
            (2,2,2,13): -0.0430475, -0.0339265, -0.0103474,
            (2,2,3,0): 0.0749287, 0.0928129, -0.107007, -0.0802407,
            (2,2,3,4): -0.129055, -0.00263842, 0.062133, 0.00150429,
            (2,2,3,8): -0.0520024, 0.107087, 0.0460092, -0.0935792,
            (2,2,3,12): 0.0877033, 0.0207298, 0.0898056, 0.0158621,
            (2,2,4,0): -0.000744297, -0.070845, -0.0815882, 0.0394681,
            (2,2,4,4): 0.00892632, -0.0474681, -0.0144769, 0.0806744,
            (2,2,4,8): 0.038332, -0.0313639, 0.0986531, 0.0443632, 0.113903,
            (2,2,4,13): -0.0424953, 0.0306239, -0.0298423,
            (2,2,5,0): 0.0154882, 0.130654, -0.221253, -0.0659814, 0.181865,
            (2,2,5,5): 0.0921919, 0.0710756, 0.0894832, -0.141948, 0.113305,
            (2,2,5,10): 0.0335906, 0.207418, 0.213888, 0.0958307, -0.0750623,
            (2,2,5,15): -0.02823,
            (2,3,0,0): -0.0582533, 0.126307, -0.121513, 0.0198755, 0.038946,
            (2,3,0,5): 0.0599929, 0.0716144, 0.148015, -0.148029, -0.0262405,
            (2,3,0,10): -0.00253953, 0.217765, 0.118068, 0.201308,
            (2,3,0,14): -0.00910501, 0.0352865,
            (2,3,1,0): 0.00227615, 0.0061291, -0.0839529, -0.0644577,
            (2,3,1,4): 0.101062, 0.0731876, -0.030722, 0.0258534, 0.136903,
            (2,3,1,9): 0.0515226, -0.0295606, 0.0508146, -0.125652,
            (2,3,1,13): -0.115639, 0.0838281, -0.0612231,
            (2,3,2,0): -0.0226094, 0.0208979, -0.0498709, -0.0631699,
            (2,3,2,4): 0.0435414, 0.0596269, -0.109737, 0.0146791, 0.0410438,
            (2,3,2,9): 0.0153636, 0.12939, -0.0956079, -0.0666326, 0.0597621,
            (2,3,2,14): 0.0487662, 0.0652975,
            (2,3,3,0): -0.0735311, 0.0875616, -0.052109, -0.0820871,
            (2,3,3,4): 0.0495877, -0.0807761, -0.0761364, 0.128265,
            (2,3,3,8): -0.116854, 0.0302052, 0.175467, -0.0320377, 0.103473,
            (2,3,3,13): 0.171575, 0.0360017, -0.0633375,
            (2,3,4,0): 0.0107982, -0.0845034, -0.0507282, -0.0102995,
            (2,3,4,4): -0.0389672, 0.0683041, 0.000120889, -0.00884546,
            (2,3,4,8): -0.0633343, -0.0731785, 0.102339, 0.0658405,
            (2,3,4,12): 0.00408003, 0.125528, 0.0333132, -0.0424127,
            (2,3,5,0): -0.164379, -0.0113265, 0.00624315, -0.00498274,
            (2,3,5,4): 0.190067, 0.168889, 0.157461, 0.0347852, -0.0656344,
            (2,3,5,9): -0.0982248, 0.148192, 0.273432, 0.215543, -0.0462369,
            (2,3,5,14): -0.176509, -0.042261,
            (2,4,0,0): -0.067566, 0.119192, -0.0348241, -0.0991167,
            (2,4,0,4): -0.020512, 0.0940902, 0.0719888, -0.0516351,
            (2,4,0,8): -0.0471559, -0.165046, 0.12172, 0.121382, 0.0504114,
            (2,4,0,13): 0.00567263, -0.0596152, -0.151246,
            (2,4,1,0): 0.0289486, -0.0678796, 0.0413147, 0.067668,
            (2,4,1,4): -0.0717598, -0.106747, 0.0620208, 0.104675, 0.0648094,
            (2,4,1,9): 0.0660126, -0.0784207, 0.0439561, -0.128654,
            (2,4,1,13): -0.021742, 0.0457401, -0.00484899,
            (2,4,2,0): -0.00801549, -0.0992059, -0.0969134, 0.0060782,
            (2,4,2,4): 0.0851595, -0.113213, 0.0677648, -0.0457734,
            (2,4,2,8): -0.105936, -0.0399098, 0.0812237, -0.056642,
            (2,4,2,12): -0.0154057, -0.0657737, -0.102183, 0.060531,
            (2,4,3,0): 0.050551, -0.0764559, 0.112573, -0.027888, -0.0321078,
            (2,4,3,5): -0.0205379, 0.0137061, 0.00487422, -0.126921,
            (2,4,3,9): -0.0902552, 0.142234, 0.00489186, 0.0382602,
            (2,4,3,13): 0.00787791, 0.0654967, 0.0326764,
            (2,4,4,0): 0.0354073, 0.0765197, -0.00596848, -0.00449462,
            (2,4,4,4): 0.0730742, 0.0889239, 0.0234337, 0.0412473, -0.104516,
            (2,4,4,9): -0.0720841, 0.00563804, -0.015092, -0.0573157,
            (2,4,4,13): -0.00817524, -0.089637, -0.0358028,
            (2,4,5,0): -0.0395389, 0.0516574, 0.00362489, -0.0687223,
            (2,4,5,4): 0.196187, 0.233585, 0.0614529, 0.0802729, -0.100705,
            (2,4,5,9): -0.106368, -0.0356771, 0.151773, 0.125547, -0.0266297,
            (2,4,5,14): -0.0115114, -0.068264,
            (3,0,0,0): 0.0168013, 0.0185249, 0.0928148, -0.0468289,
            (3,0,0,4): 0.0608412, -0.0950399, 0.00598635, -0.0666379,
            (3,0,0,8): -0.0450779, -0.0793584, 0.0491685, -0.0958738,
            (3,0,0,12): -0.0663945, -0.140056, 0.0550037, -0.0836995,
            (3,0,1,0): -0.124077, -0.0386161, 0.0215408, 0.124384,
            (3,0,1,4): -0.0865497, -0.00385992, 0.0260889, -0.0911116,
            (3,0,1,8): -0.016876, 0.0289079, 0.0717238, -0.0587259,
            (3,0,1,12): -0.0184151, 0.0596125, 0.0349454, -0.0696095,
            (3,0,2,0): 0.0433989, 0.108054, -0.0553328, -0.0138405, -0.1165,
            (3,0,2,5): 0.0117821, 0.048281, -0.0655521, 0.0528524,
            (3,0,2,9): -0.0673477, 0.0825887, 0.108331, 0.079938, -0.130081,
            (3,0,2,14): 0.0807547, 0.0270458,
            (3,0,3,0): 0.103593, -0.0927828, 0.0431484, 0.0584461, 0.0357966,
            (3,0,3,5): 0.03324, -0.107873, -0.029119, -0.021736, -0.0777603,
            (3,0,3,10): 0.02744, 0.0896247, -0.133535, 0.0579472, 0.0139711,
            (3,0,3,15): -0.0206184,
            (3,0,4,0): -0.0333922, -0.0298556, 0.0987545, 0.0220321,
            (3,0,4,4): 0.124792, -0.100498, 0.0385261, 0.0858512, -0.0672554,
            (3,0,4,9): -0.00738254, -0.107088, -0.0377009, -0.0188937,
            (3,0,4,13): -0.0528645, -0.0726162, 0.0193825,
            (3,0,5,0): 0.0361162, -0.115095, -0.0577484, 0.0766428, 0.231401,
            (3,0,5,5): -0.00347252, 0.12234, 0.0826295, 0.00893982,
            (3,0,5,9): -0.0236121, -0.130855, -0.161264, 0.0227406,
            (3,0,5,13): 0.0666706, -0.0934355, -0.0968416,
            (3,1,0,0): 0.08283, 0.127685, -0.0501325, 0.107056, 0.0396447,
            (3,1,0,5): -0.027104, 0.0545212, -0.0888288, 0.0741962, 0.145177,
            (3,1,0,10): -0.210853, -0.060158, -0.0110237, 0.0595452,
            (3,1,0,14): -0.0136004, -0.0893724,
            (3,1,1,0): -0.112644, 0.0710364, -0.109349, -0.00861526,
            (3,1,1,4): -0.0971676, -0.0223112, 0.0360855, 0.0149341,
            (3,1,1,8): -0.0271563, 0.0656668, 0.115294, -0.0489269,
            (3,1,1,12): -0.0002703, 0.0274672, 0.05005, -0.0250404,
            (3,1,2,0): -0.0400834, -0.0960381, 0.0752677, 0.0446226,
            (3,1,2,4): 0.0423586, -0.0685931, -0.085803, -0.0432236,
            (3,1,2,8): -0.0804191, -0.0612602, -0.0117124, 0.0754888,
            (3,1,2,12): -0.029294, -0.0690281, 0.0437056, 0.0841663,
            (3,1,3,0): -0.0672916, -0.00229473, 0.106123, 0.0434722,
            (3,1,3,4): 0.0477982, -0.0760981, 0.00442948, 0.0753231,
            (3,1,3,8): -0.118366, -0.00272806, -0.0105496, -0.119787,
            (3,1,3,12): -0.121027, 0.0375892, -0.0276177, -0.073838,
            (3,1,4,0): 0.11522, 0.0625348, -0.00845684, -0.00623814, 0.1426,
            (3,1,4,5): 0.0370323, 0.0378372, -0.04552, 0.0636327, 0.11494,
            (3,1,4,10): 0.0457809, 0.101828, -0.0359777, 0.0747657, 0.110043,
            (3,1,4,15): -0.0538862,
            (3,1,5,0): 0.0594042, 0.0244838, -0.154649, -0.0608354, 0.34457,
            (3,1,5,5): -0.0906441, 0.182839, -0.113294, 0.0281329, 0.0960379,
            (3,1,5,10): -0.232418, -0.0775792, 0.102432, 0.0559844, 0.10161,
            (3,1,5,15): -0.0781762,
            (3,2,0,0): 0.0377266, -0.0137343, -0.0375583, 0.10758, 0.239566,
            (3,2,0,5): -0.196989, 0.133703, 0.0700486, 0.0823518, 0.135685,
            (3,2,0,10): -0.00198642, 0.0526087, -0.0279183, 0.0955543,
            (3,2,0,14): -0.0749491, -0.0438967,
            (3,2,1,0): 0.0930779, 0.0110023, 0.0590445, 0.0827712,
            (3,2,1,4): -0.0322697, -0.0269268, -0.0821089, 0.0453668,
            (3,2,1,8): 0.00727325, -0.0825849, 0.0638722, 0.0913462,
            (3,2,1,12): -0.0133752, -0.0301273, 0.0889986, 0.126327,
            (3,2,2,0): 0.0950739, 0.0095055, -0.0360294, 0.0852146,
            (3,2,2,4): 0.0659054, 0.0665435, -0.0369295, 0.111295,
            (3,2,2,8): 0.00578097, 0.138302, -0.0892113, 0.0649407,
            (3,2,2,12): -0.077106, -0.0443121, -0.0355284, -0.0609256,
            (3,2,3,0): -0.0183641, -0.0894359, 0.00548494, -0.000720012,
            (3,2,3,4): -0.0226974, -0.0992424, -0.00494402, -0.0680802,
            (3,2,3,8): 0.0783774, -0.0149763, 0.0191543, -0.0831466,
            (3,2,3,12): -0.0762947, 0.118853, 0.0492661, 0.0229423,
            (3,2,4,0): -0.0234189, 0.106441, -0.0802989, -0.0336455,
            (3,2,4,4): 0.173322, 0.00453073, 0.0109407, 0.111949, 0.0718789,
            (3,2,4,9): 0.117466, -0.0590438, -0.0754032, 0.0533412, 0.038836,
            (3,2,4,14): 0.0928835, 0.0379621,
            (3,2,5,0): 0.029902, 0.0991759, -0.0140409, 0.00874202, 0.312964,
            (3,2,5,5): -0.302694, 0.0484228, 0.0264263, -0.0140563,
            (3,2,5,9): 0.00466543, 0.11569, 0.00450517, -0.0143381, 0.184363,
            (3,2,5,14): -0.0886655, -0.0757075,
            (3,3,0,0): 0.044866, 0.157019, -0.0523955, -0.0236671, 0.0558642,
            (3,3,0,5): -0.211211, 0.00784371, 0.0597116, 0.0621672,
            (3,3,0,9): 0.0535975, 0.188279, -0.130961, -0.0127193,
            (3,3,0,13): 0.00756753, 0.0805187, 0.066798,
            (3,3,1,0): -0.0169711, -0.0700885, 0.00148648, 0.0253855,
            (3,3,1,4): 0.0118961, -0.00155831, -0.0943485, -0.0693104,
            (3,3,1,8): 0.0802699, 0.102608, 0.0610462, 0.0224189, -0.0613772,
            (3,3,1,13): -0.0213559, 0.0883698, 0.0470205,
            (3,3,2,0): -0.0750715, -0.0570468, -0.00455708, 0.0717796,
            (3,3,2,4): -0.0870852, -0.00220105, 0.0390289, 0.0303321,
            (3,3,2,8): -0.040249, -0.0137476, 0.16988, -0.0523921,
            (3,3,2,12): -0.0865096, 0.039472, 0.0551225, -0.0326499,
            (3,3,3,0): 0.0462827, 2.00792e-06, -0.0646634, -0.0785267,
            (3,3,3,4): -0.0130388, -0.134881, -0.00205135, 0.039032,
            (3,3,3,8): 0.0383951, -0.0808993, 0.0261396, 0.0472706,
            (3,3,3,12): 0.0307856, -0.0793092, 0.0596394, -0.0175968,
            (3,3,4,0): -0.0242865, 0.022514, -0.112609, 0.0348119, 0.0860714,
            (3,3,4,5): -0.159869, 0.112948, 0.0551261, -0.0859994, 0.100122,
            (3,3,4,10): -0.0120738, 0.0357236, 0.0055204, -0.0255991,
            (3,3,4,14): -0.0443628, 0.114567,
            (3,3,5,0): 0.0317794, 0.152111, 0.076895, -0.0793695, 0.205466,
            (3,3,5,5): -0.279063, 0.0342142, 0.0264589, -0.00416331,
            (3,3,5,9): 0.0768095, 0.202169, 0.0624331, 0.070332, 0.0503237,
            (3,3,5,14): -0.0566332, -0.017751,
            (3,4,0,0): -0.0599898, -0.0995527, 0.0362394, -0.0749857,
            (3,4,0,4): 0.113895, -0.208174, 0.134609, 0.0597671, -0.0118763,
            (3,4,0,9): 0.000124849, 0.0133873, -0.126193, -0.126203,
            (3,4,0,13): -0.0907774, 0.0488934, -0.0289722,
            (3,4,1,0): 0.102888, -0.0638898, 0.0350283, -0.00105467,
            (3,4,1,4): -0.0475972, 0.0998066, -0.0996414, 0.0613238,
            (3,4,1,8): 0.0260069, 0.031605, 0.0173018, 0.0976787, -0.113993,
            (3,4,1,13): 0.0423586, 0.0418103, 0.103989,
            (3,4,2,0): -0.0700868, 0.0326884, 0.039165, -0.100139,
            (3,4,2,4): -0.0141285, 0.000900805, 0.030374, 0.0076909,
            (3,4,2,8): -0.0615823, -0.111844, 0.0504413, 0.0412578,
            (3,4,2,12): 0.0365705, -0.00794968, -0.0827275, -0.10175,
            (3,4,3,0): 0.0291859, 0.075616, 0.081561, 0.0436443, -0.0276752,
            (3,4,3,5): -0.10773, 0.0776138, -0.0105483, -0.00312784,
            (3,4,3,9): 0.0610156, 0.132897, -0.146567, -0.1093, 0.0259233,
            (3,4,3,14): -0.00512828, 0.00552018,
            (3,4,4,0): 0.0143742, 0.019251, -0.0470391, 0.0788862,
            (3,4,4,4): -0.0650197, -0.0569907, 0.115222, 0.0618632,
            (3,4,4,8): 0.00721323, -0.0780618, 0.140432, 0.0500008,
            (3,4,4,12): 0.0520008, -0.081417, 0.0372232, 0.0673541,
            (3,4,5,0): -0.00455389, -0.065767, 0.147739, -0.00522003,
            (3,4,5,4): 0.004112, -0.0867625, 0.148997, -0.0503582, 0.0345557,
            (3,4,5,9): 0.0178057, -0.0827488, -0.014229, -0.0874355,
            (3,4,5,13): 0.0580291, -0.0378691, 0.119578,
            (4,0,0,0): 0.0677485, 0.0698668, -0.0461439, 0.126598, -0.189117,
            (4,0,0,5): -0.0472704, -0.0687458, 0.0549215, 0.057981,
            (4,0,0,9): -0.0558884, 0.0584351, -0.0203349, -0.218273,
            (4,0,0,13): -0.0591788, -0.00311762, -0.0237457,
            (4,0,1,0): -0.0231213, 0.0857745, -0.00186079, -0.058773,
            (4,0,1,4): 0.0809477, -0.0054215, 0.0517047, 0.0715125,
            (4,0,1,8): -0.00292417, -0.0725826, 0.00362421, -0.0335301,
            (4,0,1,12): 0.00586906, -0.0594843, -0.0997135, 0.0488478,
            (4,0,2,0): 0.0633498, 0.0357362, 0.0494189, 0.0224302, -0.023052,
            (4,0,2,5): 0.0112989, 0.104377, 0.0751451, -0.0413771, -0.101554,
            (4,0,2,10): -0.0896034, 0.104068, -0.111338, -0.104565,
            (4,0,2,14): -0.0516756, -0.00269566,
            (4,0,3,0): -0.0335898, 0.0735621, -0.00754591, 0.0516993,
            (4,0,3,4): -0.146668, 0.0284319, -0.0240627, -0.0978684,
            (4,0,3,8): -0.0775108, -0.0347054, 0.0192194, 0.0496547,
            (4,0,3,12): -0.134842, -0.01593, 0.0715668, 0.021867,
            (4,0,4,0): 0.0894754, -0.0571108, -0.013834, 0.000640857,
            (4,0,4,4): -0.0565996, 0.0093309, -0.00121272, 0.0257736,
            (4,0,4,8): 0.0250617, -0.0641123, 0.0161654, -0.0514212,
            (4,0,4,12): -0.136187, -0.100695, -0.0247971, 0.0332638,
            (4,0,5,0): -0.128232, -0.0171961, 0.0146591, 0.0978819, -0.16211,
            (4,0,5,5): -0.0546754, -0.164854, -0.085028, 0.049661, 0.117235,
            (4,0,5,10): -0.0603185, -0.0381152, -0.194767, -0.00158464,
            (4,0,5,14): -0.105786, 0.0745881,
            (4,1,0,0): -0.0127161, 0.118425, -0.0745799, -0.0184017,
            (4,1,0,4): -0.0859226, 0.00191054, -0.0571363, -0.100939,
            (4,1,0,8): 0.0397593, -0.0488283, -0.0120083, -0.0969267, -0.215,
            (4,1,0,13): 0.136629, 0.0682227, 0.0755111,
            (4,1,1,0): 0.037514, -0.0857489, -0.0878689, 0.0530431, 0.112957,
            (4,1,1,5): 0.0101528, -0.0805612, 0.00997032, -0.0291404,
            (4,1,1,9): -0.0594464, -0.00667981, 0.113464, 0.14365, -0.141103,
            (4,1,1,14): -0.0826428, 0.025424,
            (4,1,2,0): -0.0415156, 0.0869621, 0.0711411, 0.00820932,
            (4,1,2,4): -0.0497482, -0.0855064, 0.027589, -0.0514745,
            (4,1,2,8): -0.0183619, 0.0754101, -0.013553, -0.0227542,
            (4,1,2,12): 0.0627787, -0.0275832, 0.0359287, 0.0653462,
            (4,1,3,0): 0.0456898, -0.0536812, -0.0226492, 0.0998572,
            (4,1,3,4): -0.173109, -0.0487964, -0.114052, 0.0459084,
            (4,1,3,8): -0.0795812, -0.0969804, 0.0606166, 0.0828608,
            (4,1,3,12): -0.0976711, 0.113329, 0.0942943, -0.043602,
            (4,1,4,0): 0.0912232, -0.0696904, -0.0498889, -0.0190824,
            (4,1,4,4): 0.0348945, -0.167523, 0.00195326, 0.0837889,
            (4,1,4,8): -0.0691209, -0.00631577, -0.0192468, -0.0264307,
            (4,1,4,12): -0.0314606, 0.0284315, 0.0368888, 0.11453,
            (4,1,5,0): 0.00363773, 0.0612284, -0.127681, 0.161633, -0.127688,
            (4,1,5,5): -0.183258, -0.190109, -0.13145, 0.0169494, -0.0179918,
            (4,1,5,10): -0.0111204, -0.0996239, -0.103525, 0.0378626,
            (4,1,5,14): -0.0257964, 0.191548,
            (4,2,0,0): 0.0910367, -0.00291558, -0.0463979, 0.121246,
            (4,2,0,4): -0.131518, -0.125559, -0.109739, 0.0548223, 0.022824,
            (4,2,0,9): 0.133977, 0.055616, -0.0702789, -0.151304, 0.0759514,
            (4,2,0,14): 0.0895412, 0.0233849,
            (4,2,1,0): -0.0427952, 0.0765662, 0.0191948, 0.0272038,
            (4,2,1,4): -0.0523843, 0.166872, 0.0846131, 0.0752017, 0.0277906,
            (4,2,1,9): 0.0129267, -0.00163608, 0.103622, 0.0972707,
            (4,2,1,13): -0.0444738, -0.128229, 0.0116288,
            (4,2,2,0): -0.0763444, 0.0224098, -0.0799483, 0.0349034,
            (4,2,2,4): -0.0302681, -0.00662177, -0.129944, -0.0672916,
            (4,2,2,8): 0.0777063, 0.0624623, -0.0561137, 0.0940241,
            (4,2,2,12): 0.0838568, 0.061286, 0.0146211, -0.0506402,
            (4,2,3,0): -0.0464087, 0.0450829, 0.0634271, -0.0897023,
            (4,2,3,4): -0.0189132, -0.0599821, 0.00636814, -0.0748015,
            (4,2,3,8): 0.0067709, 0.101098, -0.0462439, 0.0502655, -0.121309,
            (4,2,3,13): -0.0496246, 0.0424333, -0.054941,
            (4,2,4,0): 0.0207867, 0.10754, 0.0566942, -0.0268784, 0.0604073,
            (4,2,4,5): -0.0977844, -0.0578019, 0.0105078, -0.0212971,
            (4,2,4,9): 0.0418408, -0.0717947, -0.130022, 0.00337684,
            (4,2,4,13): 0.0348054, -0.0729321, 0.00833285,
            (4,2,5,0): 0.00287093, 0.0424349, 0.0594543, 0.0531073,
            (4,2,5,4): -0.132559, -0.178999, -0.0614965, -0.060198,
            (4,2,5,8): 0.0660046, 0.171424, 0.190562, -0.164307, -0.108192,
            (4,2,5,13): -0.0772358, 0.0189882, 0.128278,
            (4,3,0,0): 0.103595, -0.0700487, -0.007139, -0.021385, -0.102794,
            (4,3,0,5): -0.0983957, -0.132654, -0.0972105, 0.130638,
            (4,3,0,9): 0.0326174, 0.124057, -0.0848721, -0.0112379,
            (4,3,0,13): -0.138086, -0.0934436, 0.141861,
            (4,3,1,0): -0.00836889, 0.0178597, 0.0924279, -0.0210171,
            (4,3,1,4): 0.0626849, -0.0378375, -0.102809, -0.106559,
            (4,3,1,8): -0.0503882, -0.0268352, -0.0585418, 0.111766,
            (4,3,1,12): 0.0815152, -0.00598857, -0.0743851, -0.0670238,
            (4,3,2,0): 0.077402, -0.00485741, -0.0380236, -0.00424202,
            (4,3,2,4): -0.126052, 0.0643723, -0.0833047, 0.0536314, 0.011521,
            (4,3,2,9): -0.0324867, 0.0804886, 0.0552091, -0.0928482,
            (4,3,2,13): -0.026678, 0.0783494, -0.0316697,
            (4,3,3,0): 0.0473504, -0.0963727, 0.138807, 0.0165057,
            (4,3,3,4): -0.0611096, -0.0999801, -0.137218, 0.0654834,
            (4,3,3,8): 0.0841091, -0.120007, 0.14303, 0.0325759, -0.0879805,
            (4,3,3,13): 0.0720477, 0.106708, 0.0758131,
            (4,3,4,0): -0.0224672, 0.0803455, -0.0152347, 0.108572,
            (4,3,4,4): -0.041564, 0.0199409, 0.00218833, 0.0668003, 0.117113,
            (4,3,4,9): 0.142064, -0.000568503, 0.0259355, -0.150939,
            (4,3,4,13): 0.0467802, 0.081147, -0.0412368,
            (4,3,5,0): -0.0337879, -0.112886, 0.15579, 0.0419108, 0.034532,
            (4,3,5,5): -0.0196754, 0.0356095, -0.0411714, 0.102945, 0.164463,
            (4,3,5,10): -0.00908327, -0.0950717, -0.17071, -0.175522,
            (4,3,5,14): -0.0598187, 0.172907,
            (4,4,0,0): -0.0660197, -0.00928034, -0.019157, 0.12656,
            (4,4,0,4): -0.121901, -0.0956863, -0.127414, -0.0362012,
            (4,4,0,8): 0.020656, 0.124082, 0.0904252, 0.0597792, 0.0116341,
            (4,4,0,13): -0.0107003, -0.0654371, 0.16923,
            (4,4,1,0): -0.00677021, -0.0949509, -0.110123, 0.0260788,
            (4,4,1,4): 0.011822, -0.0405762, -0.0415828, -0.000495475,
            (4,4,1,8): 0.041366, -0.0912255, -0.0416946, 0.108822, 0.106502,
            (4,4,1,13): 0.0683046, -0.0564275, -0.05532,
            (4,4,2,0): -0.0453607, -0.00660359, 0.0555303, 0.0279144,
            (4,4,2,4): -0.102802, 0.0212637, -0.0114873, 0.0919673,
            (4,4,2,8): 0.0694778, 0.0320271, 0.0647925, 0.0337755,
            (4,4,2,12): -0.0416934, -0.112631, -0.108141, -0.0876493,
            (4,4,3,0): -0.0730645, 0.0215189, 0.111719, -0.00814606,
            (4,4,3,4): -0.109779, 0.0105337, -0.0383343, 0.0696582, 0.104615,
            (4,4,3,9): 0.0647397, -0.021606, 0.0192818, 0.0361625,
            (4,4,3,13): -0.0499055, 0.059686, -0.057062,
            (4,4,4,0): -0.0559983, -0.102997, 0.0577955, -0.0881117,
            (4,4,4,4): 0.0680624, -0.0342166, -0.0942203, -0.00661163,
            (4,4,4,8): -0.0267871, -0.0478427, 0.126298, 0.0782724,
            (4,4,4,12): -0.105742, -0.0576398, 0.0464123, 0.128145,
            (4,4,5,0): -0.0276095, -0.0583345, -0.0326743, 0.0515209,
            (4,4,5,4): 0.024146, -0.0531587, -0.145453, -0.0748338,
            (4,4,5,8): -0.0996733, 0.152878, 0.00229387, 0.0834181,
            (4,4,5,12): 0.0186734, -0.218268, 0.0685137, 0.184606
            }
         }
      }
   }
   GROUP "dense_1" {
      ATTRIBUTE "weight_names" {
         DATATYPE  H5T_STRING {
            STRSIZE 16;
            STRPAD H5T_STR_NULLPAD;
            CSET H5T_CSET_ASCII;
            CTYPE H5T_C_S1;
         }
         DATASPACE  SIMPLE { ( 2 ) / ( 2 ) }
         DATA {
         (0): "dense_1/kernel:0", "dense_1/bias:0\000\000"
         }
      }
      GROUP "dense_1" {
         DATASET "bias:0" {
            DATATYPE  H5T_IEEE_F32LE
            DATASPACE  SIMPLE { ( 120 ) / ( 120 ) }
            DATA {
            (0): -0.00255014, 0.00570572, 0.00233952, 0.00390826,
            (4): -0.00668136, 0.00789622, -0.00595196, -0.00241477,
            (8): -0.00468645, -0.00514861, -0.00032161, 0.00565882,
            (12): -0.00273871, -0.000128788, -0.000336542, 0.00241971,
            (16): 0.0237302, 0.0215099, 0.00420123, -0.0102283, 0.00938625,
            (21): -0.00480533, -0.000184921, 0.00573463, 0.000488132,
            (25): -0.00197776, 0.00566604, 0.00960028, 0.0130418, 0.00639075,
            (30): 5.30737e-06, 0.000106512, -0.0039892, -0.00312082,
            (34): -0.00878103, 0.00656929, -0.00568064, 0.0217581, 0.0134094,
            (39): -0.00882093, -0.00702853, 0.0117226, 0.0113835,
            (43): -0.00567096, 0.00358058, 0.00844748, 0.0198358,
            (47): -0.00266507, -0.00509156, -0.00264264, 0.00207913,
            (51): -0.0025728, 9.95546e-05, -0.00105983, 2.57173e-05,
            (55): -0.00216255, 0.000180299, -0.00438348, 0.000987961,
            (59): -0.00252201, 0.0109601, 0.000615157, -0.00116339,
            (63): -0.0107144, -0.00587395, 0.0125456, 0.00800696,
            (67): -0.00635757, 0.00176948, -0.000723743, 0.0251617,
            (71): 0.00361107, -0.00303397, -0.00813331, 0.000579173,
            (75): 0.00575711, 0.00378973, -0.00347225, 0.0183719, 0.0192965,
            (80): -0.0024768, 0.0176528, 0.00208398, -0.00290453,
            (84): 0.000615319, 0.00312096, -0.00290317, -0.00855663,
            (88): 0.000962198, -0.000314357, -0.00422931, 0.0191611,
            (92): -0.0126856, 0.0126213, 2.34769e-05, 0.00333319, 0.00808297,
            (97): 0.00144702, -0.00986511, 0.00862935, 0.0132845,
            (101): -0.00186691, 0.0181516, 0.000125347, -0.000266396,
            (105): 0.00709563, 0.0121805, -0.000205598, -0.000371742,
            (109): 0.000520677, 0.0048877, 0.00265706, 0.00796559,
            (113): 0.00130189, 0.00100525, 0.00199456, -0.00210767,
            (117): -0.00273259, -0.00139433, 3.48052e-05
            }
         }
         DATASET "kernel:0" {
            DATATYPE  H5T_IEEE_F32LE
            DATASPACE  SIMPLE { ( 400, 120 ) / ( 400, 120 ) }
            DATA {
            (0,0): 0.0253855, -0.0755352, -0.0247903, 0.0359238, 0.101999,
            (0,5): -0.0324926, 0.0958147, -0.0472327, -0.0434463,
            (0,9): -0.00934618, -0.0443869, -0.0991446, 0.0459126, 0.010945,
            (0,14): -0.00733336, -0.00153715, 0.00602176, -0.0243274,
            (0,18): -0.0495104, 0.0414823, -0.00272748, -0.0121667,
            (0,22): 0.0118698, 0.0533911, 0.0992849, 0.098689, -0.0440168,
            (0,27): -0.099303, -0.0165974, -0.0398696, 0.0253751, -0.0522915,
            (0,32): -0.0533445, 0.0132874, -0.00163904, 0.0780222, 0.0301797,
            (0,37): 0.0934772, 0.0422748, -0.0218416, -0.00745445, -0.0234,
            (0,42): 0.0957935, -0.0585316, -0.0151324, -0.0586038, 0.0308917,
            (0,47): 0.00150813, 0.0332819, 0.0217582, -0.0958012, 0.063222,
            (0,52): 0.0839658, 0.0153921, -0.063089, -0.0653714, 0.0814773,
            (0,57): -0.0852485, 0.0725495, -0.107648, -0.0762267, -0.0926405,
            (0,62): 0.024912, -0.0966093, 0.0947661, 0.0571545, -0.0846149,
            (0,67): -0.0783774, -0.0890566, 0.0557989, -0.043438, -0.0534718,
            (0,72): 0.00664277, -0.0327944, -0.0510672, -0.10501, -0.0310623,
            (0,77): -0.0640619, -0.0531694, 0.0459634, -0.0706889, 0.0493357,
            (0,82): -0.101255, -0.0345389, -0.00626137, -0.0382159,
            (0,86): -0.055839, -0.0291561, 0.0419651, 0.0455568, -0.0401978,
            (0,91): -0.0423577, -0.100039, -0.0356511, 0.0440954, 0.0480418,
            (0,96): -0.0442269, 0.0882731, -0.0947809, -0.0592052, -0.034385,
            (0,101): 0.0578038, -0.0841672, -0.0138398, -0.0583059,
            (0,105): -0.076615, -0.052484, -0.0638951, -0.0814979,
            (0,109): -0.0228917, -0.0458506, -0.0541499, -0.00126148,
            (0,113): 0.0527287, -0.0621281, 0.0228224, -0.0701596, 0.0708676,
            (0,118): 0.0650746, 0.005655,
            (1,0): -0.0752089, -0.0821441, -0.0201594, 0.043589, 0.0108053,
            (1,5): 0.0110918, -0.0564264, -0.0528194, -0.0716534, -0.0777964,
            (1,10): 0.0507452, -0.00234075, 0.0713038, -0.0950059, 0.0287419,
            (1,15): 0.037535, -0.0700181, 0.102517, -0.0942674, -0.0373644,
            (1,20): -0.0296972, -0.108709, 0.0186567, 0.0144047, -0.0987822,
            (1,25): -0.0590105, -0.0279462, 0.06177, 0.0728588, 0.0140212,
            (1,30): 0.0584371, 0.0912128, -0.0870178, 0.0543802, 0.0576384,
            (1,35): 0.0904091, -0.0558101, 0.00318106, -0.0905825, 0.0840087,
            (1,40): -0.110077, 0.0208644, -0.0858435, -0.0702625, 0.0741931,
            (1,45): -0.0901858, -0.0990636, 0.00670614, 0.0867432, 0.0187216,
            (1,50): -0.0951456, -0.0128288, -0.084241, 0.0207906, -0.0877564,
            (1,55): -0.0519561, 0.0565556, 0.0839113, -0.103958, 0.104995,
            (1,60): -0.0839745, 0.0649175, -0.0191693, -0.091408, 0.0605449,
            (1,65): 0.0625497, 0.0986396, 0.0688853, 0.014767, 0.0711752,
            (1,70): 0.0488077, 0.074933, -0.0476659, -0.0984676, -0.0843086,
            (1,75): -0.0846818, 0.00170816, -0.0647455, 0.0029975,
            (1,79): -0.0496803, 0.0852852, 0.105776, 0.0411291, 0.0124398,
            (1,84): 0.105242, -0.0500543, 0.0537633, -0.0484845, 0.0673035,
            (1,89): -0.0901836, 0.00307258, 0.0313794, 0.0554012, -0.0466804,
            (1,94): -0.0894791, 0.00945301, 0.0553315, 0.012651, 0.0823912,
            (1,99): -0.0837932, -0.0734019, 0.0708047, 0.0183787, -0.0382887,
            (1,104): -0.00200788, 0.00343765, 0.102425, -0.0810105,
            (1,108): -0.0455633, -0.00141727, 0.07973, -0.0645577,
            (1,112): -0.00708894, -0.0387701, -0.0502052, 0.0685669,
            (1,116): -0.019302, 0.0431098, -0.0304426, 0.0751305,
            (2,0): 0.0302073, -0.0877165, 0.067863, 0.0927482, 0.0995789,
            (2,5): 0.0758491, -0.0470205, 0.0520622, -0.103488, -0.0190028,
            (2,10): -0.0818337, -0.0188614, 0.0488309, -0.019767, 0.102431,
            (2,15): 0.0735746, -0.0291453, -0.0583864, -0.0979269, 0.0570281,
            (2,20): -0.0174754, -0.0273271, -0.0954328, -0.0844081,
            (2,24): 0.00711448, -0.0691644, -0.0733212, -0.100157,
            (2,28): -0.0181682, 0.0751873, 0.00978932, -0.00987329,
            (2,32): 0.0708676, -0.0138597, 0.0120188, -0.000148863,
            (2,36): 0.0528306, -0.00222745, 0.102679, 0.0917289, -0.0106323,
            (2,41): -0.0100752, 0.0975083, 0.071977, -0.0209977, 0.0917962,
            (2,46): 0.00625047, -0.0750308, -0.056604, -0.0338412,
            (2,50): -0.00764486, 0.0902898, -0.079863, 0.0561378, -0.0227179,
            (2,55): -0.097158, 0.0287943, -0.0989322, 0.0464141, -0.101532,
            (2,60): -0.0472516, 0.032568, 0.0844937, 0.0530332, 0.0244159,
            (2,65): 0.0854046, -0.083735, -0.0939061, 0.0749487, -0.0393572,
            (2,70): -0.0972266, 0.0921423, 0.0506474, -0.0293897, -0.0480807,
            (2,75): 0.0396032, 0.0622207, 0.00528088, 0.0397461, 0.0923474,
            (2,80): 0.0433104, -0.0592584, 0.0535821, 0.0526198, -0.0558973,
            (2,85): 0.0896713, 0.00337305, 0.0689595, -0.044026, -0.0223299,
            (2,90): 0.0115109, 0.0246289, 0.0777168, 0.0513132, -0.0854305,
            (2,95): 0.0176742, 0.105262, -0.0123789, 0.082795, 0.111738,
            (2,100): -0.0292423, -0.0482283, -0.0477056, -0.103434,
            (2,104): 0.0257356, 0.0940313, -0.100939, 0.0808343, -0.00129259,
            (2,109): -0.0394956, 0.00925414, 0.0166251, 0.0373859, 0.062427,
            (2,114): -0.0300851, 0.0216756, 0.0321711, -0.0162963, 0.0387954,
            (2,119): 0.000780324,
            (3,0): 0.0682852, 0.00825545, 0.0389945, 0.0431071, -0.045458,
            (3,5): 0.0770912, -0.0326611, -0.0618857, -0.00345513,
            (3,9): 0.00888445, -0.0670888, 0.0336074, -0.0770022, 0.00998153,
            (3,14): 0.105873, -0.0736044, 0.0826213, -0.0696604, -0.0992232,
            (3,19): -0.0240202, -0.00824404, -0.068984, -0.101958,
            (3,23): -0.0659242, 0.00936329, 0.0628367, 0.00338223,
            (3,27): -0.0839573, 0.07467, -0.0583085, 0.0545104, -0.0378746,
            (3,32): 0.034227, 0.0136378, -0.0196954, -0.0374658, 0.035294,
            (3,37): -0.0473152, 0.00281251, -0.00711134, -0.0152671,
            (3,41): -0.0368014, 0.0191303, -0.0192993, 0.0530986,
            (3,45): -0.00610887, 0.0957775, 0.0680594, -0.0257518, 0.0900337,
            (3,50): 0.0564796, -0.0033351, -0.0359857, 0.00672217, 0.0507558,
            (3,55): 0.022516, 0.102566, 0.012122, 0.0550521, -0.00950977,
            (3,60): 0.0520629, 0.0731205, 0.026227, 0.0274606, -0.0827565,
            (3,65): 0.0997035, 0.0698006, -0.0952525, -0.0661718, 0.0166022,
            (3,70): -8.85106e-05, -0.0207936, 0.0236376, -0.0436061,
            (3,74): 0.0140682, 0.0201181, 0.0176684, 0.000315494, 0.0121091,
            (3,79): 0.0899548, -0.0399482, 0.0746879, 0.0048359, -0.00109663,
            (3,84): -0.013964, -0.0571868, -0.00999948, 0.0891442,
            (3,88): -0.0539569, -0.0931013, -0.0688979, -0.0656673,
            (3,92): -0.0493725, -0.0567899, 0.0504551, 0.0649662, 0.0982985,
            (3,97): -0.0618283, -0.0290939, 0.0219549, 0.0985296, -0.0664169,
            (3,102): 0.0130065, -0.0376152, -0.101507, -0.0684284, 0.0732951,
            (3,107): 0.0705265, -0.0944457, 0.00748497, 0.00128881, 0.104032,
            (3,112): 0.0234033, 0.00805496, -0.01755, 0.0651244, 0.0409832,
            (3,117): -0.029129, -0.0941204, -0.0127483,
            (4,0): 0.0254966, -0.00172054, -0.0731604, -0.0833547, 0.0210457,
            (4,5): 0.00987007, -0.0306702, 0.0335031, 0.0680751, 0.08008,
            (4,10): 0.0975685, 0.0188682, -0.0377669, 0.0506, 0.104535,
            (4,15): 0.026976, -0.00513237, -0.0442386, 0.100813, -0.0373458,
            (4,20): 0.0298007, -0.0842484, -0.0402424, -0.0743244,
            (4,24): -0.0946696, -0.0576094, -0.0111454, -0.0506504,
            (4,28): 0.0325929, 0.024154, -0.0905892, -0.027681, -0.0410955,
            (4,33): -0.0782832, -0.00501818, 0.0957418, -0.106533, 0.061123,
            (4,38): -0.0687201, -0.104193, 0.00466197, 0.114813, -0.0888444,
            (4,43): -0.0496083, -0.104275, 0.0736863, -0.029852, -0.0702676,
            (4,48): -0.0800574, -0.0341843, 0.0495845, -0.0666897, 0.0066696,
            (4,53): 0.100296, 0.0653871, 0.0844626, 0.0858769, 0.0439264,
            (4,58): -0.0918368, 0.0754248, 0.0712774, -0.0761465, 0.0720864,
            (4,63): 0.064194, -0.0371933, -0.0734585, 0.048636, 0.061375,
            (4,68): -0.0861165, 0.0655052, 0.0611982, -0.0567815, 0.0315788,
            (4,73): 0.0382164, -0.0764516, -0.0531245, 0.033411, 0.0559479,
            (4,78): -0.0293568, -0.00754198, 0.0987201, 0.078751, -0.0813387,
            (4,83): 0.0204576, -0.070335, 0.0252002, 0.0135324, -0.0773069,
            (4,88): -0.0507065, 0.0966382, 0.0599755, 0.0189195, 0.0228218,
            (4,93): 0.0784709, 0.0536316, -0.119676, 0.0562176, 0.0846688,
            (4,98): 0.0614236, 0.0316913, -0.0958723, -0.0182066, -0.04329,
            (4,103): -0.0345817, 0.0622657, 0.0905951, -0.0846443, 0.0977372,
            (4,108): -0.0568384, 0.0768097, 0.0146005, 0.113303, -0.0320562,
            (4,113): 0.100062, 0.0262121, -0.0667901, 0.0480919, -0.0534019,
            (4,118): 0.0870847, -0.0392029,
            (5,0): -0.0368518, -0.0235149, -0.0269789, 0.107823, 0.0185774,
            (5,5): -0.0741456, 0.0197212, -0.0343698, -0.0885952, 0.101652,
            (5,10): 0.0182166, -0.0367475, -0.0537792, -0.0575416,
            (5,14): -0.0448119, -0.0413079, 0.0735374, 0.097366, 0.0314673,
            (5,19): 0.101687, 0.0766436, -0.0907682, 0.0711281, 0.0109565,
            (5,24): -0.0847748, 0.0663295, -0.0176615, -0.0333754, 0.0207261,
            (5,29): -0.0570021, 0.0345931, 0.0697051, 0.00777851, 0.0422811,
            (5,34): 0.0194746, -0.0279734, 0.0852051, 0.023312, -0.105308,
            (5,39): -0.101117, 0.0125748, -0.0231347, 0.0712267, 0.0615906,
            (5,44): 0.033873, -0.0846323, -0.0581455, -0.0187941, 0.112285,
            (5,49): -0.0801556, 0.00921064, -0.046377, 0.0113751, 0.0125973,
            (5,54): -0.000810609, 0.0272376, 0.0684088, -0.090611,
            (5,58): -0.00835872, -0.0779742, -0.0572398, -0.0175902,
            (5,62): 0.0261494, -0.0748799, -0.0139125, -0.0371149,
            (5,66): -0.0225713, 0.0908184, 0.100256, -0.101896, -0.0126204,
            (5,71): -0.0483843, 0.0641795, -0.0096838, 0.081096, -0.0930894,
            (5,76): 0.0418128, 0.0496608, 0.113481, -0.0827749, -0.0587631,
            (5,81): 0.0902537, 0.0695525, -0.0895069, 0.0411742, 0.0599587,
            (5,86): -0.0447167, -0.0615983, -0.0628891, -0.0599449, 0.106304,
            (5,91): 0.00834373, 0.00262751, -0.0184089, -0.00677304,
            (5,95): -0.0305089, -0.0930212, -0.0358027, 0.103611, -0.0324464,
            (5,100): 0.0525269, 0.104044, 0.0748096, -0.0734841, -0.00761552,
            (5,105): -0.0208366, 0.0294248, -0.0569636, -0.0066873,
            (5,109): -0.00157192, -0.0119434, -0.0830493, -0.0314928,
            (5,113): -0.0301586, 0.074448, -0.0446813, -0.0142351, 0.0038118,
            (5,118): -0.0634789, -0.0694808,
            (6,0): -0.0685332, 0.0763254, -0.0806665, 0.100602, -0.0942386,
            (6,5): 0.0126578, 0.0652162, 0.0161504, 0.0927473, 0.0019239,
            (6,10): 0.0947772, -0.0830244, -0.000401528, -0.0786048,
            (6,14): 0.0521643, 0.0977688, -0.0138411, -0.0818414, -0.0155698,
            (6,19): -0.0566957, -0.0664394, 0.0494671, -0.0335215,
            (6,23): -0.0714884, -0.0235022, 0.0301082, 0.0766652, 0.0616879,
            (6,28): 0.0198399, 0.00967643, 0.0033341, 0.101513, -0.0242631,
            (6,33): -0.0409298, 0.0487644, -0.0683026, -0.0355376, 0.0205835,
            (6,38): -0.087774, -0.0756185, -0.0659632, 0.103488, -0.0481752,
            (6,43): -0.0603077, 0.0788407, 0.0194139, 0.0379941, 0.10089,
            (6,48): 0.0125495, 0.0481867, -0.0831322, 0.0363906, 0.0530996,
            (6,53): 0.00545675, -0.0915377, -0.0486263, 0.0615598, 0.0683504,
            (6,58): -0.0146354, -7.1511e-05, 0.0861184, -0.0374596,
            (6,62): -0.00375446, 0.0130793, -0.0138659, -0.0272923,
            (6,66): -0.065689, 0.0717488, 0.0150075, -0.0634687, -0.00700158,
            (6,71): 0.00646357, 0.103441, -0.0401069, -0.00580807,
            (6,75): 0.00375391, 0.0869824, -0.0866125, 0.0865938, -0.101834,
            (6,80): 0.0453473, -0.0573002, -0.101368, 0.0405167, -0.0904863,
            (6,85): 0.0195881, -0.0277361, 0.0544305, 0.094412, 0.103578,
            (6,90): 0.00259918, -0.0429356, -0.0926131, -0.0684389, 0.101513,
            (6,95): 0.0753499, 0.104583, -0.00643395, -0.0627537, 0.0903457,
            (6,100): 0.0229257, 0.0517266, 0.0271132, -0.00865969,
            (6,104): -0.0407576, 0.0499204, -0.0124311, -0.0347285,
            (6,108): -0.0118348, 0.0310891, -0.0678847, 0.104763, -0.0324934,
            (6,113): -0.0721489, 0.106307, -0.0771511, -0.0489881,
            (6,117): -0.0412894, -0.0636677, -0.0244131,
            (7,0): -0.109751, -0.096539, -0.0473954, -0.0393543, 0.0896291,
            (7,5): 0.0110109, 0.0890326, 0.0254085, -0.00950958, 0.0171429,
            (7,10): 0.0738321, -0.0172286, -0.00838822, -0.102165,
            (7,14): -0.0804141, -0.105798, -0.0587025, 0.0852133, -0.108873,
            (7,19): 0.00978477, -0.0664072, -0.0275876, -0.102482, 0.011926,
            (7,24): -0.104466, -0.0611739, -0.0233114, 0.0278717, 0.0292157,
            (7,29): 0.0262895, -0.0989016, 0.0801224, -0.0949914, -0.0575611,
            (7,34): -0.024382, -0.084286, -0.0841355, 0.0251784, -0.0379239,
            (7,39): -0.0844466, -0.0411812, 0.0171486, -0.114215, -0.0497526,
            (7,44): -0.0552293, -0.00689343, 0.112865, -0.0424994,
            (7,48): -0.0283897, -0.0677027, -0.00883153, 0.0969746,
            (7,52): -0.106008, -0.0389069, 0.019656, 0.0525189, -0.0379392,
            (7,57): 0.00152606, 0.0934242, 0.0887686, -0.0801337, 0.108651,
            (7,62): 0.0544635, 0.065891, 0.0994804, 0.0632562, 0.00343794,
            (7,67): -0.0459538, 0.0539532, 0.106462, 0.014809, 0.0676437,
            (7,72): -0.0548577, 0.0285198, 0.0997377, 0.0113772, -0.0550375,
            (7,77): -0.0714144, 0.0293238, 0.0935011, -0.0381277, -0.0464007,
            (7,82): 0.0242868, 0.00467113, 0.073335, -0.0205928, 0.0979774,
            (7,87): -0.105209, -0.0521474, 0.103786, -0.102679, -0.0791245,
            (7,92): 0.00320196, -0.0434748, -0.0594932, 0.0381603, 0.0775007,
            (7,97): -0.0929967, 0.0761288, -0.00853528, 0.0251292, 0.0398891,
            (7,102): 0.0044888, -0.0110353, -0.0908657, -0.0458354,
            (7,106): -0.0975563, 0.0572572, 0.0920438, 0.0417825, -0.010175,
            (7,111): 0.00119828, -0.054994, 0.104983, 0.0741156, 0.0460011,
            (7,116): -0.0759118, -0.0915216, -0.00967227, -0.0523554,
            (8,0): -0.0974059, 0.0244672, -0.029072, 0.0375556, 0.013428,
            (8,5): -0.0507287, 0.0636706, 0.0734794, -0.0922912, 0.0497716,
            (8,10): -0.0873736, 0.0971641, -0.0638302, -0.0421664,
            (8,14): -0.0513078, -0.0657081, 0.0610249, 0.0503276, 0.0400177,
            (8,19): -0.0860141, 0.0272813, 0.0241877, -0.0898786, -0.0412363,
            (8,24): -0.0666112, 0.0882757, -0.0781832, 0.0817011, 0.0209006,
            (8,29): -0.0147024, -0.0258035, -0.0635036, -0.0605075,
            (8,33): 0.0118461, 0.0530037, -0.0874723, 0.0860848, 0.0319083,
            (8,38): -0.009277, -0.104211, 0.00136798, -0.0977389, -0.010268,
            (8,43): 0.0622071, 0.0867734, 0.101471, 0.0624663, -0.0537709,
            (8,48): 0.0658302, 0.0408073, 0.101371, 0.00566402, -0.033654,
            (8,53): 0.049208, -0.0536065, 0.0482225, 0.0402158, -0.0505704,
            (8,58): -0.0139746, -0.0428687, -0.0218028, -0.0342614,
            (8,62): 0.0886253, -0.0662401, -0.0730704, 0.0559236, -0.0562977,
            (8,67): 0.00237224, -0.0851516, -0.10341, -0.101558, 0.0405515,
            (8,72): 0.00338584, 0.0111587, -0.0889567, 0.00929238,
            (8,76): -0.0416055, -0.074597, 0.0916265, -0.0473393, -0.0364054,
            (8,81): -0.00351193, -0.0115302, 0.00636166, 0.0465938,
            (8,85): -0.0502565, -0.0620131, -0.0320955, 0.0265397,
            (8,89): -0.0300443, 0.0561356, -0.0144371, 0.0476175, -0.11173,
            (8,94): 0.0469664, -0.0333681, -0.0347636, 0.0916941, 0.00404095,
            (8,99): 0.0188564, 0.101286, -0.0137225, -0.0989121, 0.00793099,
            (8,104): 0.0572887, 0.0623342, 0.0413314, -0.084643, 0.0354074,
            (8,109): -0.0501115, 0.0390612, -0.0573293, -0.00255498,
            (8,113): -0.0653578, 0.0332457, 0.0275049, -0.103173, 0.0115703,
            (8,118): 0.0702563, -0.0907473,
            (9,0): -0.037135, -0.0354456, 0.0326047, -0.0219974, -0.0170056,
            (9,5): -0.0438288, -0.0561614, -0.093907, 0.0641716, -0.0312237,
            (9,10): -0.0787071, 0.0477107, -0.0374147, -0.0658895,
            (9,14): -0.0510372, -0.0177157, -0.0800883, 0.0229212, 0.0532441,
            (9,19): 0.0554562, 0.0236597, -0.0097473, 0.00774884, 0.0287361,
            (9,24): 0.0953818, 0.0686864, -0.0246511, 0.0780727, -0.0672537,
            (9,29): -0.103588, 0.00836394, 0.00913084, 0.0771749, 0.00704873,
            (9,34): 0.00735836, 0.0643566, 0.0738445, 0.0304547, -0.0680484,
            (9,39): 0.0736507, -0.0552896, -0.00880636, -0.102056,
            (9,43): -0.00442619, -0.0463209, -0.0137234, -0.0135077,
            (9,47): -0.0279684, 0.0806759, 0.0469553, -0.0743727, -0.0858253,
            (9,52): 0.0809861, 6.30428e-06, -0.0695646, 0.0354537,
            (9,56): -0.0398622, 0.0497598, -0.00310999, -0.0916503,
            (9,60): 0.0950923, -0.0966981, 0.0638827, -0.0820207, -0.0328252,
            (9,65): -0.0418198, -0.0344029, -0.00226095, -0.0227212,
            (9,69): 0.0103566, -0.0729668, -0.0115029, -0.0439528, 0.0295337,
            (9,74): 0.0128754, 0.120024, -0.00695607, -0.0707034, 0.0235853,
            (9,79): -0.0747369, 0.0219291, 0.0668427, 0.0997649, 0.00631644,
            (9,84): -0.108672, 0.100941, 0.106886, 0.0627828, -0.00288959,
            (9,89): 0.0589273, 0.0192579, -0.0461128, -0.030377, 0.0374842,
            (9,94): -0.00428985, -0.03186, 0.110333, -0.0313025, -0.0890369,
            (9,99): 0.0293387, -0.108509, 0.0861318, 0.0835792, -0.0806407,
            (9,104): -0.0672457, -0.0887225, -0.058722, 0.0516046, -0.101796,
            (9,109): -0.04652, -0.00614252, -0.0255476, 0.0164736,
            (9,113): -0.0187953, 0.0878449, 0.0380448, -0.0210469, -0.060361,
            (9,118): 0.0536056, 0.00943619,
            (10,0): 0.0156863, -0.0491064, 0.0674496, 0.0774641, 0.0906647,
            (10,5): -0.0152306, 0.0802931, -0.0685157, 0.0895593, -0.002308,
            (10,10): 0.0263617, -0.0503306, -0.0308443, 0.088486, -0.0295834,
            (10,15): 0.105628, -0.0339747, 0.0364047, -0.0637055, 0.0490322,
            (10,20): -0.0901338, -0.0470242, 0.00612019, -0.0598899,
            (10,24): -0.0420704, 0.0456993, 0.0530237, -0.075124, -0.0337751,
            (10,29): -0.0589254, 0.0630999, -0.0439998, -0.0084575,
            (10,33): 0.0411424, -0.0347378, 0.098445, 0.014345, -0.0066689,
            (10,38): -0.0530636, 0.068046, 0.0942351, 0.0234652, -0.0692751,
            (10,43): 0.0244863, 0.10611, 0.0793641, 0.00658592, -0.0929347,
            (10,48): 0.0953129, 0.0476618, -0.00805763, -0.0848899,
            (10,52): 0.0111595, 0.00127776, 0.061791, -0.101955, -0.0348719,
            (10,57): -0.0977446, 0.0458269, -0.0572001, -0.0356753,
            (10,61): -0.0249163, -0.0844793, -0.0983206, -0.0529686,
            (10,65): -0.00363122, 0.101998, 0.0440035, 0.0163853, 0.0199173,
            (10,70): -0.0101767, 0.0691059, -0.0315869, 0.0810004, -0.086026,
            (10,75): 0.0438188, 0.067281, 0.00269775, -0.0857596, -0.106965,
            (10,80): 0.00442208, 0.0801291, -0.0248636, -0.00245998,
            (10,84): -0.0595835, -0.0605383, 0.0542416, -0.0585583,
            (10,88): -0.0720051, 0.0654422, 0.0587392, 0.0792187, 0.0105537,
            (10,93): 0.098548, -0.0887263, 0.0974899, 0.0458408, 0.0433978,
            (10,98): -0.0859194, -0.0260985, 0.0245075, 0.0398664,
            (10,102): -0.0694208, 0.0817033, -0.0463542, 0.0481087, 0.10466,
            (10,107): 0.00192276, 0.097119, -0.0264846, 0.0896023, 0.0326349,
            (10,112): 0.043373, -0.112384, 0.00435228, 0.0831576, 0.0623497,
            (10,117): 0.104102, -0.0445423, -0.0593306,
            (11,0): 0.0353226, 0.0335153, 0.0962188, 0.0214855, -0.0517262,
            (11,5): 0.0351386, -0.0419285, 0.000639746, -0.107487,
            (11,9): -0.0687189, 0.0766958, 0.0891311, -0.00450449, 0.015309,
            (11,14): -0.0121107, 0.0724157, 0.0500728, 0.00307069, 0.0377824,
            (11,19): -0.0596913, -0.00718022, 0.0958612, -0.0475269,
            (11,23): 0.021232, -0.0905888, 0.0258244, 0.105798, -0.03066,
            (11,28): 0.0584771, -0.0390361, 0.0125453, 0.0250304, -0.0853457,
            (11,33): 0.0728483, -0.0144401, 0.0267177, -0.0201309, -0.035637,
            (11,38): 0.0238442, -0.00320157, 0.0254021, 0.00517335,
            (11,42): 0.0188351, -0.0309867, -0.0380156, 0.0259731, 0.100564,
            (11,47): 0.0939884, 0.0865057, 0.0521066, 0.0686815, -0.0355785,
            (11,52): -0.0632975, 0.0229541, 0.0832163, -0.0611473, -0.03466,
            (11,57): 0.0254688, 0.0404961, 0.00477421, 0.028407, -0.0257829,
            (11,62): 0.108611, 0.0352102, 0.0877226, 0.103624, -0.0998158,
            (11,67): 0.0179751, 0.082867, -0.0612974, -0.0639607, -0.0531725,
            (11,72): -0.0635729, 0.108714, -0.0700844, 0.0176866,
            (11,76): -0.00169351, 0.0636606, -0.0348009, -0.0446259,
            (11,80): -0.0966098, 0.0283926, -0.00359921, 0.0464441,
            (11,84): -0.0979886, 0.0617795, 0.0702938, 0.10182, 0.0123554,
            (11,89): -0.0275901, -0.063019, -0.0156018, 0.0735165, 0.0735519,
            (11,94): -0.0275952, 0.0049543, -0.0567193, 0.0677637,
            (11,98): -0.0916343, -0.0572865, 0.107731, 0.0851528, 0.0512375,
            (11,103): -0.0845188, 0.0980048, -0.0449163, -0.00127449,
            (11,107): -0.0449286, 0.0750959, -0.068333, -0.095762, 0.0214032,
            (11,112): 0.0857752, -0.0208862, -0.0454213, 0.0897626,
            (11,116): -0.0475379, 0.0778008, -0.0494037, 0.0961049,
            (12,0): -0.034761, -0.0214246, 0.0900241, -0.086237, 0.0230397,
            (12,5): -0.113876, 0.0725354, 0.0897727, -0.0946617, 0.118978,
            (12,10): -0.0578111, -0.0395904, 0.0722688, -0.0667015,
            (12,14): 0.0055526, 0.0604447, -0.0353585, -0.0155219,
            (12,18): -0.0961872, -0.0169314, -0.00505129, -0.0239607,
            (12,22): -0.101531, 0.103362, 0.0537172, 0.0529695, -0.0777578,
            (12,27): -0.105255, -0.0266306, -0.0505139, -0.0439928,
            (12,31): -0.035598, 0.0264321, 0.0701142, 0.035834, -0.0356063,
            (12,36): 0.107122, 0.0551951, -0.108423, -0.00826229, 0.0791623,
            (12,41): -0.0913523, -0.0766753, -0.100638, -0.095273, 0.023096,
            (12,46): 0.0521093, 0.0102287, 0.103714, 0.0602529, 0.00340602,
            (12,51): -0.0409464, -0.0653794, -0.0269328, 0.0741889,
            (12,55): -0.0124707, 0.0431522, -0.008047, 0.0593016,
            (12,59): -0.00302863, 0.050471, -0.0502716, -0.100961,
            (12,63): -0.0138768, -0.09358, 0.0524776, -0.0869008, 0.0206593,
            (12,68): -0.0989627, 0.0565447, 0.0191984, -0.0589125, -0.065188,
            (12,73): 0.109794, -0.0108048, -0.0224642, 0.0585662, 0.0352493,
            (12,78): -0.0913649, -0.0225907, -0.0156945, -0.0450724,
            (12,82): 0.0311213, -0.0417226, -0.0256644, 0.081035, 0.0320168,
            (12,87): -0.00611528, -0.0694829, -0.030812, 0.0510036,
            (12,91): 0.0481384, 0.0138089, -0.0153645, 0.0962943, 0.09601,
            (12,96): 0.0173874, -0.0552504, 0.0685914, 0.0500054, 0.0879397,
            (12,101): 0.00486148, 0.0272217, -0.0625711, -0.00739802,
            (12,105): 0.0175307, 0.0818052, 0.0763825, 0.100538, 0.0976354,
            (12,110): -0.0813838, -0.0845974, 0.00379774, 0.0271474,
            (12,114): -0.0459428, -0.0269039, -0.0164285, 0.0251645,
            (12,118): 0.0166372, -0.0473441,
            (13,0): 0.0979623, -0.0643497, -0.112956, -0.0906536, 0.0791607,
            (13,5): -0.0569581, -0.0799521, 0.0244853, 0.0302446, 0.0603166,
            (13,10): -0.0261817, -0.0878581, 0.0584626, -0.0751078,
            (13,14): -0.0478697, 0.0336514, 0.0654547, 0.0486444, -0.0106347,
            (13,19): 0.0693923, 0.0132922, -0.0772847, -0.0660848, 0.0150657,
            (13,24): 0.0490917, 0.0266354, -0.0658493, -0.0832086,
            (13,28): -0.0423512, 0.0392117, 0.0228612, -0.0715564, 0.0565973,
            (13,33): 0.0721273, -0.105726, 0.0243263, -0.0400134, -0.0630033,
            (13,38): -0.0836216, 0.0230852, 0.000779719, 0.105349,
            (13,42): -0.00212139, 0.101702, 0.0319922, -0.000713179,
            (13,46): -0.0332102, -0.0551587, -0.0101997, -0.0315965,
            (13,50): -0.0261219, -0.0929592, -0.0700326, 0.0982329,
            (13,54): 0.0641292, -0.0498626, -0.0116375, -0.0280606,
            (13,58): -0.0602714, 0.0297832, -0.0923874, 0.103381, -0.0421511,
            (13,63): -0.0803024, 0.0909686, 0.0602267, 0.0143364, 0.0410159,
            (13,68): -0.0816413, 0.0750181, -0.00187355, -0.0394634,
            (13,72): 0.0346492, -0.0810794, -0.0818888, 0.00622005,
            (13,76): 0.0051426, -0.0654007, 0.090313, -0.0405266, -0.0395785,
            (13,81): -0.0339404, 0.0392145, 0.0195817, -0.0257171,
            (13,85): -0.0355934, -0.0764381, -0.104672, -0.0852212,
            (13,89): -0.0496819, -0.0720564, -0.011222, 0.011015,
            (13,93): -0.00161041, 0.07492, -0.0268176, -0.0279051,
            (13,97): -0.0340963, -0.0361656, -0.0991718, -0.00847233,
            (13,101): -0.0981048, 0.0872786, -0.0468416, 0.0557094,
            (13,105): -0.0807656, -0.0550185, 0.0620953, -0.0674647,
            (13,109): 0.0782093, -0.086732, -0.0723867, -0.0441896,
            (13,113): -0.0379407, -0.0130852, -0.0902114, -0.0316531,
            (13,117): 0.0496939, 0.0830679, -0.00623597,
            (14,0): -0.0151506, 0.0805072, -0.0583234, 0.0170918, -0.0974197,
            (14,5): 0.0490239, 0.0569128, 0.0479901, 0.0345121, 0.0339759,
            (14,10): -0.0928986, -0.0702532, 0.0904387, -0.076792,
            (14,14): -0.0310672, 0.0886221, 0.0220859, -0.0313239, 0.027784,
            (14,19): -0.00744917, -0.0174062, -0.027754, 0.102527,
            (14,23): -0.0112701, -0.0585614, 0.0470945, -0.0860843, 0.101939,
            (14,28): 0.0194943, -0.0752789, -0.0341826, 0.0699231, 0.0581751,
            (14,33): 0.0930076, -0.059734, -0.0196948, -0.0436689,
            (14,37): -0.0264814, -0.0206976, -0.0984392, 0.0384783,
            (14,41): -0.0745535, -0.00299793, -0.0604254, 0.00262129,
            (14,45): -0.0298585, 0.055862, -0.00390726, 0.0417845,
            (14,49): -0.0676331, 0.0752211, -0.0400485, 0.103561, -0.103644,
            (14,54): -0.091813, -0.0363189, -0.0254597, 0.0969331, 0.101961,
            (14,59): -0.0782125, 0.0978996, -0.0580304, -0.0453205, 0.054319,
            (14,64): -0.0143183, -0.0139544, 0.0629953, 0.0744599,
            (14,68): -0.0960232, -0.0659672, 0.0442327, 0.0505326,
            (14,72): -0.0990871, -0.102785, 0.0544072, 0.0486979, -0.0387314,
            (14,77): -0.075543, 0.020663, 0.0472775, -0.0999108, -0.0487477,
            (14,82): -0.0526036, -0.00470352, 0.0744735, -0.00250305,
            (14,86): 0.0090069, -0.0248525, -0.00151741, 0.0199421,
            (14,90): -0.0243817, 0.072096, 0.0950376, 0.068211, -0.0238031,
            (14,95): -0.0323979, -0.0259837, 0.05281, 0.101733, -0.0586343,
            (14,100): -0.0248738, 0.00831474, 0.0657449, 0.0280642,
            (14,104): 0.0915879, -0.00700423, 0.00671797, 0.0415808,
            (14,108): -0.0593328, 0.0599596, 0.0516045, -0.0816073,
            (14,112): 0.0856309, -0.0782546, -0.0191026, -0.0960333,
            (14,116): -0.0642641, -0.0386134, 0.0604402, 0.0893043,
            (15,0): 0.0365575, 0.0447709, -0.0549664, 0.0624877, -0.0208944,
            (15,5): -0.0562073, -0.00171759, 0.0439603, 0.0882297, -0.007723,
            (15,10): 0.00605554, -0.0123722, -0.0746382, -0.0332304,
            (15,14): 0.108398, -0.0121367, 0.0813132, -0.0207611, -0.0970656,
            (15,19): 0.0896881, 0.101299, -0.0359213, -0.102135, 0.0406334,
            (15,24): -0.0184156, -0.00587065, -0.00767913, 0.0490167,
            (15,28): 0.0386843, -0.0907364, -0.0979375, 0.00178389,
            (15,32): -0.0834746, -0.0883162, 0.0325307, -0.0726711, 0.063083,
            (15,37): 0.0378843, 0.00275555, -0.0102742, -0.0966944,
            (15,41): 0.0695499, -0.106295, 0.00772658, 0.109673, 0.0208585,
            (15,46): 0.00161433, -0.10407, -0.0482749, 0.0638798, 0.01852,
            (15,51): 0.0659403, -0.00724587, 0.0427244, 0.0942005,
            (15,55): -0.0548969, 0.0250695, 0.00930855, 0.0295235,
            (15,59): -0.0422984, -0.00360328, 0.059563, -0.0667951,
            (15,63): 0.0145483, 0.101939, -0.0484226, 0.0539734, -0.0212495,
            (15,68): -0.0172789, -0.0195364, -0.0116372, -0.00159628,
            (15,72): -0.0386856, 0.0803003, -0.0992254, -0.00235681,
            (15,76): 0.0679011, 0.0971357, -0.00375304, -0.0775774,
            (15,80): 0.00986357, 0.0748565, 0.0681551, -0.0885165, 0.0263234,
            (15,85): 0.0501459, 0.0371163, 0.039115, 0.09574, -0.0869523,
            (15,90): -0.0443473, -0.0488711, -0.0480662, -0.0719556,
            (15,94): 0.0149202, 0.0884205, -0.0142739, 0.0105379, -0.0505118,
            (15,99): -0.0733024, -0.027652, -0.0510534, -0.0191938,
            (15,103): -0.0712266, -0.110428, -0.0803384, -0.0594765,
            (15,107): 0.0987632, 0.0836939, -0.0202705, -0.0672734,
            (15,111): -0.0368881, -0.0836224, -0.0370337, 0.0646681,
            (15,115): -0.0447495, 0.0441021, 0.0854844, 0.00329016,
            (15,119): 0.0779944,
            (16,0): -0.0833465, 0.0989355, 0.0176031, 0.0557366, 0.06906,
            (16,5): 0.0593806, -0.0375308, -0.0676023, -0.0945692,
            (16,9): -0.0479789, 0.0253349, 0.0684698, -0.086687, 0.00901132,
            (16,14): -0.0789831, -0.0386984, 0.0168514, -0.0606123,
            (16,18): -0.00899575, -0.0511823, 0.0952046, -0.00714324,
            (16,22): -0.0437993, 0.0535338, -0.101499, 0.0724165, -0.0655958,
            (16,27): 0.0795924, 0.0649965, 0.00787791, 0.0497979, 0.0945955,
            (16,32): 0.0746082, 0.0985255, -0.0790542, -0.0843883,
            (16,36): -0.0339445, -0.00646507, -0.0457482, 0.00503702,
            (16,40): 0.100117, -0.00357869, 0.10355, -0.0224887, -0.00967988,
            (16,45): -0.0785983, 0.0087014, 0.0276269, -0.0280625,
            (16,49): -0.0991478, -0.0606665, -0.0816092, -0.00462323,
            (16,53): 0.0219876, 0.00221813, 0.0514826, 0.0735332, -0.0929256,
            (16,58): 0.0144164, -0.0818108, 0.0569744, 0.0028162, 0.0439354,
            (16,63): 0.0278042, 0.0433273, 0.085095, -0.0803683, 0.100127,
            (16,68): -0.0944737, 0.039629, 0.0395616, 0.0466847, 0.065135,
            (16,73): -0.00441693, -0.0674997, 0.0921163, 0.048071, 0.0513471,
            (16,78): 0.109254, -0.0115016, -0.0120486, -0.0815381, 0.0745138,
            (16,83): -0.101586, 0.0437485, -0.0432287, -0.0138029,
            (16,87): -0.000442801, 0.0190228, 0.0865321, 0.0463431,
            (16,91): 0.0152317, 0.079145, -0.0141665, 0.0587822, 0.0412729,
            (16,96): -0.0307909, 0.0365727, -0.0768076, 0.0778284, 0.114225,
            (16,101): -0.100127, 0.0137145, -0.0231686, -0.0087569,
            (16,105): -0.0064114, -0.0136537, -0.0838479, 0.0533559,
            (16,109): 0.0597027, 0.0459397, 0.0128611, -0.0325485, 0.0271504,
            (16,114): 0.0301983, -0.0414311, -0.0105484, 0.0279151,
            (16,118): -0.0152827, -0.0195792,
            (17,0): -0.0613002, -0.0778376, 0.0449948, 0.0915574, -0.050433,
            (17,5): 0.0738791, 0.0076815, -0.0114437, 0.0540252, -0.0933151,
            (17,10): 0.0531912, 0.0196582, -0.104291, 0.0762423, -0.0205499,
            (17,15): -0.0782774, -0.0791656, -0.0719873, -0.0504266,
            (17,19): -0.0270307, 0.0890098, -0.0350272, -0.0864724,
            (17,23): 0.0509185, -0.0424466, 0.0312982, 0.0131205,
            (17,27): -0.00820304, 0.0283967, -0.0743215, -0.0873503,
            (17,31): 0.0792787, -0.0534105, 0.0698182, 0.108402, -0.100932,
            (17,36): -0.0924953, 0.064697, 0.0720652, -0.017833, 0.0256058,
            (17,41): -0.0659861, -0.106975, 0.0133753, 0.0174129, -0.0676268,
            (17,46): 0.0173983, 0.000377416, -0.00396752, -0.0217949,
            (17,50): 0.0147106, -0.0220631, -0.0586294, 0.00777447,
            (17,54): 0.0119741, 0.0937673, -0.066163, -0.0685951,
            (17,58): -0.00210202, 0.0316702, 0.0638046, -0.0426586,
            (17,62): 0.0851484, -0.0840484, 0.0431467, -0.0791075,
            (17,66): 0.00842118, -0.0556381, -0.0635067, 0.0167159,
            (17,70): 0.0387588, 0.0321901, 0.10165, -0.0654128, 0.0776993,
            (17,75): 0.042426, -0.0822143, 0.0982655, 0.0157067, 0.0238836,
            (17,80): -0.0210281, -0.00466363, -0.046181, -0.0908901,
            (17,84): -0.0517981, 0.100523, 0.0608756, 0.0340098, -0.0723676,
            (17,89): 0.0701056, 0.111162, -0.0738019, -0.0793528, 0.0533922,
            (17,94): 0.0580104, 0.0692635, -0.0828971, -0.0751024, 0.0100856,
            (17,99): -0.0367384, -0.00562222, 0.030074, -0.0764691,
            (17,103): -0.0781934, -0.0493191, -0.0387412, 0.0973535,
            (17,107): 0.0767043, 0.0285031, -0.0651506, -0.0443825,
            (17,111): -0.0381319, 0.0320174, -0.0737899, -0.071866,
            (17,115): 0.0356371, 0.100048, -0.083977, -0.0360419, -0.0187522,
            (18,0): 0.0233463, -0.0423517, -0.100264, -0.0524027, -0.0288061,
            (18,5): -0.0975198, 0.00716988, -0.0223937, 0.037238, -0.0793949,
            (18,10): -0.0175772, 0.00662945, 0.0924299, -0.0985739,
            (18,14): 0.0249234, -0.0676067, -0.0806458, 0.0617494,
            (18,18): -0.0696434, -0.023864, 0.0537978, -0.0811266,
            (18,22): -0.0240922, -0.0993763, -0.0631259, 0.0390524,
            (18,26): -0.0337136, 0.0394365, -0.0246379, 0.0512868, 0.0355441,
            (18,31): 0.0234094, -0.0461697, -0.0611271, -0.0612641,
            (18,35): -0.0480418, 0.068987, -0.0768042, -0.100469, 0.0216743,
            (18,40): -0.0353169, -0.016006, -0.107121, -0.0747954,
            (18,44): -0.0871621, 0.100724, -0.00142217, 0.0610148,
            (18,48): -0.0114842, -0.0445366, 0.0649988, -0.0719552,
            (18,52): 0.0181364, 0.0443954, 0.0965801, -0.0446089, 0.0979043,
            (18,57): 0.0607918, -0.103376, 0.0360082, -0.0635602, 0.0637814,
            (18,62): 0.0955278, 0.0244116, 0.100241, -0.0367471, -0.0748568,
            (18,67): -0.0781519, -0.0171934, 0.0895092, -0.0205535,
            (18,71): -0.0863579, -0.0589696, 0.0479534, -0.0360134, 0.074114,
            (18,76): -0.0128933, 0.0937423, -0.0436262, 0.0334535, -0.078368,
            (18,81): -0.104851, -0.0299995, -0.0323459, -0.00969009,
            (18,85): 0.0270592, -0.027955, -0.023746, 0.0896274, -0.0653183,
            (18,90): 0.0763022, 0.104899, -0.0615892, -0.054942, -0.00378607,
            (18,95): 0.0630221, 0.0687744, 0.0235923, -0.0864374, 0.110003,
            (18,100): -0.0668482, -0.0524457, -0.0286552, 0.0559336,
            (18,104): -0.00642437, -0.100545, -0.00105646, -0.0789688,
            (18,108): -0.093656, 0.0749626, 0.112172, -0.102964, -0.0201198,
            (18,113): 0.0706337, -0.0669432, 0.00735755, 0.0287176,
            (18,117): -0.0646147, 0.0305345, 0.00770655,
            (19,0): -0.0842034, -0.00563175, 0.067619, 0.0176412, 0.007854,
            (19,5): -0.00708798, -0.0423437, 0.0833329, -0.0302776,
            (19,9): -0.0912089, -0.0191927, -0.031768, -0.0826415, 0.043849,
            (19,14): 0.0633726, 0.0346377, 0.0956099, -0.106673, -0.0171384,
            (19,19): -0.0319388, 0.0724672, -0.0653091, 0.0960923, 0.057486,
            (19,24): 0.0868047, 0.0118615, 0.0437328, 0.0792655, 0.0379856,
            (19,29): -0.0874403, -0.0390866, -0.104054, 0.0578881, 0.0393433,
            (19,34): 0.0555528, -0.0795578, 0.000852054, -0.065147,
            (19,38): 0.0625279, 0.0947995, -0.0562046, 0.00519821,
            (19,42): -0.0864491, -0.0771891, 0.00142486, 0.0272466,
            (19,46): 0.0319335, 0.0574658, -0.0419582, 0.10342, 0.0291638,
            (19,51): 0.0212234, -0.0537954, -0.0993219, -0.00247316,
            (19,55): 0.0140798, 0.00561645, 0.0657139, -0.10841, -0.061674,
            (19,60): -0.0346431, 0.100945, 0.0348064, 0.0815835, -0.0711016,
            (19,65): 0.0511798, -0.105214, -0.0703737, -0.102839, -0.0799724,
            (19,70): 0.05649, 0.0143062, 0.0620067, 0.0291741, -0.0765821,
            (19,75): -0.0858279, -0.0241431, 0.00884489, 0.0149954,
            (19,79): 0.0320739, 0.0609813, 0.0291862, -0.019186, -0.102603,
            (19,84): 0.0711024, 0.0379388, -0.0407789, 0.0913913, 0.0733997,
            (19,89): -0.0444192, -0.0265016, 0.0102259, -0.0567046,
            (19,93): -0.084267, 0.10743, 0.107732, -0.0634196, 0.0582346,
            (19,98): -0.0527403, -0.000601885, 0.0440125, 0.0351101,
            (19,102): -0.0478571, -0.0295926, -0.0180209, -0.0596889,
            (19,106): 0.0356733, 0.0617275, 0.00320892, -0.0959485,
            (19,110): 0.00250599, -0.0250361, 0.105823, 0.0317364,
            (19,114): -0.0860644, 0.0210488, 0.0616785, 0.0937645,
            (19,118): -0.0136246, 0.0215148,
            (20,0): 0.100166, 0.0304036, 0.0316744, 0.0804422, 0.113436,
            (20,5): -0.0318938, 0.077481, 0.0180986, 0.0939388, 0.0500978,
            (20,10): 0.0351112, -0.0494482, -0.0061712, 0.0720684,
            (20,14): -0.0737124, 0.0240344, 0.0771384, -0.0317604, 0.0393304,
            (20,19): 0.0761268, -0.0582811, 0.0594802, -0.00599078,
            (20,23): 0.0383856, 0.0455242, 0.0250472, 0.0419125, 0.071985,
            (20,28): 0.0823234, -0.0409168, -0.0856836, 0.0390314, -0.035008,
            (20,33): -0.0676378, -0.0269566, -0.0370561, -0.0425985,
            (20,37): 0.0298728, -0.0182702, 0.0389478, -0.0471883,
            (20,41): -0.0905504, 0.044193, 0.029097, -0.0573155, 0.0176369,
            (20,46): 0.0294731, -0.0485685, -0.0372557, -0.0411692,
            (20,50): 0.0244134, 0.0550433, -0.0803756, 0.0564757, 0.0357175,
            (20,55): 0.0991711, 0.0820185, 0.0655089, 0.0385965, 0.0679673,
            (20,60): 0.0840438, 0.0312945, 0.00845289, 0.086174, -0.0828468,
            (20,65): 0.00780777, 0.0150073, -0.0289785, 0.0632944,
            (20,69): -0.0709616, -0.0704687, 0.0593416, 0.097502, 0.0947642,
            (20,74): -0.0833151, 0.00991905, 0.0109814, 0.066946, -0.0836981,
            (20,79): -0.115049, 0.0436496, -0.0616797, -0.0106946, -0.095522,
            (20,84): -0.0832888, -0.0116081, -0.0337233, -0.0574227,
            (20,88): -0.101639, 0.0815795, -0.102578, 0.037546, -0.0764146,
            (20,93): -0.0440418, -0.0318085, -0.00200525, -0.0146676,
            (20,97): -0.0751254, -0.102283, 0.0733522, -0.0582484, 0.026254,
            (20,102): -0.0794327, 0.105956, 0.00208364, 0.0262995, 0.105489,
            (20,107): 0.0441431, 0.0417148, -0.0172267, 0.0824055,
            (20,111): -0.0513064, -0.033997, -0.0853983, -0.0109201,
            (20,115): -0.0839394, -0.0482235, 0.00145131, -0.0753678,
            (20,119): 0.0270316,
            (21,0): 0.111184, 0.0963501, 0.0632182, 0.108387, 0.00831036,
            (21,5): -0.11726, 0.101808, 0.0536799, -0.0504937, 0.0810301,
            (21,10): -0.0725698, -0.104112, 0.0252703, -0.0916547,
            (21,14): -0.0615705, -0.101297, 0.026022, -0.0108151, -0.0631106,
            (21,19): 0.132202, -0.00110153, -0.0733231, 0.0887876, 0.0428829,
            (21,24): 0.081673, -0.0257204, 0.0729319, -0.084515, 0.054311,
            (21,29): 0.00740611, -0.0241065, 0.0819267, 0.0855831, 0.0196007,
            (21,34): -0.100103, 0.029725, -0.0305639, -0.0253605, -0.115134,
            (21,39): -0.0289994, -0.0472521, -0.0287475, -0.116933,
            (21,43): -0.0637209, -0.0469997, -0.0894435, 0.0728957,
            (21,47): 0.0240813, -0.0665767, -0.00363202, 0.105874, 0.0852767,
            (21,52): -0.0592819, 0.094464, 0.00811736, 0.00776745, 0.0292033,
            (21,57): 0.0142585, -0.0702259, -0.0396073, -0.0361821,
            (21,61): 0.0616752, 0.052697, -0.00948866, 0.0626407, -0.0144945,
            (21,66): 0.0759054, -0.0444479, -0.0560559, -0.0800823,
            (21,70): 0.0669782, 0.0300359, 0.0174791, 0.0283242, -0.0415122,
            (21,75): 0.0485333, -0.0863762, -0.0398875, -0.0584275, 0.038607,
            (21,80): 0.11672, -0.0232615, 0.0643618, 0.0302968, -0.104326,
            (21,85): 0.0564883, 0.027466, -0.07036, -0.0790837, -0.0180095,
            (21,90): -0.0438141, -0.0510749, -0.0686037, 0.00250952,
            (21,94): -0.0713601, -0.064676, 0.0560064, -0.0800772,
            (21,98): -0.0565206, 0.033615, -0.0734846, -0.0890454,
            (21,102): -0.0957676, 0.0574368, -0.0675979, 0.099576,
            (21,106): -0.0299625, 0.068461, 0.0844414, -0.0738203,
            (21,110): -0.0155612, 0.0356986, -0.0485174, -0.00658068,
            (21,114): -0.0371757, -0.00142552, 0.00388904, 0.0963021,
            (21,118): -0.0834512, -0.0501451,
            (22,0): 0.0147662, -0.0758211, -0.0104069, 0.113962, -0.0108521,
            (22,5): -0.0916412, 0.0740988, -0.0158464, 0.0805506,
            (22,9): -0.000716797, 0.0602587, -0.0504448, 0.0816532,
            (22,13): -0.0321833, 0.0887043, -0.0184825, 0.00626712,
            (22,17): -0.0794907, 0.0134511, 0.0815971, -0.0610693, 0.0230221,
            (22,22): -0.0795601, -0.0745139, 0.0340725, 0.0326604,
            (22,26): -0.00573237, 0.033, 0.0477678, -0.00428622, -0.0190986,
            (22,31): 0.0363089, 0.0285189, 0.0953577, 0.0388858, 0.0712515,
            (22,36): -0.100807, -0.0753991, -0.00212565, -0.0493231,
            (22,40): -0.0234127, 0.0872595, -0.104882, 0.0332784, 0.105948,
            (22,45): -0.105593, -0.0523245, -0.068895, 0.0977411, 0.103373,
            (22,50): -0.091931, -0.0240812, 0.0203685, 0.0525939, -0.0821361,
            (22,55): -0.0827112, -0.0321749, 0.058492, -0.0440879,
            (22,59): -0.0850141, -0.0618974, -0.0765238, -0.0931055,
            (22,63): -0.0765967, -0.00756, -0.0864459, -0.0849554,
            (22,67): 0.000374837, -0.0421236, 0.0383253, -0.00194621,
            (22,71): 0.0320334, -0.0279479, 0.090015, -0.0327288, -0.0611696,
            (22,76): -0.0847905, 0.0620934, 0.10242, -0.0395934, -0.0704667,
            (22,81): -0.0248053, -0.0106345, 0.0854218, -0.11409, 0.101843,
            (22,86): -0.0924902, 0.0861668, -0.10566, 0.015682, 0.0277922,
            (22,91): -0.0303324, 0.0437993, -0.0688695, 0.0969469,
            (22,95): -0.0868863, -0.0593988, -0.075574, 0.0658728,
            (22,99): -0.000612906, 0.0622987, 0.086839, -0.105567, -0.107396,
            (22,104): -0.120625, 0.0157242, -0.00162066, -0.0938872,
            (22,108): 0.026441, 0.00332585, -0.0187973, 0.0880469, 0.0313065,
            (22,113): -0.0462556, 0.0159394, -0.0114401, 0.0107209,
            (22,117): -0.104697, 0.0898693, 0.0099234,
            (23,0): 0.0668901, 0.027432, 0.0569143, 0.0849259, 0.0415184,
            (23,5): 0.0518634, -0.00905798, 0.0784345, -0.077266, 0.0926868,
            (23,10): 0.0598972, 0.00825838, 0.0316129, 0.0839022, -0.0344543,
            (23,15): 0.0545328, -0.0769725, -0.0804442, 0.00338743,
            (23,19): 0.0908217, -0.0267312, 0.0295726, -0.0697873, 0.10536,
            (23,24): 0.072714, -0.0975835, -0.111462, -0.030372, -0.00571491,
            (23,29): 0.0820149, -0.0989564, 0.0929872, 0.10502, -0.0657919,
            (23,34): -0.0289245, -0.0760303, 0.00672792, 0.0296366,
            (23,38): -0.0199458, 0.0568015, -0.044254, -0.0204754,
            (23,42): -0.0275903, 0.0562829, 0.0838802, 0.112783, 0.116103,
            (23,47): -0.0585987, 0.0719832, -0.00351366, -0.0257347,
            (23,51): -0.104992, 0.0862024, -0.020022, 0.0853474, -0.0961096,
            (23,56): -0.0355127, 0.0367645, -0.0462796, -0.0447869,
            (23,60): 0.0794927, -0.0337586, -0.0638781, 0.0518767,
            (23,64): -0.0901338, -0.0391209, 0.0620418, -0.0431336,
            (23,68): -0.0469937, -0.0826923, -0.085467, 0.0537231, 0.0922033,
            (23,73): -0.0160004, 0.00443552, 0.0611079, -0.00327995,
            (23,77): 0.0999373, -0.00997854, 0.0528324, 0.0869403, 0.0972858,
            (23,82): 0.0840347, -0.019423, -0.0038506, 0.0987617, 0.0626261,
            (23,87): 0.0724539, -0.0801487, -0.0113937, -0.104473, 0.0335385,
            (23,92): -0.0315261, 0.0824415, -0.0196536, -0.0838509,
            (23,96): 0.0354323, -0.0370076, 0.0160778, -0.0736416, 0.0881411,
            (23,101): 0.0140382, 0.100318, 0.0968741, -0.108721, 0.0934965,
            (23,106): 0.0590706, -0.062365, 0.0555788, -0.0250921, 0.0253819,
            (23,111): -0.0289368, -0.0236342, -0.0127021, -0.0147272,
            (23,115): 0.0457739, 0.0797244, 0.0505703, 0.0244726, -0.0762194,
            (24,0): 0.0384598, -0.052962, 0.0526753, -0.0680565, 0.0421878,
            (24,5): -0.0229704, -0.0863829, -0.0589372, -0.0448554,
            (24,9): 0.00337768, -0.0724411, -0.0192199, -0.0607039,
            (24,13): -0.0945566, -0.00607309, -0.0940751, -0.0308524,
            (24,17): -0.0756861, 0.0598023, -0.052821, 0.0296724, -0.0794629,
            (24,22): -0.0742882, 0.092414, -0.0762883, 0.0496485, -0.0204125,
            (24,27): -0.117449, -0.00958613, -0.0595211, -0.0470955,
            (24,31): 0.0599635, -0.0311775, 0.0750537, -0.066245, 0.0562487,
            (24,36): 0.0940281, 0.0511994, 0.036139, 0.0219349, 0.0504589,
            (24,41): 0.0761688, -0.0093266, 0.0016003, 0.0542743, 0.0490972,
            (24,46): 0.0073943, 0.00201736, -0.0201701, 0.0260026, 0.0683047,
            (24,51): -0.0636545, 0.0369476, 0.0344758, -0.0401736,
            (24,55): -0.0399795, 0.0458361, -0.0210246, 0.0251891, -0.066032,
            (24,60): -0.069368, -0.0915778, -0.053309, 0.000163023,
            (24,64): -0.0638565, 0.0520421, -0.0839233, -0.0326627, 0.053416,
            (24,69): 0.047952, -0.00562437, 0.0825294, 0.0598088, -0.0689296,
            (24,74): 0.0304272, 0.0440647, 0.0504114, 0.0232476, 0.0199975,
            (24,79): 0.0611574, -0.0886568, 0.0506645, -0.033022, -0.0721198,
            (24,84): 0.0734694, 0.108102, -0.0927231, -0.0239081, 0.0285998,
            (24,89): 0.0430779, 0.0647872, -0.0486936, 0.0334827, 0.0961455,
            (24,94): 0.0897223, -0.0719425, -0.089907, 0.0630838, -0.0363063,
            (24,99): -0.00749638, 0.0808798, -0.0609259, 0.0160128,
            (24,103): 0.0288954, 0.0672762, 0.047082, -0.0201539, 0.0697977,
            (24,108): 0.0919278, -0.0382568, 0.0683054, -0.0293882,
            (24,112): 0.0883538, -0.0397119, 0.0328939, -0.0609256,
            (24,116): 0.0507212, 0.0540015, 0.0597494, 0.0463178,
            (25,0): -0.0200638, 0.0203853, 0.0212484, 0.0890962, 0.00102984,
            (25,5): 0.0203188, -0.106032, -0.0948779, -0.00573046,
            (25,9): -0.00466246, 0.049759, -0.00927099, -0.080217, 0.0403762,
            (25,14): -0.0700599, 0.0668507, 0.0413656, -0.0313428, 0.117269,
            (25,19): 0.116435, 0.0723173, -0.07049, -0.00900763, -0.0733948,
            (25,24): 0.0720785, -0.000457269, 0.0953827, -0.040727,
            (25,28): 0.0643605, -0.0183901, 0.0900543, 0.00587337,
            (25,32): -0.0994181, -0.0213796, 0.0649548, -0.0183856,
            (25,36): 0.0353748, -0.00475842, 0.0783458, 0.00782387,
            (25,40): -0.012552, 0.0547759, 0.101526, 0.0880863, -0.00222611,
            (25,45): -0.0417511, 0.0724593, 0.0991653, -0.014534, -0.056368,
            (25,50): -0.00804458, -0.0458603, -0.0246151, 0.0192924,
            (25,54): 0.0478322, 0.0336769, 0.0746064, -0.105762, -0.015607,
            (25,59): 0.0511296, 0.01285, 0.11232, -0.000725955, -0.0476862,
            (25,64): -0.0905321, -0.0855005, 0.0408298, -0.106275,
            (25,68): -0.00766296, -0.085358, 0.0711654, 0.1027, 0.00902801,
            (25,73): -0.0736996, 0.000836307, -0.0604001, -0.00354839,
            (25,77): 0.0353746, -0.00214068, -0.0334519, -0.027891, 0.117623,
            (25,82): -0.036492, -0.0534991, 0.00884688, -0.0664689,
